/* Generated MLP weights for snake OJ inference. */
#define MLP_INPUT_DIM 40
static const int net_0_weight_len = 5120;
static const float net_0_weight[] = {0.14774688f, 0.058292739f, 0.18397543f, 0.1338577f, 0.14527433f, -0.063230887f, 0.20097536f, -0.055723485f, 0.086727202f, 0.043063812f, 0.089139789f, 0.0075763478f, -0.049355879f, 0.03469149f, -0.042897351f, 0.10815582f, -0.13109237f, -0.11766514f, -0.055784665f, 0.060332008f, -0.15681425f, 0.11329766f, 0.013123394f, 0.027258495f, 0.098814838f, -0.10806047f, 0.0089621805f, 0.1042535f, 0.18367167f, 0.16257387f, 0.12642968f, -0.0052769128f, -0.10616763f, 0.036782164f, 0.15208989f, 0.10360248f, 0.12023263f, -0.13541026f, 0.17815971f, 0.083658233f, 0.051153105f, -0.037206236f, 0.1097673f, -0.0389922f, -0.12757945f, -0.14073375f, 0.14084083f, 0.086714841f, -0.11206468f, 0.14848816f, 0.067753129f, 0.00023241249f, -0.030658912f, -0.012364411f, -0.14988773f, 0.1426838f, -0.086306036f, 0.079807259f, -0.010522584f, -0.10421945f, -0.03996798f, 0.061585493f, 0.048000459f, 0.074692346f, 0.13683121f, 0.16121684f, 0.069784828f, 0.067260005f, 0.024807252f, -0.10405181f, 0.15629044f, 0.15798862f, 0.14799163f, -0.1153927f, -0.029745402f, 0.086550631f, -0.12690887f, -0.26951945f, -0.060353369f, 0.10827595f, -0.12863608f, 0.039290808f, -0.10815077f, 0.0291124f, 0.047192667f, -0.097328164f, -0.060393605f, 0.15315041f, -0.03884371f, -0.05905851f, 0.14929454f, 0.11401985f, 0.086430714f, -0.011786088f, 0.029525096f, -0.070398584f, 0.15198728f, 0.18675366f, -0.097196527f, -0.080230832f, -0.066992514f, 0.14608595f, -0.0742089f, 0.0050852075f, 0.13116948f, -0.055092979f, 0.15866929f, 0.052213062f, 0.1715619f, 0.16401634f, -0.095603384f, 0.014463568f, 0.036592651f, -0.032014087f, 0.18111326f, 0.028039671f, 0.032286603f, 0.17000112f, -0.058568463f, 0.18652372f, 0.0014644822f, -0.047812112f, 0.16417529f, 0.15611486f, 0.15172148f, -0.048273433f, -0.14322251f, 0.086757913f, 0.060066305f, -0.038149796f, -0.0067940964f, 0.052839849f, 0.15026812f, -0.1089537f, 0.075911522f, -0.092477612f, 0.14481589f, -0.10435877f, -0.11459496f, -0.12820572f, 0.040848032f, 0.19211037f, 0.0045096055f, -0.014844846f, 0.0228347f, 0.010790971f, 0.09025427f, 0.022441825f, -0.073608398f, -0.024035528f, 0.089736104f, -0.064475894f, 0.18101104f, -0.034269966f, -0.088854097f, -0.034895588f, 0.12993322f, 0.18069316f, 0.17387806f, -0.1429465f, -0.010861164f, -0.073706351f, 0.15000488f, 0.10916022f, -0.14552483f, -0.20289323f, 0.029917702f, -0.021166496f, 0.18686593f, 0.15158445f, -0.0056438553f, 0.052389238f, -0.045101486f, -0.13057666f, 0.084323995f, -0.074551843f, -0.012658304f, -0.12842169f, -0.1087296f, 0.085993677f, 0.1111583f, -0.00021743156f, 0.17577244f, 0.0050858269f, -0.10943325f, 0.20492752f, 0.015379661f, 0.081058331f, 0.066741504f, -0.11135513f, 0.017251704f, -0.054317433f, -0.035015978f, 0.040597916f, 0.050940059f, -0.12763233f, -0.0069601838f, -0.19812301f, -0.017458299f, 0.014089219f, -0.20736179f, 0.069636919f, -0.041532166f, -0.11179021f, -0.017919011f, 0.00294991f, -0.051885001f, 0.099609457f, 0.090496652f, 0.001313959f, -0.1244823f, 0.16329576f, -0.029748188f, -0.079115786f, -0.057801988f, -0.069067597f, 0.1047814f, -0.082652532f, -0.036820512f, -0.09916912f, 0.12655887f, 0.033464503f, 0.04125981f, 0.026153067f, 0.019157035f, 0.12552138f, 0.11676898f, -0.17965442f, 0.014488294f, -0.081263036f, 0.080055587f, 0.1367895f, -0.028999243f, -0.016037339f, -0.13831411f, 0.055792574f, -0.035294648f, 0.041797977f, 0.0010199612f, 0.15731865f, -0.018859034f, -0.11501289f, 0.006031754f, -0.060253005f, -0.10747619f, 0.13095377f, -0.16059725f, 0.10278141f, 0.056957766f, -0.11042f, -0.0907645f, 0.11441451f, -0.056168634f, 0.0026643514f, 0.17000242f, 0.016049765f, 0.033722263f, -0.038871683f, -0.093600772f, -0.081924126f, 0.15238442f, 0.056937009f, 0.00096211472f, 0.044286791f, -0.12593f, 0.088906884f, 0.10653313f, -0.040056381f, 0.0077179517f, -0.03518682f, 0.10803466f, 0.14438982f, 0.041450672f, -0.22874603f, 0.092863202f, -0.10540707f, 0.10403579f, 0.18381344f, -0.17025927f, 0.028289909f, -0.11004098f, 0.14493734f, 0.025328493f, -0.0183836f, -0.054834746f, -0.050379422f, 0.084332213f, 0.1357448f, 0.11167684f, -0.025367012f, -0.10838777f, -0.13623288f, 0.10749783f, 0.089971453f, -0.013514712f, 0.023365298f, 0.12573978f, 0.028868055f, -0.036451779f, -0.12227986f, 0.096217513f, 0.088696621f, 0.15542403f, -0.10521436f, -0.024364475f, 0.058600772f, 0.15140907f, -0.018320983f, -0.10431958f, 0.10791305f, 0.08408691f, 0.074781068f, -0.030487223f, -0.098658331f, 0.15048029f, -0.0051831389f, -0.063596971f, 0.17870285f, -0.2260516f, 0.055081669f, -0.017722901f, 0.070117518f, -0.036591414f, -0.0046175434f, 0.022643441f, 0.03155205f, -0.12553822f, 0.15878183f, -0.1749505f, 0.13804236f, 0.062348101f, -0.027246624f, -0.16710331f, 0.057923276f, -0.098163873f, 0.089129336f, -0.074616931f, 0.13193297f, 0.16126424f, -0.038720019f, 0.025553593f, -0.041651528f, -0.0013412376f, 0.15937175f, -0.022204941f, 0.058306634f, 0.023862833f, 0.01014404f, 0.028314596f, -0.010443157f, 0.035947688f, -0.056975324f, -0.1286882f, 0.021653516f, 0.13417462f, -0.10940403f, -0.053909861f, -0.077946849f, -0.19642532f, 0.077176012f, -0.0044634771f, -0.072429977f, 0.091113009f, -0.12509136f, 0.0082344497f, -0.12376766f, 0.100128f, 0.13283049f, 0.083566085f, 0.031704698f, 0.1607188f, -0.047035817f, 0.060420722f, -0.064238735f, 0.087195531f, -0.049122225f, 0.066276804f, -0.0054234448f, -0.067738235f, 0.1610418f, -0.2123124f, -0.036699921f, 0.14181009f, -0.019622037f, 0.14008889f, -0.068082541f, 0.023998074f, -0.093656152f, 0.17457888f, 0.051894613f, 0.17050643f, 0.0075241197f, 0.16434497f, 0.10893458f, 0.12123301f, 0.062106699f, -0.11513253f, -0.16341245f, -0.11063731f, -0.070995167f, 0.060037505f, 0.1286002f, 0.093077973f, -0.059946418f, -0.088909753f, 0.00011077255f, 0.028323721f, -0.13299741f, 0.10428121f, -0.050427474f, 0.075203054f, 0.078715444f, -0.050300941f, -0.19331156f, 0.10677627f, -0.073477969f, 0.13276105f, 0.079222508f, -0.12061253f, -0.079777472f, 0.21501759f, -0.10458135f, 0.22236665f, -0.062877253f, -0.05159007f, -0.032480929f, -0.092769377f, -0.11280674f, 0.13677487f, 0.016463943f, 0.048595477f, 0.12579697f, -0.055681527f, -0.030518984f, -0.067330636f, 0.048088647f, 0.15637729f, 0.26509139f, -0.11650474f, -0.015377648f, -0.083863176f, -0.11150937f, 0.021013184f, -0.10521872f, 0.079060279f, -0.14433211f, -0.13927309f, -0.073282056f, 0.029148316f, -0.070561804f, -0.083406776f, -0.13129576f, 0.04141064f, 0.033059597f, -0.10414334f, -0.12309159f, 0.10788121f, -0.017676484f, -0.032036699f, 0.11966976f, -0.037895162f, -0.090721667f, 0.081166029f, 0.12295684f, -0.074325591f, -0.14908026f, 0.017788917f, 0.14819552f, -0.13600217f, 0.0018210617f, -0.010974491f, 0.0082067186f, -0.14791115f, -0.10658521f, -0.10243724f, -0.082568578f, -0.091691092f, 0.101537f, 0.02493817f, 0.10620558f, -0.12211672f, 0.19348904f, 0.17250545f, -0.069768503f, -0.069422469f, -0.021836171f, -0.037994631f, -0.10511672f, 0.023565391f, 0.073643774f, 0.061055943f, 0.18725832f, 0.070179798f, -0.083769858f, 0.09326984f, 0.071996041f, -0.1004591f, 0.09137401f, 0.060154155f, 0.063900582f, 0.029263774f, -0.0010207089f, -0.13379277f, -0.059523743f, 0.066383883f, -0.082045823f, 0.098866232f, 0.20831908f, 0.085838832f, -0.0092556076f, 0.12380987f, 0.16357881f, 0.018008813f, 0.1866364f, -0.09284915f, 0.06882263f, 0.074327044f, 0.14049432f, -0.0038967356f, -0.18319875f, -0.03441187f, 0.014586445f, 0.053833902f, 0.13831685f, 0.076782331f, 0.13580105f, -0.14738965f, -0.13765207f, 0.15488212f, 0.01599044f, -0.071441166f, -0.086025707f, -0.0095352177f, 0.046716463f, 0.20194368f, 0.044740073f, 0.079653494f, 0.13288245f, -0.12551744f, 0.14378089f, -0.0079386057f, -0.091144331f, -0.079419978f, -0.073549628f, 0.11412898f, -0.034572296f, -0.12504403f, 0.17833251f, -0.077806659f, 0.18069619f, 0.050337315f, 0.13693406f, 0.10234036f, -0.062407613f, -0.11010817f, 0.10928863f, 0.159751f, -0.023716222f, -0.016242344f, 0.027940135f, 0.0081751933f, 0.0041977917f, -0.072115138f, 0.11775684f, -0.13108394f, 0.048287891f, 0.0085438397f, 0.091112629f, 0.1242496f, 0.017560881f, 0.13214192f, -0.039971303f, 0.10584513f, -0.18401593f, 0.083651684f, 0.10499146f, 0.1382497f, -0.04091337f, -0.088662736f, 0.0018650951f, -0.13179263f, -0.013543567f, -0.045065157f, -0.10762433f, 0.0069061499f, -0.017007511f, 0.050291203f, 0.041132193f, -0.12320264f, -0.12169453f, -0.0066632009f, 0.027054621f, 0.14663701f, 0.092936307f, -0.11732067f, -0.057588849f, -0.080381788f, -0.2927618f, 0.051385432f, -0.048077483f, 0.075097576f, 0.11185304f, -0.051459935f, -0.090015307f, -0.00034290022f, -0.03234183f, -0.15971355f, 0.052459814f, 0.058388136f, -0.071609564f, -0.057715673f, 0.018280923f, 0.034631714f, 0.034589998f, -0.081670515f, -0.090228759f, 0.052224722f, 0.19069916f, -0.17073612f, -0.14822792f, 0.19570082f, -0.059705395f, -0.027861897f, 0.093974024f, -0.017414127f, -0.026852692f, 0.047899205f, -0.19541585f, 0.15340731f, -0.11242115f, 0.029765904f, -0.047218092f, -0.0030794512f, 0.10005149f, -0.074659772f, 0.14373714f, 0.0032489703f, 0.12507544f, -0.025823999f, 0.053267531f, 0.021451492f, 0.090155959f, 0.050091684f, -0.038724821f, -0.032986149f, 0.14316048f, 0.043996498f, -0.021995332f, -0.026905807f, 0.10420811f, -0.035899606f, 0.025464289f, 0.063077219f, 0.026587138f, 0.029858021f, -0.039509829f, 0.014606939f, 0.0025714901f, 0.13388669f, -0.13627441f, -0.045981359f, 0.11366307f, -0.029699465f, 0.096535966f, -0.090961948f, -0.014938422f, -0.040008109f, 0.21910498f, 0.11969142f, -0.084076069f, 0.038916972f, 0.10015327f, -0.050163642f, 0.16498069f, -0.0087499162f, 0.12653835f, 0.11041547f, 0.06721995f, 0.27411586f, 0.052924417f, -0.076820053f, -0.050177988f, 0.032520637f, 0.044981986f, 0.12926666f, -0.05499313f, 0.057534724f, -0.10011011f, -0.016152961f, -0.12621954f, 0.086878926f, 0.13580677f, -0.11810327f, 0.01127462f, -0.017589575f, 0.057114221f, 0.062520355f, 0.1002977f, -0.094733611f, 0.066645004f, 0.19315922f, -0.00037338166f, 0.11055648f, 0.066666842f, 0.12964965f, -0.13035099f, -0.096396863f, 0.0020596865f, 0.11454412f, 0.029639585f, 0.069717184f, 0.13529247f, -0.098192915f, -0.13064891f, 0.16206428f, 0.12914459f, 0.15352884f, 0.23679441f, 0.18447123f, 0.096275754f, 0.11529999f, -0.039875135f, 0.024754222f, 0.047469247f, 0.09028925f, 0.13114887f, -0.010562816f, -0.11319239f, 0.049589612f, -0.034523565f, 0.18239117f, 0.18541282f, 0.018450754f, 0.02322818f, 0.031533487f, -0.061456069f, -0.0050969101f, 0.12645081f, -0.070904627f, -0.0079187509f, 0.043778889f, -0.0070528183f, -0.13310792f, 0.082231767f, -0.10431957f, -0.15057623f, 0.11903795f, 0.082589716f, -0.026594106f, 0.13479953f, -0.12124339f, 0.13980289f, 0.10142756f, 0.078041337f, -0.065562636f, 0.045223463f, 0.092875354f, 0.16648139f, 0.16364098f, 0.011170523f, 0.17917475f, -0.024043486f, -0.047669686f, 0.038962703f, 0.13459097f, -0.017120356f, 0.014198388f, 0.0096982876f, 0.14325121f, -0.10191183f, -0.13358562f, -0.091957971f, 0.075630717f, -0.07681112f, -0.055689324f, -0.0019524026f, -0.043902189f, -0.033781607f, -0.045306548f, -0.12102148f, 0.11060544f, -0.082295358f, 0.016534321f, 0.079081737f, -0.052027423f, -0.020075822f, -0.01837712f, -0.11152367f, 0.1228274f, 0.12816194f, 0.16278033f, -0.076199524f, -0.0411762f, 0.12095095f, 0.00038740461f, -0.071825162f, 0.12958129f, 0.043575957f, -0.039486513f, -0.018457565f, 0.013260715f, -0.13205613f, 0.12526643f, 0.11040947f, -0.095752209f, 0.15966299f, -0.083261661f, -0.12784468f, -0.040912952f, 0.13010779f, -0.060735542f, -0.060846988f, 0.11929823f, -0.053042024f, 0.086504117f, 0.082960054f, -0.063005731f, -0.097415358f, 0.0015215218f, 0.16159068f, 0.054598011f, 0.013288875f, -0.026414193f, -0.092870831f, 0.058984205f, -0.024816891f, -0.00047799677f, -0.17027457f, -0.062357981f, 0.035579175f, 0.12888156f, 0.093042433f, 0.12435622f, -0.13686515f, -0.06611371f, -0.14057687f, -0.050406653f, -0.28669703f, 0.12362801f, 0.1190258f, -0.00030015211f, -0.019897643f, -0.14495549f, 0.018993234f, -0.07469663f, -0.0019461225f, 0.1389164f, -0.14812236f, 0.082020432f, 0.033043005f, -0.086911567f, -0.13781387f, -0.14672013f, 0.078901537f, 0.091552205f, -0.02349926f, -0.045554031f, -0.033319972f, 0.12613292f, 0.012253542f, -0.078075454f, -0.15205255f, -0.02929586f, -0.031065414f, 0.15573803f, -0.026315331f, 0.13708432f, 0.1338201f, -0.0089740371f, 0.14480217f, -0.108533f, -0.074172333f, 0.036924474f, 0.088970236f, -0.060886521f, -0.13099608f, -0.14269175f, -0.068247847f, 0.10197911f, -0.12158614f, 0.18933161f, -0.1060473f, 0.17013308f, 0.020313887f, -0.13862616f, -0.041387383f, -0.043399531f, -0.041782074f, 0.065152429f, -0.11856526f, -0.084381342f, -0.075201131f, -0.059816059f, -0.1284025f, 0.177735f, 0.12654784f, -0.1068581f, 0.043638241f, 0.054029763f, 0.12374944f, -0.10113952f, -0.12501778f, 0.17294052f, -0.061825518f, 0.084617525f, 0.15748365f, 0.014935079f, -0.04426872f, -0.094362691f, 0.08456558f, -0.052917738f, 0.17445946f, -0.049004167f, -0.034644634f, -0.0085358052f, -0.10685188f, 0.0096094189f, -0.28090358f, -0.013908778f, 0.13699168f, -0.12559319f, -0.090204909f, -0.11298093f, -0.13087077f, -0.031636138f, 0.020932239f, 0.052501928f, 0.13310395f, 0.13414674f, 0.033749044f, -0.076193236f, -0.19576427f, -0.0081913546f, 0.17642395f, 0.064636558f, -0.073769145f, 0.064980216f, -0.056767203f, -0.12612568f, -0.0051686694f, -0.10880132f, 0.15252456f, 0.076590665f, -0.087831877f, 0.031955097f, 0.10354034f, 0.1552981f, 0.10342133f, 0.12234733f, 0.088434324f, -0.10567488f, 0.079948246f, 0.018132038f, 0.0085997656f, 0.081450716f, -0.066697493f, -0.022473166f, -0.056028966f, -0.19148633f, 0.20252529f, -0.073302105f, -0.058706272f, 0.0032221552f, 0.1254683f, 0.030601121f, -0.07628341f, -0.13482906f, -0.17752285f, 0.0051509859f, -0.066939346f, -0.076208822f, 0.13623799f, -0.11496747f, -0.14098172f, 0.080541305f, -0.094025292f, 0.16382852f, 0.007422334f, -0.037266672f, -0.1467208f, 0.098292902f, 0.075105563f, -0.0099200597f, 0.14392583f, -0.021026926f, 0.026779387f, 0.11850623f, 0.030850479f, 0.15293705f, 0.10225553f, -0.079483405f, -0.0024107625f, 0.20396395f, -0.12670864f, 0.033521984f, -0.047414068f, 0.17606215f, 0.043144833f, -0.034177568f, -0.070126481f, 0.096429117f, 0.16490431f, 0.055352561f, -0.032633692f, -0.0082695577f, 0.13212112f, 0.041209735f, -0.041941427f, -0.13444038f, 0.0087511744f, 0.18953003f, -0.038415793f, 0.12309615f, -0.074638113f, 0.088200845f, 0.12616712f, -0.042035103f, 0.13673502f, -0.085826062f, 0.14182857f, -0.06896925f, -0.094145037f, 0.12269279f, 0.058569655f, -0.1137623f, -0.11603871f, 0.018198086f, -0.16805391f, 0.12505117f, -0.10124263f, 0.005655535f, 0.16847114f, 0.034076016f, -0.084077887f, 0.0099275261f, 0.021384623f, 0.130124f, 0.23310986f, -0.20322463f, -0.062747829f, -0.041251943f, 0.12418712f, 0.10324385f, 0.018126529f, 0.018037926f, -0.091216899f, 0.047506239f, 0.076049171f, -0.029327935f, -0.13879703f, 0.012297578f, 0.028868038f, 0.13472977f, 0.0090463031f, 0.050814942f, -0.090238176f, -0.023596734f, 0.046395965f, 0.082361452f, -0.082561933f, 0.0073274248f, 0.042210966f, 0.096940972f, -0.042370934f, 0.17519195f, 0.10764627f, -0.13895683f, 0.073699392f, -0.10534508f, 0.079021782f, 0.021131495f, 0.089019813f, 0.066061445f, 0.12277816f, -0.080727883f, -0.14097169f, 0.17296758f, -0.18067625f, 0.22360986f, -0.034436636f, 0.062388137f, -0.10640606f, 0.076001316f, 0.088863805f, 0.17745809f, 0.078978814f, -0.083141923f, 0.075266629f, 0.1065925f, 0.00027383203f, 0.089140445f, -0.037772167f, 0.080962099f, -0.0033295932f, -0.10319007f, 0.14636154f, -0.12223268f, -0.045100596f, 0.10538684f, 0.053802602f, -0.14293289f, 0.12586927f, 0.052963588f, -0.050629009f, 0.049374972f, -0.018446648f, -0.11216865f, -0.0095176315f, -0.11363484f, 0.06169429f, 0.1299208f, 0.06353201f, 0.14222875f, 0.14892729f, 0.047012445f, 0.10502925f, -0.052998375f, -0.027583709f, -0.18410958f, -0.048657116f, 0.044326186f, -0.043151394f, -0.10045581f, 0.015129662f, 0.0935665f, 0.080062531f, -0.14321634f, 0.15209828f, -0.018850284f, 0.01825041f, -0.1241722f, 0.1280971f, 0.058104508f, -0.072143227f, 0.10367478f, -0.033745497f, 0.10291336f, -0.065692604f, 0.09417215f, -0.17619826f, -0.047809724f, 0.081891932f, 0.033470999f, 0.052110773f, -0.12139204f, 0.0452816f, -0.093531065f, -0.060636058f, 0.034599911f, -0.082391113f, 0.01968712f, 0.0043953038f, -0.056407634f, -0.16640125f, 0.10098024f, -0.051932056f, -0.098258637f, 0.11004175f, -0.14524753f, -0.025963439f, -0.13948794f, 0.024379902f, 0.015172997f, -0.16945396f, 0.16143134f, 0.1253906f, -0.14885822f, -0.081610233f, 0.05086226f, 0.056222368f, 0.17032294f, -0.11496209f, -0.0030004142f, 0.063829213f, 0.033967149f, 0.090251714f, -0.017243739f, -0.045303494f, -0.06102258f, -0.094314277f, -0.069526434f, 0.064635716f, 0.13987131f, -0.10262933f, -0.053412993f, 0.018442161f, -0.10904013f, -0.20245112f, -0.053233575f, 0.06091335f, 0.017059723f, 0.0097043607f, 0.12939084f, -0.018676694f, 0.035331573f, -0.033940818f, 0.043762926f, 0.11550666f, -0.016288007f, -0.074283525f, 0.18029448f, -0.12021209f, -0.029836008f, 0.0057344874f, -0.15239219f, 0.094277553f, 0.17483024f, 0.048862189f, 0.059118681f, -0.14501674f, -0.074947014f, 0.18089578f, -0.092163756f, -0.19896044f, -0.080261901f, 0.12701309f, 0.065617017f, -0.063581258f, 0.11911178f, -0.018186493f, 0.0099628698f, -0.023801669f, 0.093020819f, 0.11894676f, 0.0075765382f, -0.017058197f, -0.061773866f, -0.18194199f, -0.0047633648f, -0.0027104302f, -0.050746769f, -0.051376019f, -0.099101134f, 0.12930141f, -0.11900199f, -0.12096342f, -0.074043587f, -0.084239714f, -0.0086302459f, 0.064281508f, -0.080342911f, -0.011566215f, -0.065757349f, 0.15896666f, 0.10467266f, 0.025529193f, 0.013136012f, -0.10361375f, 0.12201091f, 0.098190278f, -0.12074122f, 0.1650093f, 0.087925412f, -0.1190294f, 0.066170283f, -0.11763012f, 0.10285268f, 0.08894828f, -0.076490507f, -0.11263908f, 0.18106188f, 0.13380417f, -0.14719166f, 0.022051008f, -0.04408776f, 0.089504845f, -0.055315655f, 0.13702427f, 0.10455495f, 0.01177324f, 0.072955549f, -0.0063962121f, 0.18907876f, -0.050972011f, -0.079296738f, 0.046980564f, 0.11048705f, -0.019796859f, 0.17191927f, 0.12633976f, -0.016203865f, -0.12606393f, 0.13741426f, 0.098055713f, -0.013106342f, -0.16419153f, 0.18391846f, -0.11007974f, -0.020694127f, 0.029825443f, -0.019804703f, 0.12059025f, 0.034907825f, -0.18401603f, 0.050534718f, 0.095817633f, -0.091384828f, -0.063563704f, -0.079464026f, 0.15628174f, -0.047110166f, -0.053766176f, 0.02210452f, 0.12477029f, -0.082272045f, 0.14510746f, -0.098836154f, 0.0549298f, -0.00089208456f, 0.11570306f, 0.15431371f, -0.091697f, -0.0091849407f, 0.11896012f, 0.0077222432f, -0.14630927f, 0.088931017f, -0.23840959f, -0.097326465f, 0.10916056f, 0.085357085f, -0.00034855309f, -0.033541825f, 0.12863995f, -0.16001995f, 0.081283227f, -0.02544887f, -0.16093577f, 0.22757308f, -0.13183489f, 0.092139564f, 0.12917003f, 0.023682846f, -0.041558258f, -0.088880457f, 0.12290642f, -0.072789989f, 0.0057430891f, -0.13724808f, 0.12123664f, -0.0062877536f, 0.071527757f, 0.13050736f, -0.11846156f, 0.12552643f, 0.099823765f, 0.072511904f, -0.20230956f, 0.090290628f, -0.03183724f, 0.066476054f, -0.0175198f, -0.098979369f, -0.10318647f, 0.014565016f, -0.097015858f, -0.11303467f, -0.28277278f, -0.048231687f, 0.039789911f, 0.03510442f, 0.13293274f, 0.029010093f, 0.11950467f, -0.11086693f, 0.15781188f, -0.027425872f, 0.10190112f, 0.1313483f, -0.02720483f, -0.1769184f, 0.16311529f, -0.0067867003f, 0.043094404f, 0.10945933f, 0.0056023016f, 0.063099429f, 0.06814909f, 0.014795439f, 0.076435871f, -0.048015151f, -0.034497626f, -0.051792771f, 0.095073797f, 0.086976953f, 0.00090875343f, -0.042973179f, 0.2406987f, -0.076104544f, 0.064347491f, -0.0075877034f, -0.0085711237f, -0.13282184f, -0.11351999f, 0.12818275f, -0.098223642f, 0.017284662f, -0.20896418f, 0.25397119f, 0.12045903f, 0.059791159f, 0.024534559f, -0.042508531f, 0.13105881f, -0.07563439f, 0.068442911f, 0.14857651f, 0.075319976f, 0.0018259233f, 0.18736576f, 0.00064325705f, 0.080459014f, -0.075359739f, 0.10292783f, -0.095597439f, 0.00088223402f, 0.051602721f, -0.056230102f, 0.18711233f, -0.024476411f, -0.035129119f, -0.03380581f, 0.15764485f, 0.16225547f, -0.095190823f, -0.11110821f, -0.065720595f, -0.079710461f, -0.073375367f, 0.052064683f, -0.006235667f, 0.028996527f, 0.061985064f, 0.066511989f, 0.10960032f, -0.070644408f, 0.16713195f, -0.19638705f, -0.18089214f, 0.096686982f, 0.17908399f, -0.10278679f, -0.063991629f, 0.011190439f, 0.07594759f, -0.15727894f, 0.032687526f, 0.13836758f, 0.074193947f, -0.026123011f, 0.13821316f, 0.090847254f, 0.038306251f, 0.029913319f, 0.16601369f, -0.0059210225f, -0.035196275f, 0.10161056f, -0.10869944f, -0.045978244f, 0.0081823282f, 0.015366768f, 0.17645095f, -0.17290173f, -0.1497685f, 0.16158003f, -0.02944695f, -0.0096178912f, 0.022575589f, -0.01903248f, -0.067486197f, -0.096804708f, -0.029535891f, -0.15399493f, -0.059728164f, 0.074321672f, 0.041522939f, -0.043092985f, 0.0049212426f, 0.14318211f, 0.039888378f, -0.076328248f, -0.11086119f, 0.057342127f, -0.031566191f, 0.073053122f, 0.19769135f, 0.14434475f, -0.10799564f, -0.11461722f, 0.16692652f, 0.1127087f, 0.031087339f, -0.066679992f, -0.10377461f, -0.026028622f, -0.063631564f, -0.12291999f, -0.059547115f, -0.089928381f, -0.10827388f, 0.089941539f, -0.080664583f, -0.072840258f, 0.17105003f, 0.17928433f, 0.15361845f, 0.10393114f, -0.051221285f, 0.059011698f, 0.0023038213f, -0.082457855f, 0.13573466f, 0.12551591f, 0.081825465f, -0.079748422f, -0.09863247f, -0.077307403f, -0.13957158f, 0.22044456f, -0.04158473f, -0.076667286f, 0.063826948f, -0.032852355f, 0.15544385f, -0.11672414f, 0.051187333f, 0.050017536f, -0.069286615f, -0.075625181f, -0.021745227f, -0.16847511f, 0.061711077f, 0.064526737f, 0.084227018f, 0.020813452f, -0.044502717f, 0.17447826f, 0.047134306f, 0.14102681f, -0.15805142f, -0.11182169f, 0.036930513f, 0.086104713f, 0.075644515f, 0.069597945f, 0.1738192f, 0.049938463f, -0.0001703914f, 0.017505132f, 0.099229865f, 0.053878073f, -0.14092635f, 0.10643277f, -0.017326795f, 0.11779349f, 0.074999735f, 0.077936411f, -0.27260232f, 0.065709032f, -0.036737572f, -0.022797469f, -0.093999237f, -0.046845607f, 0.05845518f, -0.096751153f, 0.025258433f, -0.047569137f, 0.12200528f, -0.024292735f, 0.045160994f, 0.097494721f, -0.12248641f, 0.0084291426f, 0.10464571f, 0.0034839641f, 0.050514061f, -0.032176096f, 0.13334168f, 0.019605383f, 0.038030438f, -0.11878049f, -0.017194187f, -0.16213445f, -0.17073621f, 0.19182801f, -0.042935319f, 0.027205287f, -0.096559934f, 0.10638612f, -0.080041759f, -0.012176389f, -0.11455891f, -0.061419673f, 0.14855331f, 0.15833497f, -0.042592492f, 0.088889748f, 0.12336345f, -0.10684107f, -0.14690094f, 0.028315108f, -0.15573636f, -0.10769609f, 0.096740402f, -0.032823902f, 0.046853948f, -0.027670758f, 0.037871163f, 0.070229627f, -0.068490572f, 0.19255829f, 0.10377222f, -0.067079961f, -0.012226549f, -0.13069455f, -0.077923439f, -0.018825034f, 0.17432711f, -0.09427534f, -0.11695409f, 0.03224602f, -0.03589464f, 0.035572443f, 0.18652047f, -0.11487422f, -0.15130711f, 0.0447888f, 0.087408796f, 0.11851793f, -0.11326346f, 0.18151611f, -0.08286076f, -0.099694252f, 0.093429103f, -0.073389947f, 0.12056585f, -0.023982763f, 0.027006013f, -0.13941664f, 0.1794088f, -0.036242548f, 0.11614491f, 0.16788639f, -0.056994922f, -0.068954147f, 0.017415199f, -0.13731213f, 0.043001834f, -0.072385542f, -0.06570033f, 0.018453805f, -0.12105003f, -0.18716526f, -0.0036726641f, -0.038571138f, -0.025608204f, -0.07964009f, -0.047285367f, 0.092373073f, -0.037828039f, -0.14636654f, 0.05831816f, -0.10723708f, 0.15173306f, 0.095143571f, 0.10424818f, -0.086932592f, -0.010118655f, 0.06103256f, 0.0074781105f, -0.062955849f, 0.12471307f, 0.14655384f, -0.067353427f, 0.088643618f, 0.08551421f, -0.28533182f, -0.020140501f, -0.015206438f, -0.030207356f, -0.0237555f, 0.068812542f, 0.0084137358f, 0.13976437f, -0.023606932f, -0.026560422f, -0.055770826f, 0.12232389f, -0.10942218f, -0.044820856f, 0.15560049f, 0.15213618f, 0.060282901f, -0.12766051f, 0.013857564f, 0.0079804165f, 0.002659204f, 0.16659561f, 0.0015207247f, 0.096910663f, -0.070010401f, 0.076810636f, 0.0052150209f, 0.10920277f, 0.051908154f, 0.059772864f, 0.17942387f, 0.055096596f, 0.17198761f, 0.018696096f, 0.14138103f, 0.088093944f, 0.0089776833f, -0.021159377f, 0.10792524f, -0.034033731f, 0.03870156f, 0.20079949f, 0.054216266f, 0.1196206f, 0.10904595f, 0.16985694f, 0.065771997f, -0.12548816f, 0.0077769281f, -0.078930385f, 0.19453205f, -0.18435222f, -0.025194813f, 0.04200789f, 0.13127126f, 0.04208431f, 0.048867546f, 0.067537166f, 0.1225267f, -0.021369431f, -0.14005354f, 0.14498596f, 0.17611675f, -0.16220047f, 0.0099646132f, -0.085048363f, -0.063140802f, 0.082841866f, 0.18810682f, 0.041536506f, -0.1546486f, 0.091565736f, 0.036368296f, 0.06874679f, 0.15181699f, 0.080750801f, -0.050697539f, -0.0046615889f, -0.0006491291f, 0.10598957f, 0.024510173f, -0.12146097f, 0.093430378f, 0.05221701f, -0.15748556f, -0.044810493f, 0.12329734f, -0.082101345f, -0.081774443f, 0.085961729f, -0.086045958f, -0.16582993f, 0.15217637f, -0.042565867f, 0.040827841f, 0.026125047f, 0.15014917f, 0.021967802f, -0.023234073f, -0.16284133f, -0.11875905f, 0.025042579f, 0.005810787f, 0.11654603f, -0.10020462f, 0.072484106f, 0.068203092f, -0.0094712628f, 0.11521721f, -0.12644322f, 0.02364007f, 0.15144572f, 0.037741736f, -0.081158057f, 0.069076583f, -0.11923539f, 0.067532368f, 0.014427499f, 0.031196767f, -0.064610168f, -0.089740977f, -0.061383862f, -0.06600032f, -0.03420243f, 0.065503217f, 0.018223824f, -0.0048706913f, 0.05444143f, -0.10504551f, -0.071031034f, 0.02695352f, -0.073681995f, 0.05600128f, 0.10555173f, -0.20580849f, 0.14812337f, 0.15700835f, -0.12495269f, -0.059155714f, 0.052964468f, 0.052059919f, 0.0776923f, -0.0092573222f, -0.17340037f, -0.036712669f, 0.1492141f, -0.074403264f, -0.11849134f, 0.15364437f, 0.17347984f, -0.10541803f, 0.13166749f, 0.11007728f, 0.065861456f, 0.15778281f, 0.071216092f, 0.13491544f, 0.030868122f, -0.037175689f, -0.16608347f, 0.05222775f, 0.0085320398f, -0.099116631f, 0.082405314f, -0.005592295f, 0.064030185f, 0.06179481f, 0.083740689f, 0.18189962f, -0.0030798106f, 0.17852265f, 0.13247658f, 0.1649909f, 0.087135486f, 0.17884313f, 0.096406549f, 0.10122307f, -0.011025564f, 0.16615723f, 0.1028328f, -0.0051129321f, 0.063426159f, -0.1471833f, 0.047184888f, -0.029358745f, 0.033595964f, 0.14460307f, 0.18674505f, 0.055045232f, 0.17564079f, 0.21453245f, 0.15393718f, -0.12973219f, -0.019064318f, -0.091440327f, 0.070010684f, -0.16042213f, -0.084362619f, -0.012751359f, 0.13732205f, 0.046504147f, 0.099424854f, 0.038583875f, -0.044658504f, 0.16076694f, -0.15504812f, 0.11456376f, -0.15572837f, -0.0024782747f, -0.04631963f, -0.14771514f, 0.13978657f, -0.17254022f, -0.19405118f, -0.049715277f, 0.052711435f, 0.040864065f, -0.060905807f, 0.0061527584f, -0.21407433f, -0.18977204f, 0.11338433f, 0.0097223856f, 0.014563168f, -0.075172573f, 0.079046458f, -0.00014050878f, 0.072312094f, 0.017298251f, -0.11839619f, -0.1227748f, 0.075198404f, 0.052582648f, 0.040388405f, 0.043603864f, 0.012424862f, 0.11439724f, -0.040458564f, -0.022248873f, -0.045641821f, 0.12570041f, -0.0957186f, 0.02369778f, 0.0032858439f, 0.10292917f, -0.049736138f, -0.18924735f, 0.19688711f, -0.050249543f, 0.012538066f, -0.071343623f, -0.15482813f, 0.080179788f, 0.095410347f, -0.052476283f, 0.035416491f, 0.098314345f, 0.028950276f, 0.07577578f, 0.035194792f, -0.043860577f, -0.0031032534f, 0.033903852f, -0.03579412f, 0.087801993f, 0.15349402f, -0.071731597f, -0.12166425f, 0.090683021f, -0.10731918f, -0.18447159f, -0.11021704f, 0.059217501f, 0.021807782f, -0.045548916f, -0.057020318f, -0.068188012f, 0.15211256f, 0.19013102f, -0.034895651f, 0.13689938f, 0.042817365f, 0.049164508f, -0.13925524f, 0.19362785f, -0.058726635f, -0.074506424f, 0.20916748f, 0.04492357f, -0.12950851f, 0.009094676f, 0.046384573f, 0.084362343f, -0.0084670382f, -0.0014810881f, 0.15161057f, 0.14515847f, 0.050703488f, 0.19861455f, 0.081436403f, 0.049770165f, 0.013623562f, 0.18808888f, 0.094064564f, -0.014729446f, -0.10343625f, 0.17166756f, 0.1245645f, -0.15605164f, -0.031665508f, 0.11604726f, -0.11465837f, -0.041459773f, 0.074933641f, 0.13178074f, -0.018965026f, 0.17247531f, -0.074491069f, 0.18972868f, 0.1201547f, 0.1145737f, -0.021205502f, -0.052020825f, 0.019086868f, 0.091199838f, -0.026419004f, 0.082504407f, -0.01484124f, 0.19176328f, -0.16291843f, -0.061355416f, 0.054098785f, -0.1068766f, -0.024849791f, 0.058750004f, -0.10718422f, -0.13376468f, 0.021155778f, 0.11495339f, 0.17376971f, 0.018996611f, 0.13588285f, -0.02691867f, 0.05237975f, 0.17124562f, -0.12682477f, -0.09862297f, 0.060231276f, 0.044433091f, 0.082642995f, 0.015370889f, -0.084551595f, -0.02278058f, 0.069454715f, -0.0018921229f, 0.067760974f, -0.11401591f, -0.031411685f, -0.0016041322f, 0.12863928f, 0.21661222f, 0.18214348f, -0.028304011f, 0.09518069f, 0.08516968f, -0.12494007f, 0.039970934f, 0.11837506f, 0.096980825f, 0.089583933f, 0.092874601f, -0.12407907f, 0.016827174f, 0.088807598f, 0.034975287f, 0.038130861f, 0.2024235f, 0.077638656f, -0.014348527f, 0.076768592f, 0.11924265f, -0.12722771f, 0.13349162f, 0.036876902f, -0.16907981f, 0.10147187f, 0.13105918f, 0.00024779537f, 0.15555231f, -0.028091703f, -0.079889275f, 0.099699564f, -0.081656419f, 0.13455626f, 0.12525027f, 0.078244463f, -0.082194902f, -0.10636517f, 0.081906676f, -0.030407052f, 0.0010301522f, -0.18336388f, -0.054141883f, 0.051642295f, 0.17422362f, 0.070233859f, -0.0095076486f, -0.06956894f, -0.076216199f, -0.023640381f, 0.095745534f, -0.01517436f, 0.19253412f, 0.17506531f, 0.15785399f, 0.13103916f, -0.018934436f, -0.059504602f, 0.07172589f, -0.094122432f, -0.096970037f, 0.114843f, -0.11160273f, -0.15332399f, 0.17448233f, -0.096237868f, 0.067365147f, -0.048005585f, 0.036020361f, -0.13625798f, 0.15040341f, 0.11541344f, 0.042820338f, -0.033166088f, 0.0023733107f, -0.045317046f, 0.056159161f, -0.062543146f, -0.11717769f, -0.14746945f, -0.001747962f, -0.052167363f, 0.030442266f, -0.020748055f, 0.10306059f, -0.072648965f, 0.19152458f, 0.057954904f, -0.076350324f, -0.068994343f, -0.094106995f, 0.0028035415f, -0.034331828f, -0.037457947f, 0.032986116f, -0.064852126f, 0.10138512f, 0.11729885f, -0.035919826f, 0.16567382f, 0.14477287f, -0.040542692f, -0.032014068f, 0.24428955f, 0.057281721f, -0.082765751f, 0.031844143f, -0.091199979f, 0.0028538408f, 0.0089829983f, -0.19609444f, 0.072815724f, 0.15706514f, 0.10569768f, 0.16536266f, -0.039907072f, -0.016596444f, 0.072222702f, 0.033614989f, 0.077290386f, 0.011037631f, -0.17398547f, 0.0046796962f, -0.11180791f, -0.015791833f, 0.11176237f, -0.017077148f, -0.026694808f, 0.035812937f, -0.17326324f, 0.095917337f, -0.034046955f, 0.12976193f, 0.011760655f, -0.018933721f, 0.027254425f, -0.015160983f, 0.15323183f, 0.20024961f, 0.14287499f, -0.13713758f, -0.043102086f, 0.061821751f, 0.070501998f, 0.17099628f, 0.087873146f, -0.089194745f, 0.081444457f, -0.05911931f, -0.055701289f, -0.18125902f, 0.00075266021f, -0.108427f, 0.14943087f, -0.11283414f, -0.023830736f, 0.12196904f, 0.11269613f, -0.10850487f, 0.019458529f, 0.032244813f, -0.15160605f, 0.034030627f, -0.031928699f, 0.19072692f, -0.15647542f, 0.077291578f, 0.010287626f, 0.16280292f, -0.18540055f, -0.10916454f, -0.052045807f, 0.028132252f, 0.16240165f, 0.11628703f, 0.12053607f, -0.12135104f, -0.09513893f, -0.017141206f, -0.075627267f, 0.064268351f, -0.010011851f, -0.08807236f, -0.01976628f, 0.095253043f, 0.1176516f, 0.12930749f, 0.029601092f, 0.072764613f, 0.090540297f, -0.10288163f, -0.01103237f, -0.11058094f, -0.016144367f, 0.09807986f, -0.085435748f, -0.028677545f, 0.013609487f, 0.19160932f, -0.15455613f, 0.059772909f, 0.095323309f, 0.068720423f, -0.16543473f, 0.055069983f, -0.13864273f, -0.075600758f, -0.035610445f, 0.024525229f, -0.070057206f, -0.026619045f, -0.099709615f, 0.17709585f, 0.0074045458f, 0.078408524f, -0.036815107f, 0.049920924f, -0.085023247f, -0.12062433f, -0.012958094f, 0.13827319f, -0.091208301f, 0.15716243f, 0.034422304f, 0.077914193f, 0.017223569f, 0.021622466f, 0.18464971f, 0.16780144f, -0.017477334f, -0.0671039f, -0.039610822f, 0.19561884f, -0.085786983f, 0.18574278f, 0.17596859f, 0.02666688f, 0.035430919f, -0.025065862f, 0.022106208f, 0.086473204f, -0.0041292529f, -0.161439f, 0.033619951f, 0.035676062f, 0.063605562f, 0.13293135f, 0.065703124f, 0.014407796f, 0.069672495f, 0.069863811f, 0.0050719189f, 0.061187584f, 0.12463412f, -0.033156764f, 0.0056215189f, -0.1102734f, -0.13034154f, -0.037993461f, -0.039042182f, 0.049931884f, 0.02213406f, -0.091720447f, 0.050246697f, -0.017071122f, -0.074385405f, 0.087926514f, 0.13771603f, -0.14185207f, 0.039450806f, -0.00077957165f, -0.10199398f, -0.11428608f, 0.049670685f, -0.038029358f, -0.10303804f, -0.003665267f, -0.11544685f, 0.13895161f, 0.16869301f, -0.0053034588f, 0.16170819f, 0.10721523f, 0.072206236f, 0.083136879f, -0.015781231f, -0.084038459f, 0.057338767f, 0.0023774374f, 0.038097806f, -0.062999345f, 0.074111365f, 0.081781693f, 0.050309233f, 0.024017572f, -0.065781273f, -0.015683725f, 0.12979613f, 0.013771267f, 0.18347928f, -0.12033364f, -0.05472308f, -0.14263096f, 0.22141324f, -0.16952196f, 0.10934066f, -0.079707988f, -0.058776271f, 0.0613789f, 0.15393646f, -0.032108765f, 0.12928918f, -0.010232179f, -0.070782654f, -0.08088965f, 0.12578115f, -0.04594044f, 0.040758383f, 0.10245621f, 0.14409091f, 0.22889067f, -0.034759868f, 0.17134061f, -0.11354457f, 0.10411598f, -0.078690819f, 0.08182428f, -0.14681323f, -0.028010547f, 0.085091546f, -0.082640156f, 0.12620087f, 0.117701f, 0.0079174265f, -0.091599487f, -0.074575655f, -0.15463133f, -0.0059197182f, -0.072760858f, 0.10631419f, -0.10328364f, -0.13662928f, -0.096478142f, -0.12010776f, 0.10871813f, -0.032501083f, -0.078954697f, -0.17823398f, 0.16456631f, -0.068655364f, -0.013561917f, -0.11205278f, 0.015751287f, -0.051040191f, -0.014810553f, 0.071493104f, -0.062240131f, -0.079574518f, 0.13240175f, 0.064026497f, 0.13006601f, -0.15864931f, -0.11518173f, 0.070304483f, -0.075253032f, -0.028676111f, 0.0024461609f, 0.077147655f, 0.038615216f, 0.14743808f, 0.14939681f, -0.023973124f, 0.15820287f, -0.080081262f, 0.059910346f, 0.073134139f, 0.23563385f, -0.011752627f, 0.060716789f, 0.057945427f, 0.13918807f, -0.033140969f, -0.056326043f, 0.16122246f, -0.13215825f, 0.14971052f, -0.051924709f, -0.030645376f, -0.086183436f, 0.1678351f, -0.11444368f, 0.12325226f, 0.0090054516f, 0.002022217f, 0.11611962f, 0.088362813f, -0.017582042f, -0.11769722f, 0.058156375f, -0.056130551f, -0.010747761f, -0.17427765f, -0.044803564f, 0.14059898f, -0.11127581f, -0.042832959f, 0.14383848f, 0.080505297f, -0.039634559f, 0.079670489f, 0.18573029f, 0.048266884f, 0.16294265f, -0.064834103f, 0.18761098f, 0.0049648304f, -0.028239572f, -0.073552005f, 0.189409f, 0.017795663f, -0.090719193f, -0.030478826f, 0.053666092f, 0.0083852597f, -0.10185576f, -0.036502536f, 0.071792312f, -0.063508227f, 0.18288222f, -0.054252755f, 0.041416395f, -0.068388693f, 0.021699002f, 0.14625336f, -0.1020085f, -0.092508443f, 0.1335012f, 0.017381787f, 0.17504634f, -0.074722081f, -0.12156973f, -0.16942431f, 0.19012226f, 0.14147437f, -0.11319096f, 0.1210477f, 0.090057477f, -0.072501026f, -0.14215635f, 0.049366485f, 0.039742626f, 0.11054227f, -0.02051002f, -0.012583117f, 0.13369945f, 0.06788373f, -0.16544943f, 0.012478098f, 0.051263418f, 0.0017182692f, 0.032321543f, 0.11470129f, 0.03720073f, 0.069412075f, 0.15435097f, -0.12046715f, -0.077378176f, -0.099654108f, 0.06096217f, -0.13812543f, 0.032775652f, 0.030036232f, 0.12182005f, -0.072576426f, 0.045456722f, 0.12785137f, 0.042310543f, -0.12093151f, 0.060750078f, -0.10975048f, -0.10467976f, 0.12354489f, 0.035470784f, -0.072190054f, 0.12806295f, 0.10102095f, -0.12636359f, 0.10851765f, 0.10705787f, -0.17926101f, -0.051460519f, -0.090603381f, 0.024873974f, 0.18012582f, 0.028967854f, 0.094481215f, 0.22261958f, -0.0291816f, -0.039741468f, 0.07644254f, 0.077869825f, 0.019141125f, 0.11379641f, 0.16127242f, -0.11401555f, 0.17768945f, 0.081347078f, 0.066376068f, -0.0048761917f, 0.064917974f, -0.13194163f, 0.057714827f, -0.097840182f, -0.085850514f, 0.0024422714f, -0.059210133f, -0.10531925f, 0.11388818f, -0.028339589f, 0.092504591f, 0.1268397f, -0.22843421f, -0.043985378f, 0.13080704f, 0.05481597f, 0.1720199f, -0.071084432f, -0.09847378f, 0.12397056f, -0.001369597f, 0.037738532f, -0.068317302f, -0.10420924f, -0.072295994f, 0.18297487f, 0.017283361f, -0.091628104f, 0.20981807f, 0.069248758f, 0.19550395f, 0.044468913f, 0.13464032f, -0.15277247f, 0.017642878f, -0.059563808f, -0.088427447f, 0.06623283f, 0.055837184f, -0.0053287204f, -0.0036897229f, -0.063266397f, -0.037464313f, 0.19532342f, -0.073418796f, -0.10299917f, 0.044209789f, 0.087565988f, 0.016011871f, 0.17346601f, 0.1452066f, 0.12123132f, 0.10269067f, -0.087355353f, 0.039188389f, -0.10125528f, 0.17296475f, -0.058246158f, 0.031389873f, -0.1458822f, -0.0022589571f, 0.088388398f, 0.0088546695f, -0.045714278f, -0.024898838f, 0.10673101f, -0.052419074f, -0.07172519f, -0.089708805f, -0.033567388f, -0.051593889f, -0.022291936f, -0.081720091f, -0.13637787f, -0.17140593f, 0.17500594f, -0.18766922f, -0.096339233f, 0.041255765f, -0.12125811f, 0.085045911f, -0.095345266f, -0.13540281f, -0.12929814f, 0.028281813f, 0.12937604f, 0.068115875f, 0.11542055f, 0.011332803f, 0.0071341801f, 0.17290024f, 0.13903399f, 0.11831772f, -0.16691235f, 0.053841479f, 0.050498139f, -0.042915098f, 0.12659024f, 0.1284823f, -0.098758802f, -0.1348794f, 0.092703357f, 0.027437145f, -0.045206238f, 0.087693743f, 0.11748501f, 0.15212855f, 0.091428459f, 0.059953939f, 0.12434753f, 0.13148633f, 0.039081376f, -0.11446061f, 0.079474576f, 0.22688638f, -0.080282114f, 0.039851893f, -0.040895268f, 0.14547612f, 0.16506709f, -0.099755354f, 0.079456314f, 0.10690586f, -0.094332539f, 0.030836327f, 0.15120701f, 0.10699681f, 0.17157464f, 0.075579025f, 0.085099809f, 0.082369506f, 0.072323672f, 0.078548677f, -0.0089419717f, 0.11221656f, -0.0054613277f, 0.11220961f, 0.034598969f, -0.023304705f, -0.10933465f, 0.049050242f, 0.089958683f, -0.069093689f, -0.10761327f, 0.14768426f, -0.08797919f, -0.090294257f, -0.02743513f, 0.15072323f, 0.076501466f, 0.032253455f, 0.11845908f, 0.050537266f, -0.12409171f, -0.15063713f, -0.022764873f, 0.16676946f, 0.10129049f, -0.099531114f, 0.077144437f, -0.091772743f, -0.19003159f, -0.033364948f, -0.067943402f, -0.019993439f, 0.037678029f, 0.007368003f, -0.066731766f, 0.067770533f, 0.0015535601f, 0.051096443f, -0.016274225f, -0.22351994f, -0.070619717f, 0.12345757f, 0.08882919f, 0.15608104f, -0.082553856f, -0.026711728f, 0.05558202f, 0.028763261f, 0.00037805655f, 0.020176772f, 0.0764658f, -0.023038527f, -0.13444197f, -0.12625477f, 0.04824705f, 0.15712008f, 0.078136019f, -0.10109428f, -0.018383665f, -0.030271813f, 0.054278243f, -0.13572615f, -0.071106426f, -0.057751957f, -0.098047376f, 0.070409708f, 0.011923568f, 0.15383759f, -0.097550735f, -0.024159664f, -0.0061955526f, 0.16202222f, 0.030527584f, 0.093958236f, 0.059719536f, 0.08882311f, -0.063352078f, 0.16273203f, -0.1142467f, -0.14221451f, 0.070425108f, -0.16493466f, -0.059253909f, -0.10058624f, -0.085731223f, 0.21862607f, 0.027251828f, 0.055288866f, 0.085798457f, -0.087036029f, 0.052345712f, -0.050618317f, 0.13436882f, -0.025567159f, 0.064526208f, -0.13459295f, 0.17721587f, 0.14418404f, -0.067610458f, -0.055502027f, 0.10155685f, -0.18885425f, -0.051129699f, 0.0067581814f, -0.041190054f, 0.073763303f, -0.17331441f, 0.037791517f, 0.21813408f, -0.11720391f, 0.15485184f, 0.114824f, -0.1005944f, -0.024731465f, 0.12671964f, -0.090475321f, 0.14467643f, 0.082341254f, -0.10118874f, 0.13120879f, 0.11022314f, -0.0034912087f, 0.094034232f, 0.096082367f, 0.0026066757f, 0.14203334f, -0.054980595f, -0.069709755f, -0.14676601f, 0.14260508f, 0.083384849f, -0.11971614f, 0.17086515f, -0.092221692f, -0.064568937f, 0.086647309f, -0.030815346f, -0.06142465f, -0.014001532f, 0.089225255f, -0.15229572f, 0.077367507f, -0.059405141f, 0.087250181f, 0.0226366f, 0.0037315143f, -0.040438537f, 0.086764067f, 0.15332308f, -0.11045425f, -0.061145831f, 0.11003072f, 0.0092057781f, -0.030077016f, -0.10514241f, -0.081510738f, -0.042585783f, 0.16822773f, 0.22507621f, -0.07029058f, 0.110604f, -0.093065858f, 0.04576258f, 0.098249286f, 0.14895691f, 0.1358497f, -0.018813265f, 0.017579535f, 0.20850985f, 0.13347903f, 0.015073258f, 0.1970817f, 0.076567739f, -0.083740599f, -0.012909729f, 0.060195468f, 0.052771784f, -0.062509842f, 0.058680505f, 0.043800123f, 0.19648658f, 0.10820223f, 0.14601703f, 0.037867438f, -0.089347325f, 0.1865705f, 0.081321463f, -0.0096861441f, 0.0038691519f, 0.077036843f, 0.090550505f, 0.03234423f, 0.047145292f, 0.122853f, -0.08781416f, -0.045600064f, 0.017716011f, -0.019371029f, 0.094659492f, 0.049570046f, 0.035090983f, 0.052324995f, 0.093771011f, -0.13200645f, -0.071671575f, 0.17953049f, -0.0041272603f, -0.098255724f, 0.10424969f, -0.02564818f, -0.03746086f, 0.11051709f, 0.021321813f, -0.12931429f, 0.094596662f, -0.12626232f, 0.12188938f, 0.12540646f, -0.07860665f, 0.10913207f, -0.11109133f, 0.015730433f, -0.18059865f, 0.1658733f, -0.087958485f, -0.079391293f, 0.095948033f, 0.078215554f, 0.085025541f, -0.053644024f, -0.099691436f, -0.088604115f, 0.11157991f, -6.1463965e-05f, -0.12925637f, 0.028594764f, -0.15553112f, -0.013721846f, -0.13314599f, -0.027170615f, 0.096052691f, -0.080582f, 0.17046972f, -0.12384262f, -0.10141145f, -0.056062721f, 0.16728812f, -0.069897801f, -0.062152397f, -0.096677385f, 0.17218044f, 0.18703449f, 0.11699244f, 0.14170994f, -0.032611329f, -0.11349183f, 0.14827508f, -0.081780896f, 0.048851788f, 0.20002389f, -0.04946509f, 0.066774927f, 0.12799415f, 0.087443464f, 0.14613606f, 0.026733367f, -0.17282714f, -0.15534554f, 0.096814193f, 0.078396723f, 0.17026481f, 0.025051899f, -0.085339956f, -0.08249075f, -0.028619494f, 0.023936559f, 0.16038804f, 0.086250179f, 0.033384934f, 0.16004807f, -0.20322606f, -0.069699459f, -0.014591858f, 0.029407337f, -0.0083117252f, 0.043650452f, 0.071252584f, 0.057832871f, 0.0020978008f, 0.019557061f, 0.0098203728f, -0.10559107f, 0.12157413f, 0.00028321866f, -0.1693503f, 0.11962501f, -0.09591008f, 0.070761792f, -0.030846559f, -0.11230683f, -0.058976807f, 0.030871196f, -0.067038484f, 0.010329559f, -0.0082485629f, 0.01617931f, 0.14396591f, -0.061988097f, -0.12304829f, 0.11664418f, 0.14315723f, 0.15140361f, 0.05271776f, -0.10143995f, 0.018116526f, -0.0097475201f, 0.05016068f, -0.088666111f, 0.22162563f, 0.076237254f, -0.11442829f, -0.0019764581f, -0.094587699f, 0.15385677f, -0.11295549f, 0.21101035f, 0.055741452f, -0.038645972f, -0.10970721f, -0.10612941f, -0.058700226f, -0.05863766f, 0.14974886f, 0.063980386f, 0.1752201f, 0.01337235f, 0.045097891f, 0.070072815f, -0.10778343f, 0.016834369f, 0.09579666f, 0.20034593f, -0.12416367f, 0.11512178f, -0.080201291f, -0.044868436f, 0.13615237f, 0.13108607f, 0.07156425f, 0.16148299f, 0.15477942f, 0.13761178f, 0.0052326792f, 0.12920065f, -0.096007466f, 0.18049024f, 0.041165769f, 0.01054236f, 0.075505145f, -0.095847137f, 0.019205742f, 0.056251585f, 0.19175971f, 0.030458895f, 0.15899926f, 0.018372165f, 0.03988624f, -0.056154914f, 0.096653551f, -0.058708295f, -0.001477389f, 0.15503885f, -0.016114645f, 0.17622374f, -0.092391878f, 0.074558772f, 0.1796224f, 0.093699045f, 0.095446959f, 0.077155091f, 0.16943888f, 0.073256753f, 0.12321517f, 0.19752933f, -0.01268416f, 0.12042391f, 0.045591507f, 0.084075078f, -0.02799999f, -0.091290504f, 0.16161306f, -0.056607675f, 0.15085632f, -0.020610366f, 0.13680345f, 0.0064231395f, -0.066545703f, -0.11288811f, -0.018175578f, 0.13791166f, -0.092827022f, -0.084868111f, 0.16093798f, 0.13113897f, 0.14202011f, -0.09002082f, 0.15121727f, 0.025405286f, 0.16446385f, -0.092552401f, 0.12882046f, 0.084520355f, -0.17319156f, -0.092418522f, 0.096610948f, -0.12748119f, -0.044536103f, -0.039616138f, -0.023337204f, -0.044785105f, 0.065303586f, 0.051717799f, 0.075873509f, -0.096441507f, -0.00010177479f, 0.047990616f, -0.042892426f, -0.013383593f, 0.07163275f, 0.043362916f, 0.0093966406f, -0.072132476f, 0.10306957f, 0.083078928f, 0.12005086f, 0.061475832f, -0.15305273f, -0.014239679f, 0.14493811f, 0.12166313f, -0.046129838f, -0.0053401012f, -0.046842381f, 0.015563173f, 0.041384619f, -0.069738358f, -0.10081083f, 0.15211983f, -0.08605355f, 0.19589831f, 0.097182311f, 0.10056791f, -0.048838604f, -0.061242539f, 0.11612354f, -0.076573335f, 0.18093978f, -0.1208251f, 0.033227235f, -0.047144055f, -0.095025927f, -0.18830451f, -0.11053947f, 0.035118531f, 0.15000431f, 0.10627743f, 0.13970476f, -0.088786729f, -0.06168868f, 0.06682656f, -0.084147073f, 0.08482419f, -0.11452626f, -0.023907125f, -0.052175444f, 0.055869821f, -0.047549471f, 0.14525329f, -0.086033806f, 0.075488687f, 0.21746187f, -0.14115307f, 0.061589714f, 0.13112965f, 0.069855124f, -0.052583475f, 0.11079702f, -0.11028607f, 0.063563377f, -0.13694493f, -0.1286612f, -0.15420839f, -0.14767194f, -0.063855506f, 0.074894711f, 0.0025593631f, -0.083963901f, -0.12486759f, -0.014142477f, -0.018314322f, 0.078313701f, -0.1078378f, -0.10904703f, 0.023351189f, 0.066817746f, 0.11626282f, 0.058396321f, -0.12471629f, -0.11830911f, 0.013276814f, 0.041203853f, -0.093419097f, -0.13600746f, -0.1165327f, -0.13989249f, -0.025854817f, -0.14404744f, 0.10603721f, 0.14866966f, 0.10513855f, -0.11150703f, -0.027953528f, 0.053669158f, -0.13669151f, 0.01249209f, 0.20801739f, 0.079261094f, -0.015406975f, 0.13128732f, -0.046922002f, -0.0017132395f, 0.054061856f, 0.00017888866f, -0.11179051f, -0.057363316f, -0.08436361f, 0.0041128132f, -0.087520219f, 0.16336682f, 0.12482301f, 0.064580552f, -0.15639657f, -0.12162257f, -0.02995207f, 0.14699295f, -0.097484842f, -0.022977961f, -0.042931765f, -0.20229943f, 0.0042503378f, 0.13178653f, -0.0053888098f, -0.038865291f, -0.062215704f, 0.0093852757f, 0.13832977f, 0.13128358f, -0.012823157f, 0.018126708f, -0.24316835f, -0.0050919754f, 0.020620225f, -0.12912183f, 0.17833163f, -0.089315288f, 0.11643059f, -0.13183813f, 0.11564992f, 0.083151437f, -0.079889216f, -0.049049553f, -0.14347835f, 0.077827737f, 0.14200877f, -0.11056053f, -0.094059154f, -0.034534752f, -0.02103539f, -0.016869448f, 0.026025008f, 0.1584522f, 0.09165661f, 0.03485303f, 0.15376313f, -0.055932287f, 0.072710007f, -0.019424079f, -0.11497716f, -0.097503975f, 0.051409442f, 0.044383336f, 0.10740376f, 0.14613137f, -0.049033172f, -0.058954302f, -0.079614289f, 0.017161548f, -0.021382893f, -0.10622345f, -0.045129541f, 0.031407494f, 0.1612912f, -0.026941666f, 0.061287507f, 0.14573638f, 0.1533826f, -0.0069224671f, -0.12562974f, -0.085865326f, -0.12289646f, 0.1596324f, -0.11206488f, 0.10707179f, -0.057841107f, 0.12348136f, 0.18625662f, 0.039833248f, -0.02004219f, 0.11742525f, 0.12292209f, -0.12159783f, 0.23921362f, -0.11844344f, 0.032802913f, -0.17189765f, 0.0033781459f, 0.038063776f, -0.0094498955f, -0.13599919f, 0.063235201f, 0.0058814562f, -0.012289888f, 0.045473799f, 0.027166929f, 0.10859182f, 0.13155763f, 0.091304094f, 0.013823904f, 0.24797939f, 0.044225946f, 0.13438232f, 0.036343154f, -0.095313229f, -0.13617557f, 0.10965963f, -0.065573037f, 0.0521672f, -0.1095577f, 0.050193265f, 0.11215961f, 0.1005634f, 0.14649718f, -0.14263628f, -0.050652262f, 0.075288847f, 0.00060503453f, 0.09273231f, 0.042441737f, 0.043195423f, -0.10973027f, -0.13485527f, 0.1443259f, 0.0054407166f, -0.020538382f, 0.079693958f, 0.17484057f, 0.098041221f, -0.036226179f, -0.011315037f, -0.036299661f, -0.0063144206f, -0.04048666f, 0.12724674f, 0.1287199f, 0.033470217f, -0.012541647f, 0.11380225f, -0.0047894968f, 0.017218716f, -0.29128623f, -0.030272484f, 0.11006961f, 0.1424413f, 0.085426621f, -0.055534299f, 0.024446273f, -0.03579231f, 0.092760898f, 0.079957023f, 0.1793997f, -0.082291313f, -0.084447913f, -0.081445284f, -0.020056933f, 0.11560499f, -0.046781342f, 0.036124133f, -0.070001625f, 0.093887135f, -0.051944654f, -0.034284517f, 0.035256211f, -0.12212607f, 0.22323166f, 0.1406576f, -0.092116579f, 0.081215762f, 0.046414852f, 0.038790774f, 0.062561102f, -0.078071646f, 0.10380684f, 0.056243654f, 0.038713861f, 0.076093771f, 0.12927176f, 0.17974511f, -0.12713926f, 0.047001474f, -0.17053884f, -0.061454132f, -0.14182901f, 0.10322178f, 0.14650199f, 0.078867458f, 0.068138517f, 0.1533516f, 0.098193951f, 0.10562559f, 0.036514916f, 0.19283834f, 0.17418893f, 0.1064953f, -0.021213546f, 0.068636343f, -0.049878892f, -0.029921394f, 0.18150096f, -0.03758448f, -0.06835936f, -0.069286346f, 0.027101796f, -0.056092534f, -0.090089805f, 0.15414441f, 0.17261215f, -0.017517893f, 0.072254822f, -0.18401562f, 0.15436447f, -0.075890765f, 0.051847499f, 0.065134168f, 0.021508146f, 0.0018409699f, 0.10570752f, 0.048390169f, -0.087721281f, 0.048925824f, -0.18896903f, 0.044845462f, 0.11399736f, 0.044994328f, 0.065008178f, 0.14984599f, -0.044646468f, -0.057608973f, 0.036900941f, 0.0020472442f, 0.13355622f, 0.12273916f, 0.032963738f, 0.04545911f, 0.024926249f, -0.11628772f, 0.10367743f, -0.061962955f, 0.13549517f, -0.032664586f, -0.16687924f, 0.057255611f, 0.18394791f, -0.12669472f, -0.026733736f, 0.17486593f, -0.016893957f, -0.12718768f, 0.087644666f, 0.042607281f, -0.03244222f, -0.010239018f, 0.12607801f, -0.044858687f, 0.084011085f, 0.0075039798f, -0.064639129f, 0.053743489f, 0.071285948f, 0.18113236f, 0.092169985f, -0.08496771f, 0.1679568f, 0.034511562f, 0.0046033137f, -0.040287174f, -0.073315479f, 0.060925849f, -0.093850896f, -0.038691327f, 0.015610324f, -0.0077881389f, -0.079248846f, -0.066491134f, 0.077700175f, -0.1912777f, 0.02038846f, 0.030598389f, -0.025076443f, -0.04334081f, 0.14491031f, -0.10236531f, -0.044754162f, 0.17004634f, 0.03768833f, 0.079367541f, 0.064925656f, 0.12259106f, -0.013189963f, 0.22853611f, 0.097934447f, 0.086346656f, 0.057089485f, 0.072613917f, 0.13514882f, -0.035154343f, -0.094766907f, -0.043508381f, 0.14760967f, -0.1971937f, 0.15942505f, -0.10523666f, 0.063428804f, -0.05353158f, -0.076737091f, -0.0083893668f, 0.034167219f, -0.054964162f, -0.042518042f, 0.048127931f, 0.018314658f, -0.013202426f, 0.094782323f, -0.056931272f, 0.031340178f, 0.10845424f, -0.10228798f, 0.09153308f, 0.032225396f, -0.093540311f, 0.19134623f, -0.096570723f, -0.015823342f, -0.020825438f, 0.13274501f, -0.002376138f, 0.16677493f, -0.055013258f, -0.11114366f, 0.052859042f, 0.17206727f, -0.089272693f, 0.062891997f, -0.02468008f, -0.0022974345f, 0.051237397f, 0.0082534365f, 0.16551811f, 0.032178879f, -0.24038385f, -0.1897056f, 0.050824683f, -0.045736238f, 0.14936097f, -0.12800564f, -0.15241577f, 0.01053015f, 0.17469648f, -0.074457489f, 0.0039350935f, -0.10435779f, -0.07122539f, 0.062606089f, 0.021659072f, 0.032949992f, 0.10140055f, 0.067680016f, 0.10518799f, 0.17217971f, 0.033468589f, -0.067128524f, 0.043471273f, -0.10402274f, -0.017345831f, -0.015950028f, 0.085145772f, 0.021048974f, -0.0033243273f, 0.032948375f, -0.094900221f, -0.062360801f, -0.065988101f, 0.14620015f, -0.033362668f, 0.06887871f, 0.093489684f, 0.055870701f, -0.086137839f, -0.13595468f, -0.00018593695f, 0.064832605f, 0.087218627f, 0.13119566f, 0.092155814f, 0.079175755f, 0.1764954f, -0.13954636f, 0.039864462f, -0.08977703f, -0.10276957f, 0.049611948f, -0.029405333f, 0.093067333f, 0.051500924f, 0.039321668f, -0.10537472f, -0.092518605f, -0.1024468f, 0.049396016f, 0.16109939f, 0.11543538f, 0.01752525f, 0.022028858f, -0.083282687f, 0.15692857f, 0.047120649f, -0.13272268f, 0.044035178f, 0.11189114f, -0.18730143f, 0.10820223f, -0.080579229f, -0.051178798f, 0.0067166579f, 0.07081341f, 0.034484569f, -0.10037185f, 0.036745895f, -0.12745552f, -0.089040622f, -0.082582287f, 0.035684545f, 0.042413946f, -0.10235138f, 0.0080742165f, -0.089511253f, 0.062679723f, 0.045428135f, 0.0026895122f, -0.094917886f, 0.14717355f, -0.01541841f, -0.045029581f, 0.19981414f, 0.12079488f, -0.13308899f, 0.19340982f, -0.11740258f, 0.080971181f, 0.13489529f, -0.12284747f, -0.14545713f, 0.0094572017f, 0.17083955f, 0.040749002f, -0.090039812f, 0.042444792f, 0.17349806f, 0.12002535f, -0.0085779512f, -0.10498695f, 0.093411617f, -0.052938193f, 0.15826713f, 0.11886296f, 0.022293013f, -0.1185021f, 0.040949307f, -0.089725673f, -0.052257318f, 0.24614291f, -0.11551443f, 0.027289908f, 0.0014281049f, 0.16458081f, 0.027026005f, 0.15252355f, 0.10359702f, 0.11421035f, -0.091062643f, -0.11832631f, 0.062684327f, 0.095003299f, -0.11059172f, 0.11349523f, -0.021890733f, 0.073207028f, -0.069043584f, 0.10498087f, 0.14667283f, -0.060940661f, 0.071508728f, 0.20911489f, 0.058574099f, 0.05524468f, 0.042896111f, -0.10371524f, 0.11908606f, 0.11523116f, -0.1856021f, -0.032338306f, 0.06744504f, 0.093031146f, -0.074072354f, -0.056651141f, -0.13962214f, 0.10518079f, 0.13367026f, -0.054381348f, 0.14874229f, 0.040145736f, 0.14776921f, -0.11843506f, 0.10748501f, 0.14562577f, 0.069895767f, 0.14925484f, -0.041257694f, -0.12352022f, 0.17228648f, -0.12302516f, 0.037064377f, -0.061402623f, -0.01985313f, -0.0080064163f, 0.063545167f, -0.13278152f, 0.17527065f, 0.013310613f, -0.15605615f, -0.034084771f, -0.039790682f, -0.02708867f, -0.0866834f, -0.051335432f, 0.082881033f, -0.1161763f, 0.13369565f, 0.060641941f, -0.066927351f, -0.075730406f, -0.14287543f, 0.021954173f, 0.06475874f, 0.12020525f, 0.011804285f, 0.062266335f, 0.055677302f, -0.16815998f, 0.15703528f, -0.082099855f, -0.062433936f, 0.042074759f, -0.097961716f, -0.0025919746f, -0.047904953f, -0.035038151f, 0.060297024f, -0.10160802f, 0.069556065f, -0.081601225f, 0.18541911f, 0.15049249f, -0.038968828f, 0.072572745f, 0.094683781f, 0.20695883f, 0.096499659f, 0.15176149f, -0.04313517f, 0.035374627f, 0.13627049f, -0.015345524f, -0.093193501f, 0.20197456f, -0.083709665f, 0.10883141f, -0.10269184f, -0.062464733f, -0.22306393f, 0.1863797f, 0.021082385f, 0.12211389f, -0.051608268f, 0.14684753f, -0.11247048f, -0.095143951f, 0.16026822f, -0.03236416f, 0.071932986f, -0.25708243f, 0.19975176f, -0.097180471f, -0.0534623f, -0.071763925f, 0.16425706f, 0.19700995f, 0.10459539f, -0.070862077f, 0.12825461f, -0.13150625f, 0.027984736f, 0.17537236f, 0.038833532f, -0.047824573f, 0.18994859f, 0.036056396f, 0.13865337f, 0.040381566f, 0.098303296f, -0.036577452f, 0.20024964f, 0.053325653f, -0.022449542f, 0.015531041f, -0.062708259f, 0.060716219f, -0.11664237f, 0.1459606f, 0.044138696f, 0.02486412f, -0.024501391f, -0.06329488f, 0.012021404f, 0.097725034f, 0.20630945f, -0.13218284f, 0.066136807f, -0.073573142f, 0.13063689f, 0.043383047f, -0.013228944f, 0.11258311f, 0.12495977f, -0.096864104f, -0.13122225f, 0.1496283f, 0.046468377f, 0.023996688f, -0.041903183f, -0.018193869f, -0.084307291f, -0.07864213f, 0.10150003f, 0.045602825f, 0.15740365f, 0.007387083f, 0.097366564f, -0.0055448948f, 0.10630477f, -0.065576032f, -0.16244599f, 0.17858317f, -0.062300283f, -0.00028569397f, -0.034430865f, 0.0028033606f, 0.17528139f, 0.021409385f, -0.15772799f, -0.11819359f, 0.12526475f, -0.07379853f, 0.15164122f, 0.10212692f, 0.071358167f, -0.045348987f, 0.11480809f, -0.13733459f, 0.1184575f, -0.055858262f, -0.07061971f, 0.051287513f, -0.067913465f, 0.040753126f, 0.15875253f, 0.15363903f, -0.046992131f, 0.20916727f, -0.11693976f, -0.082971439f, -0.0035216629f, -0.12506299f, 0.065292023f, 0.055499714f, -0.00027213315f, -0.027230363f, 0.011679146f, 0.081299961f, -0.098981053f, -0.048756603f, 0.075559035f, -0.097381882f, 0.079282537f, 0.036587946f, 0.15149404f, 0.080639675f, 0.12990253f, 0.0040156413f, 0.2048409f, -0.094383784f, 0.1613726f, 0.048964877f, 0.12904871f, 0.10835146f, 0.12263699f, 0.045156322f, 0.037831388f, 0.15213159f, -0.20483796f, 0.0068923584f, 0.18025604f, 0.07932765f, -0.048669912f, -0.080643475f, -0.049359124f, -0.11539178f, 0.1411832f, 0.13785192f, 0.14871904f, 0.11218144f, -0.04845367f, -0.051397506f, -0.06415429f, -0.05782301f, 0.1392452f, 0.054181784f, 0.13970456f, 0.038523771f, -0.11197775f, 0.10802978f, 0.15201624f, -0.068059325f, -0.12937173f, 0.060267352f, 0.095923983f, -0.1154339f, 0.12904209f, 0.069914818f, -0.047796518f, -0.057020564f, 0.035190232f, -0.051079061f, 0.15977778f, 0.12612417f, 0.067607909f, 0.15684791f, -0.10557409f, -0.018168284f, 0.077086918f, -0.0051103141f, 0.13735728f, 0.12007146f, 0.14126752f, 0.082200348f, -0.11748157f, -0.12286849f, -0.032523807f, 0.13567808f, -0.05844314f, -0.13130258f, -0.090606615f, -0.1016421f, -0.12321445f, -0.095144168f, -0.047335804f, -0.069771983f, 0.12679391f, -0.044514637f, 0.061643478f, -0.066190481f, -0.058441199f, -0.11645031f, -0.093274005f, 0.1260543f, -0.12187669f, 0.14401667f, -0.15418464f, -0.11309158f, 0.037383534f, 0.087763883f, 0.14700367f, -0.13153368f, -0.1173983f, -0.026245223f, -0.11205349f, -0.095476881f, 0.015387655f, -0.04780452f, -0.022115136f, 0.13256527f, 0.066134661f, -0.20283259f, 0.046105422f, -0.10309047f, -0.12592456f, -0.033854831f, -0.10115021f, -0.011673427f, -0.02034888f, -0.15904723f, 0.094990619f, -0.045093749f, -0.18792093f, -0.20234701f, 0.10341232f, -0.0011525935f, 0.12593971f, -0.047509111f, -0.038973812f, 0.1797685f, 0.031231804f, -0.15620011f, 0.072403125f, 0.12347351f, 0.041791268f, 0.062049657f, 0.12387984f, 0.13728167f, -0.049650665f, -0.05861998f, -0.022322336f, 0.11653331f, 0.1153259f, 0.11818016f, -0.13359617f, -0.050831046f, 0.071386226f, -0.14547536f, -0.084290065f, -0.1818653f, 0.052097801f, 0.11086471f, -0.055902407f, 0.1654423f, -0.084965087f, 0.015021189f, 0.090880364f, -0.051292203f, -0.0081159752f, -0.045932412f, -0.1475455f, 0.094366916f, -0.019990839f, 0.052915845f, -0.18049209f, 0.10548586f, 0.08288186f, -0.085924923f, 0.029034544f, 0.062128481f, 0.01696795f, 0.0010730582f, -0.079499595f, -0.02839591f, -0.1205378f, -0.060387079f, 0.040576506f, 0.12240883f, 0.0085946396f, 0.11898008f, 0.014088891f, 0.076734021f, 0.1747326f, -0.10675277f, 0.057493836f, -0.14380531f, -0.0057468321f, 0.014486915f, -0.14707975f, -0.13239282f, 0.24012053f, -0.059002634f, -0.06594491f, -0.1014092f, 0.14583115f, -0.12493595f, 0.13646521f, 0.13834484f, 0.12953191f, 0.1894123f, -0.081534006f, -0.0075490493f, 0.15293296f, 0.089978732f, 0.043512516f, -0.17447209f, 0.10467269f, -0.16281205f, 0.014752213f, 0.13950127f, -0.051051989f, -0.085717112f, -0.030345155f, 0.074176617f, 0.10515528f, 0.091170542f, 0.10374102f, 0.075624108f, -0.032300886f, -0.065909468f, 0.00069641165f, -0.044792857f, 0.022233086f, 0.0962926f, 0.065518789f, 0.12250447f, 0.055938892f, 0.12874256f, -0.056696218f, 0.17444232f, 0.01976685f, 0.0654734f, 0.12565774f, 0.09811224f, 0.058655083f, -0.067829952f, 0.14532323f, -0.078057632f, -0.12360554f, -0.14110388f, 0.065072306f, -0.011676451f, 0.11640336f, -0.097124234f, -0.12243519f, 0.16095047f, 0.070982441f, 0.05205033f, 0.0012028888f, 0.01313873f, 0.088680625f, 0.18958859f, -0.17753841f, 0.14156437f, 0.09011171f, -0.084812187f, 0.021631135f, 0.12264179f, -0.020452946f, -0.049871549f, 0.024254402f, -0.1078615f, 0.086795613f, -0.13111459f, 0.016098227f, -0.0042706248f, -0.041481115f, 0.068670005f, 0.081058912f, 0.13847044f, -0.035566393f, 0.10406793f, 0.13498041f, 0.14173116f, 0.15435864f, -0.022995787f, -0.10571012f, 0.018070977f, -0.044952672f, 0.1413684f, 0.058877703f, -0.035309203f, 0.14821126f, 0.17085809f, 0.0043866956f, -0.11923809f, 0.051452179f, 0.051755041f, -0.10370384f, 0.0060566543f, 0.10042056f, 0.066376194f, 0.11314164f, 0.11937201f, -0.069619454f, 0.16370872f, 0.00049709657f, -0.1564727f, 0.043485634f, -0.10715504f, 0.11777751f, -0.07598573f, 0.18313381f, 0.12732598f, -0.050622482f, 0.059056129f, -0.10893192f, -0.056357048f, -0.049784038f, 0.16573106f, -0.13779096f, 0.18189353f, 0.0057460284f, -0.092058592f, 0.13223365f, -0.064871997f, -0.066793762f, 0.16224976f, 0.038608499f, -0.042868204f, -0.01431773f, 0.17876065f, 0.070156634f, 0.016280891f, -0.05956861f, 0.082570605f, 0.083451673f, -0.071420334f, -0.075465746f, 0.059094321f, -0.006355857f, -0.11065548f, -0.072057381f, 0.11852331f, 0.070452854f, -0.13163763f, -0.045868739f, 0.061277088f, -0.035476819f, 0.036655858f, -0.034381613f, -0.017143877f, 0.15700944f, 0.14520837f, -0.028530417f, -0.027347844f, 0.01334531f, -0.010052926f, -0.26450649f, -0.15689179f, -0.044682287f, 0.034113929f, 0.17186236f, -0.070899844f, 0.18198727f, 0.00087942684f, -0.10434205f, 0.0051215715f, 0.011776599f, 0.1278075f, 0.11211517f, 0.016436441f, 0.084857687f, -0.12352538f, -0.068262912f, 0.042186331f, -0.085215084f, 0.052034434f, -0.060278509f, 0.0099676121f, 0.0029787822f, -0.074167788f, -0.066318378f, 0.083626948f, 0.12961797f, -0.12786829f, -0.099758081f, 0.039855462f, 0.020830628f, 0.025516519f, 0.097376026f, 0.076613612f, 0.18667477f, -0.043825839f, -0.026876813f, 0.1316275f, 0.10858164f, -0.11140297f, -0.24088539f, -0.15485612f, -0.049534284f, 0.029088045f, 0.022758657f, 0.17921881f, -0.0075811464f, -0.1416239f, 0.04469886f, 0.030179625f, 0.05325219f, 0.1852261f, 0.16060531f, 0.10225979f, -0.088540591f, -0.071393326f, 0.067621365f, 0.12664044f, 0.13553382f, -0.093446769f, -0.030614f, -0.16158295f, 0.13679269f, 0.098384216f, 0.058787003f, 0.047434762f, -0.065097079f, 0.0056870729f, -0.088912606f, -0.062934116f, 0.11973569f, -0.12154439f, 0.16732946f, 0.18573436f, -0.043421749f, 0.18133716f, 0.022034572f, 0.013335682f, -0.11268755f, 0.16250841f, -0.21766636f, 0.20455749f, 0.049135026f, -0.21389781f, 0.21017689f, -0.15606727f, -0.11193227f, 0.055213142f, -0.087083854f, 0.061142489f, -0.066761233f, -0.073124938f, 0.039334737f, -0.09063594f, 0.12919745f, 0.083341643f, -0.023038907f, -0.061915647f, 0.11720203f, 0.13816603f, -0.10301383f, 0.003287371f, 0.041812558f, -0.057898901f, 0.20056055f, -0.16253974f, -0.089188322f, -0.041541405f, 0.073400937f, 0.095213562f, 0.06068363f, 0.079464778f, -0.026765143f, 0.11055005f, -0.015062526f, -0.084592812f, -0.037205327f, -0.096941411f, 0.14252664f, -0.012906792f, -0.044224236f, 0.20870617f, 0.034275979f, 0.017482443f, -0.024791868f, 0.13077919f, -0.029128835f, 0.035302039f, 0.15261967f, -0.16012453f, -0.11700493f, -0.0057431138f, 0.045175888f, -0.040289424f, 0.16601457f, 0.031519268f, 0.0033973744f, -0.086169526f, 0.055093896f, 0.19568266f, 0.17870007f, -0.021560192f, 0.14424825f, 0.16534288f, 0.0828223f, -0.1251339f, 0.12225432f, -0.06445419f, 0.059236288f, 0.046796523f, 0.1324732f, 0.12100706f, 0.15784654f, 0.031258542f, -0.099114574f, -0.057493336f, 0.016800612f, -0.057843894f, 0.13949284f, 0.15743762f, -0.14794046f, -0.00080105878f, 0.046585783f, 0.008741172f, 0.011956317f, 0.14969723f, -0.054491438f, 0.039853837f, 0.13749956f, -0.12233213f, -0.11702779f, -0.062309172f, -0.11109483f, -0.032663267f, 0.058308821f, -0.10177652f, 0.036395282f, 0.21468101f, 0.17965469f, 0.008760999f, -0.030440317f, 0.080154195f, 0.042144231f, -0.001378601f, -0.094888389f, 0.17524649f, -0.06250339f, 0.17686799f, 0.10656621f, 0.14440434f, -0.068669707f, 0.11053877f, -0.037020959f, 0.18622166f, 0.10244969f, -0.092209727f, -0.029390438f, -0.07617934f, -0.013694525f, 0.087791719f, 0.19012874f, 0.085720964f, 0.14919107f, -0.030214636f, 0.042140909f, -0.080310635f, -0.12688278f, 0.11464846f, -0.058753598f, 0.079727821f, 0.1482562f, 0.022750346f, 0.10969025f, -0.052579194f, 0.034874659f, -0.085445359f, -0.14687741f, 0.12613919f, -0.12849769f, 0.17334434f, 0.15844518f, -0.13114247f, 0.021461153f, 0.047791868f, 0.14708133f, 0.10225934f, 0.077026077f, 0.017419685f, 0.14974226f, 0.012099338f, 0.039103977f, -0.1030601f, 0.12216344f, 0.053796686f, -0.085308395f, 0.10599306f, 0.11811299f, 0.047208715f, 0.075162709f, -0.030477265f, -0.0042578368f, -0.037457518f, -0.045873389f, -0.03817619f, 0.10036054f, 0.15403779f, -0.0039466633f, -0.034682747f, 0.17810014f, -0.1313805f, -0.10084346f, 0.1578805f, 0.026598291f, -0.1341338f, -0.058794878f, -0.16625285f, -0.055072866f, 0.0099381562f, 0.0061539891f, 0.11250941f, -0.095802091f, 0.16511323f, -0.025258517f, -0.07194069f, 0.14244363f, -0.035918973f, 0.12593235f, 0.00091958127f, -0.097205378f, 0.013549663f, -0.01681109f, -0.093693279f, -0.0030948352f, 0.089759879f, 0.02229136f, -0.023323718f, 0.036550231f, -0.054763507f, -0.039506089f, -0.15984929f, -0.19052869f, 0.10618909f, -0.024164634f, 0.1898161f, -0.079661235f, 0.053620558f, -0.099102601f, 0.13277443f, 0.021063456f, -0.061615363f, 0.049437668f, 0.011713039f, 0.12372458f, -0.13400112f, 0.020361332f, 0.14724682f, -0.1364309f, -0.14031395f, 0.079204217f, 0.10507536f, -0.026480807f, 0.063726798f, 0.16521956f, 0.021214884f, -0.11835113f, 0.014295399f, 0.031249426f, 0.1735954f, 0.05080821f, -0.10370546f, 0.14323643f, 0.060319405f, 0.15656102f, -0.10227813f, 0.11769044f, -0.092877463f, 0.16768605f, 0.028486675f, 0.058278024f, -0.13199629f, -0.11087676f, -0.071457386f, -0.049233668f, 0.059456386f, 0.057227034f, 0.16409324f, 0.06204056f, -0.069461904f, 0.018371813f, 0.014482885f, -0.0042784745f, 0.084371641f, 0.085623778f, -0.075252965f, -0.13262165f, -0.11665578f, -0.013796371f, 0.21380658f, 0.13544358f, 0.021539249f, -0.0065706619f, 0.0095993169f, -0.14948469f, -0.053430647f, 0.021037064f, 0.21485682f, -0.10351689f, -0.031577736f, 0.18979669f, 0.11113136f, -0.097983718f, -0.089132823f, 0.073402464f, 0.016600158f, -0.037564665f, -0.012323553f, 0.036789335f, 0.035751093f, 0.075208485f, 0.027276879f, 0.19678521f, -0.24397461f, -0.052969366f, 0.060857613f, 0.10860906f, 0.051765859f, 0.12914313f, -0.12386127f, 0.019478632f, 0.019752534f, 0.038098704f, 0.026093313f, -0.06230871f, -0.10277553f, 0.16244613f, 0.0030730576f, -0.12324463f, -0.064472727f, 0.081182249f, 0.060516737f, 0.18796316f, 0.077021047f, 0.1510887f, -0.085202776f, 0.14813024f, 0.13312285f, -0.013377649f, -0.024015896f, -0.129503f, -0.060600284f, 0.21319826f, 0.056145053f, 0.11152337f, 0.1302325f, -0.10640979f, 0.18423086f, 0.053086996f, -0.095614605f, -0.12696445f, 0.023738392f, -0.043855943f, -0.00377811f, 0.16635093f, -0.018004438f, 0.031348519f, -0.1103301f, 0.15724297f, 0.16601798f, 0.018075796f, -0.19715838f, 0.011640586f, -0.00052106765f, 0.12256373f, 0.10372299f, 0.052525699f, -0.097596534f, -0.028164711f, -0.053641185f, -0.066623703f, 0.05711798f, -0.058071692f, -0.014599446f, 0.0094683506f, 0.2006115f, 0.094684906f, 0.14546777f, 0.022371328f, 0.18857631f, -0.10883712f, -0.01183552f, 0.17892309f, 0.093197159f, 0.13289486f, 0.1228452f, -0.070303619f, -0.078580476f, 0.043341015f, 0.14767052f, 0.16642302f, -0.062457781f, 0.12501127f, 0.032507736f, -0.12222394f, 0.098116845f, -0.082714312f, 0.057750244f, 0.059864435f, -0.034803621f, 0.1818288f, 0.14794935f, 0.040280148f, 0.16079798f, 0.096964568f, -0.013650316f, -0.050412215f, 0.18668608f, -0.022371581f, 0.10810849f, 0.13870077f, -0.017042486f, 0.095801808f, 0.16419855f, 0.17724943f, -0.12008192f, 0.065163597f, 0.012661939f, 0.088764399f, -0.043349117f, 0.092463218f, 0.12994459f, 0.1510929f, 0.039064597f, 0.054317862f, 0.13831586f, 0.050189555f, 0.058728904f, -0.023863252f, -0.070953906f, 0.073825084f, 0.073254347f, 0.069314741f, 0.17074481f, 0.14144067f, 0.1456273f, 0.081401803f, 0.10856438f, -0.078044057f, -0.17459975f, -0.14064211f, 0.13318829f, -0.10947596f, -0.023434794f, 0.0060595712f, -0.010835878f, 0.20500231f, 0.013128612f, -0.014689157f, -0.050034326f, 0.060816139f, 0.061010435f, -0.1209495f, 0.14004216f, 0.13513544f, -0.022354692f, -0.1451515f, -0.044441771f, 0.032679576f, -0.088928141f, -0.12403239f, -0.079733111f, -0.13993111f, 0.12943305f, -0.036753166f, -0.037649151f, -0.057273917f, 0.14234497f, 0.03098613f, 0.0062364074f, 0.14893115f, -0.086546108f, -0.082304999f, 0.0086735738f, 0.099416591f, 0.17548308f, -0.072677411f, 0.069835588f, 0.11933355f, 0.052684534f, -0.078740984f, 0.09916234f, 0.079702228f, 0.12786841f, 0.10186224f, 0.092881799f, 0.011362528f, -0.03948842f, -0.18008789f, -0.032112647f, 0.11200707f, 0.031738423f, -0.085643768f, 0.14617305f, -0.0041396227f, -0.17178276f, 0.060810428f, 0.010002942f, -0.0086289924f, 0.10616538f, -0.059372328f, 0.12648138f, -0.057195861f, 0.18441969f, 0.056646824f, 0.053238839f, 0.074200273f, 0.098480865f, -0.057203531f, -0.15207559f, -0.053618114f, 0.062687986f, -0.12291711f, 0.12306985f, -0.09358044f, 0.12679589f, -0.14665139f, -0.047459066f, 0.15925483f, -0.070275374f, -0.07403855f, 0.12016774f, 0.19006179f, 0.0529572f, 0.0088521829f, 0.096198142f, 0.10809678f, 0.08137048f, 0.082170531f, 0.12964338f, 0.050544184f, 0.0091857295f, -0.010188438f, 0.13803187f, 0.16001907f, -0.087827638f, 0.1328339f, -0.043667439f, 0.052835278f, 0.14330131f, 0.023743292f, 0.037348893f, -0.0040457114f, 0.11250895f, 0.05622087f, -0.10192439f, 0.10446367f, 0.083130732f, 0.034083322f, 0.08271312f, -0.035067771f, 0.02003018f, -0.26186153f, -0.10703839f, 0.12396301f, 0.14325356f, 0.13276307f, 0.19644476f, -0.0476644f, -0.14882627f, 0.089709543f, -0.041173894f, -0.081608303f, 0.17314373f, 0.18997601f, 0.10037005f, -0.090829678f, 0.076991573f, -0.15611812f, -0.056326129f, -0.002956477f, -0.0037576198f, -0.089883231f, -0.032327637f, 0.088142425f, -0.16939886f, 0.01800105f, 0.22180045f, 0.0035176787f, -0.037690569f, -0.049452085f, 0.064842939f, -0.074533433f, 0.0097606936f, -0.041984785f, 0.10915965f, 0.090170853f, -0.043236662f, 0.07166028f, -0.11662067f, 0.010759876f, -0.094091885f, -0.14001793f, -0.21134761f, 0.09803699f, 0.022391472f, -0.11660647f, -0.097046845f, 0.13945298f, 0.099665575f, 0.055986494f, -0.13662089f, 0.16134216f, 0.090097509f, 0.0083085094f, -0.077604629f, 0.20131209f, -0.052019715f, 0.059333868f, 0.11533947f, 0.064722478f, -0.041146919f, 0.12904513f, -0.09936323f, 0.092211202f, 0.18948181f, -0.12040975f, 0.16184418f, 0.16564019f, 0.15250629f, 0.035903029f, 0.011341101f, -0.19445965f, 0.19054563f, 0.14368688f, -0.077359773f, -0.00078092999f, 0.15151806f, 0.15382014f, 0.18056756f, 0.15501523f, -0.090902731f, 0.14930154f, -0.14747836f, 0.038303692f, 0.10094293f, -0.045189776f, 0.061884478f, 0.16147731f, -0.071239173f, 0.052515492f, 0.063273005f, 0.057828575f, 0.031493567f, -0.027774964f, -0.17272529f, -0.014571811f, 0.094281763f, -0.20154847f, 0.042429041f, -0.052068699f, 0.16502723f, 0.18994515f, -0.088598706f, 0.076206416f, -0.020961449f, 0.039946619f, 0.16954124f, 0.059390835f, 0.1460423f, 0.15479404f, 0.11213328f, -0.069737539f, 0.071369573f, 0.052742422f, 0.050275531f, 0.12314895f, 0.13593225f, -0.15797982f, 0.10496673f, 0.080627643f, -0.049166664f, -0.059049498f, 0.072818398f, -0.032355055f, 0.0881593f, 0.066039778f, 0.045554187f, -0.0050433706f, -0.025144059f, 0.11141261f, 0.13286059f, 0.0021830492f, 0.16919197f, -0.036077056f, 0.067964256f, 0.089608885f, 0.17147098f, -0.097154237f, -0.14099185f, 0.12398025f, 0.090898953f, 0.1038532f, 0.20213458f, 0.15770996f, -0.085801646f, 0.0063384613f, -0.084880769f, 0.025215099f, 0.035707485f, -0.15078478f, -0.059080534f, 0.21442215f, -0.092333771f, -0.038608328f, -0.11340414f, 0.10623308f, 0.0037612044f, 0.17666855f, 0.039179198f, -0.034461919f, -0.07535284f, -0.070694774f, 0.23308973f, -0.1773109f, -0.069312684f, -0.045872856f, -0.061187733f, -0.038479347f, -0.043813106f, 0.093803033f, 0.11221556f, -0.20547278f, 0.19010124f, -0.12277111f, -0.13571252f, -0.021123083f, -0.011970812f, -0.064862236f, 0.17818978f, 0.15975972f, -0.053459566f, 0.12471533f, -0.087677784f, -0.11584654f, 0.13186094f, 0.035761971f, 0.1459368f, 0.026257195f, -0.1234533f, -0.087335549f, 0.090737574f, 0.065414183f, -0.053370483f, 0.16231918f, 0.04856066f, -0.025530769f, -0.062094614f, 0.00090803771f, -0.028081847f, 0.024528837f, -0.096344553f, -0.061729137f, -0.16776299f, -0.077208795f, 0.12969629f, 0.063320257f, 0.066143826f, 0.023529895f, -0.095419414f, 0.09321925f, 0.023938021f, -0.14446375f, 0.097597934f, -0.11962141f, -0.1062873f, 0.033657093f, -0.14680949f, -0.14363585f, 0.12028468f, -0.0063043935f, 0.16628902f, -0.056759704f, -0.051118851f, -0.058316916f, 0.058305718f, 0.062971324f, 0.14825854f, 0.020972438f, -0.027119899f, 0.097435616f, 0.17200616f, -0.06616874f, 0.11931341f, 0.087920628f, -0.065073863f, 0.073101476f, -0.085376851f, 0.023346605f, 0.11088748f, -0.03278676f, 0.058428988f, -0.0040661497f, 0.017355606f, 0.014358908f, 0.11972657f, 0.070835605f, 0.01583677f, 0.153569f, -0.088245682f, -0.093503028f, 0.065713637f, -0.058668591f, 0.11571965f, -0.057415854f, -0.064252838f, 0.085413039f, 0.0054938775f, -0.18541841f, -0.13856445f, 0.00072242023f, 0.12753943f, -0.0090547409f, 0.1394604f, -0.10056575f, -0.13743325f, -0.15908556f, 0.020853091f, -0.061320055f, 0.019583452f, 0.060660832f, -0.11892691f, -0.12871583f, 0.14358525f, -0.028809814f, 0.011638531f, -0.010460002f, -0.066009015f, 0.16099645f, -0.045442913f, 0.00092913886f, 0.072267346f, -0.021460667f, -0.099269003f, 0.19011956f};
static const int net_0_bias_len = 128;
static const float net_0_bias[] = {0.10177223f, 0.1148624f, -0.077993102f, -0.082035847f, 0.18003412f, -0.026786044f, 0.16162813f, 0.0051985052f, 0.097585775f, -0.073028572f, -0.030455193f, -0.043947611f, -0.027047327f, 0.15169412f, -0.09299659f, -0.022165488f, 0.072157316f, 0.014565986f, 0.052753631f, 0.067002669f, -0.076485246f, -0.082623668f, -0.12738526f, -0.097093143f, 0.11013955f, -0.062804416f, 0.092402972f, 0.059731569f, -0.099387072f, 0.14125803f, -0.061888076f, 0.18669339f, 0.0098582255f, 0.053959735f, 0.12499262f, 0.13131519f, 0.064327881f, 0.14594223f, 0.0016474016f, 5.3750642e-05f, 0.090030983f, -0.0015888525f, 0.19085409f, -0.11438556f, 0.017640881f, 0.084444962f, 0.15710583f, 0.081051446f, -0.069612503f, -0.017120594f, 0.075932346f, 0.064479552f, -0.0099103926f, 0.048917584f, -0.10482292f, 0.035578702f, 0.1436833f, 0.12761144f, 0.071847416f, 0.00037976072f, 0.066328846f, 0.0080162724f, 0.089873604f, 0.1492032f, -0.053123634f, -0.068393499f, 0.1062448f, 0.11573099f, -0.0026479105f, 0.13985217f, -0.098248951f, -0.034109041f, -0.063357696f, -0.023468152f, 0.015304366f, 0.020106433f, 0.074848637f, -0.035446882f, 0.035351388f, -0.15673721f, -0.009997054f, 0.025999136f, -0.10645571f, -0.052072551f, 0.18831863f, 0.14582819f, 0.065945551f, 0.018187692f, 0.22124711f, 0.016150922f, 0.07395976f, -0.08455155f, -0.087291688f, -0.01005108f, 0.021014627f, 0.10910802f, 0.12610602f, -0.034903765f, -0.0035295333f, -0.16399325f, 0.18104312f, 0.025883278f, -0.12393861f, 0.017209765f, 0.15056413f, 0.077672601f, 0.040144082f, -0.10534433f, 0.10833801f, -0.053992566f, 0.12557323f, -0.090605341f, 0.090633713f, 0.0085228123f, 0.095412374f, 0.026272811f, 0.060362872f, -0.052901298f, 0.14274305f, 0.063703656f, -0.065045863f, -0.085252479f, 0.073756166f, 0.15335442f, -0.077709608f, -0.083270401f, -0.086462803f, -0.13087188f};
static const int net_2_weight_len = 16384;
static const float net_2_weight[] = {0.064884834f, 0.019945318f, 0.081177682f, 0.10753596f, -0.071940996f, 0.10155108f, -0.022533165f, 0.026951138f, 0.051268574f, 0.0088949418f, 0.088122517f, 0.041196942f, 0.056725036f, 0.0467798f, -0.01870198f, 0.075432599f, -0.0034890261f, 0.06648279f, 0.018636402f, 0.0029935078f, -0.083647825f, 0.079954937f, 0.0080563733f, 0.027069438f, -0.040935826f, 0.031238375f, 0.0011283378f, 0.053771775f, -0.016949087f, 0.1416644f, -0.0019572575f, 0.039960649f, 0.013473736f, 0.032850288f, -0.06569881f, -0.041495368f, -0.072955251f, 0.045234505f, 0.028929973f, 0.12031396f, -0.025929883f, -0.13861929f, 0.085421428f, 0.094976246f, 0.027608939f, -0.0073714093f, 0.070315473f, -0.058417711f, 0.064264491f, 0.090038575f, 0.1209794f, -0.0038346224f, -0.051521812f, 0.11401027f, 0.036829721f, 0.090101019f, 0.14750461f, -0.00040494028f, 0.091510862f, -0.046177104f, 0.018507594f, 0.067266174f, -0.0087128319f, 0.01823492f, -0.029884189f, 0.080621816f, 0.030071717f, -0.022618111f, 0.044757061f, 0.12855205f, 0.10549893f, 0.12941298f, -0.0018634193f, 0.10591964f, 0.011664926f, 0.10787146f, -0.035284597f, -0.035163295f, 0.077070683f, 0.051563855f, -0.013433359f, -0.038389932f, -0.007099261f, 0.029282453f, 0.018115694f, 0.035091348f, 0.054041371f, -0.067588173f, 0.056380413f, 0.083781101f, -0.076237269f, 0.1191593f, -0.026711214f, 0.10827675f, 0.062906563f, 0.077963248f, 0.070514105f, -0.033376016f, 0.10031424f, 0.014471897f, -0.0012873636f, -0.11934921f, -0.053655405f, -0.033221759f, -0.032312278f, 0.036748357f, -0.01868608f, -0.072945997f, -0.0051625459f, 0.02340146f, 0.011226038f, -0.024517806f, 0.08051873f, 0.041216671f, 0.10374136f, -0.073303491f, 0.072829239f, 0.075962491f, 0.050400201f, 0.045276947f, -0.0099844337f, -0.080695502f, 0.069178142f, 0.02413879f, 0.00656007f, 0.11815555f, 0.049126279f, 0.009436137f, -0.06928014f, 0.10687329f, 0.066724673f, -0.078882821f, -0.0091201365f, -0.07766553f, -0.038542982f, 0.098305345f, 0.053107101f, -0.011450694f, 0.096064612f, 0.017394321f, -0.0091080619f, -0.038616806f, -0.045056086f, 0.080665119f, -0.1176134f, -0.034959126f, -0.02969834f, -0.036997411f, 0.10965383f, 0.029542882f, 0.13602538f, -0.021643884f, 0.051238906f, 0.058368001f, 0.055529229f, -0.061095841f, 0.042509042f, -0.025159148f, 0.087386355f, 0.0087815868f, 0.089850515f, 0.047539964f, 0.022641389f, 0.11867268f, 0.11662664f, -0.0536342f, 0.058752242f, -0.047770817f, 0.016415795f, 0.14325646f, -0.039205357f, 0.042446844f, -0.031615764f, 0.044349894f, 0.02594132f, 0.037599947f, -0.024996124f, -0.012194746f, -0.01119777f, 0.059746839f, 0.029519642f, 0.06150271f, 0.061819613f, -0.078674771f, -0.06877739f, -0.070390709f, 0.059545945f, -0.028522339f, 0.0064231684f, 0.11676102f, 0.010606539f, 0.055636898f, -0.031336099f, -0.088730216f, -0.006941996f, 0.09863048f, 0.11745992f, -0.11514103f, 0.014227927f, 0.022868808f, 0.067183815f, -0.07365413f, 0.048553079f, -0.0055663572f, 0.019429507f, -0.035932086f, -0.0023483429f, -0.027867021f, -0.048030354f, -0.03702898f, 0.060871124f, -0.02080106f, 0.08494778f, -0.0079096099f, 0.090190783f, -0.064436182f, -0.023411701f, 0.030885546f, 0.15118328f, 0.041065034f, 0.035557814f, -0.081601426f, 0.097783335f, -0.10107898f, 0.069177926f, 0.053770322f, 0.026738837f, -0.060383052f, 0.02830204f, 0.11950486f, 0.0422309f, 0.045852076f, 0.015332593f, 0.0078483205f, -0.039083671f, -0.048701823f, -0.029850086f, 0.064294264f, 0.012633807f, -0.027515389f, -0.05167409f, -0.04878889f, 0.035204917f, 0.032444768f, -0.1284603f, -0.015578787f, 0.058911528f, 0.047151208f, 0.032461002f, -0.023070106f, -0.076882154f, 0.096392073f, 0.04259887f, -0.0021615133f, 0.057271976f, 0.14545389f, -0.01491432f, -0.1173382f, 0.11630355f, 0.12052036f, -0.016883787f, 0.016158214f, -0.0031547446f, 0.04169983f, 0.049630374f, 0.010830507f, -0.0044967835f, -0.086405866f, 0.10904404f, -0.0018832255f, -0.10710979f, 0.10224324f, 0.14638497f, 0.056684814f, 0.091571301f, 0.082940295f, -0.041709721f, -0.086341314f, -0.1565301f, -0.0071013281f, 0.027422482f, 0.077375732f, 0.096730776f, 0.016970726f, -0.0098265009f, -0.029426767f, -0.0032122037f, 0.11118034f, -0.094882026f, -0.1071978f, -0.026558857f, -0.03052786f, 0.0094971415f, -0.065258488f, -0.018823449f, 0.083803713f, 0.06573166f, -0.067869857f, 0.015148016f, 0.0098234378f, -0.0051157032f, 0.0013458881f, 0.018567493f, 0.030286616f, 0.034980014f, 0.087162957f, 0.0065643042f, -0.023701703f, -0.041733589f, 0.057653159f, 0.066358589f, 0.013430405f, 0.045833614f, -0.007573504f, -0.0041807671f, -0.016320311f, -0.015934277f, 0.0050798384f, -0.019191973f, -0.043985348f, 0.065171108f, 0.060479201f, 0.032328762f, -0.071874939f, -0.0098301573f, -0.033308152f, 0.011601884f, 0.052622598f, 0.0032714978f, 0.0041297376f, 0.054227017f, -0.027267313f, -0.019664371f, -0.0055690729f, -0.01850827f, -0.010425318f, -0.071804196f, 0.0014128678f, 0.034209814f, -0.05833628f, 0.05003123f, 0.0062759453f, 0.07019183f, -0.039415415f, -0.000473058f, 0.082281038f, -0.0789482f, 0.014203474f, -0.067697965f, 0.028746633f, 0.025205307f, 0.056950796f, -0.022055913f, 0.078612216f, -0.045149293f, -0.061121013f, -0.073442668f, -0.043773342f, -0.063721567f, -0.0006481731f, -0.0019555942f, -0.087298639f, -0.079135627f, -0.046950679f, 0.11242341f, 0.10599846f, 0.08293204f, 0.04531987f, -0.026876232f, -0.0070197284f, -0.02147742f, 0.035679299f, 0.12874612f, -0.053093284f, 0.05885388f, 0.033766191f, 0.062385485f, -0.096729726f, 0.049541045f, 0.063770562f, 0.041508228f, 0.14636005f, 0.056249388f, -0.074355505f, -0.019764148f, -0.063370287f, 0.095188923f, -0.00023268569f, 0.054392505f, 0.019222576f, 0.13972868f, 0.031050123f, 0.050710168f, -0.055392347f, 0.16684686f, 0.044608615f, 0.030639727f, 0.096314929f, -0.0074978536f, 0.038417339f, -0.02245697f, 0.10800397f, 0.0015985031f, 0.10300326f, -0.056045078f, -0.063561112f, 0.073054984f, -0.10390247f, 0.087603129f, 0.031131942f, 0.035871428f, -0.10835661f, 0.12101547f, 0.039378859f, 0.049686309f, 0.014662392f, 0.041962128f, 0.076766357f, -0.025856696f, 0.0070310482f, 0.081311435f, -0.072515771f, -0.010691172f, 0.12638786f, -0.066620588f, -0.018478638f, -0.051384576f, -0.0090610422f, -0.010874836f, -0.03808951f, 0.027569624f, -0.018850267f, -0.032657567f, -0.073035978f, 0.024057049f, 0.067367271f, -0.096388124f, 0.11382098f, 0.010381244f, 0.0434574f, -0.064588703f, -0.089481868f, 0.040276121f, 0.050367206f, -0.017719908f, 0.058097824f, 0.079190157f, 0.11273467f, -0.020662328f, -0.018637965f, 0.076983355f, 0.018518811f, -0.035675f, -0.007191686f, 0.068169467f, 0.018256301f, -0.0091278274f, -0.011306893f, -0.01385157f, -0.016059075f, 0.049883846f, -0.025792399f, 0.0076939766f, -0.01943526f, -0.083034545f, -0.025356837f, 0.10832427f, 0.058531482f, 0.075174667f, -0.059776403f, 0.028052712f, -0.0099648731f, -0.12113169f, 0.017024549f, 0.13244131f, 0.017524472f, 0.105111f, -0.11009235f, 0.07722228f, 0.076870076f, 0.11638433f, -0.093260169f, 0.10387181f, 0.037533961f, 0.015976058f, 0.057805732f, -0.085712336f, 0.14304256f, -0.079620481f, 0.079795972f, 0.016243003f, -0.034687512f, -0.034939818f, -0.011809399f, -0.018238515f, 0.026309742f, 0.048232224f, 0.021301767f, 0.15080345f, -0.053281229f, 0.032911826f, 0.1071858f, 0.0063640815f, -0.043049302f, -0.048630755f, 0.011526383f, 0.11367383f, -0.0006122773f, -0.12896384f, 0.13694064f, 0.024362681f, 0.14431296f, -0.047727659f, -0.051726438f, -0.029803133f, -0.021607731f, -0.036468994f, -0.045430992f, -0.038772888f, -0.08633586f, 0.055399723f, -0.026042189f, 0.021857355f, 0.014880208f, 0.085879155f, -0.059644029f, 0.00026759034f, -0.026555717f, 0.00011804279f, 0.033861283f, 0.0037291846f, 0.076513849f, -0.022265695f, 0.0087859528f, 0.0062900586f, 0.047446139f, 0.012301759f, 0.015212841f, -0.055392474f, 0.015621023f, -0.015028217f, -0.0062165759f, 0.0072559593f, 0.041029178f, 0.004755355f, -0.073454738f, 0.046699401f, 0.042387694f, 0.086482391f, 0.018855467f, -0.035197675f, 0.056732912f, 0.0090381494f, -0.086959772f, 0.072771035f, -0.053475037f, -0.055144481f, 0.05047854f, 0.081227303f, 0.016728969f, 0.0079897046f, -0.055825893f, -0.0050109755f, 0.019734049f, -0.035277408f, 0.016474698f, 0.083934531f, -0.064459473f, 0.059401724f, 0.013971965f, 0.0059192297f, -0.010584528f, -0.035651732f, -0.032857683f, 0.00098795374f, -0.012892531f, -0.049111437f, -0.040938381f, -0.001587893f, 0.065382197f, 0.045500789f, -0.088388219f, -0.084627792f, 0.024310881f, 0.07130827f, 0.010044521f, -0.074087381f, -0.081143849f, -0.03177179f, -0.034203146f, 0.028125539f, -0.013085258f, -0.036037661f, 0.064288221f, -0.054309785f, 0.0031221225f, -0.038237769f, -0.026731491f, 0.010418005f, 0.016966771f, -0.064821295f, 0.0084878905f, -0.063837513f, -0.022607747f, 0.061830215f, 0.086453333f, 0.070437036f, -0.07711336f, -0.039518032f, 0.039466929f, -0.066183694f, -0.011273745f, -0.046582192f, 0.038822494f, 0.013943979f, -0.037388511f, -0.05577857f, -0.032289617f, -0.0082421219f, -0.026187375f, -0.074880302f, -0.058091212f, -0.049164351f, -0.086190671f, -0.035796445f, -0.019454585f, -0.037782867f, -0.075553164f, -0.033166207f, 0.08549469f, -0.029902978f, 0.042037833f, -0.047234446f, -0.0049005933f, 0.038561806f, -0.082748741f, -0.075353682f, 0.022001803f, -0.048288032f, -0.066442177f, 0.027907284f, -0.11444808f, 0.09067253f, 0.061599914f, -0.033347167f, 0.10897422f, 0.1365945f, -0.0054327669f, -0.11841387f, -0.071686797f, 0.057576817f, 0.066111483f, 0.12833208f, -0.025495004f, -0.054038804f, 0.084386773f, -0.050953235f, 0.07107494f, 0.0070735635f, 0.082397737f, 0.034437589f, -0.029078733f, 0.062336147f, 0.00095493253f, 0.10349968f, 0.10959388f, -0.017089091f, -0.0039623124f, 0.084054671f, 0.0056077987f, 0.017081508f, 0.11235717f, 0.035870057f, 0.09797702f, -0.018032905f, -0.097405486f, 0.11305257f, -0.13151592f, 0.015228854f, -0.017655421f, -0.043627903f, 0.029965822f, -0.018516276f, 0.045497797f, 0.059380703f, -0.042939648f, -0.042824052f, 0.0053904792f, -0.031911325f, -0.060049161f, -0.02890091f, 0.06817735f, 0.0065124533f, 0.071991064f, 0.01675711f, -0.010541331f, 0.061047815f, 0.065299772f, 0.046990987f, -0.018842313f, -0.0088993227f, 0.0062435828f, 0.089956686f, -0.04722552f, 0.063514262f, -0.062718779f, 0.1124296f, 0.043604828f, -0.054383185f, -0.096648619f, 0.097212374f, 0.099139489f, 0.061686523f, -0.069261841f, 0.16191183f, 0.058957182f, 0.068000033f, 0.084302254f, -0.060671568f, 0.033043392f, 0.054835703f, -0.013863611f, 0.13771284f, 0.079216979f, -0.016289352f, 0.068935394f, 0.043467294f, 0.019403869f, -0.0046474715f, -0.026492931f, 0.026889428f, 0.073383689f, 0.01183514f, -0.020531399f, -0.034718756f, -0.064302333f, 0.097152293f, -0.062216427f, -0.057149138f, -0.0076164063f, -0.074775323f, -0.082148917f, 0.060817119f, 0.13907681f, 0.049257334f, -0.091555089f, 0.028114459f, 0.00854511f, 0.013280425f, 0.049550027f, -0.025256582f, 0.061254974f, -0.072240107f, -0.14020647f, -0.0086945863f, 0.099421903f, 0.0080879387f, -0.043465983f, -0.026405372f, -0.063989244f, -0.091874614f, -0.078629203f, 0.070242628f, 0.025339803f, -0.093502901f, 0.15586695f, 0.10663001f, -0.074832909f, -0.014886719f, -0.015384459f, -0.028842865f, 0.01131216f, 0.017836958f, 0.054057106f, 0.012656819f, -0.017452275f, -0.10182594f, 0.0057079461f, 0.03418678f, -0.025150962f, 0.14722905f, 0.079493627f, 0.057423089f, 0.025735868f, 0.029308256f, 0.14720972f, 0.12700066f, 0.032066651f, 0.033389263f, -0.059852947f, 0.077488557f, -0.066607065f, 0.054479368f, 0.053718351f, 0.081431918f, 0.087572619f, -0.11984088f, 0.0014845188f, -0.028523233f, 0.097585954f, -0.057199597f, 0.09210819f, 0.15043044f, -0.02173904f, -0.0044549298f, 0.072929449f, -0.048340529f, -0.015627151f, 0.046944544f, 0.12416083f, 0.0092778476f, -0.073149204f, -0.030815477f, 0.07295806f, 0.13301733f, 0.053101216f, -0.055710766f, 0.049303833f, 0.00059131737f, -0.029612716f, 0.03962522f, 0.069743142f, -0.038066152f, 0.081019662f, 0.064210616f, -0.03214832f, 0.035860207f, 0.12805197f, -0.0095442533f, 0.0093996106f, 0.039225489f, 0.094728075f, 0.050311908f, -0.0039520655f, 0.050987076f, -0.031831168f, 0.018365173f, 0.1017702f, 0.10888513f, 0.034563456f, -0.01986941f, 0.13135204f, 0.00248374f, 0.057533178f, 0.077080339f, 0.051737964f, -0.0052032f, -0.087330893f, -0.013614154f, 0.037191093f, 0.043898888f, -0.043677688f, 0.068140961f, 0.0016804462f, 0.15266553f, 0.15127608f, -0.075882785f, -0.03766254f, -0.015297445f, 0.038776644f, 0.095020711f, 0.00037871706f, 0.0015542549f, 0.090427287f, 0.066635333f, -0.017160026f, 0.039406419f, -0.020627279f, -0.085049577f, -0.0079041319f, 0.13229501f, 0.026461005f, 0.096594334f, 0.086393066f, -0.038447928f, 0.019071197f, 0.10034628f, 0.067757159f, 0.10862564f, 0.065758243f, -0.0081709502f, 0.053955246f, 0.014875149f, 0.086043015f, 0.039862454f, 0.055766765f, 0.042180926f, 0.11516237f, 0.061254378f, -0.034229882f, 0.073885895f, 0.1355909f, 0.13137284f, 0.048257951f, 0.054775704f, 0.047088038f, -0.049743645f, 0.090848871f, 0.038677253f, -0.071958952f, 0.13413681f, -0.0084006591f, -0.04208507f, -0.0012947296f, 0.10836203f, 0.052659128f, -0.065768287f, 0.039731972f, -0.078595474f, 0.010595968f, 0.093537621f, 0.023909202f, -0.085352875f, -0.074396648f, -0.095899284f, -0.048923943f, -0.020445915f, -0.073607542f, 0.058649939f, 0.072936453f, -0.054120224f, 0.030001706f, 0.031645715f, 0.10385488f, 0.049468547f, 0.026211526f, -0.033616908f, -0.090193123f, -0.030506743f, -0.025272707f, 0.036590312f, 0.12432319f, -0.017238041f, 0.12554291f, -0.028349014f, -0.020233128f, -0.09660393f, 0.12538384f, 0.00024562841f, 0.075858854f, -0.069108211f, -0.059295323f, 0.03909139f, -0.016557822f, 0.0021680829f, 0.033459112f, -0.089027248f, -0.046071406f, 0.071139619f, 0.011684961f, 0.00091099489f, 0.030546425f, -0.050789218f, -0.077456795f, 0.038523518f, 0.024653809f, 0.037404586f, 0.041552328f, 0.046418641f, -0.018016359f, -0.022744203f, -0.067257918f, 0.037947014f, 0.052583475f, 0.057143379f, -0.08048556f, -0.0087440228f, -0.034756899f, -0.004354124f, -0.036090519f, -0.095495552f, -0.0030180588f, -0.010223325f, 0.045314286f, 0.089068837f, -0.04578783f, 0.06606584f, -0.015375312f, -0.05336475f, -0.04240026f, 0.10893352f, -0.084454834f, -0.035390299f, 0.025018796f, 0.028857403f, -0.040467493f, -0.012963674f, -0.11168317f, -0.069467641f, 0.089384936f, 0.088609032f, 0.039222289f, -0.069943972f, 0.070271477f, -0.0018479993f, -0.09078747f, 0.024937844f, -0.010499054f, 0.092252731f, 0.035194088f, -0.037543152f, 0.11611637f, 0.096977957f, 0.07569731f, -0.078242056f, 0.089977562f, 0.045634873f, 0.056432348f, 0.028789669f, 0.10679585f, 0.057991218f, 0.032612894f, 0.0023641414f, 0.0008222849f, -0.014480341f, 0.07946638f, 0.091847241f, 0.12168301f, 0.069013752f, 0.084688365f, 0.063990392f, -0.077399924f, -0.082451917f, 0.10772508f, 0.026060609f, 0.033639204f, -0.030534042f, -0.018999785f, 0.087666012f, 0.046685323f, 0.086938553f, 0.074176215f, -0.017444026f, -0.016246384f, 0.065908462f, 0.017023269f, -0.093909517f, 0.030706588f, 0.088830188f, -0.011953317f, -0.11952683f, 0.046177726f, -0.027944772f, -0.03070247f, 0.10041199f, 0.037881419f, 0.0083945766f, 0.0062305387f, 0.031177446f, 0.11980348f, -0.10464483f, -0.049388807f, 0.025637168f, 0.013194088f, 0.097020701f, -0.093665488f, 0.076534152f, 0.048139904f, 0.018601285f, 0.060014632f, 0.10200258f, 0.1002101f, 0.14266624f, -0.01948043f, -0.018818716f, 0.13596724f, -0.044326294f, -0.0069219954f, 0.01061884f, -0.054563064f, 0.08554484f, -0.046815198f, 0.015970673f, 0.058849461f, -0.088309705f, 0.027534947f, -0.089662388f, 0.020292666f, 0.072147906f, 0.070689388f, 0.06304621f, -0.092306688f, 0.026067261f, 0.00815468f, 0.069843866f, 0.092242502f, -0.013610683f, 0.10602152f, 0.027790537f, 0.0053945691f, 0.095975779f, -0.016865036f, 0.076837935f, -0.10331567f, 0.047356635f, 0.037802435f, -0.023721593f, -0.13683961f, -0.04386469f, -0.027121063f, 0.077252388f, -0.10070542f, 0.024110794f, 0.010897837f, 0.022101022f, -0.02847616f, 0.083313987f, 0.11357666f, 0.12829579f, 0.036536656f, -0.056366742f, -0.10139242f, -0.05003725f, -0.052512504f, 0.056310505f, -0.07015086f, 0.014161674f, -0.030853787f, 0.071972333f, 0.019575864f, 0.10057289f, -0.026537484f, 0.07992436f, 0.041901406f, -0.017235795f, 0.034634221f, 0.031644966f, 0.11391713f, 0.038924541f, 0.12052562f, 0.11829889f, -0.045600198f, -0.050537959f, -0.0017772019f, 0.023451971f, 0.099264741f, 0.0045999102f, 0.028217396f, 0.10029664f, -0.026259437f, -0.0084978165f, 0.06615065f, -0.012754085f, -0.037613634f, -0.028668456f, 0.12323107f, 0.01429097f, -0.027503582f, -0.070074111f, 0.14492929f, 0.095535807f, 0.092492163f, 0.060426679f, 0.079259805f, 0.032657292f, -0.10767844f, -0.013863122f, 0.033532284f, -0.042508468f, 0.030070959f, 0.12977129f, -0.017481517f, -0.1328813f, -0.020260811f, -0.0082948292f, 0.06017017f, 0.033515852f, 0.091331571f, 0.029595116f, -0.078425124f, -0.054201279f, -0.076213799f, -0.041476399f, 0.082218699f, 0.012248218f, 0.1147927f, 0.011556417f, -0.031899739f, -0.021429235f, 0.062588148f, 0.0038267828f, 0.046192527f, 0.086831689f, -0.051356293f, -0.036250364f, 0.022378441f, 0.069588006f, 0.023174366f, 0.0096778478f, 0.064054199f, 0.0069619948f, -0.016874079f, -0.06880156f, -0.048198391f, 0.0077086608f, 0.12000051f, 0.056614235f, -0.014586409f, 0.10977406f, -0.065421723f, 0.072139308f, 0.091518193f, -0.087308973f, 0.11310615f, 0.054947931f, -0.028172599f, 0.10774457f, 0.099677078f, -0.058712132f, 0.062475022f, -0.025617128f, -0.062899418f, 0.088671952f, 0.013137514f, -0.061551034f, 0.025216414f, -0.073859647f, -0.0046547642f, 0.014054295f, 0.095788062f, -0.010638261f, 0.065290578f, -0.089285553f, 0.045783315f, 0.091408856f, 0.08756724f, 0.014434453f, 0.089157596f, 0.051794786f, 0.019317932f, 0.0051976969f, 0.0050384342f, 0.10842237f, -0.026643539f, 0.066663913f, 0.084247559f, 0.046131123f, 0.038686652f, -0.038157091f, -0.0332844f, 0.052163593f, 0.030785512f, -0.03087985f, 0.032376572f, -0.069873855f, 0.068402134f, 0.041614752f, 0.056061931f, 0.055771042f, -0.015677746f, 0.026325058f, -0.055945706f, 0.05214655f, 0.078026824f, 0.041073374f, -0.075280838f, -0.0073757507f, 0.013856837f, 0.04486781f, 0.047683731f, 0.035774037f, 0.013560267f, 0.067815982f, 0.041312385f, 0.11261716f, 0.0098437779f, 0.074448541f, 0.042767551f, -0.0061972607f, -0.041910365f, 0.024417423f, 0.055101324f, 0.09565378f, 0.058045615f, 0.10805819f, -0.045377523f, -0.060061395f, -0.10899772f, 0.0022235061f, -0.035182074f, 0.062409639f, 0.017688649f, 0.067411289f, 0.024314646f, 0.076765262f, -0.011610139f, -0.0029979697f, 0.021790301f, 0.066800408f, 0.038054813f, 0.067700662f, -0.076272361f, -0.10213195f, -0.002959558f, -0.049018968f, -0.032810483f, -0.10104994f, -0.063788213f, -0.0041086897f, 0.060286716f, 0.097819448f, 0.04759882f, 0.15023811f, 0.1174946f, -0.11586781f, 0.14580046f, -0.006884241f, 0.057986986f, 0.02294034f, -0.029854352f, -0.036090411f, -0.045766488f, 0.098789692f, 0.038562465f, -0.0021722207f, 0.054486364f, 0.1111821f, 0.086231522f, 0.046897497f, 0.11113646f, -0.042743843f, 0.087553248f, 0.083861098f, 0.080568776f, 0.021969527f, 0.025635466f, 0.088566303f, -0.0018430675f, 0.11739641f, 0.012559966f, -0.12127318f, 0.11035878f, 0.036314975f, 0.059694152f, 0.094518147f, -0.062236764f, 0.072441101f, 0.057961758f, 0.032593142f, 0.065951459f, -0.011420271f, -0.019509956f, 0.027115254f, -0.036110207f, -0.066703655f, -0.10652989f, 0.075767674f, 0.08553151f, -0.0056277122f, -0.10047421f, -0.092348032f, 0.045849375f, 0.076669089f, -0.013211992f, -0.056321766f, 0.025021361f, 0.0077623492f, -0.023919456f, 0.059623916f, 0.035729274f, 0.027360497f, 0.086994067f, 0.039188772f, 0.077672549f, 0.0016489057f, 0.01192875f, -0.027855322f, -0.061643295f, 0.01051522f, 0.056533705f, 0.07243637f, -0.018817162f, -0.046026606f, 0.058370553f, 0.029710814f, -0.051420182f, -0.061400849f, -0.052190669f, 0.1216263f, 0.087028131f, 0.0064723347f, 0.074702941f, -0.061699871f, -0.063903987f, 0.052033596f, 0.12381855f, 0.046703093f, -0.047373191f, -0.072309941f, -0.026701875f, -0.019121718f, 0.067378715f, -0.0088038025f, -0.037607335f, 0.11775929f, -0.0603952f, -0.0049620233f, 0.046448801f, 0.0044859513f, 0.015463397f, 0.11023171f, 0.080856904f, -0.0055307029f, 0.046655003f, -0.088894859f, -0.068030894f, -0.072720878f, 0.018088115f, -0.042776879f, 0.07256639f, -0.013485697f, 0.036347769f, 0.13480911f, 0.049214367f, -0.017585285f, 0.090373896f, -0.014845498f, 0.091759019f, -0.087799653f, -0.075558268f, -0.11903173f, -0.0034639372f, 0.11661159f, 0.036348689f, -0.11378849f, -0.12296853f, -0.080697469f, 0.080576189f, 0.0097757438f, -0.039605565f, 0.12535037f, 0.095790915f, -0.096653447f, 0.064453676f, -0.023787785f, 0.042830124f, 0.002098429f, 0.00033214028f, 0.050907973f, -0.035802927f, -0.012891023f, 0.026014833f, 0.024824718f, 0.069606535f, 0.13882005f, 0.0090538729f, 0.0810427f, 0.011589052f, -0.010303126f, 0.054568481f, -0.072752796f, 0.076022796f, 0.011333236f, -0.039735008f, 0.099058911f, -0.03059572f, -0.048398204f, -0.075042509f, -0.012557972f, 0.014128632f, 0.09475518f, 0.069363736f, -0.0076430589f, -0.060554441f, -0.044929944f, 0.0080338344f, -0.031570725f, 0.024553536f, 0.017503191f, 0.0063141012f, 0.098764941f, -0.059491277f, -0.10558435f, 0.017647654f, 0.091498174f, 0.10596753f, -0.00051651773f, -0.1271584f, 0.0034626422f, -0.0022135477f, 0.042010892f, 0.029299866f, -0.047404099f, 0.0098547572f, 0.050308064f, -0.013149728f, 0.11544646f, -0.079811439f, 0.062889859f, 0.019665921f, -0.060377538f, 0.088346459f, 0.039190054f, -0.01833827f, 0.01546705f, -0.066557869f, 0.12129305f, -0.008248155f, 0.13776726f, 0.038251244f, -0.024247691f, -0.016313309f, 0.11310362f, 0.037354823f, 0.034987081f, 0.042515751f, 0.12301127f, -0.052363731f, 0.085699566f, 0.12162002f, 0.0019826386f, -0.055476937f, -0.049052414f, 0.14364253f, 0.0053943079f, 0.098060779f, -0.077660762f, -0.054063156f, 0.037015893f, 0.033244334f, 0.057137694f, 0.030031692f, 0.12503357f, 0.097493969f, -0.075782999f, 0.042117231f, -0.0089449566f, 0.10421506f, 0.083704852f, 0.10764182f, 0.084691674f, -0.048752021f, 0.042229716f, -0.10656097f, 0.070917703f, -0.0054687546f, 0.020424372f, 0.0050151162f, 0.033719886f, -0.037072312f, -0.03949121f, -0.075066f, 0.049876485f, 0.062278487f, 0.039542217f, 0.045572795f, -0.0021871708f, 0.023501525f, -0.12195508f, -0.036097471f, -0.028338043f, -0.067104451f, -0.073615178f, 0.029968796f, -0.068493709f, -0.019079676f, 0.056509543f, -0.069939934f, 0.14558257f, 0.053828813f, 0.008062901f, 0.08586482f, 0.0098416964f, 0.042610899f, -0.011383966f, 0.05688196f, 0.095194079f, -0.025346106f, 0.0082734302f, 0.030082706f, -0.024026139f, 0.13134925f, 0.13319188f, 0.12045913f, 0.11564456f, -0.0077742008f, -0.035322644f, 0.039855894f, -0.09460178f, 0.036607854f, 0.089301854f, 0.10708701f, 0.022685064f, -0.0093371356f, 0.039701007f, -0.038079485f, 0.021923902f, 0.058370117f, -0.0047849221f, 0.076450862f, 0.12798758f, 0.0065749716f, -0.015287128f, -0.064970084f, 0.088019788f, -0.011234845f, -0.006922605f, 0.0044738399f, -0.023706393f, 0.053578936f, -0.054941114f, -0.057362083f, 0.10810798f, 0.075231284f, 0.14023873f, 0.054439638f, 0.0027352478f, 0.083079241f, 0.12432513f, -0.13296048f, -0.073751688f, 0.11179294f, -0.022302462f, 0.0072973529f, 0.07753481f, -0.062122345f, -0.017140992f, 0.10157155f, 0.075305782f, 0.0085972724f, 0.018424291f, 0.055922817f, -0.040555246f, 0.052819248f, 0.076202989f, 0.001681453f, 0.073619425f, -0.103214f, 0.031939074f, 0.072652124f, 0.01519651f, -0.019333402f, 0.040200494f, 0.0081096105f, 0.06925533f, 0.090315022f, 0.0065755527f, -0.0013891107f, 0.069577754f, -0.044303443f, -0.07105013f, 0.13605461f, 0.016678089f, 0.097455025f, -0.12239908f, -0.028249839f, -0.026925119f, -0.053133667f, -0.077639595f, -0.034797519f, 0.062406834f, 0.057281662f, 0.054187737f, -0.0264196f, 0.073954046f, 0.059291333f, 0.06027317f, 0.018692143f, 0.1196641f, 0.089140393f, -0.10829106f, -0.0066896765f, -0.0085116951f, -0.017223947f, 0.11707813f, 0.066587508f, 0.097086541f, 0.085411698f, -0.079012342f, 0.0283846f, -0.0315901f, -0.11888012f, -0.054015748f, 0.066699013f, -0.16452666f, -0.086613372f, 0.097891599f, 0.097611241f, 0.078387223f, -0.055845749f, 0.14511362f, 0.020351192f, 0.11082219f, 0.012627816f, 0.065416507f, 0.01747904f, -0.013799487f, -0.07093858f, 0.055800214f, -0.071843565f, 0.1074618f, -0.038031202f, -0.13527958f, -0.02443946f, 0.058932118f, 0.12230423f, -0.008754232f, 0.01682278f, -0.02377346f, 0.0051007397f, -0.077851459f, -0.06360855f, -0.034777332f, -0.081748568f, 0.055020183f, 0.038848128f, 0.10369507f, 0.038133699f, -0.0095970416f, -0.0044897366f, 0.10142064f, -0.023148337f, -0.12255985f, 0.066530488f, -0.013880408f, -0.020320512f, 0.035613023f, 0.082306758f, 0.047427159f, -0.012624269f, -0.033495538f, 0.058135521f, -0.047006223f, 0.036186483f, -0.12536803f, 0.040752776f, 0.0099225817f, -0.017841691f, 0.082735032f, 0.027873836f, 0.092939943f, -0.12212961f, 0.027589966f, 0.046272438f, 0.098091155f, 0.099745303f, -0.033544205f, 0.08565519f, -0.084898688f, -0.052385841f, 0.016642053f, 0.058249407f, 0.037718259f, -0.044237394f, -0.082498558f, -0.041005857f, -0.096370555f, 0.048241865f, -0.032247677f, 0.073391467f, 0.013947586f, 0.076688096f, 0.026015405f, 0.086436875f, -0.003692603f, -0.023207245f, 0.032524303f, 0.02921799f, -0.057653558f, -0.038357802f, 0.024415677f, 0.061824206f, 0.054576777f, -0.032886207f, 0.066849671f, 0.014418622f, 0.11492473f, -0.0055748816f, 0.097543202f, 0.029941238f, 0.061594892f, 0.113555f, 0.07866282f, 0.048025738f, -0.05043567f, 0.065321185f, -0.0095608374f, -0.02352633f, 0.032697733f, 0.030212663f, 0.0098805409f, 0.1057262f, 0.082438812f, 0.019277375f, -0.02291818f, 0.051892664f, -0.066084199f, 0.046320297f, 0.048483197f, -0.0024404395f, -0.092313841f, -0.056720793f, 0.046422992f, 0.029791182f, 0.045015715f, 0.021243569f, -0.044681344f, 0.047250967f, 0.0009658729f, -0.12489869f, -0.073822215f, -0.018739829f, -0.17066747f, 0.0075411564f, 0.087514907f, 0.058612578f, 0.083961546f, -0.039816808f, 0.05096072f, 0.039054878f, -0.0050647333f, -0.018903261f, 0.084323846f, 0.063609399f, 0.02349123f, -0.0045978921f, -0.038635097f, -0.055908155f, 0.11864236f, -0.052219525f, -0.071791865f, 0.026379429f, 0.076408073f, 0.039084479f, -0.0430425f, 0.019002546f, 