/* Generated MLP weights for snake OJ inference. */
#define MLP_INPUT_DIM 40
static const int net_0_weight_len = 5120;
static const float net_0_weight[] = {0.1774137f, -0.076362364f, 0.15336025f, 0.16572702f, -0.11007882f, -0.15138656f, 0.041658476f, 0.16376126f, 0.087559052f, 0.16926657f, 0.054454599f, 0.14293268f, 0.074045666f, 0.071463399f, 0.081595153f, 0.15674572f, 0.096378565f, -0.090519547f, 0.15988776f, 0.026255788f, -0.043041416f, 0.15216468f, 0.0070993006f, -0.093880281f, 0.092476487f, -0.011356055f, 0.0133119f, -0.040854972f, 0.12815657f, 0.12090179f, -0.10325948f, 0.03573994f, 0.05737672f, 0.12896313f, 0.010638123f, -0.049027499f, 0.0058971392f, 0.092275195f, -0.16632465f, 0.0029970135f, -0.017011967f, -0.070504986f, 0.15763205f, -0.082271941f, -0.0070874165f, -0.092317432f, 0.093521163f, -0.075516306f, 0.18474148f, -0.054759804f, 0.15114129f, -0.078161933f, 0.0078045679f, -0.10525569f, -0.15862851f, 0.087856427f, 0.0062502846f, -0.067871004f, 0.082190044f, 0.16585752f, -0.13781039f, 0.082801059f, 0.12009107f, 0.068598658f, 0.17069075f, 0.11327717f, -0.011315063f, 0.085944995f, 0.04331838f, 0.1346121f, 0.15439844f, -0.053292152f, 0.098646551f, -0.035086516f, -0.11172535f, -0.1255108f, -0.14056522f, -0.089945532f, 0.081977375f, 0.10929594f, 0.013120751f, -0.026822373f, 0.025960643f, 0.027665388f, -0.052851163f, 0.15929049f, -0.12524842f, -0.068845294f, -0.15724257f, 0.18770769f, -0.058525193f, -0.037060782f, 0.030182624f, 0.2209215f, 0.13613251f, 0.17643677f, -0.080704704f, -0.0056783669f, 0.1391038f, 0.049848109f, -0.15616584f, 0.014448931f, 0.091226965f, 0.050661121f, 0.092165276f, 0.059477713f, 0.16720538f, -0.044117756f, 0.13368845f, 0.07539393f, -0.11085941f, -0.051616199f, 0.16339497f, -0.073365338f, 0.1070694f, -0.014055109f, -0.066490136f, 0.03081923f, -0.25372723f, 0.20408636f, -0.10114147f, -0.071787126f, 0.018019125f, 0.016084827f, -0.12487338f, 0.14557208f, 0.12276687f, 0.12703615f, -0.091950037f, -0.058757372f, 0.13404147f, -0.008775901f, -0.14258654f, 0.20154257f, -0.12362865f, 0.14068876f, 0.01555554f, 0.034206264f, -0.0037725393f, 0.12252352f, -0.20908374f, 0.097661763f, 0.095096998f, 0.00069142063f, -0.053840686f, 0.14114611f, 0.07997071f, -0.18046977f, -0.1422959f, 0.12796508f, -0.09896972f, -0.040454671f, 0.11515968f, 0.087696932f, 0.095830999f, 0.090071268f, -0.17809495f, -0.13155255f, -0.20871539f, 0.12307423f, -0.20504254f, 0.18249498f, 0.047348499f, 0.094140604f, 0.1527819f, -0.056976005f, -0.016556151f, 0.12019116f, -0.031526092f, -0.041555203f, 0.04668228f, 0.019796951f, -0.11744455f, 0.26259226f, 0.053312846f, 0.037278894f, 0.09081462f, 0.025294272f, 0.07433787f, 0.041437823f, -0.16963018f, 0.029807881f, 0.062873341f, 0.17594911f, 0.10850638f, 0.16947186f, 0.084127851f, 0.059388086f, 0.044356946f, -0.044337034f, 0.10772488f, 0.065313533f, 0.15644331f, 0.0048803231f, 0.12769106f, -0.03959661f, -0.060869474f, -0.067280658f, -0.045661163f, 0.0086418046f, 0.11649385f, 0.1395573f, -0.025364302f, -0.12775786f, 0.16902132f, 0.088628501f, 0.0086967573f, 0.033032779f, 0.075868703f, -0.063967131f, -0.059616763f, 0.040004928f, 0.086891465f, -0.13291788f, 0.21204656f, -0.14109635f, -0.052225564f, 0.16683935f, -0.15487865f, 0.084367588f, 0.18813263f, -0.067352884f, 0.022910336f, 0.14827113f, -0.081868403f, -0.056995984f, -0.011367792f, -0.2632969f, -0.076789528f, 0.11981329f, -0.12710267f, 0.15430626f, -0.051125325f, -0.15227681f, 0.18164374f, 0.05899385f, -0.09997537f, -0.042247307f, 0.042082958f, 0.077939704f, 0.18165039f, -0.0124941f, -0.098358348f, 0.14253567f, 0.13782163f, -0.077603914f, 0.074885882f, 0.17275257f, 0.1279707f, -0.054993104f, 0.12422491f, 0.11995375f, -0.16590966f, 0.043726087f, 0.05594271f, 0.0083193947f, -0.11466983f, 0.10028556f, 0.13617489f, 0.053209629f, -0.11338922f, -0.10120052f, 0.107791f, -0.014271877f, -0.034240287f, 0.19641781f, 0.086128756f, -0.25869501f, -0.024848262f, 0.09705656f, 0.099025138f, 0.10463236f, 0.057758123f, -0.03692824f, 0.022408104f, 0.029589297f, 0.10836288f, 0.017869484f, -0.00063226308f, 0.16198383f, -0.18930274f, 0.028874815f, 0.012584465f, -0.15514781f, 0.068708047f, -0.034996465f, -0.0055560982f, 0.18578056f, -0.15649106f, -0.030517222f, 0.035761558f, -0.044675857f, -0.0076404535f, 0.28656736f, -0.051915362f, 0.16334541f, 0.04521393f, 0.069585957f, -0.05317045f, 0.096507914f, -0.032660935f, -0.070291847f, 0.18859144f, -0.11099719f, 0.1455673f, 0.03787962f, -0.096304603f, -0.10946115f, -0.032666292f, 0.081843041f, 0.058073215f, 0.080172375f, 0.10804685f, -0.14359877f, 0.15866171f, 0.14639461f, -0.11220107f, -0.069659688f, 0.059801042f, -0.071141332f, 0.21918538f, 0.10335404f, 0.12947255f, 0.045437522f, 0.12479728f, -0.13084994f, 0.20928605f, 0.022991052f, -0.06672477f, -0.066003144f, -0.12180609f, 0.04637786f, 0.0075283768f, -0.17839909f, -0.077795595f, 0.090468988f, 0.027541433f, 0.057786457f, 0.092299834f, 0.072250433f, -0.13191123f, 0.17179106f, 0.0040494823f, -0.058051921f, 0.12961051f, -0.057532035f, -0.095358886f, 0.036560871f, -0.074248061f, 0.015901024f, -0.091552109f, 0.10447402f, 0.047422446f, -0.01090956f, 0.11550659f, -0.086072788f, -0.12875032f, -0.146883f, 0.24290411f, 0.14250499f, 0.016185261f, -0.16317314f, 0.17228237f, -0.0053194552f, -0.082571566f, -0.13270763f, -0.12923719f, 0.12475417f, -0.063457012f, 0.10496292f, 0.054571807f, -0.12589112f, 0.080113769f, 0.038481094f, -0.085248359f, 0.13061988f, -0.048110541f, -0.079346351f, 0.041115135f, 0.049231648f, 0.098015159f, -0.13772759f, -0.051097643f, -0.057890795f, -0.01893506f, -0.063194349f, 0.11436723f, 0.055288713f, 0.094367318f, -0.06773255f, 0.070176102f, 0.026311468f, -0.11341039f, -0.02529799f, 0.11634059f, -0.055797338f, -0.1370263f, 0.23588295f, 0.058221091f, -0.16680908f, 0.13606346f, 0.034973089f, 0.06180618f, -0.020880219f, -0.01054716f, 0.16701628f, -0.22593874f, 0.12941559f, 0.077797949f, 0.12434184f, -0.083707385f, -0.041291725f, -0.024551429f, 0.060694199f, 0.01268631f, -0.22055206f, 0.0793368f, 0.17104158f, -0.025630029f, 0.018212471f, 0.17483158f, -0.043290328f, -0.12673981f, 0.087575674f, 0.074275173f, 0.059895325f, -0.14518195f, 0.11818624f, 0.13856687f, -0.029812742f, -0.10679216f, 0.039720844f, 0.14301975f, 0.10495272f, 0.0044525201f, -0.059593193f, 0.056013919f, 0.33920559f, 0.18016675f, -0.043402124f, 0.044381171f, -0.038119841f, -0.034510225f, 0.063373595f, 0.097135492f, 0.096770339f, -0.12116553f, -0.048883472f, -0.12677285f, -0.034780934f, -0.11524522f, 0.0293066f, -0.09064588f, -0.079540931f, 0.081525862f, 0.029315094f, 0.15351605f, -0.11410131f, 0.10420388f, 0.12246637f, 0.0013406046f, -0.11096648f, -0.15449381f, -0.074042074f, 0.19499375f, -0.13175409f, -0.14521666f, 0.25772533f, -0.14032741f, 0.050845351f, 0.083826385f, 0.091875359f, 0.052446827f, -0.12353026f, -0.10563725f, 0.10229818f, 0.016009839f, 0.20284155f, 0.21985501f, -0.11532737f, 0.06676355f, -0.0044568111f, -0.10665889f, -0.014258274f, 0.19389871f, -0.12987128f, -0.011049402f, -0.12430632f, 0.029871598f, 0.11050478f, -0.12757644f, 0.10604598f, 0.045616422f, -0.15186751f, -0.12908757f, -0.1170358f, 0.12997508f, 0.088694528f, -0.12643492f, -0.017273648f, -0.11439431f, -0.0069296407f, -0.085859902f, 0.15175183f, 0.063144952f, -0.13690525f, -0.10648185f, 0.19267415f, 0.022031173f, 0.0093057407f, -0.033653986f, 0.086127609f, -0.013661311f, -0.050469022f, 0.10698231f, -0.033835158f, -0.016908575f, -0.30464572f, 0.14642391f, -0.13839376f, -0.19609365f, -0.029789006f, -0.10886787f, 0.085370287f, 0.084619641f, 0.027057778f, 0.0048290635f, -0.087299347f, 0.13745612f, 0.15484719f, 0.18135554f, -0.12097981f, -0.12389637f, 0.19035013f, -0.10743836f, 0.18524706f, 0.16506313f, 0.12942731f, 0.086220525f, -0.043596987f, 0.0043062796f, 0.19599077f, 0.14462592f, 0.055239398f, -0.039081264f, -0.088980272f, -0.060095083f, 0.0058830278f, -0.049733371f, 0.02229009f, 0.17641917f, 0.083335511f, -0.016020067f, 0.0093741994f, -0.088143371f, 0.078038134f, 0.0017568953f, 0.13262895f, 0.028498853f, -0.14613235f, 0.15479216f, 0.16940981f, 0.14785042f, 0.1678628f, -0.0022375223f, -0.16064817f, 0.10140026f, 0.057901248f, 0.1811493f, 0.023496982f, -0.025821358f, 0.16223229f, -0.048234724f, -0.17001067f, -0.045339238f, -0.026705425f, 0.03635627f, -0.070484862f, -0.060583707f, -0.036220215f, -0.24487449f, 0.028963519f, -0.11090571f, 0.15174738f, 0.14149614f, 0.059389405f, 0.18653141f, 0.027743515f, 0.10168768f, -0.090560943f, -0.042022191f, -0.11485589f, -0.032590367f, 0.015813025f, 0.16635148f, 0.088530712f, 0.083331712f, -0.14183345f, -0.11988407f, -0.026498355f, -0.00830846f, -0.057357218f, -0.10533649f, 0.011073275f, 0.059938289f, 0.16019133f, -0.076991126f, 0.15184483f, -0.041534912f, -0.016800299f, 0.15338896f, 0.011069905f, 0.18588029f, 0.065142766f, 0.028612765f, -0.13756579f, -0.057431448f, 0.16648681f, 0.065674096f, -0.13321286f, 0.11831618f, 0.030478854f, -0.0015590551f, 0.18270853f, 0.20196097f, 0.17293921f, -0.08532773f, -0.048107728f, -0.079898946f, -0.0017945773f, 0.12154583f, -0.068818331f, 0.028404126f, 0.10762854f, 0.056483518f, -0.10235807f, 0.097782962f, 0.047949426f, -0.10591331f, -0.096769616f, 0.041807935f, -0.08177194f, 0.091695875f, 0.10731319f, 0.14929652f, -0.16067196f, 0.032480635f, 0.17725885f, 0.10591567f, 0.16282059f, 0.11843732f, -0.025668211f, -0.0665126f, 0.032825842f, 0.16443995f, -0.012590695f, 0.016217753f, 0.14703161f, -0.083078831f, -0.085210584f, 0.031087065f, 0.11577031f, -0.11327164f, -0.11018476f, -0.058298241f, 0.079629339f, -0.040143702f, -0.076356739f, 0.0096677691f, 0.10516853f, 0.10814276f, 0.18470438f, 0.016873214f, 0.10708892f, -0.049939927f, -0.080298953f, -0.030806957f, -0.1339149f, -0.08274626f, 0.063658312f, 0.048686944f, 0.11818076f, 0.00012347093f, -0.10211046f, 0.17963214f, 0.16736403f, 0.035223063f, 0.12277327f, 0.0096346261f, -0.059863351f, -0.068925202f, -0.081158303f, -0.073630415f, 0.22932085f, 0.072032489f, 0.077190012f, -0.0041674352f, 0.06877698f, -0.080949925f, 0.080152668f, 0.0080860276f, -0.10638267f, 0.10183492f, 0.098344907f, 0.0071126488f, 0.0550787f, 0.01116653f, 0.012861437f, -0.027738845f, 0.0098469621f, -0.070244245f, -0.0055728657f, 0.097040005f, -0.14187768f, 0.16264001f, 0.060829703f, -0.053305071f, 0.17304289f, 0.050863154f, 0.078573205f, 0.032014981f, -0.065060392f, 0.086231865f, 0.12284397f, 0.073066734f, -0.05492454f, 0.094576299f, -0.020934414f, 0.16661686f, 0.17751235f, -0.1129713f, -0.018876716f, 0.14249697f, -0.0643944f, 0.089213423f, -0.041890498f, -0.14033473f, -0.074903004f, 0.18940464f, 0.15261728f, 0.037709463f, 0.15028693f, -0.14289583f, 0.044592667f, 0.18302992f, 0.069041975f, -0.050435025f, 0.02439961f, -0.075848192f, -0.063033216f, 0.020481911f, -0.069368765f, -0.064876474f, -0.059403598f, -0.13083796f, -0.029197752f, 0.082874417f, -0.051591735f, 0.20754671f, -0.095521465f, -0.023153564f, -0.0089685665f, 0.09058734f, 0.020728217f, -0.19418801f, -0.072412521f, 0.071275078f, 0.022545429f, 0.019401142f, -0.025163848f, -0.043437839f, 0.16520536f, 0.16450758f, -0.16336776f, 0.18146084f, 0.16273195f, -0.053402677f, 0.12224542f, -0.039722446f, 0.089531347f, 0.094593123f, -0.097135559f, 0.036380615f, 0.013915849f, -0.14624588f, -0.0053680474f, 0.072599225f, -0.24059692f, 0.16057061f, 0.0093187559f, 0.14416695f, 0.1290594f, 0.024797227f, -0.12775531f, 0.018330364f, 0.051453732f, -0.084389515f, -0.24964392f, 0.21690948f, 0.21452734f, 0.020043159f, -0.016063768f, -0.13462944f, -0.12366042f, 0.1637353f, 0.11735069f, -0.10933829f, -0.15568481f, -0.044343859f, 0.030894939f, 0.052493252f, 0.1006301f, 0.0023050357f, -0.16645451f, 0.23193018f, 0.026143728f, -0.098379724f, 0.036958788f, -0.094533361f, -0.16639696f, 0.17014869f, -0.13578252f, -0.0085659539f, -0.10806385f, -0.10983585f, 0.098651171f, -0.013616201f, 0.026261715f, -0.033044338f, 0.068049707f, -0.024440417f, 0.10230497f, -0.085077055f, -0.11074055f, -0.10906621f, 0.14903536f, 0.062232178f, 0.060252052f, 0.12269362f, -0.10058118f, -0.14312853f, 0.14264691f, 0.084461212f, 0.11097102f, -0.093547463f, 0.12994559f, 0.046590321f, -0.14456402f, -0.087503292f, 0.10170233f, -0.15014623f, 0.11670624f, 0.066946439f, -0.2102143f, -0.029625515f, 0.13484517f, 0.13298169f, 0.15519816f, -0.10753408f, -0.0069718244f, 0.16526122f, 0.13144608f, 0.13386495f, 0.060538713f, 0.13276809f, 0.089320213f, -0.096015036f, 0.14511591f, 0.10379314f, 0.0090632867f, -0.094038352f, 0.065740146f, 0.1723199f, -0.095573552f, 0.038882747f, -0.12570581f, 0.052816462f, 0.19431451f, 0.17636554f, -0.1417155f, 0.16301113f, -0.025536304f, 0.093288101f, 0.16138828f, 0.18270163f, -0.14158462f, 0.11576442f, 0.025279909f, -0.11292937f, 0.10006815f, 0.11370093f, -0.05503533f, 0.07259053f, 0.040574044f, -0.17066072f, 0.092210196f, 0.051104896f, 0.051250327f, 0.16038251f, -0.03147164f, -0.16085178f, 0.19179736f, 0.041921489f, 0.20149525f, 0.10183986f, -0.14615364f, 0.036599267f, 0.046811812f, 0.12918131f, -0.11371531f, 0.14858602f, 0.034466971f, -0.023992131f, 0.0071503166f, -0.032417618f, 0.15015028f, 0.03811802f, -0.071971193f, -0.096940555f, 0.15528581f, 0.041464392f, -0.13350609f, 0.12073789f, 0.15485033f, 0.033777848f, -0.058924202f, -0.0066010742f, 0.10840426f, 0.23072034f, 0.075032428f, 0.0016463286f, -0.02791414f, -0.11438891f, -0.055546656f, -0.06072044f, 0.084061585f, -0.030715637f, 0.15797247f, 0.10584753f, 0.1571923f, -0.098520644f, -0.081660375f, -0.0014168428f, 0.097311698f, -0.067529082f, -0.052955993f, 0.01193559f, -0.23077238f, 0.12889567f, 0.01494258f, 0.069141001f, 0.01058674f, 0.072486192f, 0.042760346f, -0.15991116f, 0.093394451f, -0.16671301f, -0.085845828f, 0.15732946f, 0.13729796f, 0.085693382f, -0.025364371f, 0.0025709255f, 0.13503711f, -0.064183772f, 0.026992196f, -0.14831661f, 0.13731597f, -0.12068291f, 0.082495004f, 0.10875527f, -0.015391489f, -0.20456152f, 0.012230392f, -0.1502661f, 0.23646535f, 0.011490637f, 0.11211169f, 0.17663333f, 0.094249487f, 0.041428674f, 0.12302703f, -0.041589454f, 0.075848371f, -0.09799771f, 0.148966f, -0.060636856f, 0.087258875f, 0.069784552f, -0.049452722f, 0.16649167f, 0.11748298f, -0.074464567f, -0.1133969f, 0.036892235f, -0.099627301f, -0.059197433f, 0.11135313f, -0.26772487f, -0.026587708f, 0.097831689f, -0.10053399f, 0.019927289f, 0.094550073f, -0.11107229f, -0.074074574f, -0.034308761f, 0.061011907f, 0.10956023f, -0.072756305f, -0.052951857f, -0.10896146f, 0.16771081f, -0.068309501f, 0.12260276f, 0.11939232f, -0.11083095f, -0.03083175f, -0.0089510856f, 0.050939377f, -0.16115053f, -0.042331509f, -0.025978979f, 0.13350058f, 0.074087329f, -0.15848275f, -0.14841844f, -0.031375572f, 0.017273957f, 0.0077668526f, 0.14621769f, 0.02036736f, 0.049945049f, -0.14195776f, 0.077521354f, 0.12150278f, 0.17665973f, 0.047638852f, 0.22366455f, -0.022055149f, -0.10963602f, 0.11213931f, 0.15937144f, -0.11682727f, 0.15771051f, -0.054369245f, 0.0011523492f, -0.14825821f, 0.18774715f, 0.090719774f, 0.13028179f, 0.10099976f, -0.080703385f, -0.1159649f, 0.16667435f, -0.037681788f, -0.0056457878f, 0.16620356f, -0.023602208f, -0.038477615f, 0.27456331f, 0.094434001f, -0.024989534f, -0.061736856f, -0.074320063f, -0.040565036f, -0.14075421f, 0.20181702f, -0.068809777f, 0.1699972f, -0.054116935f, 0.078320898f, 0.059172004f, 0.14940757f, 0.035432342f, -0.042048123f, 0.11966944f, 0.14121188f, 0.17526764f, -0.19207434f, 0.10380792f, 0.10694914f, -0.10861432f, 0.032180462f, 0.20329566f, 0.075874798f, -0.023891715f, 0.0245228f, 0.1252006f, 0.0058587156f, 0.15987986f, 0.075181618f, -0.12353698f, -0.022296149f, 0.08339709f, 0.088848457f, 0.0043015783f, 0.12608719f, 0.078138731f, 0.052695055f, 0.024433425f, 0.079753876f, -0.080353394f, 0.1706118f, -0.081427813f, 0.064667329f, 0.1376342f, -0.21391533f, 0.11790412f, -0.0013984725f, 0.14554709f, -0.053165283f, 0.061697856f, 0.14396656f, -0.085653603f, 0.088720657f, 0.061463494f, 0.26868296f, 0.071570359f, 0.069678038f, 0.22176334f, -0.011545943f, 0.051253904f, -0.11047037f, -0.094273724f, 0.12165678f, 0.090437695f, -0.023309501f, -0.04667845f, -0.048569802f, 0.043421075f, 0.00026770227f, 0.1272473f, -0.079695031f, 0.17014703f, 0.14591767f, 0.19956763f, -0.072892219f, 0.13261725f, 0.10581524f, -0.040450048f, 0.07369411f, 0.14751646f, -0.11643597f, 0.034815423f, 0.13947867f, -0.050716851f, -0.0046973294f, 0.13968737f, -0.060995467f, 0.11083935f, 0.1096016f, 0.019337742f, 0.099767767f, -0.1059003f, 0.095819212f, 0.037157163f, -0.19681033f, -0.037387226f, -0.018466299f, 0.12242853f, -0.14382139f, -0.021850256f, 0.1350615f, 0.035122801f, -0.15838765f, -0.06812685f, 0.14808206f, -0.012141063f, 0.14505896f, -0.034489594f, 0.074875869f, 0.18525864f, 0.24400957f, 0.0089203669f, -0.14922749f, 0.056241564f, 0.038242318f, 0.039529119f, -0.10669965f, 0.037305523f, 0.014454653f, 0.0052530286f, 0.035975836f, 0.079290077f, -0.12281476f, 0.097638018f, -0.022308426f, -0.014435275f, -0.11955692f, 0.12038916f, 0.01203852f, -0.046294916f, 0.030131482f, -0.049467508f, 0.14165448f, 0.12828976f, 0.16266322f, -0.21336111f, -0.097209305f, -0.10079025f, -0.020906385f, 0.061422132f, 0.11160804f, -0.085356668f, -0.1150393f, 0.20517384f, 0.13108568f, 0.032701854f, 0.030047741f, 0.11291863f, -0.057258733f, -0.023883849f, 0.2400101f, -0.1333292f, -0.022700151f, 0.13946548f, 0.13683094f, 0.14192873f, -0.036733322f, -0.038496409f, -0.0038585991f, -0.051906206f, 0.018387739f, 0.012886578f, 0.092211701f, 0.065103583f, 0.16600303f, -0.13063826f, -0.075902574f, 0.16496027f, -0.029256985f, 0.16838776f, 0.10049759f, 0.12280669f, 0.019569203f, 0.13819437f, -0.20128825f, -0.15935995f, 0.12959969f, -0.06242751f, 0.066518717f, -0.013882908f, -0.065697081f, -0.030693019f, -0.08806888f, -0.017634144f, -0.17489333f, 0.18527119f, 0.038144045f, -0.045064501f, 0.16976467f, 0.044714209f, -0.017797897f, -0.022746189f, 0.13984986f, -0.03553072f, 0.028851289f, 0.045876186f, -0.11501281f, -0.023399729f, 0.11096422f, -0.16070159f, -0.061490517f, 0.071474724f, -0.079177432f, -0.053173464f, 0.084214091f, 0.037114937f, -0.070449673f, -0.069086023f, -0.0045971386f, 0.035884324f, 0.042442929f, -0.053881947f, 0.17871061f, -0.0010348358f, 0.14362192f, 0.1476611f, -0.072503425f, -0.097501233f, 0.073689833f, 0.09157265f, -0.12713942f, -0.1490038f, 0.13319571f, -0.15058081f, 0.016195379f, 0.024457499f, -0.052129775f, -0.12265173f, -0.075890549f, 0.065204516f, -0.1577121f, 0.033966113f, -0.01462896f, 0.0064865458f, 0.14495468f, -0.043740258f, -0.056931611f, 0.099349104f, -0.10965732f, -0.0814353f, 0.072273709f, -0.10937396f, 0.0063744416f, 0.019574147f, -0.011605204f, -0.07795132f, -0.057949509f, 0.045052938f, -0.14191198f, -0.14145881f, 0.047850147f, -0.12531227f, -0.12554829f, -0.010597411f, -0.15576628f, -0.0088811228f, -0.044988986f, 0.11237828f, 0.13617244f, -0.11780929f, 0.066944048f, 0.14068389f, -0.04814586f, -0.097109884f, 0.1868532f, -0.11723781f, 0.11009024f, 0.16948542f, -0.11210798f, -0.12605175f, 0.14551128f, -0.019266188f, 0.15402444f, 0.082468286f, 0.02081085f, 0.21237831f, -0.033317171f, -0.1188312f, -0.034621298f, 0.078540087f, -0.033299439f, 0.13548832f, 0.16569506f, -0.10943434f, -0.0047838255f, -0.0071239332f, 0.051974032f, -0.05898403f, 0.090806559f, -0.084741585f, -0.071571954f, -0.079378702f, -0.0093677817f, 0.03692406f, -0.042423178f, -0.10958379f, -0.017962115f, -0.13782179f, 0.052916083f, -0.11027907f, 0.066346467f, -0.048844531f, 0.05880833f, -0.18303321f, -0.13015255f, 0.20077875f, -0.088969074f, 0.067613825f, 0.13668674f, 0.16719741f, 0.022024693f, -0.0030042548f, -0.021510387f, -0.06623134f, 0.12759255f, -0.031852216f, -0.045938931f, 0.14110483f, 0.10344815f, -0.01190081f, -0.040525485f, 0.016630206f, 0.11293527f, -0.044049077f, 0.19264059f, -0.078509897f, 0.060165774f, 0.10188732f, 0.088050023f, 0.027609602f, 0.15200315f, -0.060117021f, 0.14271794f, 0.11212014f, -0.056643981f, 0.18089639f, 0.078170143f, 0.041204672f, -0.09394154f, -0.10504155f, -0.13625616f, 0.027887149f, -0.077563062f, -0.15055394f, 0.021442635f, -0.017463362f, 0.09885481f, -0.12076741f, 0.018982291f, 0.14245752f, 0.057054278f, -0.018758895f, -0.029542271f, 0.12786655f, 0.05391949f, 0.0059151365f, -0.11219306f, 0.047722835f, 0.12554042f, -0.19529243f, -0.10510579f, 0.13844185f, -0.21589647f, -0.04213002f, 0.056086365f, -0.094060823f, 0.10170467f, 0.047542863f, -0.098217204f, -0.093274117f, -0.12238239f, 0.0099470494f, -0.03185723f, 0.091192596f, 0.21532543f, 0.15551595f, 0.033702992f, -0.2446503f, 0.10624608f, -0.06645681f, -0.11836731f, -0.0050446331f, -0.045596909f, -0.024125732f, 0.070658393f, 0.09635511f, -0.11056302f, -0.051625624f, -0.033488717f, -0.052895673f, 0.016036296f, 0.14315622f, -0.075271182f, 0.046249837f, 0.026232358f, 0.16505735f, 0.15363221f, 0.068023026f, 0.13510686f, -0.12094501f, -0.071786232f, -0.043983035f, 0.12800509f, 0.12687173f, 0.066174515f, -0.10718068f, 0.14245181f, 0.11078148f, -0.04755491f, -0.067007788f, 0.085705973f, 0.072192632f, 0.11959261f, -0.13949431f, -0.21442042f, -0.053338885f, 0.16305314f, 0.16276693f, -0.12297097f, 0.13721281f, 0.068856083f, -0.041892584f, 0.013751218f, 0.21977566f, 0.050564233f, -0.075475492f, 0.15652297f, 0.14204037f, 0.14709526f, 0.0035866599f, 0.065099798f, -0.091836028f, 0.091287687f, 0.15046637f, 0.11234869f, -0.020184105f, 0.19080326f, -0.08958213f, -0.12815417f, -0.080399364f, -0.069786176f, 0.019162176f, -0.048057083f, 0.018158162f, -0.23494402f, -0.050740343f, 0.1457379f, 0.04689436f, -0.051844724f, 0.12513301f, 0.17784755f, 0.0053271176f, -0.068547361f, 0.080302611f, -0.063225754f, -0.019487217f, 0.15589796f, -0.11826134f, 0.15224475f, -0.0579377f, 0.016607733f, 0.22365203f, 0.10533433f, -0.080351271f, 0.17023595f, -0.14114757f, 0.10145539f, 0.14325482f, -0.010244149f, -0.17321756f, 0.031982649f, 0.15837291f, -0.073111244f, 0.010842445f, -0.0068449629f, 0.0042440351f, 0.1025324f, -0.062635824f, -0.10478172f, -0.056662124f, -0.10551069f, 0.029897947f, -0.022613265f, -0.13230339f, 0.01873466f, -0.072209626f, 0.17453745f, 0.07391715f, 0.049120754f, 0.072287925f, 0.049041402f, -0.12443253f, 0.01375997f, -0.065711528f, -0.014232249f, -0.10368145f, -0.14491884f, 0.13498516f, -0.0039120554f, 0.097346164f, 0.007113148f, 0.087591343f, 0.16009904f, 0.090641506f, 0.15010025f, -0.012071802f, 0.1979759f, 0.078390121f, -0.12204188f, -0.027919145f, 0.10988296f, -0.10825218f, 0.19525723f, -0.090786427f, 0.0018582272f, 0.07540305f, -0.023916932f, 0.011385356f, 0.16265024f, 0.13568529f, -0.056391753f, 0.00087642687f, -0.1004632f, 0.15064333f, 0.07920491f, 0.069079258f, -0.073990956f, -0.062460862f, 0.10599922f, 0.15647721f, 0.14274867f, -0.052290462f, 0.052245613f, -0.071740642f, -0.21382456f, 0.015330085f, -0.037398562f, 0.1285978f, 0.13952596f, 0.03074494f, -0.025769863f, -0.041377865f, -0.10832661f, 0.16245329f, 0.12526986f, 0.20526855f, -0.13921037f, 0.11399311f, 0.07410495f, -0.0051123286f, -0.12533933f, 0.027373552f, -0.0016973017f, -0.045175642f, -0.022606818f, 0.15439712f, -0.081604674f, -0.1145191f, 0.092604421f, 0.065312669f, -0.13744903f, 0.15609466f, -0.079546951f, 0.055294115f, 0.18705171f, 0.018263355f, -0.11881108f, 0.02631885f, 0.15483919f, 0.099996582f, 0.1522444f, -0.15933746f, -0.080097862f, 0.10861932f, -0.2493604f, 0.1831598f, 0.087004095f, 0.15261669f, 0.1430946f, -0.10236263f, 0.042882185f, -0.054860022f, -0.06526839f, -0.042926498f, -0.025828332f, -0.087404482f, -0.11713522f, -0.097142465f, 0.1903843f, -0.11305267f, -0.080225915f, -0.16359669f, 0.12925105f, -0.10927361f, -0.035759851f, 0.15017925f, 0.033728946f, 0.036806967f, -0.1716978f, 0.10947948f, -0.012671167f, -0.15344679f, 0.046492457f, -0.076844431f, -0.0058275117f, -0.023184415f, 0.14613245f, -0.10575826f, 0.072116137f, 0.13341151f, -0.082571737f, -0.083846919f, -0.10970301f, 0.019619891f, 0.078515619f, 0.20533741f, -0.068080813f, -0.077834494f, 0.091926239f, 0.023399308f, 0.11387774f, 0.057136081f, -0.099047601f, -0.15614814f, -0.10254467f, 0.12459248f, 0.088854037f, -0.17234987f, 0.089124009f, 0.038137741f, 0.02174752f, -0.077607952f, -0.034328386f, -0.09018176f, -0.093223043f, 0.11567102f, 0.073303662f, -0.13332161f, 0.17386019f, -0.1881288f, 0.0038095571f, -0.063332379f, -0.12364057f, -0.013008319f, 0.088493958f, -0.11068966f, 0.15861984f, 0.044097822f, 0.095037207f, -0.11363292f, 0.013770976f, -0.026029831f, -0.024260579f, 0.042881869f, -0.10536058f, 0.037552498f, 0.089154251f, -0.13766317f, 0.17619701f, -0.084251255f, 0.062810853f, 0.0052765552f, 0.17307122f, -0.15938835f, 0.19244707f, -0.021076445f, -0.0018336746f, 0.070605345f, 0.091233358f, 0.035668679f, 0.098656394f, 0.17015859f, 0.18390389f, 0.0097332951f, 0.13262348f, -0.0046739373f, -0.13197832f, 0.17409748f, 0.18908711f, -0.0174981f, 0.10591287f, -0.0020556913f, -0.026791783f, -0.05960441f, -0.1000197f, 0.18671195f, -0.082813613f, 0.19102852f, 0.19130519f, 0.044638749f, -0.10669267f, 0.12847751f, -0.11742543f, -0.11472415f, 0.18902241f, -0.12980144f, -0.12811907f, -0.11892346f, 0.19325992f, 0.072877862f, 0.14973103f, 0.14930794f, -0.11927198f, -0.107665f, -0.021584239f, 0.064156309f, 0.022877565f, 0.094216689f, 0.15344588f, 0.11527751f, -0.029129241f, 0.15831155f, 0.046874531f, 0.086073302f, 0.13335533f, 0.044925563f, 0.011277953f, 0.19397809f, -0.094027616f, -0.02373432f, 0.056324147f, 0.13105793f, -0.021449337f, 0.0406546f, -0.03678982f, 0.060464792f, 0.042768553f, -0.051276993f, -0.12106808f, -0.09078984f, -0.028208537f, -0.11723693f, -0.012554529f, 0.16654266f, -0.090477973f, 0.20477472f, -0.13644281f, 0.0022089989f, 0.16004325f, -0.09595786f, 0.14224026f, 0.096718505f, 0.10701854f, -0.080045126f, 0.082351767f, 0.17259139f, -0.028572652f, -0.060903437f, -0.034038469f, 0.099600695f, 0.077615604f, 0.10281873f, -0.0021094233f, 0.0085709849f, 0.074842766f, -0.16102301f, 0.086233571f, 0.21194354f, -0.013240959f, 0.12386222f, 0.096820742f, 0.047252793f, 0.014564515f, 0.16133226f, -0.0094785057f, -0.090244561f, 0.06701728f, 0.014915039f, 0.0001138911f, 0.049902316f, 0.081330299f, 0.056172539f, -0.0074107535f, 0.070479862f, 0.13127072f, 0.080322452f, -0.041470792f, 0.085661829f, -0.081849352f, -0.007584889f, 0.17256454f, 0.078579582f, -0.0099793244f, -0.060506672f, -0.069303602f, 0.051653091f, -0.16003163f, -0.077791229f, 0.034110419f, -0.056088883f, -0.13348895f, 0.062559515f, -0.12605266f, -0.068092741f, 0.037379853f, -0.055066526f, -0.10541529f, 0.21164118f, -0.064939812f, -0.033416402f, 0.062108528f, 0.01852127f, -0.086207651f, 0.093413651f, -0.25780687f, -0.05793127f, 0.037181068f, -0.095670186f, -0.064022489f, 0.087255336f, -0.15703984f, 0.050103031f, -0.0056565059f, -0.0073894821f, 0.23845541f, -0.20364216f, 0.15398173f, 0.054362755f, 0.041422341f, -0.14596233f, -0.0011003122f, -0.065466776f, -0.093537629f, -0.010884512f, 0.16850486f, 0.04958206f, 0.037074015f, -0.08590319f, -0.16097914f, 0.14173967f, -0.090298899f, 0.16333562f, -0.090041712f, 0.084117062f, -0.12325961f, 0.048470594f, -0.10530309f, 0.099399775f, -0.041975528f, 0.09119416f, -0.11324317f, -0.025440959f, 0.12194563f, 0.048381399f, -0.11210117f, 0.018775178f, 0.078413561f, 0.057599772f, 0.13026018f, -0.11637184f, -0.034800287f, 0.019034583f, -0.14975862f, -0.044079926f, 0.0080195963f, 0.021761462f, 0.096496582f, 0.071181484f, 0.16002484f, -0.14201625f, -0.13895142f, -0.037385076f, -0.014772644f, -0.20003264f, 0.19180712f, -0.1168867f, 0.20115994f, -0.11067051f, 0.093329176f, -0.22551882f, 0.2737481f, 0.077337705f, 0.1523502f, 0.062082719f, -0.041190248f, -0.014652037f, 0.061084609f, -0.11642944f, -0.10656634f, 0.015140021f, -0.084409468f, 0.12718605f, -0.065558366f, 0.17601644f, -0.18409635f, 0.089419343f, 0.14089046f, -0.010516709f, 0.1764238f, 0.081244729f, -0.13419563f, 0.12499353f, -0.045849603f, -0.10552411f, 0.018692847f, -0.12710054f, -0.11720964f, -0.08536166f, -0.11858304f, -0.08539214f, 0.027454387f, 0.034021951f, -0.0450744f, 0.098962337f, -0.095614322f, -0.0090484424f, 0.013804633f, -0.13948797f, -0.03480779f, 0.0056099216f, 0.13276844f, -0.11259467f, -0.13785444f, 0.0047854069f, 0.035198636f, 0.099692702f, -0.10438103f, 0.0015524874f, 0.053803734f, -0.14046633f, -0.048913777f, -0.041868962f, -0.095540442f, 0.029923711f, 0.018660044f, -0.10465624f, -0.024165167f, 0.15375958f, -0.075478397f, 0.14966877f, -0.14391088f, -0.017098283f, -0.031107254f, -0.058950055f, 0.041025221f, -0.11507018f, -0.12596266f, -0.056012306f, -0.055106811f, -0.10975354f, 0.15838756f, 0.10189337f, -0.05976519f, -0.075473137f, 0.038710557f, -0.049521826f, -0.096252128f, 0.0050064106f, 0.063289501f, 0.15831608f, 0.12444458f, 0.21577592f, 0.14364754f, -0.12114912f, -0.14019071f, -0.061157089f, -0.13195884f, 0.0052380073f, -0.060155161f, 0.20359533f, 0.017334962f, 0.067136377f, -0.08567135f, -0.071507536f, -0.063887961f, 0.17207165f, 0.19282982f, -0.093736246f, -0.069136746f, -0.12016969f, -0.06764064f, -0.079670668f, -0.011891212f, -0.092520632f, -0.08404585f, 0.16994184f, 0.20016415f, 0.19517827f, -0.087164536f, 0.1026632f, 0.031166669f, 0.16076875f, 0.15923959f, 0.24870111f, 0.13718088f, -0.073774964f, -0.14294043f, 0.11793905f, 0.088724494f, 0.16573359f, -0.00070567837f, 0.1667843f, 0.053923521f, -0.076960638f, -0.026330067f, 0.1671091f, -0.075507812f, -0.19952504f, -0.096303746f, -0.042133827f, 0.073228903f, 0.13752563f, -0.12788154f, 0.040023357f, 0.022279786f, -0.11029565f, 0.031496651f, 0.11268543f, 0.070792705f, 0.046647575f, -0.016128283f, -0.1061816f, 0.10971993f, 0.1506262f, -0.14965476f, -0.074340224f, 0.029780675f, 0.14737381f, -0.11744888f, -0.029446827f, -0.010896506f, -0.057518739f, 0.036289204f, -0.066135325f, -0.11442225f, 0.22080886f, -0.0027472095f, -0.11800092f, 0.095292017f, -0.061751261f, -0.20626366f, 0.060158025f, -0.11583942f, 0.0044490364f, 0.046573192f, 0.017955951f, 0.13362576f, 0.24882835f, 0.083491012f, 0.18969199f, 0.14576162f, 0.00066143076f, 0.16823822f, -0.11491159f, -0.095672265f, 0.17130153f, 0.018232852f, -0.027124064f, 0.14862391f, 0.1074857f, -0.16957065f, -0.057929184f, 0.098704293f, 0.036038436f, -0.079648532f, -0.029969074f, 0.19333105f, 0.17740746f, 0.069375843f, -0.074039556f, -0.07806237f, 0.10928303f, -0.052075502f, 0.18630661f, 0.18116038f, 0.12346816f, 0.16373031f, -0.0026749256f, -0.066222399f, -0.17735696f, 0.076611981f, 0.079429299f, 0.05300412f, 0.13915141f, -0.024604557f, 0.046337161f, -0.061519321f, -0.17834926f, 0.12018298f, 0.091551088f, -0.022137782f, 0.13342056f, -0.13509491f, -0.1524501f, 0.1791658f, 0.015832588f, -0.097835124f, 0.10445119f, -0.05956376f, 0.0054705194f, 0.069325805f, -0.12896924f, -0.037284195f, 0.072148472f, -0.010073509f, -0.10481817f, 0.089139096f, -0.072109818f, 0.022536548f, -0.057205498f, -0.044645328f, 0.14653575f, 0.18447474f, 0.02107314f, 0.15070689f, 0.066775791f, 0.17418286f, 0.12300749f, 0.10728289f, -0.07724005f, -0.010859959f, 0.18671902f, -0.12002784f, 0.025744056f, 0.15866768f, 0.096256949f, 0.1301558f, -0.0067181583f, 0.015477735f, 0.033263396f, 0.062072955f, 0.14143015f, -0.052074522f, 0.0044277445f, -0.10287679f, 0.1458448f, 0.078081325f, -0.068709768f, -0.12579879f, 0.010482058f, 0.11069126f, -0.043054312f, 0.11141893f, -0.1667634f, -0.01600186f, -0.13307618f, -0.20035757f, 0.0497244f, 0.13371713f, -0.10738578f, -0.13220981f, 0.10693115f, 0.051408213f, -0.080710158f, 0.11644929f, 0.0059150164f, 0.16616045f, 0.18130542f, -0.11228643f, 0.08919058f, 0.14873767f, 0.093173109f, -0.017840076f, -0.11150772f, 0.023960108f, 0.09458039f, 0.043386377f, 0.10981186f, -0.087524593f, 0.02429313f, -0.072161064f, -0.13302216f, -0.0085719433f, 0.031224329f, -0.18424445f, 0.12380564f, -0.028529024f, 0.065965995f, -0.0098992521f, 0.044772655f, 0.10711192f, 0.068865336f, 0.12853917f, 0.09117759f, 0.1016532f, -0.23835701f, 0.14927712f, -0.065819919f, 0.07027486f, 0.18433081f, -0.092328437f, 0.011189063f, -0.12035098f, 0.024868712f, -0.077185191f, 0.13566236f, -0.15717418f, 0.055820473f, 0.15133871f, -0.046608366f, -0.074085489f, 0.19642879f, -0.16811803f, 0.11615493f, 0.022286143f, 0.053986724f, -0.15296769f, 0.21940009f, -0.052291363f, 0.012278942f, -0.071676932f, 0.084965952f, -0.056001652f, -0.15245411f, -0.12868112f, 0.032993685f, 0.015364467f, 0.0138382f, -0.025915299f, 0.16017537f, -0.025894832f, 0.064343028f, -0.0051532155f, 0.010037892f, 0.098665662f, -0.022568006f, -0.16229422f, 0.082257874f, 0.034708723f, 0.15985614f, -0.042378191f, 0.026406197f, 0.088742606f, 0.016985554f, 0.12314048f, 0.011659965f, 0.046092182f, -0.069445483f, 0.047379307f, 0.11432309f, 0.062206153f, 0.13489307f, 0.049785119f, 0.00054978812f, 0.099126503f, -0.018679835f, 0.13098213f, -0.052435793f, -0.053019024f, 0.22421917f, -0.12521957f, -0.14083917f, -0.093373239f, 0.15067939f, -0.2795814f, 0.09195324f, 0.042973887f, -0.099580996f, 0.11283777f, 0.046581063f, 0.084978789f, 0.16829665f, -0.033267491f, 0.0026272421f, 0.18136068f, -0.11141931f, 0.071104929f, -0.20911025f, 0.06000828f, 0.079402715f, -0.063761353f, 0.17376666f, 0.1172572f, -0.15415524f, -0.11563557f, 0.053022943f, -0.13405941f, -0.010408048f, -0.057728928f, -0.12881042f, -0.11183316f, -0.064217135f, -0.11925395f, 0.13228008f, 0.080438919f, -0.12437892f, 0.16525812f, 0.18724214f, 0.14597124f, 0.078798391f, 0.02542367f, -0.093854912f, -0.10220215f, 0.074935138f, 0.14604224f, 0.04857463f, 0.018219238f, 0.047138207f, -0.074009143f, 0.038925849f, 0.074876048f, 0.015089743f, -0.10874001f, 0.14717285f, 0.031528f, 0.10419489f, -0.23490103f, -0.069559656f, 0.13769546f, -0.12263532f, 0.077193148f, -0.03834749f, 0.050848119f, 0.09177985f, 0.0064955484f, 0.0972699f, -0.085413471f, 0.11457444f, -0.036129218f, 0.17600115f, -0.18993239f, -0.13455817f, 0.021810757f, 0.021165626f, 0.082191221f, 0.12142434f, 0.10630147f, -0.11906969f, 0.12313894f, -0.00034720125f, 0.15603492f, 0.052752845f, -0.074848741f, -0.034631856f, 0.21963111f, 0.016244916f, 0.10660218f, 0.053943336f, 0.194923f, -0.07665997f, -0.016676182f, 0.1068135f, -0.044686459f, -0.038086519f, -0.22931837f, 0.076313466f, 0.064933114f, 0.0023892447f, 0.1685524f, 0.0052437377f, -0.055328377f, 0.20729406f, -0.13523734f, 0.10310259f, 0.061593778f, -0.13542841f, 0.17694841f, -0.10713208f, -0.17889448f, -0.15750094f, 0.11865776f, -0.089326076f, -0.063110538f, 0.081408955f, 0.11866669f, -0.1231856f, 0.026099522f, 0.060347453f, 0.12562263f, 0.057073705f, -0.078288615f, -0.10382343f, -0.14410967f, 0.038119212f, -0.13006158f, -0.017869838f, -0.10627255f, -0.0075833383f, 0.017423119f, -0.072169624f, -0.092778504f, 0.087069809f, 0.1018611f, 0.0081335893f, 0.17838231f, -0.22803769f, 0.077455409f, 0.2038932f, 0.18397033f, -0.03145466f, 0.11751969f, 0.034650385f, 0.14907251f, -0.0032684102f, -0.072547287f, -0.14042659f, 0.096737295f, 0.14021002f, 0.15024309f, 0.057647906f, 0.21444771f, 0.19155575f, 0.17832857f, 0.021375332f, 0.065452635f, -0.0030568908f, -0.021318072f, 0.12018286f, 0.15765032f, 0.044538449f, 0.038061365f, -0.089465991f, 0.15072826f, -0.043990336f, -0.16823709f, 0.0041044634f, 0.055721577f, 0.010900727f, -0.094334275f, 0.03084068f, 0.089331105f, 0.045646176f, 0.15811272f, 0.055727273f, 0.17861722f, -0.098833829f, 0.19293253f, 0.091285028f, 0.17737527f, -0.047743518f, 0.05271912f, -0.111243f, -0.12275258f, -0.018864803f, 0.043854751f, 0.090640448f, -0.028243659f, 0.11776537f, 0.034672584f, 0.059379455f, -0.13423447f, -0.079268768f, -0.12365066f, 0.18971008f, 0.16868624f, -0.1125228f, 0.044152115f, 0.10036201f, -0.13617118f, -0.12178484f, 0.017918639f, 0.16171801f, -0.017575353f, -0.029373888f, -0.022027722f, 0.036242899f, -0.08973629f, 0.082509816f, 0.12113474f, 0.020054601f, -0.049073797f, 0.067904696f, -0.066395052f, 0.070805803f, -0.0089651402f, 0.34552163f, -0.17971769f, -0.016684068f, -0.057554681f, -0.025757836f, -0.10629722f, -0.082897879f, 0.026616706f, -0.046379823f, -0.25280619f, -0.075979844f, 0.038502023f, -0.17626287f, 0.21428177f, -0.027911672f, -0.050174281f, 0.14183527f, -0.022185721f, -0.0056446814f, 0.0029381095f, -0.0054022251f, -0.19784391f, 0.12620375f, 0.018802518f, 0.19959424f, 0.0024832045f, 0.034327865f, 0.019007439f, -0.0041621248f, 0.025187237f, 0.029143071f, 0.051092666f, 0.024482606f, -0.019446719f, 6.1598239e-06f, -0.081178226f, 0.063812047f, 0.062754638f, -0.12380696f, -0.022423195f, -0.13427815f, 0.12295655f, 0.071414344f, -0.033344686f, -0.12466957f, -0.098339945f, 0.00066257478f, -0.093227223f, 0.21824358f, 0.1943818f, -0.067412466f, -0.072584167f, 0.095612094f, -0.042495973f, 0.050628964f, 0.075317882f, -0.018819736f, 0.11698248f, -0.090439759f, -0.086842664f, 0.15592602f, 0.1441417f, -0.21081409f, 0.021105489f, 0.049802206f, -0.083911486f, 0.0047360216f, 0.040416423f, -0.073927164f, -0.2248171f, -0.11696951f, 0.19562815f, 0.091032922f, 0.1373516f, 0.011391576f, 0.14658603f, 0.063014105f, -0.12054029f, -0.16050299f, -0.013381646f, -0.061176911f, 0.23716882f, 0.07397154f, -0.20571034f, 0.13510087f, -0.048944455f, -0.081397623f, -0.12246727f, 0.19474906f, 0.12656151f, -0.045839392f, 0.12957059f, 0.055476625f, 0.19083741f, 0.076680996f, -0.082088165f, 0.027478531f, -0.10866526f, -0.0041828929f, -0.083458357f, -0.045004867f, 0.0054369601f, -0.18977417f, -0.099692106f, -0.076967098f, 0.014728058f, 0.076119803f, 0.16055775f, -0.041575473f, -0.022873662f, 0.028911712f, 0.021596158f, 0.030797981f, -0.023521896f, -0.056463659f, -0.090311877f, -0.14127351f, -0.092675962f, -0.077130131f, -0.3684471f, -0.084826f, 0.067529179f, -0.027856987f, 0.11707088f, -0.1219824f, -0.068484426f, -0.10012808f, 0.13440038f, 0.056533437f, 0.17846093f, 0.092062302f, -0.051995657f, 0.10549784f, 0.085021079f, 0.036118291f, 0.16413984f, 0.097088352f, -0.042718697f, 0.081105947f, -0.062894009f, 0.0024192838f, 0.066209152f, 0.071999319f, -0.06382814f, 0.19894598f, 0.070568763f, 0.13192491f, -0.038582705f, 0.055087667f, 0.019222351f, 0.035800219f, -0.11541814f, 0.12923223f, 0.042760167f, 0.052452348f, -0.15636399f, 0.11650915f, -0.12317152f, 0.16497481f, 0.23951435f, -0.0096449843f, -0.0017916303f, 0.10144232f, -0.023604559f, -0.072040282f, 0.10677094f, 0.0089057013f, -0.022204455f, -0.012706785f, 0.066065431f, 0.13406704f, 0.056259509f, 0.048301999f, 0.16597056f, -0.0019453225f, 0.048218697f, -0.16920291f, 0.07466948f, -0.10536167f, 0.04466727f, 0.16520569f, 0.18098676f, -0.12026398f, 0.15179138f, 0.046847064f, 0.044672005f, -0.11497301f, -0.14241652f, -0.013813472f, 0.18687537f, 0.16110705f, 0.040331472f, 0.1546773f, 0.015991602f, 0.05753056f, -0.095349312f, 0.066516325f, 0.13259088f, 0.0028449688f, -0.26240027f, 0.16514315f, 0.012875034f, 0.11788134f, -0.060429003f, -0.025351105f, 0.066263273f, 0.13750358f, -0.066579036f, 0.1982224f, 0.20774871f, 0.19083689f, 0.082682885f, 0.12267143f, 0.13543315f, 0.020248676f, 0.17080213f, 0.098775536f, 0.063969672f, 0.023517225f, 0.075414486f, 0.14294817f, -0.0020487937f, -0.13765797f, -0.079116523f, 0.1625001f, -0.090384856f, 0.18241577f, -0.10638565f, 0.16241799f, -0.10631081f, -0.019705959f, 0.18273185f, -0.1113769f, 0.026838746f, -0.10340108f, -0.085049756f, -0.075074933f, 0.085540541f, 0.13902844f, -0.16237071f, -0.097973131f, 0.11732996f, 0.13467839f, -0.011693699f, 0.16769652f, 0.076541521f, 0.03907318f, -0.12810028f, 0.13306795f, 0.055270359f, 0.028751383f, -0.062870622f, -0.084701329f, -0.04032249f, 0.023928601f, -0.19323024f, 0.033802092f, 0.12959138f, 0.015008206f, 0.00070640072f, -0.02754581f, 0.05200154f, 0.047064468f, -0.034350105f, -0.048641142f, 0.063665181f, -0.0084962342f, 0.16904862f, -0.040477946f, -0.13392214f, 0.061415244f, -0.074634396f, -0.014323906f, -0.10656998f, -0.0098805968f, 0.087587826f, -0.14174496f, -0.08804892f, 0.05308f, -0.023629859f, 0.0080905827f, 0.23082432f, 0.086484075f, -0.067883939f, -0.080692321f, -0.13416317f, 0.045354079f, 0.12051679f, 0.090175115f, -0.06254752f, -0.041656118f, 0.12316797f, -0.12509462f, -0.0017046229f, 0.020749642f, -0.097500645f, 0.11650751f, -0.14626187f, -0.0026569886f, -0.059710674f, 0.061003633f, -0.040574856f, -0.053661313f, 0.064550176f, -0.15346225f, 0.14499301f, 0.038082525f, -0.20833349f, -0.038400155f, 0.077063009f, -0.033380911f, -0.13883732f, 0.10705457f, 0.13809481f, 0.058175217f, 0.065913245f, 0.064690053f, 0.040016606f, 0.11600577f, -0.24985434f, -0.051329114f, -0.0023647973f, 0.23789582f, 0.0026102967f, 0.1078935f, 0.1571247f, 0.00059896003f, 0.063587517f, 0.069088027f, 0.12999828f, 0.13632625f, -0.096661337f, 0.066332459f, 0.14396548f, -0.03715957f, -0.015057215f, 0.18945195f, 0.073033325f, 0.13580441f, 0.070856646f, 0.070284061f, 0.12923835f, 0.058181077f, -0.095321648f, 0.052090604f, 0.13811244f, -0.016581401f, 0.090424627f, -0.10454792f, 0.089126207f, -0.019765772f, -0.083504133f, -0.079282731f, 0.13626061f, 0.004076269f, -0.089018382f, 0.088260651f, 0.15560606f, 0.0148284f, 0.13482413f, 0.17689757f, 0.092213221f, -0.12490084f, -0.063751914f, 0.010254567f, 0.015462343f, -0.065393545f, 0.047841854f, -0.17797825f, -0.14852419f, -0.053212464f, -0.12192747f, 0.13533324f, -0.02539226f, 0.15423937f, -0.12459935f, -0.15829985f, 0.05266697f, 0.088809162f, 0.071473122f, 0.099358432f, -0.0039987518f, 0.048582334f, 0.1106748f, -0.0030015651f, 0.11417636f, 0.052396994f, 0.11178759f, -0.058535043f, 0.051109161f, 0.12289551f, 0.040633697f, 0.079440601f, 0.1753004f, -0.094741791f, -0.049596943f, -0.13933747f, -0.10368919f, 0.18138105f, 0.13393867f, 0.077088661f, -0.040127713f, 0.011073179f, 0.1495675f, 0.20099205f, -0.071383171f, -0.026252365f, 0.0042491639f, -0.15184823f, 0.15695474f, -0.096981585f, -0.11527255f, -0.0066215722f, 0.047714572f, -0.11825062f, -0.06368766f, -0.10681996f, -0.16374874f, 0.092283197f, 0.015427963f, 0.023176443f, -0.029002381f, 0.0072941659f, 0.14315522f, 0.14017721f, 0.11208495f, 0.114644f, -0.12570663f, 0.067046419f, 0.087210327f, -0.043076556f, 0.08124423f, 0.058795914f, -0.1015952f, -0.09922412f, -0.087221272f, 0.083706185f, 0.099285774f, -0.01373759f, 0.25995001f, 0.13886623f, -0.10643078f, 0.055206794f, -0.1551255f, -0.08299201f, 0.10061356f, 0.017590988f, -0.18087865f, 0.01051327f, 0.18754479f, 0.049085025f, -0.025213037f, 0.091247886f, 0.03345716f, 0.0022544535f, -0.13126364f, -0.00083013321f, 0.16836192f, -0.057799552f, 0.057650276f, -0.1352344f, 0.16698398f, -0.12694398f, 0.077133313f, -0.11691825f, 0.11345766f, -0.057341944f, 0.1030606f, 0.037233699f, -0.055927973f, -0.12405282f, -0.069971316f, 0.13721944f, -0.043422356f, 0.066389278f, -0.12487239f, -0.11511821f, 0.053914919f, -0.0025381781f, -0.10590319f, 0.03735552f, 0.24173871f, 0.083747029f, 0.12904662f, 0.078026161f, -0.11294605f, 0.067783296f, 0.0034945493f, -0.061402496f, 0.11272974f, -0.029342022f, 0.012762278f, -0.063689701f, -0.14861415f, -0.027817639f, 0.26679769f, -0.18741554f, 0.25545442f, -0.024427496f, 0.0971976f, 0.1132199f, 0.018828582f, -0.022458946f, 0.097023055f, 0.0029732715f, -0.045454096f, -0.054519556f, -0.075257815f, 0.12038818f, 0.27856866f, -0.097743295f, -0.10627169f, 0.12553382f, -0.10466313f, 0.0060976623f, -0.086191401f, -0.1216917f, 0.026126934f, 0.16772017f, -0.081369758f, -0.098224729f, 0.16913734f, -0.23867559f, 0.11705423f, -0.15690561f, -0.13756704f, 0.17299987f, 0.11570242f, -0.0036181805f, -0.12329271f, -0.080925889f, -0.013189921f, -0.13272674f, -0.049299873f, 0.038349655f, 0.048585348f, 0.15043983f, 0.022994146f, -0.066422984f, 0.097058944f, 0.0040353523f, 0.12859538f, 0.23013988f, -0.081528366f, -0.090564802f, 0.058059413f, 0.12802948f, 0.14418584f, -0.12667681f, 0.045565356f, 0.14507067f, -0.020016611f, 0.061568324f, 0.13672511f, 0.15614454f, 0.0016608849f, -0.057239804f, 0.1665381f, -0.16416554f, -0.21195766f, -0.061394796f, 0.20177123f, 0.11885054f, 0.0090310276f, -0.0700306f, -0.12900324f, 0.2218141f, 0.13515809f, -0.020062519f, 0.080892101f, -0.032507554f, 0.042286914f, -0.058317587f, 0.019922927f, 0.066554472f, -0.0093227616f, -0.018855844f, 0.11414132f, 0.1622313f, 0.14687909f, 0.13079427f, -0.068081483f, -0.07228072f, 0.13333659f, -0.059635453f, 0.099868454f, 0.0074529927f, 0.098341241f, 0.1615991f, 0.25567865f, -0.084894173f, -0.081645474f, -0.051768523f, 0.19698717f, 0.16856091f, -0.011678433f, 0.12642267f, -0.099265061f, -0.049176335f, 0.17125817f, 0.056360923f, 0.09364491f, 0.23405111f, -0.11292087f, 0.16173807f, 0.0086833211f, 0.067720473f, 0.023080951f, 0.13181402f, -0.13809437f, -0.048694536f, -0.10039949f, -0.082700051f, 0.16942272f, -0.11303517f, -0.065298498f, -0.11261337f, -0.12101918f, 0.17937493f, -0.046180483f, 0.045806356f, 0.16257082f, -0.015214983f, 0.099960543f, 0.036985271f, 0.11997361f, 0.00019266531f, 0.020896437f, -0.075810619f, 0.23543958f, 0.010727227f, -0.061526723f, 0.19014834f, 0.14589605f, -0.022320699f, -0.10579549f, 0.025995148f, 0.012456313f, -0.096181996f, -0.23564178f, 0.11835673f, 0.14822055f, 0.18334803f, -0.14645429f, 0.040286954f, 0.16268818f, -0.11566589f, -0.097933635f, -0.013054116f, 0.090235762f, 0.044323251f, -0.10936671f, 0.10650243f, -0.069424853f, -0.11548778f, -0.036016565f, 0.10157662f, 0.010312748f, 0.16251837f, -0.098992378f, -0.11258342f, 0.030411471f, 0.023262249f, 0.15218844f, 0.20808336f, 0.10253603f, -0.052094907f, 0.074387044f, -0.054713801f, -0.16420478f, 0.15755157f, -0.0084420796f, 0.045422602f, 0.022632269f, 0.12874693f, 0.15347353f, -0.011862966f, -0.024586061f, 0.062275376f, -0.0090400539f, -0.12312619f, 0.13993068f, 0.02989639f, 0.099224672f, 0.083476305f, 0.022448331f, 0.017901866f, -0.017192852f, -0.11330429f, -0.046048608f, -0.06610439f, 0.15035392f, 0.13085483f, -0.028143683f, 0.13869627f, 0.15732262f, 0.19128235f, 0.027176581f, 0.11284127f, 0.13871329f, -0.014317853f, -0.11456208f, 0.029621363f, 0.12555148f, -0.082988419f, -0.046592791f, 0.03547591f, -0.07632076f, 0.11423858f, -0.11759426f, 0.085963085f, 0.009174333f, 0.060271595f, 0.14468601f, -0.11589649f, 0.002296366f, -0.040330905f, -0.078550749f, -0.12303805f, 0.0079101976f, -0.15376249f, -0.11334815f, -0.01710291f, -0.16511935f, -0.030798476f, 0.082527012f, -0.081635207f, -0.17220029f, -0.081013359f, 0.16449009f, -0.24520501f, 0.12935014f, 0.064287245f, -0.08151f, -0.085093819f, 0.17724811f, -0.088904165f, -0.027681712f, -0.0072247316f, 0.018089458f, 0.15294357f, 0.13866733f, 0.013209608f, 0.13032965f, -0.085419893f, -0.10545268f, -0.12348621f, -0.024379753f, 0.11260594f, 0.17144209f, -0.11007596f, -0.10584433f, -0.024631193f, -0.0059806481f, 0.066692866f, -0.12237646f, -0.04755161f, 0.10587412f, -0.11610402f, 0.29740149f, -0.10659244f, -0.013469886f, 0.052022565f, -0.052583776f, -0.06928955f, 0.078502022f, -0.095862322f, -0.027719481f, -0.015286549f, 0.14618514f, 0.035125822f, -0.090883888f, 0.096809305f, 0.033463724f, -0.12825276f, -0.080627404f, 0.10627775f, -0.051370163f, -0.14703625f, -0.13055184f, 0.0018465579f, -0.084976032f, -0.0092942091f, -0.026457641f, 0.026914191f, 0.12836568f, -0.018659232f, -0.027170554f, 0.01963266f, 0.02085945f, 0.10738499f, 0.10715331f, 0.13768113f, -0.063061491f, -0.043292407f, -0.12070734f, -0.031424668f, -0.063335225f, -0.10525554f, -0.01668633f, -0.17592192f, 0.17843923f, 0.058812886f, 0.053780846f, 0.13408841f, 0.13122083f, -0.095275551f, 0.11376382f, 0.24672219f, -0.079558924f, -0.098773085f, -0.038061198f, 0.078564137f, -0.099135779f, -0.052739572f, -0.047695871f, -0.030195784f, -0.066334516f, -0.028853344f, 0.17302816f, 0.061315339f, 0.038112018f, 0.019734809f, 0.052788462f, 0.057144653f, -0.055107381f, -0.076804169f, 0.14775513f, 0.057442073f, -0.1338463f, 0.10376735f, 0.13842283f, -0.13383904f, 0.11572016f, 0.12137783f, 0.074028842f, -0.12935552f, -0.069430143f, 0.067796879f, -0.053685836f, -0.24354538f, 0.16959947f, 0.13746777f, -0.080405191f, -0.12205873f, 0.11816816f, 0.17116092f, 0.15352854f, 0.057369184f, -0.10396856f, 0.046900928f, -0.02288213f, -0.12317446f, 0.11722133f, 0.12667529f, -0.22566567f, 0.20342852f, -0.13547994f, -0.045985341f, 0.062481675f, -0.037205119f, -0.0097524812f, 0.1358382f, -0.01940126f, -0.066800781f, -0.032861128f, -0.032235097f, 0.10287539f, -0.033179607f, 0.11459521f, 0.064559676f, 0.10497081f, 0.14805254f, 0.0071676858f, -0.079820871f, -0.04511673f, 0.081424788f, -0.12131654f, 0.11889781f, 0.055531938f, 0.072706535f, 0.036207587f, 0.12939571f, -0.083473004f, -0.088920385f, 0.1189494f, -0.10394922f, 0.042635676f, -0.086329803f, 0.12412371f, 0.12087362f, 0.045867354f, 0.11901166f, 0.087548167f, -0.023500582f, -0.16389608f, -0.025988046f, 0.024377007f, 0.023742195f, 0.093180992f, 0.16505758f, -0.0098522417f, -0.16659214f, 0.13677053f, -0.086596467f, 0.14085105f, -0.030284392f, 0.0024410279f, 0.066207677f, 0.17561685f, -0.049392711f, 0.004050293f, -0.054793295f, -0.079766922f, 0.091889478f, 0.027934227f, -0.057222337f, 0.0079789618f, -0.096032284f, -0.053385407f, 0.1544933f, 0.14561446f, -0.060701501f, -0.010344698f, 0.063122399f, -0.087539017f, 0.04123795f, -0.15879758f, -0.085958429f, 0.011263981f, -0.052338425f, -0.052206527f, 0.033551663f, -0.12063479f, 0.069606543f, 0.18805362f, -0.016977666f, 0.17403525f, -0.18333833f, -0.1488435f, -0.091273233f, 0.053625546f, -0.14735623f, -0.1478599f, 0.13316734f, -0.041639082f, -0.044497155f, 0.12061364f, -0.016088143f, -0.082452372f, -0.13008392f, 0.1631002f, -0.062674433f, 0.14292887f, 0.028733283f, 0.15226021f, 0.11747343f, 0.011161495f, -0.025770644f, -0.13435361f, -0.030336175f, 0.096662402f, 0.12788874f, -0.033922859f, 0.15387356f, 0.17350835f, 0.12457825f, -0.061980315f, -0.10719043f, 0.065063208f, 0.11646327f, -0.032343667f, 0.15809393f, -0.038302049f, 0.16607288f, 0.010521958f, 0.18314135f, -0.057644863f, 0.13752761f, 0.13405408f, -0.10550467f, -0.13274665f, 0.27649793f, 0.048995167f, 0.10624244f, -0.12287668f, -0.074896887f, 0.16458987f, -0.094084941f, -0.18928398f, -0.036524564f, -0.11554271f, 0.097841069f, -0.0069044726f, 0.018748118f, -0.047016185f, 0.064781889f, -0.011357519f, 0.15556112f, 0.12237923f, 0.10604653f, 0.019314237f, -0.052254539f, 0.13637459f, 0.092727087f, 0.10017226f, -0.042869158f, 0.14197432f, 0.084340073f, 0.1060477f, 0.079441339f, 0.15491752f, 0.07940501f, 0.081395879f, -0.086683758f, 0.21535413f, 0.14076471f, -0.083766676f, 0.1690063f, -0.0085567096f, -0.010850925f, -0.1157139f, 0.1181502f, -0.062638879f, -0.02250549f, -0.15847719f, -0.18025726f, 0.18000728f, 0.13752683f, -0.20114219f, -0.037774973f, -0.05119171f, 0.14099817f, -0.011473896f, -0.081929296f, -0.063260689f, -0.081972726f, 0.034312434f, 0.022170432f, 0.037292387f, 0.065657459f, 0.2181278f, 0.058728863f, 0.11737245f, 0.075850725f, 0.031215781f, 0.12879047f, 0.045780625f, -0.015013182f, -0.19546211f, 0.087774225f, 0.026202457f, -0.030806692f, 0.1429262f, 0.14636733f, -0.19790047f, 0.13842577f, -0.018367467f, 0.071416982f, -0.089034155f, -0.0047815684f, -0.086592093f, 0.15947898f, 0.092165455f, 0.086921357f, -0.045515813f, 0.15386106f, 0.12517364f, -0.051973764f, 0.10397292f, 0.024122201f, 0.15869577f, 0.1462581f, -0.12598369f, 0.041660581f, 0.064161815f, 0.095783234f, 0.092883058f, 0.18414406f, 0.096135728f, 0.10088759f, -0.031972896f, 0.077827364f, -0.063272111f, 0.13430652f, 0.15188886f, 0.058177657f, -0.037984326f, 0.073193543f, -0.13363077f, -0.011083879f, -0.018217063f, -0.018571658f, 0.077168062f, 0.038816351f, 0.007609623f, 0.036766808f, -0.099306948f, 0.15031241f, 0.1610378f, 0.057777803f, -0.075249858f, -0.11929315f, -0.056077644f, 0.03454997f, 0.16425839f, -0.095120303f, -0.088509813f, 0.1085557f, 0.082944714f, 0.18155929f, 0.12750334f, 0.010490072f, -0.081018649f, 0.013071734f, 0.11206776f, 0.12571232f, -0.13523206f, 0.17702989f, -0.17013226f, 0.1553676f, -0.15829924f, 0.041881964f, 0.0012284881f, 0.15123171f, 0.031902965f, 0.16455241f, 0.13456148f, -0.13251257f, -0.10661298f, 0.0013592207f, 0.073095836f, 0.13580844f, -0.10698077f, 0.13020551f, -0.19942079f, 0.080644496f, -0.24043345f, -0.044318084f, 0.0043203658f, -0.15442131f, -0.13509749f, 0.276777f, 0.099907711f, -0.091938287f, -0.10384405f, -0.068018138f, -0.095546693f, -0.049868703f, 0.016134553f, 0.090083435f, -0.11045116f, -0.040352434f, 0.16352068f, 0.083216064f, -0.094066553f, 0.15228125f, 0.031783499f, -0.087124594f, 0.2424539f, 0.084131636f, 0.063141108f, 0.10613115f, -0.13502969f, 0.084181488f, -0.079382248f, -0.13753463f, -0.18215227f, 0.040375359f, 0.12191143f, 0.004608287f, 0.023760021f, -0.052889127f, 0.080987744f, -0.082853638f, -0.13714369f, -0.1109077f, 0.18441175f, -0.12389422f, -0.12010115f, -0.097870998f, 0.063497528f, -0.20469999f, 0.0797517f, 0.12285953f, 0.034153633f, 0.052896284f, 0.11956589f, 0.15033105f, -0.15208085f, -0.13756281f, 0.0087113259f, 0.14503294f, 0.084728621f, 0.075413771f, 0.0031049165f, 0.18198124f, -0.060045473f, 0.092022963f, -0.047147904f, 0.052781824f, 0.18901472f, 0.033184938f, 0.052533302f, -0.062709115f, 0.071485192f, -0.13256459f, 0.14403912f, -0.09331011f, 0.069805957f, 0.19155578f, 0.02945493f, -0.13656683f, 0.18038799f, 0.048129626f, -0.087599345f, 0.10690849f, 0.036333758f, 0.15940848f, 0.168394f, -0.054971989f, 0.056125574f, 0.058271777f, 0.02759441f, 0.071726836f, -0.084086202f, 0.10506649f, -0.053351849f, 0.039563883f, -0.088385314f, 0.011595451f, 0.05432719f, -0.069482543f, 0.053037278f, -0.049528096f, 0.018810108f, 0.027183907f, -0.12981631f, -0.037422497f, 0.040522687f, 0.15719479f, 0.16655847f, 0.094048873f, 0.067313053f, 0.014416924f, 0.090950206f, 0.14889328f, 0.06037727f, -0.17912728f, 0.15745972f, 0.10685036f, 0.017854331f, 0.068668671f, -0.014930909f, 0.1297036f, 0.071625948f, -0.027803864f, -0.064166799f, -0.067751907f, -0.08364559f, 0.029682172f, -0.058651969f, -0.016953021f, 0.014387911f, -0.11576876f, 0.057343636f, 0.017431501f, 0.18924147f, -0.056367185f, -0.18428902f, 0.0048771445f, 0.11223642f, 0.068953678f, 0.17057006f, -0.09469337f, -0.15998356f, 0.13943711f, -0.055534136f, 0.034293257f, 0.24356182f, -0.06059891f, -0.033353012f, 0.084874116f, 0.073759928f, 0.12120961f, -0.044896737f, 0.017225429f, -0.065650038f, -0.15314928f, 0.081496313f, 0.033811398f, 0.032908924f, -0.027486475f, 0.075234331f, 0.0099237394f, -0.21264669f, -0.093190253f, 0.071964428f, -0.19418673f, -0.040078428f, 0.15325293f, 0.18078031f, -0.012100111f, 0.14067847f, -0.090579987f, 0.041992527f, -0.043955754f, 0.02864385f, 0.056351919f, 0.27440298f, -0.0089870039f, 0.13641968f, -0.003400929f, -0.098498628f, -0.10248794f, 0.10402688f, -0.1068617f, 0.078406565f, 0.067309052f, 0.11083734f, 0.063815273f, -0.14782116f, -0.068004914f, -0.047588941f, -0.053616378f, -0.12039007f, 0.12650543f, 0.027172791f, -0.18403532f, -0.10334646f, -0.023806518f, 0.1605075f, -0.033364497f, 0.083212882f, 0.057619546f, -0.10068866f, -7.1756578e-05f, 0.0018258956f, -0.03584864f, 0.059679091f, 0.13083567f, 0.13042662f, 0.045709223f, -0.023143172f, -0.14147198f, -0.00096753123f, 0.097016685f, 0.025894035f, 0.073723726f, 0.1078167f, -0.10400148f, -0.0015628543f, 0.055915955f, -0.025143689f, -0.024551066f, -0.076912157f, -0.069099583f, -0.036626954f, 0.074617118f, 0.068288513f, 0.23817271f, -0.087599069f, 0.045558427f, 0.10445012f, -0.038894136f, 0.14395942f, 0.1679948f, -0.12538923f, 0.091071285f, -0.099541657f, 0.050478026f, -0.14006183f, 0.11393565f, 0.089469172f, -0.076720454f, -0.21637952f, -0.084924169f, 0.1588051f, 0.056121908f, 0.031031093f, 0.1467589f, -0.003508921f, 0.1415159f, -0.10709082f, -0.0041231322f, 0.1536614f, 0.18481933f, -0.016711583f, -0.11993876f, 0.30216944f, 0.11935218f, 0.049319603f, -0.10077526f, 0.011332595f, 0.12829123f, 0.1831339f, 0.09512417f, 0.069665879f, 0.14892149f, -0.16019619f, 0.19769906f, 0.13879266f, 0.0080980156f, 0.0756891f, -0.0060173315f, 0.1518663f, 0.084760033f, 0.018826963f, 0.034439225f, -0.030064749f, 0.043910991f, 0.11820374f, -0.12809946f, -0.065372519f, 0.13577709f, -0.21536544f, -0.047669336f, 0.17505294f, 0.057769831f, -0.12688015f, 0.15013245f, -0.0001222063f, -0.21810231f, 0.015401484f, -0.082191184f, 0.12020265f, 0.12915413f, -0.087204188f, -0.017099554f, 0.19030277f, 0.00036616152f, 0.0047523282f, 0.070286795f, -0.0025671665f, -0.067304514f, 0.009292677f, 0.066002093f, -0.081419647f, -0.091617733f, -0.058775038f, 0.025895121f, -0.086502455f, 0.23167957f, -0.072942734f, 0.15761358f, 0.081104353f, 0.040709153f, 0.032825336f, 0.09067376f, 0.12380413f, 0.056126509f, 0.077877454f, 0.17254369f, -0.012149725f, -0.047605f, -0.0028937734f, 0.060131051f, -0.077254169f, 0.077186882f, 0.10809278f, -0.057871703f, 0.11170246f, -0.12109277f, 0.075787127f, 0.13926548f, -0.13077675f, 0.10845246f, 0.071758248f, -0.099696763f, -0.26679486f, -0.068710133f, -0.085615672f, 0.16458289f, 0.059738897f, -0.10220063f, -0.065239519f, -0.036197316f, -0.025587235f, -0.14739329f, -0.055220544f, -0.15514575f, 0.23181443f, 0.013823904f, 0.14517669f, -0.049686089f, 0.012421859f, 0.1166361f, -0.11439664f, -0.21627273f, 0.17285535f, -0.21246572f, 0.1357685f, 0.093885928f, -0.027917041f, 0.055157393f, -0.017960327f, 0.12271696f, 0.094704568f, -0.011474812f, -0.063125044f, -0.11312796f, -0.074143335f, -0.0056452518f, -0.011683771f, 0.10712414f, 0.045434359f, -0.050078623f, 0.16328776f, 0.099826597f, 0.010956345f, 0.12668802f, 0.11941124f, 0.06685292f, -0.0058547179f, 0.14021668f, 0.11151202f, 0.17200252f, 0.088044547f, -0.14214355f, 0.13904889f, 0.038328715f, 0.11228678f, -0.18840559f, 0.1565387f, -0.038798455f, -0.074392632f, -0.021248601f, -0.046461027f, -0.22449145f, 0.21271613f, 0.094719119f, -0.04373296f, 0.12514105f, 0.15393956f, -0.10101793f, 0.21448013f, 0.10337257f, 0.14228652f, -0.050652735f, -0.032012474f, -0.11303193f, 0.14132489f, 0.18261088f, 0.14049986f, 0.041943889f, 0.13458167f, 0.0022957097f, 0.020863755f, 0.09746556f, 0.082496278f, 0.021971876f, 0.04769041f, -0.080656573f, -0.0010371682f, 0.0043418459f, -0.063000903f, 0.032763921f, 0.023128403f, 0.086694114f, 0.073780447f, 0.12284278f, -0.22883596f, -0.021660673f, -0.023007186f, 0.079841979f, -0.090663284f, 0.19203977f, 0.051517442f, 0.0057399618f, 0.013831782f, 0.20996799f, -0.056151524f, 0.16477217f, -0.0040557929f, -0.05159035f, -0.038118251f, 0.14108589f, -0.012310545f, -0.11476219f, -0.021919377f, -0.094948106f, 0.068412766f, 0.10308318f, 0.1347142f, 0.082642473f, 0.18772244f, 0.18049349f, -0.13069688f, 0.042593826f, 0.10744989f, 0.080985248f, 0.08088401f, 0.18365757f, -0.0093801394f, 0.15355645f, 0.0014515927f, 0.15389004f, 0.030930299f, 0.16969827f, -0.1309516f, 0.011660221f, -0.13820638f, -0.0040919185f, -0.11295108f, -0.04819731f, 0.032358602f, 0.049144212f, -0.0075013954f, 0.12770462f, -0.19912525f, -0.021210732f, -0.019273799f, -0.11147783f, 0.12116472f, 0.16197984f, 0.051239442f, -0.054420948f, 0.041638292f, 0.12101767f, -0.040959243f, 0.083089277f, 0.082255542f, -0.10529243f, 0.12788658f, -0.0026592477f, -0.045036942f, 0.036585707f, 0.11767713f, 0.09327966f, 0.15700971f, 0.13651313f, -0.019143289f, -0.088460289f, 0.085751057f, 0.10185219f, 0.075814664f, 0.090523571f, -0.083622009f, 0.027173184f, -0.015138156f, -0.11926755f, 0.1481843f, 0.0053356253f, -0.094559163f, -0.0029144164f, -0.019037098f, -0.16863322f, 0.023803098f, 0.14871363f, -0.10313985f, 0.010704861f, -0.053495206f, 0.018446451f, 0.14229208f, -0.05205917f, -0.065792643f, -0.13636024f, 0.14979905f, 0.034964729f, -0.1493005f, 0.13294663f, -0.087032214f, -0.12032931f, 0.10488251f, -0.033267379f, -0.045603663f, 0.070891455f, -0.091087833f, 0.046514317f, 0.13858466f, 0.1762608f, 0.078115463f, -0.0014340285f, -0.031308215f, -0.057730202f, 0.11807196f, 0.0073325788f, -0.012841655f, -0.080498815f, 0.081189901f, 0.010908749f, 0.1441209f, 0.020193055f, -0.040913574f, -0.083675489f, 0.033456475f, 0.095363326f, -0.1096129f, -0.21751076f, 0.19959952f, -0.13144772f, -0.028045366f, 0.17586251f, 0.089960337f, 0.076285616f, 0.17642373f, -0.033649318f, -0.057092793f, 0.037645239f, 0.16563895f, -0.089396611f, 0.014073831f, 0.22966318f, 0.11858195f, -0.0097835427f, 0.11854231f, 0.20079884f, -0.056911632f, -0.036983073f, 0.016682437f, 0.16226941f, 0.15996647f, 0.017490553f, 0.024700569f, -0.096027471f, -0.12786111f, -0.055050999f, 0.0096625388f, 0.10032135f, 0.15182541f, -0.1560811f, 0.071455315f, -0.11287664f, -0.050116476f, -0.0045274561f, 0.051456586f, 0.14636193f, -0.017507683f, -0.189281f, 0.099365786f, -0.11618966f, -0.088171676f, 0.19520599f, -0.032804821f, 0.024799632f, -0.012240513f, -0.012581363f, -0.067532696f, -0.096251354f, 0.096626483f, 0.14503217f, 0.15260506f, 0.093266107f, -0.052965224f, 0.17266083f, -0.13173093f, -0.037627947f, 0.17571108f, -0.051951408f, -0.15693738f, -0.039951898f, 0.12055289f, -0.056064378f, 0.023585502f, 0.14491944f, -0.084006742f, 0.10652567f, -0.037131336f, 0.015840514f, 0.027224775f, -0.18819942f, -0.09576337f, 0.040353198f, 0.0060800477f, 0.11201552f, 0.11425359f, 0.13358966f, 0.14537725f, -0.21056499f, -0.014432662f, 0.08032041f, 0.045727018f, -0.11434726f, -0.005962797f, 0.088194564f, -0.058507647f, -0.068024166f, 0.041106965f, -0.05777473f, 0.12493725f, 0.14340679f, -0.026797935f, 0.16706102f, 0.14980486f, -0.070686772f, 0.066332147f, -0.11848985f, -0.06770616f, 0.15082039f, 0.055953953f, 0.023137065f, 0.18427613f, 0.16898341f, -0.079375468f, -0.045528941f, -0.071322188f, 0.048693236f, 0.088226989f, 0.14552139f, 0.046755482f, 0.16227154f, 0.08407864f, -0.11035486f, 0.12506543f, 0.067764871f, -0.10911369f, -0.083542086f, 0.15045415f, -0.01119836f, -0.14424671f, -0.07915058f, 0.09128505f, 0.0050860834f, -0.046943732f, -0.12019505f, -0.02021841f, 0.10974844f, -0.084363587f, 0.18560658f, 0.097894229f, -0.021179704f, -0.15930948f, 0.069155701f, -0.043361161f, 0.1546393f, -0.099201091f, 0.10967047f, 0.055664692f, -0.11038925f, -0.11947237f, 0.066585056f, -0.1201512f, 0.094907865f, -0.11705597f, 0.043561373f, 0.10278002f, -0.00025333016f, 0.10695238f, 0.096088469f, 0.073545791f, 0.2414756f, 0.11886806f, 0.047903348f, -0.081278779f, -0.010771867f, 0.1633555f, 0.15133736f, 0.16846406f, 0.15747222f, 0.09905158f, -0.10285155f, 0.16796179f, -0.032641493f, -0.018013874f, 0.0043369094f, -0.067237645f, 0.12391364f, -0.2159896f, -0.047910701f, -0.050803896f, -0.16649874f, -0.11601245f, 0.2520487f, -0.073218703f, 0.13263611f, -0.070257872f, -0.06268511f, -0.079380713f, -0.023417717f, -0.085752226f, -0.011249859f, -0.15967636f, 0.072420411f, -0.056710191f, 0.14359106f, -0.088934034f, 0.044837821f, -0.034057464f, -0.0031277942f, 0.13189982f, 0.32624167f, -0.14271466f, -0.006193012f, -0.11556991f, 0.027417134f, 0.077032693f, 0.039313633f, 0.045981579f, 0.073180474f, 0.070141427f, 0.16122931f, -0.035476167f, 0.14042094f, 0.065348461f, 0.11598783f, 0.13971284f, 0.10986403f, 0.19337185f, -0.022744022f, 0.037217423f, 0.056258187f, -0.050346386f, -0.21080372f, 0.070617579f, 0.16932313f, -0.09113802f, 0.17444697f, 0.16537271f, 0.019853508f, 0.121423f, -0.1408565f, 0.05190469f, -0.056513194f, 0.042318419f, 0.13531223f, 0.14242843f, -0.013654836f, -0.12722665f, -0.034417577f, -0.028303346f, -0.181077f, 0.076421537f, -0.17538384f, -0.10166863f, 0.020200426f, -0.018815199f, 0.15516245f, -0.042250615f, -0.10131168f, -0.076128297f, -0.063928068f, 0.13500544f, 0.027312808f, -0.054827482f, -0.11643478f, 0.026074421f, 0.002550903f, 0.033251088f, 0.12420522f, -0.067202501f, 0.03683975f, -0.0032215961f, 0.1871122f, 0.14345893f, 0.15881871f, 0.14724931f, 0.088605143f, -0.043464407f, -0.1166423f, 0.080359891f, 0.021080062f, 0.15873103f, 0.067788087f, 0.15034765f, 0.093530819f, -0.1441976f, 0.057772763f, 0.1187212f, -0.034360617f, 0.17417318f, 0.19617091f, -0.19712962f, -0.18481019f, -0.075057171f, -0.14329313f, 0.020453312f, 0.18437928f, 0.11072654f, 0.017457236f, 0.16957316f, 0.047327757f, 0.17019266f, 0.091928251f, 0.064589068f, 0.049537737f, -0.13487451f, -0.13583751f, 0.15946819f, 0.042900369f, -0.021619435f, 0.048369672f, -0.089665532f, 0.036438759f, 0.037847541f, -0.14663334f, 0.16211259f, 0.059015591f, 0.0062364661f, -0.14883764f, 0.24006042f, -0.053579487f, -0.0047801067f, 0.12191632f, 0.030200388f, 0.11971225f, -0.012691195f, -0.03847992f, 0.15646736f, 0.010236408f, 0.22395195f, 0.15087786f, -0.16719872f, -0.032948449f, 0.016535018f, 0.046418414f, -0.049891021f, -0.051675022f, 0.097386777f, 0.16458444f, 0.087663889f, -0.068854772f, -0.03441317f, 0.060048174f, -0.0038372728f, 0.0565417f, 0.020884268f, -0.083203129f, 0.030905725f, 0.14882058f, 0.167265f, 0.075799823f, -0.10850526f, -0.23675045f, 0.039686825f, -0.21972476f, -0.0037518279f, -0.071022548f, -0.11643322f, -0.024763945f, 0.28163382f, 0.15947622f, -0.10813359f, -0.012001781f, -0.060364969f, -0.060400188f, 0.0039036046f, 0.10271189f, -0.087698951f, 0.071268521f, -0.23113385f, 0.22769681f, -0.15879343f, 0.090463482f, 0.077354074f, -0.071231164f, 0.11946731f, -0.09054935f, -0.051130634f, 0.013043634f, 0.0070103025f, 0.2145292f, 0.073816046f, -0.027804652f, -0.092570223f, -0.05718277f, -0.18198614f, 0.07614702f, -0.14408033f, -0.088024199f, 0.15862474f, 0.0489037f, -0.15676273f, 0.25978217f, -0.037074737f, -0.13333975f, 0.12584116f, 0.12634602f, 0.16310808f, 0.087939173f, 0.060605742f, 0.15079458f, 0.04765882f, -0.079973452f, -0.01596511f, -0.077956036f, 0.056740396f, -0.12927204f, 0.12508354f, 0.042480584f, 0.041430764f, 0.080595277f, 0.09056475f, 0.0047018495f, -0.12230632f, 0.12502131f, 0.09540505f, -0.040596012f, 0.081711464f, 0.045056365f, -0.022545874f, -0.09247224f, -0.039303839f, 0.10246313f, 0.032615896f, 0.071833432f, -0.13408333f, -0.012733128f, -0.10345119f, 0.053120382f, 0.029285997f, 0.081717923f, -0.12087962f, -0.087351583f, -0.026262017f, 0.060483009f, 0.0133098f, 0.13643742f, -0.10110847f, -0.13287774f, -0.070751794f, 0.047085978f, -0.12166952f, 0.058424808f, 0.090791233f, 0.044722445f, 0.11305832f, -0.077755928f, -0.11873545f, -0.08919102f, -0.26690096f, 0.020256484f, 0.1859154f, 0.19495381f, -0.022234235f, 0.045885544f, -0.039110061f, 0.10902487f, -0.067471102f, -0.024174798f, 0.077362858f, -0.04432321f, -0.06699995f, -0.012611569f, -0.1225061f, 0.046640389f, 0.018849734f, -0.033450764f, 0.20014171f, -0.0088490909f, -0.15619914f, -0.034282506f, -0.09449733f, 0.017690517f, -0.078947164f, 0.16072817f, 0.082629383f, -0.15889262f, -0.062471997f, 0.027889511f, -0.12384875f, 0.13063569f, -0.079044752f, 0.13980894f, 0.033519682f, 0.001201067f, -0.06910824f, 0.038111988f, -0.053424817f, -0.10121333f, -0.10715078f, -0.054508235f, -0.091205314f, 0.040455315f, 0.014389887f, -0.16363323f, 0.053893894f, 0.038977627f, 0.049805418f, -0.088927016f, -0.11269541f, 0.094825201f, -0.055805489f, 0.15877619f, -0.0092691649f, 0.16170311f, -0.041250333f, -0.070545293f, -0.004932892f, -0.065079667f, -0.077556238f, -0.051844899f, 0.097187109f, -0.068541281f, 0.051799662f, -0.2632829f, -0.017189426f, 0.15507193f, -0.075995646f, 0.00057250436f, 0.035946406f, -0.013000706f, 0.1302131f, -0.10986539f, 0.044153534f, -0.026612142f, -0.0059220125f, 0.087581202f, 0.085432045f, 0.17735247f, -0.01210087f, 0.27334717f, -0.20445493f, 0.13977571f, 0.051687215f, 0.036825556f, -0.033372588f, 0.12991787f, 0.076381631f, -0.11677958f, -0.076251239f, 0.0017386358f, 0.0033983407f, -0.1190667f, 0.11149778f, 0.11103971f, -0.16242918f, 0.011500586f, -0.085505992f, -0.067680858f, 0.19757779f, -0.051238932f, -0.14057559f, 0.080598548f, 0.11525024f, 0.068454735f, -0.089181773f, -0.070163131f, -0.050729614f, 0.059919309f, -0.0092296498f, 0.066133507f, 0.15188934f, -0.10431248f, 0.16799392f, 0.080119587f, -0.051770233f, 0.011058071f, 0.11706445f, -0.012059027f, -0.050527167f, 0.20351988f, -0.013937889f, 0.087954476f, -0.0017666479f, 0.071822003f, -0.069929861f, 0.022088006f, 0.051738601f, 0.14044546f, 0.12100954f, 0.17080304f, -0.14839293f, -0.064675182f, 0.031920392f, 0.077233195f, -0.13149288f, -0.021641005f, -0.030463563f, 0.05066248f, -0.10823854f, 0.17037404f, -0.022338286f, -0.21517172f, 0.10267215f, 0.10407727f, 0.15231588f, 0.047206946f, 0.072741225f, -0.1012212f, 0.19015966f, 0.01236585f, -0.039390154f, -0.041327234f, -0.055518728f, 0.11910021f, 0.17821978f, 0.094459221f, 0.11473378f, 0.16932948f, -0.22735919f, 0.061003994f, -0.012836385f, 0.11801065f, -0.15338427f, 0.00942038f, -0.10371923f, 0.080365755f, -0.16314542f, 0.21764754f, -0.11305417f, 0.070569046f, -0.07242313f, 0.10528276f, -0.10824966f, 0.17405233f, -0.20059386f, -0.083125949f, 0.10044365f, 0.063467048f, -0.052907344f, -0.14341372f, 0.16000201f, -0.15822403f, -0.064035699f, 0.12952024f, -0.031013487f, 0.023146151f, 0.060589958f, -0.13815337f, -0.21055992f, -0.095541947f, -0.11012758f, 0.039185781f, 0.16222245f, 0.064226136f, -0.045046587f, 0.050278682f, -0.12259258f, 0.1514214f, -0.25257391f, -0.10163956f, 0.20935696f, 0.10197984f, -0.017801352f, -0.17271443f, -0.078745581f, 0.17142782f, 0.033413511f, -0.1175973f, -0.12241556f, -0.14551605f, 0.072554149f, -0.032652926f, -0.11515142f, -0.17157741f, 0.089208968f, 0.13144957f, -0.10314041f, 0.13731574f, -0.058271684f, 0.10054144f, -0.077156544f, 0.1586735f, 0.090317912f, 0.10348542f, 0.0086848922f, -0.12777965f, 0.033146355f, 0.012249604f, -0.048245773f, 0.11020738f, 0.057672147f, 0.034456629f, -0.075952575f, 0.067394339f, -0.16041462f, -0.10263059f, 0.11938317f, -0.0027239861f, -0.035747718f, -0.072678365f, 0.018060271f, 0.1096141f, 0.028200271f, -0.028174847f, 0.072632797f, -0.053431906f, -0.094909489f, 0.17507908f, -0.15349111f, 0.13631858f, -0.12680687f, 0.075457655f, 0.10291364f, -0.070202857f, -0.078007072f, 0.057945978f, 0.0038337288f, 0.019108377f, 0.17274623f, 0.022769921f, -0.019835541f, 0.23420265f, 0.11496396f, 0.13935348f, 0.015906537f, 0.08233159f, 0.12574321f, 0.18068805f, -0.10282914f, 0.052674167f, 0.17072621f, -0.067525014f, 0.11763375f, 0.01132206f, -0.090940729f, 0.16314006f, -0.068608671f, 0.20530543f, 0.12985805f, 0.21661121f, 0.1093158f, 0.076525278f, -0.031881694f, 0.10992663f, 0.007629808f, 0.024715602f, -0.051991642f, 0.096812002f, 0.023028107f, -0.031942818f, -0.073518157f, 0.051003732f, 0.044016697f, -0.039755449f, -0.26113567f, 0.18693882f, -0.1394746f, 0.14911045f, 0.16534212f, -0.0054326244f, 0.12304575f, -0.01809575f, -0.042134363f, 0.072498202f, -0.06563054f, 0.021924064f, -0.13422514f, -0.11029425f, 0.17740469f, -0.05010448f, -0.049930759f, 0.1056459f, -0.069712952f, -0.089419097f, -0.039956011f, 0.06470646f, -0.11144211f, 0.099136114f, -0.26717174f, 0.049892407f, -0.11731927f, 0.22515388f, -0.054023758f, 0.041084483f, 0.17125475f, -0.046098128f, -0.046073753f, 0.054427143f, 0.12211596f, -0.016577378f, -0.044062778f, 0.00045914802f, 0.024153607f, 0.095879234f, 0.10411379f, -0.042424947f, -0.094447881f, 0.018436359f, 0.093674943f, -0.028666345f, 0.021929825f, -0.12850174f, -0.017780911f, 0.076059833f, 0.01019378f, -0.090237677f, 0.049543209f, 0.032271948f, -0.24369419f, -0.062534891f, 0.073263265f, 0.16240558f, -0.011809316f, 0.027468098f, 0.14538568f, 0.10683178f, 0.056832865f, -0.10212747f, -0.24474728f, -0.022575408f, 0.015925404f, -0.041024499f, 0.040046737f, -0.077861682f, -0.02500556f, -0.019636255f, 0.15530846f, 0.08420445f, -0.047901735f, -0.093760312f, 0.1160958f, 0.092736527f, -0.039892368f, -0.063969359f, -0.031323615f, -0.11373359f, -0.032554552f, 0.054557137f, -0.16904651f, 0.15450591f, 0.19028752f, -0.046912428f, 0.11620028f, -0.13628295f, 0.14841799f, 0.15516511f, 0.011745193f, -0.00778504f, 0.29493496f, 0.14766793f, 0.042152978f, -0.070096426f, 0.12490589f, -0.0029719542f, 0.099695928f, 0.09995693f, 0.098984465f, 0.14495701f, -0.17536336f, 0.033971578f, 0.048536118f, 0.12566778f, 0.12771022f, -0.029478688f, -0.034986764f, 0.011598391f, 0.11623652f, -0.14364015f, -0.067947097f, 0.05093715f, 0.011051521f, -0.074116483f, -0.088436522f, 0.15383683f, -0.079392575f, 0.18274701f, -0.068881914f, 0.057808243f, -0.010302695f, 0.045642294f, 0.028030023f, 0.072100975f, 0.15950517f, 0.052873697f, 0.15589747f, -0.07298436f, 0.136142f, 0.16496579f, -0.094235592f, 0.057062943f, -0.090436041f, 0.057769541f, -0.024351034f, 0.0061200121f, 0.17489956f, 0.13397385f, -0.0069523836f, 0.0099615967f, 0.2769047f, -0.099439889f, -0.073654585f, 0.020551199f, 0.052255213f, 0.13869277f, 0.15173693f, -0.030376442f, -0.0068439422f, 0.017281283f, 0.19338253f, 0.11343588f, -0.14008291f, -0.063220598f, -0.014432571f, -0.13204159f, -0.17816098f, -0.16539204f, 0.10710417f, 0.0028476454f, -0.088769346f, 0.08812809f, -0.04559527f, -0.059081476f, 0.10221352f, -0.10904892f, 0.031821147f, 0.12376931f, 0.089550093f, 0.036816403f, -0.1725013f, 0.19671968f, 0.0282335f, -0.12059911f, -0.069537476f, 0.0780669f, 0.15651777f, 0.15772434f, -0.10774135f, -0.014255691f, 0.0061177653f, 0.12294091f, -0.10297038f};
static const int net_0_bias_len = 128;
static const float net_0_bias[] = {-0.0050903885f, 0.15883087f, 0.07891044f, 0.14484121f, -0.053267941f, 0.17267302f, 0.15841497f, 0.033315502f, -0.061381761f, -0.14269173f, -0.12470777f, -0.038588695f, 0.028814411f, -0.015359683f, 0.078749418f, -0.0051939758f, 0.18071418f, 0.1694241f, -0.07166554f, 0.1288325f, -0.081760138f, 0.0062401616f, 0.08715447f, -0.13423617f, -0.044376463f, 0.086426988f, 0.079533853f, 0.17244914f, -0.048208527f, -0.12879243f, 0.1916934f, 0.17551672f, -0.11559743f, 0.11208732f, 0.20402652f, 0.037482552f, -0.1157015f, 0.091019616f, 0.060503528f, 0.15268648f, 0.032619633f, -0.018570082f, -0.087136343f, -0.044207904f, -0.090101458f, -0.040960565f, -0.0079180421f, 0.1288514f, -0.073312394f, -0.12842441f, -0.029517448f, 0.065416269f, 0.0067314673f, -0.11610551f, -0.12781616f, -0.070766926f, 0.062938407f, 0.020021072f, 0.11390631f, 0.053726289f, -0.032393236f, 0.073201932f, 0.0029140131f, 0.043926056f, 0.080677569f, -0.059237972f, 0.071444474f, -0.022973394f, -0.098686807f, -0.034914754f, -0.12652273f, 0.16812126f, -0.093341067f, -0.062247716f, 0.15205684f, 0.17924295f, 0.16992609f, -0.067629158f, 0.1643911f, 0.086747095f, 0.14641175f, -0.088939033f, -0.12234084f, 0.08891499f, 0.053357854f, 0.16093013f, 0.13819094f, 0.0079887593f, 0.019975074f, 0.052957948f, -0.046001483f, -0.099753723f, 0.15791489f, -0.042526949f, 0.070304461f, -0.017576816f, 0.045194622f, 0.15715715f, 0.18950224f, -0.074152514f, -0.077516802f, 0.027036764f, 0.21316354f, -0.084330946f, 0.037523005f, 0.17864718f, -0.014761451f, -0.10380049f, -0.11448279f, -0.12378328f, 0.14811777f, 0.1320428f, 0.052329842f, 0.1003342f, 0.029641656f, -0.005140807f, 0.0086378194f, -0.078023307f, -0.050928503f, -0.010177497f, 0.081974708f, 0.13173564f, 0.1712791f, 0.044488944f, -0.014168423f, 0.13353194f, -0.084783368f, 0.067533329f};
static const int net_2_weight_len = 16384;
static const float net_2_weight[] = {-0.038379658f, 0.0062488462f, 0.091786608f, 0.09732499f, 0.094559565f, 0.04229103f, 0.09683118f, 0.020721247f, -0.067351602f, 0.1041441f, 0.035832167f, 0.12525479f, 0.055012092f, 0.046740495f, 0.080649868f, -0.01491308f, -0.0059577837f, 0.015099819f, 0.00079335773f, -0.10707878f, 0.0064216005f, 0.065138184f, -0.057128843f, -0.091593258f, -0.059316814f, 0.029043613f, 0.1085868f, -0.039682772f, 0.085565835f, 0.059108268f, -0.024071611f, -0.005971231f, -0.032899685f, 0.10143726f, 0.072892994f, -0.0088878572f, 0.07519161f, -0.057371218f, 0.054702491f, 0.034113146f, -0.058441192f, -0.045134f, 0.049391828f, 0.057016715f, -0.015256369f, 0.064814568f, -0.045333922f, 0.011177991f, 0.082001306f, -0.048166122f, 0.091053315f, 0.11079745f, -0.050474677f, -0.047505289f, 0.094794616f, 0.086349346f, 0.067226008f, -0.0081144646f, 0.1801707f, 0.072634824f, 0.020930205f, 0.12447827f, 0.10475951f, 0.1443762f, -0.022986855f, -0.20984769f, 0.019894786f, -0.092914797f, 0.0078280866f, -0.074585199f, 0.0018828269f, 0.081600681f, -0.030733621f, 0.10654754f, -0.030811528f, 0.07740362f, 0.10944002f, -0.04790587f, -0.090892367f, 0.030287454f, 0.13394029f, 0.052269448f, -0.087785475f, -0.064876102f, -0.061833132f, 0.063816614f, -0.090077087f, 0.0158299f, -0.017594466f, 0.055815727f, -0.0046629417f, 0.17486192f, 0.046419289f, -0.0068532866f, 0.08778245f, -0.042422842f, 0.10827227f, 0.045563284f, 0.087164f, 0.051336236f, 0.063135117f, 0.074718609f, 0.081500329f, -0.014518928f, -0.045196403f, 0.065329336f, 0.11260483f, 0.075640678f, 0.011878069f, -0.033192169f, 0.030288614f, 0.14788876f, 0.15905732f, -0.078803755f, -0.022758881f, -0.090085469f, -0.048063163f, 0.11397498f, 0.096364222f, 0.016244842f, -0.17009144f, -0.03163559f, 0.075138137f, 0.0063709687f, -0.13723402f, -0.022012256f, 0.095446646f, 0.070370495f, 0.050633755f, 0.064637914f, 0.13444439f, 0.048598491f, -0.02097304f, 0.075802028f, 0.035286959f, 0.044894394f, 0.033035543f, -0.0005764736f, 0.021331195f, -0.10580793f, 0.040322032f, 0.0089887567f, 0.055829633f, -0.065713316f, 0.10580382f, 0.095726721f, 0.0082707042f, 0.099632852f, -0.084077887f, -0.043031149f, 0.072831713f, 0.0012450006f, 0.0055445186f, -0.030533953f, -0.12420354f, 0.019471781f, -0.031087298f, 0.064754337f, -0.014103438f, 0.0024288043f, 0.003129849f, 0.10139282f, -0.061393756f, -0.10609308f, 0.02608984f, 0.048131637f, 0.076073848f, 0.038424071f, -0.0085497182f, 0.17148282f, 0.0041597267f, -0.082514286f, 0.043569133f, 0.0060374327f, 0.041477464f, 0.082564332f, 0.13991298f, 0.047773398f, 0.084290445f, 0.0062412634f, -0.010677432f, -0.049315438f, 0.040223815f, 0.073539518f, -0.05921638f, 0.14807619f, -0.16521676f, -0.0086286496f, 0.1110912f, 0.076826088f, -0.0030764809f, -0.078654796f, -0.021796426f, 0.21279676f, -0.071392037f, 0.037935972f, 0.077127934f, -0.021820534f, -0.052399419f, 0.057657566f, 0.048497062f, 0.010037847f, 0.052628104f, 0.065535545f, -0.143491f, 0.092603065f, 0.13551189f, 0.12760919f, 0.024680145f, -0.041572109f, 0.052497845f, 0.066125549f, 0.03900855f, 0.081705853f, 0.14431413f, -0.044576067f, 0.015122481f, 0.038277537f, -0.014843532f, -0.087217279f, -0.022034314f, 0.079542682f, 0.092582144f, -0.022984641f, -0.13803434f, 0.087016024f, 0.014110519f, 0.038980525f, 0.071642004f, -0.028397355f, 0.035088792f, -0.056009121f, -0.014486336f, 0.080864646f, 0.0033523529f, -0.0509197f, -0.015820235f, -0.14978819f, 0.10904931f, -0.091381237f, -0.09455622f, -0.07282012f, 0.030511225f, 0.043698151f, 0.09304022f, 0.0095314095f, 0.049975652f, -0.065146029f, 0.17532574f, -0.055473752f, 0.026367875f, -0.0055283518f, 0.15292092f, 0.079631969f, 0.080619469f, -0.026917784f, 0.074622191f, 0.050348178f, -0.010275344f, 0.04575143f, 0.02834351f, 0.010858442f, 0.022598347f, 0.098456696f, -0.072917633f, 0.10480023f, -0.0090468647f, -0.012715884f, 0.03626778f, 0.028869111f, -0.070006244f, -0.037300948f, -0.025726657f, -0.0026009975f, 0.084554531f, -0.1068314f, -0.13974293f, 0.057054438f, 0.10986247f, -0.034006055f, 0.12401335f, 0.0063128509f, 0.006963456f, 0.086243674f, -0.078898974f, 0.057885304f, 0.10133593f, 0.087018818f, 0.065653726f, 0.14042997f, 0.058392201f, -0.024329755f, 0.12716596f, -0.050477777f, 0.045380898f, 0.12074941f, -0.053920619f, -0.16102521f, -0.015859153f, 0.0564906f, 0.025662683f, 0.026359055f, 0.0095296372f, -0.035762213f, 0.02806372f, -0.020545091f, -0.076132089f, -0.03607408f, -0.13060167f, 0.058351576f, 0.0073121637f, 0.094381504f, 0.021223651f, -0.022880267f, 0.0028507034f, 0.13434872f, 0.089373127f, 0.021361353f, -0.04516359f, -0.19607194f, -0.019152859f, -0.1249365f, 0.11148949f, 0.11567812f, 0.039633024f, 0.045532364f, 0.083981559f, -0.051269755f, 0.10487618f, 0.014860108f, -0.039487276f, 0.028833792f, 0.064514995f, 0.058407664f, -0.094821073f, -0.052899413f, 0.044405017f, 0.067907505f, 0.0091047222f, -0.10671026f, -0.067994319f, 0.0089137247f, 0.093194619f, -0.055389702f, 0.043178797f, -0.018249441f, -0.093606055f, -0.0086354986f, -0.031251963f, -0.12116665f, -0.0057129557f, 0.078046866f, 0.067877531f, -0.0013252294f, 0.09493313f, -0.097927004f, 0.012625718f, 0.16949476f, 0.033564355f, -0.017069412f, 0.021121658f, 0.057829227f, 0.030282767f, 0.030843316f, -0.071227126f, -0.01122142f, 0.021890724f, 0.12923262f, 0.20376922f, 0.16796963f, -0.077217802f, -0.019090405f, -0.11556277f, 0.064812437f, 0.010496862f, 0.019937398f, -0.072064094f, -0.035740931f, -0.024883568f, -0.04203723f, -0.11386584f, 0.14858639f, -0.079890452f, 0.078814179f, 0.010598705f, -0.059988227f, 0.050801236f, 0.033849228f, 0.024755439f, 0.051537078f, 0.050013632f, 0.11564488f, -0.12539351f, 0.15781318f, 0.036791276f, 0.0038519099f, -0.078403451f, 0.075619221f, -0.10237847f, 0.048030581f, -0.0067262473f, 0.011735697f, 0.013449456f, -0.10806891f, 0.087613635f, -0.026565056f, 0.020786021f, -0.027594663f, -0.037143387f, 0.043111045f, 0.073506057f, 0.11125231f, 0.052327096f, 0.058659963f, -0.012566633f, 0.059767634f, 0.039960347f, 0.022988845f, 0.11339089f, 0.0018581001f, 0.037932307f, 0.019772705f, 0.043317068f, -0.089703307f, -0.061378941f, -0.11594547f, 0.00090761605f, 0.011588904f, 0.0014028084f, -0.0050971066f, 0.0044612754f, 0.069858745f, -0.036255918f, 0.039210584f, 0.01237048f, 0.013947541f, 0.020195113f, -0.078137547f, 0.092204541f, 0.052423019f, 0.13551766f, 0.028959135f, 0.10285461f, 0.017556995f, 0.094835021f, 0.048276588f, 0.10811351f, 0.033056177f, -0.066596828f, -0.10773263f, -0.033109423f, -0.021912457f, -0.0056843166f, -0.10027667f, 0.059198175f, 0.030492235f, 0.079024494f, 0.10219166f, -0.037009373f, 0.055935115f, 0.035459019f, 0.059889782f, -0.12892821f, 0.022963589f, 0.045866884f, 0.048889216f, 0.001460213f, -0.025195168f, 0.0035426696f, 0.0097647943f, -0.026992153f, -0.038537096f, -0.038376998f, 0.067124665f, -0.013959542f, 0.025395917f, 0.016393363f, 0.078867823f, 0.085616983f, 0.040035203f, 0.0072993347f, -0.0010379402f, 0.03068905f, -0.049629837f, 0.0094325719f, 0.060697827f, 0.07859356f, -0.099653266f, -0.044893976f, 0.054464892f, 0.083284363f, -0.058113214f, 0.026537858f, -0.01686042f, 0.035409637f, 0.084221162f, 0.14258698f, 0.0060831252f, 0.096709825f, -0.11066314f, 0.007963961f, 0.10198285f, -0.01096153f, -0.061253607f, -0.098275445f, 0.1021062f, -0.01053966f, -0.056725368f, -0.098932832f, 0.0098263472f, 0.024318686f, 0.0060040862f, -0.0023203448f, -0.0020307314f, 0.096214652f, 0.036736671f, 0.035614092f, -0.078754663f, -0.021588506f, 0.0012509145f, 0.12852417f, -0.10554577f, 0.0060121622f, -0.08306089f, 0.10440598f, -0.096294239f, 0.050262123f, -0.068442151f, 0.012783733f, -0.055008698f, 0.082178518f, 0.081787921f, -0.078427665f, -0.04594769f, 0.043145008f, 0.12098506f, 0.057045221f, -0.04599268f, -0.064392336f, 0.024414821f, 0.045560263f, -0.057191007f, 0.045737017f, -0.086121082f, -0.036739342f, 0.00053714996f, -0.088315256f, -0.00021856105f, -0.014334516f, -0.014339393f, -0.018450305f, -0.037764098f, 0.075586282f, 0.032805953f, -0.036177453f, 0.045856196f, 0.074354112f, -0.02426789f, -0.078180961f, -0.059317321f, 0.029387718f, -0.066345431f, -0.0080335224f, 0.092870377f, 0.011896847f, 0.11299976f, -0.0069402154f, -0.018349241f, -0.054291047f, 0.023642829f, -0.13041174f, -0.04259811f, 0.080813058f, 0.0030167769f, -0.11078396f, -0.095722534f, 0.1081476f, 0.058928184f, -0.028359672f, 0.071858421f, 0.052510496f, -0.0056338315f, 0.040388271f, -0.025470963f, 0.0024084225f, 0.028205099f, 0.068586014f, 0.080587506f, -0.050075952f, 0.040609196f, 0.13573571f, 0.090713128f, 0.063258439f, -0.097074509f, -0.03546147f, 0.0076185404f, 0.02258306f, -0.023243705f, -0.0088499822f, -0.070646599f, -0.058211215f, -0.053891469f, -0.090190589f, 0.0032242967f, 0.087787561f, 0.069330588f, -0.04904107f, -0.026559396f, 0.018277254f, 0.016687302f, 0.11668842f, 0.032614246f, 0.083911821f, -0.00091314816f, 0.10014068f, -0.0099034812f, -0.0027660425f, -0.036836158f, 0.037013218f, 0.0057973661f, -0.038503692f, -0.18081614f, 0.088385984f, -0.11572849f, 0.022086356f, 0.026437314f, -0.066302113f, 0.12376771f, 0.074635372f, 0.046681669f, -0.010384613f, 0.11842808f, 0.14954717f, 0.054969281f, -0.050645251f, -0.0001310423f, 0.011329792f, 0.0095838076f, 0.034106437f, 0.10937072f, -0.00062582234f, 0.039267138f, 0.10299731f, 0.062757559f, 0.041129183f, 0.029305927f, -0.010722509f, 0.11926838f, -0.010884805f, 0.0268852f, 0.012517613f, -0.05178779f, -0.061802763f, 0.071333587f, 0.011878232f, 0.12021557f, -0.050049879f, 0.11215094f, 0.0043068095f, -0.089236178f, -0.059299447f, -0.081862748f, -0.007456487f, -0.076793663f, 0.12886685f, 0.026471188f, 0.0015386799f, -0.039158776f, -0.06133211f, 0.065044835f, 0.015997415f, -0.044081081f, -0.024162566f, 0.11114863f, -0.019352967f, -0.078598425f, 0.12795901f, 0.013383483f, 0.026888493f, 0.034257527f, -0.08354491f, -0.015207827f, -0.070494913f, 0.094424233f, 0.014538222f, 0.069978043f, -0.040978353f, -0.08729478f, 0.12381317f, -0.013748618f, 0.13078026f, -0.037934057f, -0.15423587f, -0.026187403f, 0.03516759f, 0.064260855f, 0.0014029451f, 0.095461369f, -0.094661295f, 0.062414519f, 0.15702812f, 0.091761068f, -0.19099668f, -0.07539814f, 0.039708085f, -0.016088907f, -0.042421464f, -0.017389726f, 0.048934594f, -0.0063803596f, 0.093826167f, 0.030982789f, -0.037537102f, 0.065978885f, -0.065386407f, 0.011334143f, 0.013473754f, -0.0025642498f, -0.143555f, 0.014497538f, 0.057924677f, 0.14147812f, -0.10428638f, 0.053304318f, -0.070228934f, 0.035425857f, 0.0058959499f, -0.044115797f, -0.064818911f, -0.053517506f, -0.030217702f, 0.037384536f, -0.073228724f, -0.033705335f, -0.029911926f, 0.015047392f, 0.038960554f, 0.061501231f, 0.0018393149f, 0.038145121f, 0.065009303f, 0.023417519f, 0.08557301f, -0.12771441f, 0.033270996f, -0.015448941f, 0.093644612f, -0.04163909f, -0.068883292f, -0.043779999f, -0.026640179f, -0.058017887f, 0.016421622f, -0.081391595f, -0.12474605f, -0.094102703f, 0.063422464f, -0.03756414f, -0.013360254f, -0.089188062f, -0.045327198f, 0.022523711f, -0.1067428f, -0.058714077f, 0.022705203f, 0.063327126f, 0.050646815f, 0.10230255f, 0.04568914f, 0.056961272f, 0.014956975f, -0.029354965f, -0.072952583f, -0.011367809f, 0.095462054f, -0.088145018f, 0.076310873f, -0.1111762f, -0.010766132f, -0.032987844f, 0.045303654f, -0.054780666f, 0.019236833f, 0.035164919f, 0.04690028f, -0.0056092548f, 0.034927759f, 0.11215078f, -0.10862771f, -0.03850732f, -0.073281229f, 0.12344468f, 0.039008647f, 0.10134134f, 0.01849841f, -0.059358239f, 0.073421746f, -0.10096015f, 0.017383164f, -0.054125506f, -0.03404006f, 0.07464084f, 0.0095120491f, -0.077127315f, -0.056339443f, 0.045509133f, -0.074001573f, 0.10431965f, -0.018500747f, 0.037656225f, -0.0027897521f, -0.094037168f, -0.028183153f, -0.10464153f, -0.079355113f, -0.037050042f, -0.06650845f, -0.0035185979f, -0.13848491f, 0.011263557f, -0.011256989f, 0.069650449f, -0.010704312f, -0.031728316f, -0.10733446f, -0.080229342f, -0.13192464f, 0.0069677285f, 0.009701659f, -0.027898334f, 0.012825199f, -0.12084746f, -0.024722571f, 0.18196492f, -0.10612059f, 0.063670397f, -0.013994268f, 0.038220838f, 0.062190272f, 0.067646094f, 0.032880332f, -0.030758969f, 0.044705447f, -0.014553221f, -0.12725183f, -0.072347775f, 0.084589168f, 0.10271795f, -0.078555025f, -0.11356837f, 0.11282273f, -0.038328417f, 0.0040864525f, 0.0058415402f, 0.1047994f, 0.00221454f, 0.053254593f, -0.033763882f, 0.035058632f, -0.1068194f, 0.045714494f, -0.042826913f, -0.098048717f, -0.043532293f, -0.09587241f, 0.060456585f, -0.026644919f, 0.020782046f, -0.09323398f, -0.12065556f, -0.0036438399f, 0.0087512583f, 0.04747298f, -0.10818258f, 0.064374082f, -0.070439495f, -0.082684539f, -0.059004676f, 0.015305138f, -0.1073733f, -0.038228769f, 0.022258615f, 0.0018254591f, 0.093354397f, 0.076747917f, -0.047607973f, 0.00074715563f, 0.10426601f, 0.15184151f, -0.05023228f, 0.02836665f, 0.04315383f, 0.085287847f, 0.080776893f, -0.023258474f, 0.015035704f, -0.045313641f, 0.010229843f, -0.0035384009f, 0.057399705f, 0.08599335f, 0.0040483233f, -0.055978008f, 0.021894062f, 0.0075948685f, -0.034950674f, -0.1394743f, 0.0057837851f, -0.012866704f, -0.028440267f, 0.12272208f, -0.05428078f, 0.095320344f, 0.032321107f, -0.01742149f, -0.014972173f, -0.078315876f, -0.031816177f, 0.10873599f, 0.075812213f, 0.068293996f, 0.0055927173f, -0.079815276f, 0.0082271518f, 0.043899238f, 0.043117773f, 0.10075331f, -0.02425807f, 0.015905097f, 0.02773552f, -0.067129344f, 0.017097006f, 0.073836625f, 0.058685739f, 0.074306779f, 0.14003174f, 0.12153301f, 0.064790256f, -0.0026716776f, -0.092104115f, 0.051879101f, -0.073853686f, -0.13968797f, 0.0070302202f, 0.064193033f, 0.034719288f, -0.079027511f, 0.11849488f, -0.033605084f, 0.089938693f, 0.030034836f, 0.00051279349f, -0.056160815f, -0.028894464f, -0.047329351f, 0.14151025f, -0.035686404f, 0.058129653f, -0.094914615f, -0.042318039f, -0.018488238f, 0.095639162f, -0.092254773f, 0.015734928f, -0.028675701f, -0.015000395f, -0.00815906f, 0.037561193f, 0.083748281f, 0.024102077f, 0.096676633f, 0.10956258f, 0.055106033f, -0.051231112f, -0.0022102045f, 0.015414581f, -0.054810125f, -0.1716385f, 0.070828117f, 0.015054501f, -0.087532245f, 0.024051495f, 0.0028291726f, -0.0084956698f, -0.075749516f, -0.047963325f, 0.0083258683f, -0.02229411f, 0.10200708f, 0.092816323f, -0.04602576f, 0.14393556f, 0.08464618f, 0.091871172f, 0.083251163f, 0.0607219f, 0.071221344f, 0.019804362f, 0.010327834f, -0.078756027f, 0.077338077f, 0.042209528f, -0.0806759f, 0.097123772f, -0.12028307f, -0.18914375f, -0.0079701617f, -0.031405684f, 0.071163759f, 0.12483108f, -0.043501057f, 0.12150071f, 0.092515141f, -0.020445568f, -0.069405861f, 0.06392584f, 0.074458189f, 0.019482546f, -0.083823405f, 0.0088759121f, 0.018856717f, 0.13695712f, 0.022466304f, 0.037195522f, 0.07809633f, -0.09285529f, 0.036733173f, 0.0091364188f, 0.10028523f, 0.080486685f, -0.015322848f, -0.0030068792f, 0.019027997f, 0.046069007f, -0.016647542f, -0.052803379f, -0.022966625f, 0.12808658f, 0.0039384738f, 0.021483513f, 0.042971727f, 0.094375215f, 0.030324601f, 0.029939618f, 0.095921993f, 0.071115732f, -0.057253677f, -0.081196547f, 0.10395069f, -0.048702423f, 0.077093579f, -0.014239589f, -0.024724016f, -0.01328876f, -0.041255724f, 0.063121617f, 0.029826658f, 0.032135788f, -0.074882463f, 0.061727628f, 0.11964343f, 0.083348222f, 0.1289874f, 0.06311626f, 0.050606135f, -0.11872517f, -0.095471412f, 0.11905091f, 0.074912816f, -0.019243419f, 0.024296781f, 0.071341261f, 0.07530915f, -0.080587968f, 0.15065889f, 0.074901558f, -0.05529255f, 0.093427658f, 0.10574511f, 0.075107075f, 0.063427456f, 0.11198685f, 0.078202263f, 0.042892251f, 0.13099879f, 0.11982905f, -0.057952255f, 0.072941944f, 0.0056647491f, -0.0177279f, 0.12425156f, 0.048962936f, 0.0049585523f, 0.03381132f, 0.074174225f, -0.050948799f, 0.02324895f, 0.12912183f, -0.069997594f, -0.076463848f, 0.13308336f, 0.04743474f, -0.107615f, -0.0010680814f, -0.025413534f, 0.075785115f, -0.07973247f, 0.0080875093f, -0.046586893f, -0.0089601362f, 0.0023956278f, -0.030598812f, 0.016733969f, -0.065240726f, -0.06486465f, 0.11315905f, 0.046471268f, -0.051878028f, -0.028423291f, -0.071722746f, 0.045156062f, -0.006047118f, -0.046097521f, -0.054695923f, 0.034049641f, 0.011460616f, 0.010026936f, 0.01360647f, -0.010356822f, 0.037804771f, 0.083515666f, 0.051579274f, 0.056158047f, 0.058422349f, -0.017039891f, 0.13047887f, -0.0067571308f, -0.17473248f, 0.012140282f, 0.035914768f, -0.094944499f, -0.14194959f, -0.051680252f, -0.042297825f, -0.13773255f, 0.071956851f, -0.023533842f, -0.038203333f, -0.0090840217f, -0.018556707f, 0.13546491f, -0.070184313f, 0.052126665f, -0.09664458f, 0.12940171f, 0.066949211f, 0.071302503f, 0.034320224f, -0.0087596495f, 0.072712094f, -0.097594425f, 0.093750119f, 0.026463669f, 0.016134806f, -0.078950793f, 0.080477223f, 0.06841325f, 0.11827517f, 0.070210055f, 0.060952034f, -0.09145347f, -0.0023924189f, 0.028306438f, -0.0080215428f, -0.074411765f, 0.015250087f, -0.070346139f, -0.010686602f, -0.014747216f, 0.080125727f, 0.019576091f, 0.094067052f, 0.069096386f, -0.062889174f, 0.058552362f, 0.018278928f, 0.027832512f, 0.015773866f, 0.074135348f, 0.060102444f, 0.067439415f, 0.036390137f, -0.079888053f, -0.017327609f, -0.12627079f, 0.093978517f, 0.034799542f, -0.067141026f, 0.080460295f, -0.044603862f, 0.026948573f, 0.065677866f, 0.13084936f, -0.051733486f, -0.049223147f, -0.042917572f, 0.0050531207f, -0.0043678856f, -0.0010685949f, 0.018435311f, -0.081474245f, 0.036034707f, 0.10062748f, 0.01525207f, 0.026574804f, 0.1305303f, 0.0077678189f, -0.12172943f, 0.09283673f, -0.046231456f, -0.021351133f, -0.06487485f, -0.064378835f, -0.013430089f, -0.041165255f, -0.028456824f, -0.032873951f, 0.027733883f, -0.00077360345f, 0.091968328f, -0.085052505f, -0.047995824f, 0.068599492f, 0.11921027f, -0.072024249f, -0.017921688f, 0.038603205f, 0.031021118f, -0.04558415f, 0.096779726f, 0.092163399f, -0.0065202941f, -0.08274015f, -0.032603327f, 0.087838277f, 0.017170414f, 0.038177498f, -0.10942376f, -0.052536327f, -0.011931297f, 0.0056348676f, 0.078390971f, 0.0097466959f, 0.058110055f, 0.0067363568f, 0.052797858f, -0.15430649f, -0.045557287f, 0.066781282f, -0.017644115f, 0.10340135f, -0.0026920545f, -0.0166687f, 0.05523286f, -0.044322647f, -0.092403643f, 0.039766308f, 0.027271805f, 0.057944469f, -0.11587476f, 0.0052463468f, -0.10025225f, -0.10372717f, 0.016547149f, 0.10002458f, -0.10678393f, 0.083708286f, -0.091867201f, 0.0055761971f, 0.0421497f, 0.011591319f, -0.052178159f, 0.15370633f, 0.082458854f, 0.08097896f, 0.10841596f, -0.030840509f, 0.092532694f, -0.010962027f, 0.072556362f, 0.11864314f, -0.013597394f, -0.0095776608f, 0.094581611f, 0.09171617f, 0.12694933f, -0.027378736f, -0.047133572f, 0.073153503f, -0.072850645f, 0.13829949f, -0.054480139f, -0.020533537f, 0.036470052f, 0.083996959f, -0.040529363f, 0.086336613f, 0.036531504f, -0.018450005f, -0.018499495f, -0.046999343f, 0.042658228f, -0.021512419f, 0.086902387f, 0.00071903825f, 0.0095868902f, 0.074460901f, 0.013026835f, 0.12181643f, -0.044998281f, 0.024671163f, 0.05867292f, -0.05613276f, 0.12910978f, 0.0047638183f, 0.10494073f, 0.073348574f, 0.07862246f, 0.10242785f, -0.043072067f, 0.090289377f, 0.025753714f, 0.058176588f, 0.036826402f, 0.11966721f, -0.018503057f, 0.11189903f, -0.024511116f, 0.0019148401f, -0.041791625f, 0.17623928f, 0.077745952f, 0.055524293f, 0.10012624f, 0.11618553f, -0.016914101f, 0.11838695f, -0.026826788f, -0.047827974f, 0.030406144f, 0.019368798f, 0.0015036206f, 0.019341078f, 0.014018164f, -0.0013301556f, 0.052806959f, -0.0139167f, -0.0035721483f, 0.03014119f, 0.01016896f, 0.087420911f, 0.12421268f, 0.025404468f, 0.075309977f, 0.096525699f, 0.00096578966f, 0.083155505f, 0.012792604f, 0.047302075f, -0.054944824f, -0.10079575f, 0.076264039f, -0.066314116f, 0.10105128f, -0.01741216f, -0.045852844f, -0.10292883f, -0.039578315f, 0.021109298f, 0.11754229f, 0.093769811f, 0.033623844f, -0.040721148f, -0.017843449f, 0.04115634f, 0.026169349f, -0.0087482948f, 0.063911833f, -0.039547015f, 0.036777046f, -0.034131665f, 0.031299878f, -0.048193693f, -0.085509233f, -0.0057504843f, -0.069038704f, 0.05625657f, 0.00050841586f, 0.08401116f, -0.036411557f, -0.080087312f, -0.037315294f, -0.017251967f, -0.0066976263f, 0.029765939f, 0.057384357f, -0.0043925955f, -0.013908294f, 0.019887971f, -0.056611422f, 0.078727573f, -0.00051093614f, 0.11627231f, 0.017423663f, 0.076970898f, 0.058656838f, -0.019323504f, 0.14346133f, 0.020283395f, 0.02397182f, -0.066514067f, 0.018230069f, 0.084176898f, 0.064792134f, 0.11697639f, 0.045331351f, -0.097560696f, 0.036510583f, -0.034453239f, -0.010871737f, 0.049982902f, 0.063578054f, -0.0038316352f, 0.03254832f, 0.045198236f, 0.097253457f, -0.043206435f, 0.011538062f, 0.001741601f, -0.094966911f, -0.030504236f, 0.139956f, -0.020922566f, -0.12825106f, -0.04014622f, 0.035909645f, -0.0095991259f, 0.089366481f, 0.016308138f, 0.078791536f, -0.010517163f, -0.010013809f, 0.051342402f, 0.011150079f, -0.014365537f, 0.094044194f, 0.082406327f, 0.0061869151f, 0.13478239f, 0.013247989f, -0.080917105f, 0.10731676f, -0.013341381f, 0.12869388f, 0.0093467692f, 0.046632826f, -0.0058577759f, 0.036589231f, 0.070118129f, 0.017460292f, -0.035476569f, -0.077712528f, 0.032786973f, -0.096196719f, 0.088838242f, 0.085410975f, 0.13196117f, 0.036831681f, -0.00072822138f, 0.052638322f, -0.11263956f, 0.040102001f, 0.12529646f, 0.076404549f, -0.019436281f, 0.085256115f, 0.060478296f, -0.029385392f, 0.011557175f, 0.074710488f, 0.02166508f, 0.024942206f, -0.13284278f, -0.053528644f, 0.11235664f, -0.016025787f, 0.010917762f, -0.10020173f, -0.067323603f, 0.0095919045f, -0.051761352f, -0.096588932f, 0.014909503f, 0.023752537f, -0.12040713f, -0.061651543f, 0.045716431f, 0.11450425f, 0.11335384f, 0.049916778f, 0.0014053076f, -0.12349155f, 0.022753445f, -0.025151631f, 0.062640183f, 0.026840072f, -0.022734856f, -0.030589813f, 0.025767135f, -0.039912861f, 0.10242024f, -0.13990471f, -0.045287658f, -0.041877478f, 0.0010429177f, -0.14168839f, -0.061297122f, -0.04409641f, -0.029627198f, 0.11608197f, -0.012182543f, -0.094788045f, 0.086213239f, 0.037971716f, 0.001371499f, -0.040665392f, 0.10596415f, -0.033240132f, 0.10175254f, 0.10367956f, -0.0024197875f, 0.11351612f, 0.053295515f, -0.10076024f, -0.031958453f, -0.158216f, -0.053362764f, -0.045007642f, 0.053873505f, -0.10059521f, 0.10968393f, -0.05504619f, -0.0012100599f, 0.084766015f, 0.034561649f, 0.052461382f, 0.045051526f, 0.062051009f, -0.040654548f, 0.041194454f, -0.073316976f, 0.016000694f, 0.0067856396f, 0.096086651f, 0.065150723f, -0.047907926f, -0.055306382f, -0.075222187f, -0.0801474f, 0.010126917f, 0.075599581f, -0.10283801f, -0.035318825f, 0.10135252f, 0.0018923474f, 0.012822228f, -0.0049907221f, 0.079424798f, 0.048451524f, -0.055686783f, -0.029504271f, 0.034188218f, 0.066826127f, 0.036083501f, -0.027871316f, 0.052034002f, 0.020380676f, 0.098935559f, 0.07638678f, -0.051950432f, 0.027517017f, 0.09242589f, 0.089368381f, 0.042877175f, -0.13117424f, 0.045472533f, 0.098258242f, 0.032422725f, -0.067719303f, 0.010848359f, 0.090419561f, 0.10552239f, 0.036181755f, 0.010953451f, -0.030854132f, 0.10667214f, -0.013853653f, 0.097969308f, -0.090016499f, -0.068232566f, 0.063913912f, -0.0070337509f, -0.075516723f, 0.089883506f, 0.12021023f, 0.10394205f, 0.024086123f, -0.144315f, 0.11786051f, 0.079519778f, 0.030676816f, 0.027404442f, 0.057034098f, 0.021647219f, 0.015278599f, 0.038478393f, -0.0090343626f, -0.059366364f, 0.083475076f, 0.020352717f, 0.021530008f, 0.040826235f, -0.030625612f, 0.081206359f, -0.087867625f, 0.0098817293f, 0.11178236f, -0.035833351f, 0.083040804f, 0.080233723f, -0.051954854f, -0.050259784f, 0.0051250542f, -0.080920711f, 0.074700892f, 0.018578175f, -0.011119315f, -0.058245372f, -0.012214756f, -0.022287829f, 0.02489499f, 0.085967451f, 0.11045682f, -0.057282124f, -0.038751911f, -0.036008433f, 0.13245529f, -0.046191953f, 0.060590055f, 0.082314327f, 0.09952008f, 0.0011852689f, 0.096816711f, 0.062911503f, -0.075176373f, 0.056114927f, 0.0080614174f, 0.010656704f, -0.081103548f, -0.0056637512f, -0.014085678f, 0.043572411f, 0.053186763f, 0.021191677f, 0.049845476f, -0.039935309f, 0.051332101f, -0.02279745f, -0.075075462f, 0.03244897f, -0.0053077876f, 0.015455268f, -0.011947247f, 0.0038635819f, 0.05265373f, -0.024027085f, -0.0085948594f, 0.019476343f, -0.060953613f, 0.088735595f, -0.054186147f, -0.081964388f, -0.050593179f, -0.041255396f, -0.0061772661f, -0.080602147f, -0.067019686f, 0.053332299f, 0.034076378f, -0.040567815f, 0.07316044f, 0.064263649f, 0.019197963f, -0.083220087f, -0.06584426f, 0.082725897f, -0.069910303f, 0.023923941f, -0.047465421f, -0.02392341f, -0.0095524043f, 0.08737091f, -0.083899073f, -0.0089972559f, -0.037426233f, 0.072091095f, 0.054447196f, 0.025204532f, 0.042330038f, -0.031147111f, 0.0068175024f, 0.063500635f, -0.075316049f, 0.082957752f, 0.0082547655f, 0.01214161f, 0.021832889f, 0.035033766f, -0.0575918f, -0.033255886f, 0.0098096794f, -0.016826907f, 0.0077191135f, -0.0034316489f, 0.05947189f, 0.020390006f, 0.078888334f, -0.05288339f, -0.065284505f, -0.037804648f, -0.03906f, -0.065325372f, 0.082011253f, 0.006250571f, 0.017334349f, 0.072741896f, 0.04545448f, -0.0083484789f, -0.043143637f, -0.074291639f, 0.02782017f, -0.0020842138f, 0.084436953f, -0.065677114f, -0.012063287f, -0.087804213f, -0.020851541f, 0.058466453f, 0.020499522f, 0.088006482f, -0.012334387f, -0.080893159f, -0.070663624f, -0.082102329f, 0.087113686f, -0.074677102f, 0.04659627f, 0.0427249f, -0.034597062f, -0.074511267f, 0.066296555f, 0.065925531f, 0.00069826789f, 0.056767356f, -0.027020395f, -0.0026930149f, 0.024848243f, 0.024425741f, -0.00039402035f, -0.06080376f, -0.031570569f, 0.082512252f, -0.052761197f, -0.046263844f, 0.076409779f, -0.062968478f, 0.032806009f, 0.04131769f, -0.080027714f, 0.060292657f, -0.03587357f, -0.019535042f, 0.031369131f, -0.10874686f, 0.085051671f, 0.083901942f, 0.11576984f, 0.036226623f, 0.046448756f, 0.021655111f, 0.016933672f, 0.12868707f, 0.1485365f, -0.013892064f, -0.075893901f, 0.13238567f, 0.017860303f, 0.035535108f, -0.012379651f, -0.026270263f, -0.015611666f, -0.01510718f, 0.15061842f, 0.08734604f, -0.029459463f, -0.1232174f, 0.077709742f, -0.056879666f, 0.054192454f, 0.020532988f, -0.05927258f, 0.012511268f, 0.02528638f, -0.016148178f, -0.0074524288f, -0.022061687f, 0.036798041f, 0.055503923f, 0.056437336f, 0.032150254f, 0.0067729335f, -0.03020023f, 0.010435975f, -0.082523771f, 0.027630085f, 0.12382038f, 0.088839687f, 0.068243928f, 0.087048143f, 0.053262886f, -0.0088950526f, -0.029181255f, 