/* Generated MLP weights for snake OJ inference. */
#define MLP_INPUT_DIM 40
static const int net_0_weight_len = 5120;
static const float net_0_weight[] = {0.086294554f, -0.025563914f, -0.10734406f, 0.099762529f, -0.14558712f, -0.13130896f, 0.012745455f, -0.078631304f, -0.077014662f, -0.061662599f, -0.14159119f, 0.11877767f, -0.06792181f, 0.085124671f, 0.10597605f, -0.014197117f, -0.060331114f, -0.13755372f, -0.14789471f, -0.1412874f, -0.10781713f, 0.035168983f, -0.12293169f, 0.087194413f, 0.13730897f, 0.062090784f, -0.11220203f, -0.010084218f, 0.14870721f, 0.15465578f, 0.06855455f, -0.13876405f, -0.069940038f, -0.076570146f, -0.010750264f, -0.11234972f, -0.049045481f, -0.11577908f, 0.044153731f, 0.029051147f, -0.00341248f, -0.04103405f, -0.14178407f, -0.045474719f, -0.046423949f, 0.070880935f, -0.042516284f, -0.084840663f, 0.12063725f, -0.078628249f, -0.080436498f, -0.13190882f, -0.055196404f, 0.070358902f, 0.06632331f, -0.077850424f, -0.0024043438f, 0.15382472f, 0.10475247f, -0.1047093f, 0.055196036f, 0.056025058f, 0.017234189f, 0.11971539f, 0.1198225f, -0.093291782f, -0.065898143f, 0.14000772f, 0.034550223f, -0.067670032f, 0.087497376f, -0.11522317f, 0.11353805f, -0.070371784f, 0.12699257f, -0.1527179f, -0.082929954f, 0.13248576f, -0.0002930137f, -0.04525527f, 0.1064814f, -0.015312225f, 0.065480962f, 0.10115025f, -0.019209353f, 0.053350236f, 0.13935515f, 0.1428144f, -0.10051119f, 0.08174514f, -0.10102305f, -0.023519831f, 0.035982817f, 0.062517285f, 0.091728397f, 0.0064789527f, 0.15283741f, -0.082051732f, 0.062439732f, 0.074701414f, -0.053470559f, 0.070293806f, -0.10224053f, 0.077917963f, -0.035689376f, -0.077191561f, -0.1337316f, 0.060084622f, -0.024819614f, 0.035717443f, -0.061512724f, -0.023393482f, 0.10900034f, -0.060616091f, 0.09624546f, 0.053026419f, 0.14788797f, 0.05494488f, -0.078202695f, 0.098307148f, 0.09336336f, -0.036481295f, 0.040708434f, 0.042370118f, -0.040238317f, 0.068001904f, -0.054456998f, -0.089666493f, 0.038733389f, -0.11037621f, -0.097719274f, -0.06363073f, -0.017508259f, 0.026673803f, 0.061093528f, -0.01424234f, 0.057749968f, 0.048695058f, 0.15695958f, -0.034425322f, 0.10171371f, -0.051427335f, -0.029675025f, -0.055248886f, 0.042423394f, 0.10362447f, 0.078637928f, -0.034411553f, 0.14196466f, -0.069190301f, -0.11071582f, 0.065249383f, 0.12781614f, 0.12115305f, -0.13458751f, -0.06083801f, 0.15638666f, -0.13220681f, 0.076446831f, 0.096575439f, -0.032604989f, -0.026992533f, -0.066747651f, -0.041670624f, 0.044305392f, 0.004326866f, 0.11999571f, 0.13687879f, 0.10429052f, -0.058045316f, 0.15174547f, 0.11589549f, -0.1354247f, 0.11113074f, -0.12055806f, -0.017380487f, 0.08083149f, 0.014070557f, 0.11975455f, -0.054265413f, 0.087347865f, 0.025532f, 0.15532246f, 0.11427505f, -0.11011076f, -0.054439057f, -0.11007245f, 0.026343899f, -0.080801427f, 0.14538257f, 0.0034424625f, 0.06092146f, 0.12610082f, -0.035971377f, 0.11819515f, 0.017159285f, -0.094043411f, -0.029357424f, 0.12108981f, 0.08637169f, -0.11551729f, 0.10031286f, 0.0034396115f, -0.14936297f, 0.032219622f, 0.071183369f, -0.052064702f, 0.087876335f, -0.072319247f, 0.02176849f, 0.11190546f, -0.13019654f, -0.058904953f, -0.059862509f, -0.10798646f, 0.14045456f, -0.0069649289f, 0.015465951f, -0.13822959f, -0.10612822f, 0.043447185f, 0.068189919f, 0.070765607f, 0.045442753f, -0.10292168f, 0.074237399f, -0.13731025f, -0.078667924f, -0.09878128f, -0.12086339f, 0.11396143f, -0.014124766f, -0.025791906f, 0.15386955f, 0.08880391f, 0.027966928f, -0.064496309f, 0.06278079f, 0.056396402f, -0.059256762f, -0.13452877f, 0.002244032f, -0.038048901f, -0.0072634718f, -0.13145219f, 0.074889459f, -0.036476284f, 0.082558341f, 0.12483311f, 0.025472606f, 0.037916809f, 0.070493802f, 0.060425207f, -0.10507559f, 0.03954462f, 0.10747043f, 0.08899419f, -0.14939114f, 0.08744172f, 0.081217498f, 0.03978055f, 0.034116007f, 0.13989636f, -0.043865092f, 0.095979549f, 0.052760053f, -0.12661421f, -0.041637581f, -0.12779902f, -0.15567361f, -0.1356999f, 0.012722f, 0.11893354f, 0.088501334f, -0.0099301534f, 0.022002911f, -0.05097767f, -0.035958894f, -0.010176541f, -0.12361938f, 0.040265016f, 0.1272767f, -0.076611452f, -0.07174968f, 0.1376823f, -0.047313698f, -0.074182339f, 0.00086099439f, -0.081482388f, -0.13800028f, -0.017546333f, -0.073104039f, 0.11737153f, -0.13410318f, 0.051532947f, -0.028574804f, -0.043619927f, 0.016418509f, -0.014708146f, -0.046404146f, -0.080910109f, 0.12441215f, -0.060642194f, 0.1074402f, -0.069315366f, -0.04804188f, -0.058699429f, 0.010690461f, -0.072827034f, 0.1345145f, -0.074211553f, -0.12779571f, 0.10286219f, -0.13284895f, -0.12307267f, -0.15271658f, -0.084251396f, 0.12685463f, 0.0088575967f, 0.024393521f, 0.1387759f, -0.053849287f, -0.047953621f, 0.060232062f, -0.00017435336f, -0.046581104f, -0.13194883f, 0.11963761f, 0.050862614f, -0.13018383f, -0.12210505f, 0.084184594f, -0.14572503f, 0.14393501f, -0.0016483972f, -0.082542695f, -0.067726724f, -0.013972206f, -0.15571994f, -0.094375573f, -0.13406122f, -0.12607755f, -0.081124f, 0.027271418f, 0.10575823f, 0.13167806f, 0.087410793f, 0.030645685f, 0.093536861f, 0.068051167f, 0.076886438f, 0.11027409f, 0.091450371f, 0.074469298f, -0.15616491f, 0.12421005f, 0.12451067f, 0.11538322f, -0.081246354f, -0.11553817f, -0.14076887f, 0.10614508f, -0.055843849f, 0.073355421f, -0.063709572f, -0.061685637f, -0.06269747f, -0.028776648f, -0.1344523f, -0.11651028f, 0.10428077f, 0.022791982f, -0.10068695f, -0.14717041f, -0.088702284f, -0.048175246f, -0.15415785f, -0.052602269f, 0.11150492f, 0.075847782f, 0.12435172f, 0.014565794f, -0.14857879f, 0.012645149f, 0.093304724f, -0.08933454f, -0.061251588f, -0.11722916f, -0.1013543f, -0.013190764f, -0.074855201f, 0.13031472f, -0.012243965f, -0.048754014f, 0.093909547f, -0.060445771f, -0.081463382f, -0.09701696f, -0.10316001f, -0.10882518f, 0.067124732f, -0.0065646856f, -0.018077735f, 0.088785686f, -0.012218565f, 0.016443847f, -0.058224306f, -0.018550618f, 0.03579624f, 0.11900932f, -0.029717339f, -0.028903289f, -0.046799637f, 0.047578175f, -0.10240319f, 0.13303712f, 0.12288319f, 0.081584767f, -0.1224964f, 0.063610204f, -0.0037973672f, -0.12305426f, -0.00032066196f, -0.084798545f, 0.12453397f, -0.10211865f, -0.010611596f, -0.08987163f, -0.12972875f, 0.11166213f, 0.11475261f, -0.046489239f, -0.014220907f, -0.092309169f, 0.043841358f, -0.097568125f, -0.14955443f, -0.11659654f, 0.10758966f, 0.00010652679f, -0.022271303f, 0.10400907f, 0.094746985f, -0.043378431f, -0.056838483f, 0.12321638f, -0.062772825f, -0.078725807f, 0.11399683f, 0.0050036204f, -0.044280153f, 0.064409122f, -0.12180548f, 0.12046768f, -0.074939378f, 0.10593095f, -0.049476471f, 0.039253633f, -0.039734025f, 0.013428154f, -0.12472868f, -0.0092001567f, -0.064667635f, -0.052636988f, -0.0098461565f, -0.096960403f, 0.130854f, -0.0030005779f, 0.0026919399f, 0.018091271f, -0.11862966f, 0.13617183f, 0.097870715f, -0.12113933f, -0.061912164f, -0.045224808f, -0.030477189f, -0.13272199f, 0.10677297f, 0.013239179f, 0.1453404f, 0.004985387f, 0.12097754f, 0.041261129f, 0.035015915f, -0.023778908f, -0.11466016f, -0.064917572f, 0.046815816f, 0.080450669f, -0.085840173f, -0.15354209f, -0.093666956f, 0.11070765f, 0.052885506f, 0.10415291f, -0.032639071f, -0.11181104f, -0.075485609f, 0.11221252f, -0.032236248f, -0.059694692f, -0.045959271f, 0.14518642f, -0.080815449f, 0.037234455f, -0.090357631f, 0.075928181f, 0.066326059f, -0.11487453f, 0.028963378f, 0.053730354f, 0.13919066f, -0.090920433f, 0.12584324f, -0.087198012f, -0.10760451f, -0.011455202f, -0.022911908f, 0.089529924f, -0.009646696f, -0.091748632f, -0.11563022f, -0.14729346f, 0.013249342f, -0.1053667f, 0.081006482f, 0.016229233f, -0.13174649f, -0.054287426f, 0.095385626f, -0.055628065f, 0.13544884f, -0.050438017f, 0.077615984f, 0.022700369f, 0.092856087f, -0.14913896f, 0.020776581f, -0.0093045067f, -0.044327039f, 0.14698602f, -0.11865894f, -0.14446448f, 0.077456973f, 0.14200392f, 0.051222481f, -0.12696816f, 0.011124651f, -0.068091586f, -0.056567978f, 0.010748759f, -0.14442551f, -0.042257823f, -0.014367512f, 0.078958005f, 0.1185123f, -0.15632708f, 0.14164093f, 0.043240618f, 0.046386272f, 0.11523385f, 0.11102547f, -0.059710588f, 0.090546116f, -0.10859985f, 0.064919874f, 0.023117164f, -0.0015270794f, 0.11425903f, -0.077765465f, -0.13106799f, 0.12415342f, -0.047478773f, 0.11681849f, -0.10469317f, -0.12586056f, -0.12529984f, 0.14026263f, 0.068005905f, 0.050992746f, 0.12361147f, -0.13669588f, 0.14211631f, -0.042844057f, -0.040449351f, 0.022394927f, -0.07619381f, 0.13352931f, 0.089888304f, -0.015257625f, -0.043817647f, -0.14604236f, -0.049984552f, -0.10776697f, 0.09964674f, -0.10868531f, -0.066163458f, 0.089274734f, -0.0063324384f, 0.0646661f, 0.053224284f, 0.11812859f, -0.030056329f, -0.12928227f, -0.038078167f, -0.076351203f, -0.06100589f, 0.1005614f, 0.063884996f, 0.12360041f, -0.091033027f, 0.057322484f, -0.13710822f, -0.03206227f, 0.1237503f, 0.080363773f, -0.088919125f, -0.023477973f, -0.015056687f, 0.05143439f, 0.13867566f, 0.028074404f, 0.071525164f, 0.043903619f, 0.096133649f, 0.08289358f, 0.015044503f, -0.15359403f, 0.13398516f, 0.065335676f, 0.081901893f, 0.01944349f, -0.035224814f, -0.084303901f, -0.10649907f, 0.10763623f, 0.12345995f, -0.048517123f, -0.12536383f, 0.005357686f, 0.076008819f, -0.08715719f, 0.13264765f, 0.10204983f, 0.096010782f, -0.15710489f, -0.071604036f, -0.11111324f, 0.11744191f, 0.052116103f, 0.075754017f, -0.079534136f, 0.11246009f, -0.081482343f, 0.085251182f, -0.14087243f, -0.055715811f, 0.074051708f, -0.12034844f, 0.11833403f, 0.01038668f, -0.0031524461f, -0.097519606f, 0.084291436f, 0.12775466f, -0.024477864f, 0.0070419973f, -0.14464805f, -0.10361981f, -0.13191818f, -0.078324862f, 0.094908208f, -0.15710947f, 0.036466736f, 0.090030275f, 0.03995993f, -0.11709516f, -0.09737689f, -0.0050455802f, -0.15620454f, -0.0065944497f, 0.15578377f, -0.059616312f, -0.13451268f, 0.031628758f, 0.051136296f, 0.070249051f, 0.1011948f, -0.090455249f, 0.13010286f, -0.10613102f, -0.11643397f, -0.071045212f, -0.022250567f, 0.11123083f, -0.10814304f, -0.02154321f, 0.032089379f, -0.067303553f, -0.086191602f, -0.080834925f, -0.14268135f, 0.091666788f, -0.077462375f, -0.061950747f, -0.063991085f, 0.13439581f, 0.10548282f, -0.15308295f, -0.018610492f, 0.11892833f, -0.021755714f, 0.048663598f, -0.133233f, 0.069256291f, 0.119611f, -0.10750978f, -0.0025074035f, 0.1073149f, -0.0097825918f, -0.018751144f, 0.125992f, -0.025452686f, 0.14410967f, 0.13307346f, 0.001675725f, 0.010399236f, 0.1491452f, -0.072017834f, -0.083268285f, -0.10388438f, 0.057365093f, -0.15383965f, -0.020371636f, 0.058504868f, -0.042439952f, 0.038622376f, -0.038131326f, 0.099640228f, 0.1068503f, 0.0086433897f, 0.022012718f, -0.097518362f, 0.077713847f, 0.081399381f, 0.01191848f, -0.12293851f, 0.14817061f, -0.1022437f, 0.044546865f, -0.026205078f, -0.099683754f, -0.059722215f, 0.13341655f, 0.064655177f, -0.042440075f, 0.15504003f, -0.023292009f, -0.11785345f, -0.12160017f, 0.11697746f, 0.074917808f, -0.13254012f, -0.065945216f, 0.035802316f, 0.093497366f, 0.094508946f, -0.082257442f, 0.017007263f, -0.084813587f, 0.078163423f, -0.092062846f, -0.12835811f, -0.12594119f, 0.13993916f, -0.12336723f, -0.1107112f, -0.03906098f, 0.11649774f, -0.052195057f, 0.028908102f, 0.034163594f, 0.11654759f, -0.087109096f, 0.15557267f, 0.12942375f, -0.042006105f, 0.074577831f, 0.13198331f, 0.13529356f, 0.085417166f, -0.069289312f, 0.053635877f, -0.063225195f, -0.1199151f, -0.011122212f, -0.099866062f, 0.07487826f, 0.035310298f, -0.028830945f, -0.10234467f, 0.042376593f, 0.018103048f, 0.15271685f, -0.15078759f, -0.062037706f, -0.13126561f, -0.10309999f, -0.15386444f, -0.077584371f, -0.14085728f, -0.038878098f, -0.10495688f, 0.038841233f, -0.11304656f, -0.010518011f, -0.11713016f, -0.1578483f, -0.010010362f, 0.14588282f, 0.068832114f, 0.12171894f, 0.10597087f, -0.088671423f, 0.065348446f, -0.061252519f, -0.061915927f, 0.023063499f, -0.068827875f, 0.013635129f, 0.10511951f, -0.043675963f, 0.11377399f, -0.14086917f, 0.094782107f, -0.035945818f, 0.088029906f, -0.065787129f, -0.15604192f, 0.042928666f, 0.032821342f, 0.12058982f, 0.06060455f, 0.085444093f, -0.050092489f, 0.062340066f, 0.10037854f, -0.10846501f, 0.097119913f, 0.095188893f, 0.092265055f, 0.0072834571f, 0.066147834f, -0.0045271972f, -0.049212806f, 0.13229831f, -0.062247559f, 0.11580521f, -0.15454924f, 0.053198118f, -0.14511631f, -0.036276005f, 0.070284568f, -0.11996532f, 0.025657319f, 0.010800157f, -0.047986977f, 0.12189136f, -0.060092866f, 0.048883647f, -0.029844806f, -0.067217946f, 0.15310265f, 0.082663752f, -0.020392211f, 0.014623202f, -0.0021159921f, -0.034475725f, -0.11118091f, 0.096713603f, -0.072027564f, -0.11467505f, 0.095230564f, 0.06081843f, -0.051051341f, -0.085164763f, 0.12878193f, 0.033602107f, 0.13195345f, 0.15780437f, -0.041798852f, -0.11704198f, -0.04355669f, -0.15289594f, 0.016209301f, 0.044884011f, -0.092807628f, 0.011275809f, 0.15039535f, 0.074376538f, 0.025440037f, -0.074177787f, -0.14758174f, -0.14355102f, -0.05936427f, -0.11243942f, 0.037520871f, -0.005198868f, -0.15499264f, -0.075203076f, 0.12305714f, 0.11638577f, -0.024039436f, -0.012241453f, -0.083617896f, -0.14934567f, -0.063673362f, 0.001281222f, -0.02420493f, -0.11207516f, -0.0054128356f, -0.044447906f, -0.10773568f, -0.10661196f, -0.064444363f, -0.027894974f, -0.092411511f, 0.095062964f, 0.074720725f, 0.14578922f, 0.077877976f, -0.063209541f, -0.10200796f, 0.091872744f, 0.011486704f, -0.10566798f, 0.055845272f, -0.028708773f, -0.11425351f, 0.13578562f, 0.066359662f, -0.12037684f, 0.0041162916f, -0.036912095f, -0.020982862f, 0.0020734814f, 0.11346588f, 0.044615678f, 0.033023197f, -0.020724202f, -0.15299715f, 0.098536827f, 0.047846876f, 0.09829028f, -0.0089162579f, -0.092408448f, 0.15687652f, 0.11295817f, 0.07679709f, -0.09674219f, 0.10947029f, 0.14325589f, -0.10812175f, -0.037655048f, 0.086016454f, -0.01937631f, 0.15744373f, -0.015392974f, 0.034494054f, -0.07667584f, -0.072658353f, -0.051762268f, -0.10342909f, 0.039667897f, 0.10262091f, 0.11203432f, 0.0060775024f, 0.092561327f, 0.066600554f, -0.041525722f, 0.12156218f, 0.033985712f, 0.13542813f, 0.024115885f, 0.10062346f, -0.10424474f, 0.12398223f, -0.13193832f, 0.010997673f, -0.12210594f, -0.14447536f, 0.11796265f, 0.049077313f, 0.12567118f, 0.09584599f, 0.15260066f, -0.089272089f, 0.10321692f, -0.13065594f, -0.14285684f, 0.111876f, 0.025293706f, -0.078774817f, -0.028294576f, 0.018740486f, 0.028379127f, 0.025859693f, 0.15828161f, 0.086411312f, -0.11497005f, -0.071050934f, -0.0054932674f, -0.12032897f, 0.097552352f, 0.049732037f, -0.030447887f, -0.13979791f, 0.0038170812f, -0.12093735f, -0.064566575f, -0.024832455f, 0.11807787f, 0.10782367f, 0.1243922f, 0.010220719f, -0.071368761f, 0.048986256f, -0.062645063f, -0.0063136732f, -0.053927884f, -0.092253633f, 0.1454787f, -0.030036937f, 0.14441335f, 0.038615983f, -0.14348495f, -0.14432625f, 0.0057268199f, -0.14880127f, -0.093139529f, 0.072815828f, 0.078452758f, -0.050464831f, 0.029865228f, 0.15570138f, -0.013111085f, -0.026779931f, -0.11464924f, -0.044749252f, -0.1201535f, -0.093510479f, 0.093052194f, -0.14803153f, 0.15626223f, -0.060648203f, 0.01122845f, -0.023734797f, -0.10476543f, 0.036500186f, 0.15395312f, 0.021086447f, 0.034824125f, -0.13671803f, -0.12982789f, -0.040827043f, 0.034770045f, 0.014032587f, 0.021200124f, -0.14825144f, -0.026978014f, -0.12277789f, 0.11005088f, -0.052685462f, 0.061904687f, -0.099454083f, 0.15207471f, -0.030578686f, 0.14005968f, -0.12630589f, -0.073307022f, -0.14863886f, -0.031965077f, -0.00023029841f, -0.10002498f, -0.016278148f, -0.049615532f, -0.017753288f, -0.14571549f, 0.084049925f, -0.13685508f, 0.033046082f, 0.1526386f, 0.084592998f, -0.059210204f, -0.14387149f, 0.042761579f, 0.14513685f, -0.040528595f, 0.15068947f, -0.13546522f, -0.068453044f, 0.029278485f, 0.048813909f, 0.02415137f, 0.0034726709f, -0.014641419f, -0.077579305f, -0.1258269f, -0.019397682f, -0.11443617f, -0.070484973f, -0.10752442f, -0.073042355f, 0.026197717f, 0.092318937f, 0.088274576f, 0.025662979f, -0.0134329f, 0.052544624f, -0.018736713f, 0.13593589f, 0.067756437f, 0.12985313f, 0.11059844f, 0.024350947f, 0.072167523f, -0.091428347f, -0.024680989f, 0.12731919f, 0.025514074f, 0.14033768f, -0.11387333f, -0.015418212f, 0.083167307f, 0.0055702049f, -0.15194316f, 0.0018514284f, -0.0065412284f, -0.089187734f, -0.08510302f, 0.1456911f, -0.074613601f, 0.0061864066f, -0.10670658f, 0.076462604f, 0.15044783f, 0.14947775f, 0.12191141f, -0.061223686f, -0.15726402f, 0.024812639f, -0.088561207f, -0.14255825f, 0.11848204f, -0.12361336f, -0.12131464f, -0.10851024f, 0.027662853f, -0.14066151f, -0.12136298f, 0.0089904713f, -0.049899671f, -0.13163137f, -0.057150047f, -0.017862421f, 0.085025385f, -0.12858647f, -0.13343258f, -0.026888525f, 0.033230815f, 0.054518331f, -0.0073786229f, 0.037218422f, 0.041617829f, -0.097235247f, -0.040641438f, 0.12407494f, 0.11112925f, -0.15326406f, 0.040344998f, -0.064819008f, 0.10555021f, -0.090585731f, 0.094248623f, 0.12327792f, 0.0027774882f, 0.095853582f, -0.086657375f, -0.0032024493f, 0.098737851f, 0.10835619f, 0.13316768f, 5.7088197e-05f, 0.12925985f, 0.019842062f, -0.14586595f, -0.013518837f, 0.070463181f, 0.086084627f, -0.034157697f, -0.12298133f, 0.11558606f, -0.045450781f, -0.057629146f, -0.042674005f, 0.13636018f, 0.048242021f, -0.0094701489f, -0.018757597f, -0.099215187f, -0.10999066f, 0.0067978352f, 0.15633456f, 0.023540195f, 0.071313076f, 0.12973571f, -0.12333484f, -0.053690616f, -0.12357319f, 0.042463735f, -0.12947018f, 0.0013697717f, 0.07930918f, 0.13627483f, -0.011975277f, 0.03873783f, -0.086140282f, -0.0078985803f, -0.11182165f, -0.11875218f, -0.015407503f, -0.13910618f, 0.12139186f, -0.1255957f, 0.15378721f, -0.068646424f, -0.11877389f, -0.0056288871f, -0.11139989f, -0.026738316f, 0.023529002f, -0.08250688f, -0.0061357021f, -0.0057092514f, 0.063012123f, 0.12378f, -0.044685595f, 0.10875744f, -0.10744762f, -0.1232097f, -0.062450055f, 0.097128972f, 0.13034652f, -0.0042305198f, -0.10243439f, -0.040074341f, 0.087917909f, 0.058757588f, -0.059066355f, -0.072128259f, -0.12740539f, -0.088451497f, -0.086547464f, -0.11573278f, 0.069139741f, 0.044827905f, -0.11849588f, 0.024841409f, 0.084242277f, -0.14300148f, -0.068491355f, -0.0048269266f, -0.0026666373f, 0.12194765f, -0.15660778f, 0.018760771f, -0.093738623f, -0.046550695f, -0.091569975f, 0.050201982f, -0.041407663f, 0.15634881f, 0.014452253f, 0.12976016f, 0.01546583f, -0.084991194f, -0.15200335f, 0.033202093f, -0.13973479f, -0.041108534f, -0.14372212f, 0.042177424f, -0.1429411f, 0.057788808f, 0.099426664f, -0.025466708f, -0.095493838f, -0.15278187f, -0.027172135f, 0.035143375f, -0.042007964f, -0.047403805f, 0.07035581f, -0.0078921355f, -0.021669891f, -0.099240042f, 0.086177275f, 0.091858804f, 0.017355124f, 0.06553854f, -0.053584486f, -0.10376428f, -0.13274005f, 0.065872155f, 0.029636359f, -0.035431795f, 0.12980677f, 0.073358014f, -0.0018368717f, -0.069331527f, 0.12804441f, -0.075448364f, -0.02617161f, 0.1575755f, -0.083064795f, -0.13189124f, 0.08128722f, -0.12629034f, 0.019749662f, -0.15372381f, 0.078115106f, -0.11975119f, 0.13930205f, 0.060807806f, 0.10729467f, 0.11980575f, -0.14662524f, -0.11767142f, 0.062542856f, -0.12500788f, 0.0033911103f, -0.079515144f, 0.01522662f, 0.078929938f, -0.016529104f, -0.08113011f, -0.094064929f, -0.038182076f, -0.022053607f, -0.15507071f, 0.13577186f, 0.10580248f, -0.059823699f, -0.13440192f, -0.11518373f, 0.053833012f, 0.053381626f, -0.011658292f, -0.034989983f, -0.011553118f, -0.077296659f, -0.073330849f, -0.11778083f, -0.1464698f, -0.031347975f, -0.0098700523f, -0.077819079f, -0.018519012f, 0.01423807f, -0.13798076f, 0.057010543f, 0.15654546f, 0.090186f, 0.15194473f, -0.1453485f, -0.11896552f, -0.0095597077f, 0.13725768f, 0.062602535f, -0.040977821f, -0.12110841f, -0.02840849f, 0.058744043f, -0.015697412f, 0.032841925f, 0.15046625f, 0.066672377f, 0.12302139f, -0.066306815f, -0.13386092f, 0.15493755f, -0.081414156f, 0.019774735f, -0.00063478417f, -0.056124702f, -0.11646219f, -0.031047607f, 0.14796364f, -0.073392808f, 0.02305994f, 0.06896361f, -0.054006785f, 0.14662074f, 0.094625928f, -0.080008648f, 0.0733217f, -0.11955021f, 0.15831271f, 0.010305248f, -0.12286242f, -0.13989107f, -0.06415946f, 0.11618374f, 0.037607733f, 0.13258934f, -0.037254278f, -0.14379551f, 0.077580273f, -0.069154955f, -0.13482842f, -0.1157586f, -0.11120452f, -0.072783008f, 0.082439616f, -0.011635103f, -0.11015745f, -0.098620251f, -0.066321671f, 0.10215057f, -0.1523657f, 0.069202989f, -0.10742302f, 0.025306799f, -0.057509255f, -0.12503365f, 0.13192706f, 0.0084891208f, -0.056820836f, 0.011630422f, -0.0039937515f, 0.087353483f, -0.10133697f, -0.090935364f, 0.10463233f, 0.095919713f, 0.14588107f, 0.066457227f, -0.030867593f, 0.010646008f, 0.15197511f, -0.057265971f, 0.045183256f, -0.082729094f, 0.042150538f, -0.13734217f, 0.062939078f, 0.0043511237f, -0.016535936f, -0.091808431f, -0.035360515f, -0.13599443f, -0.076057158f, -0.08216086f, -0.018700365f, 0.070928268f, 0.10795604f, 0.049130738f, 0.023496822f, 0.04436674f, 0.017116873f, -0.060828514f, -0.050902367f, -0.056161802f, 0.094365172f, 0.023838472f, -0.0071028024f, -0.11028326f, -0.13927798f, 0.15752105f, -0.0044602579f, -0.03129321f, 0.10021967f, 0.12105638f, -0.036610309f, -0.022045579f, -0.032200787f, -0.13450173f, 0.11060673f, 0.098775759f, 0.10689685f, -0.10567277f, 0.12156596f, -0.058874495f, 0.12916797f, 0.12605815f, 0.097919419f, 0.10287517f, -0.11203138f, 0.095301934f, 0.039275575f, -0.053919919f, -0.15799211f, 0.11471832f, -0.017816078f, -0.15342818f, -0.061608717f, -0.038376499f, 0.059356991f, -0.04884186f, -0.064868145f, -0.052942619f, 0.096056215f, 0.14119045f, -0.12553179f, 0.08814539f, 0.058029924f, 0.075473778f, -0.034224782f, 0.055530567f, 0.017704992f, 0.073353358f, 0.0028823537f, 0.087813534f, -0.060367066f, -0.12837838f, 0.0091038104f, -0.027717184f, -0.12663391f, -0.11485501f, -0.12929286f, 0.1449881f, -0.12858839f, 0.083836958f, -0.14486723f, -0.14462018f, 0.081256978f, 0.090042651f, 0.13731067f, 0.14430182f, -0.06797871f, -0.081234522f, 0.011977813f, 0.15007484f, -0.11665329f, 0.038850497f, 0.095635884f, -0.056063008f, 0.12604615f, -0.024008404f, -0.039091442f, 0.14038272f, 0.041378904f, 0.11149745f, 0.078223698f, 0.04100953f, 0.14150366f, -0.013646733f, 0.018180467f, -0.12223502f, 0.028209902f, -0.048715722f, 0.069754943f, -0.087542571f, -0.0052852123f, 0.12301295f, -0.15466934f, -0.10194292f, 0.065240689f, -0.14659527f, -0.12573995f, -0.072545692f, -0.001821846f, 0.052590385f, 0.053667482f, -0.10478367f, 0.028388027f, -0.015269256f, 0.13909768f, 0.12530889f, -0.024540782f, -0.0049675344f, -0.04034568f, -0.14619979f, 0.09482649f, 0.059306175f, -0.10647066f, -0.074676998f, 0.10055329f, 0.094785526f, -0.1572229f, 0.14470418f, 0.072246082f, 0.089026168f, 0.12451179f, -0.074625149f, 0.050866261f, -0.091250837f, -0.1146872f, -0.057234496f, -0.014779928f, -0.1407655f, 0.13862067f, 0.11194411f, -0.09380655f, 0.11155102f, -0.13380198f, 0.033081863f, -0.15290219f, -0.10395201f, 0.049382843f, 0.029354258f, -0.14550932f, -0.12237253f, -0.052933455f, 0.064977653f, -0.0015112431f, 0.11974402f, 0.14493509f, -0.093027942f, 0.0046573654f, 0.103645f, 0.15612297f, -0.053296674f, 0.049835034f, -0.067547061f, -0.0542018f, 0.14420919f, 0.068795063f, -0.10663794f, -0.054072913f, -0.12870145f, -0.041798431f, 0.080305651f, -0.10318059f, 0.10701838f, -0.12010258f, 0.12833081f, -0.14537148f, 0.0045346133f, -0.065155409f, -0.069671012f, -0.06851238f, -0.088786669f, 0.051654536f, -0.12197357f, 0.13060836f, 0.13445891f, 0.096362889f, -0.054919016f, 0.13018183f, -0.1045797f, 0.044287842f, 0.11859431f, 0.037940092f, -0.073426746f, 0.083325028f, -0.042386737f, 0.1041957f, -0.047372155f, 0.020844683f, 0.043641515f, -0.069444232f, 0.062481597f, -0.10168982f, 0.034817059f, 0.0055722301f, -0.0065128305f, -0.043064449f, -0.06903898f, -0.15462227f, 0.085059285f, -0.06448622f, 0.019361533f, 0.14823271f, 0.14314894f, 0.041222196f, -0.09003678f, -0.11553319f, -0.15697204f, 0.11694822f, -0.067118041f, 0.03011586f, 0.078119248f, -0.10595641f, -0.10973703f, 0.097377919f, -0.15644026f, -0.11303879f, -0.094980791f, -0.13549356f, 0.13946627f, -0.017104562f, -0.13129194f, 0.036222838f, -0.04666777f, -0.066135623f, 0.03790924f, -0.13715772f, 0.093499705f, 0.057801098f, 0.003473039f, 0.019533023f, -0.1425911f, -0.1582056f, 0.011167706f, 0.10201547f, 0.016949477f, -0.051304355f, 0.067141533f, -0.030455379f, 0.11392249f, 0.13565721f, 0.091923162f, -0.002571766f, 0.15561561f, -0.016607117f, 0.060396548f, 0.12872368f, -0.12137389f, 0.0036638761f, 0.12332948f, -0.061116848f, 0.032260768f, -0.040915553f, -0.079816088f, 0.11084986f, 0.14962535f, 0.0076548052f, 0.10227274f, -0.11156128f, 0.075302675f, 0.045149796f, -0.063259229f, 0.069385327f, 0.13120541f, 0.062663347f, 0.089084275f, -0.021082455f, -0.017907573f, -0.1370452f, 0.083614774f, 0.11374968f, -0.0094423015f, 0.084874406f, 0.079133004f, -0.090538651f, -0.059701212f, 0.031718321f, 0.08859998f, -0.049027201f, 0.010754153f, -0.027570011f, 0.0062671327f, -0.019363312f, 0.006442714f, -0.047489285f, 0.084017493f, 0.15809458f, 0.1435096f, -0.1244887f, 0.017829927f, -0.12819128f, -0.12019045f, -0.14250454f, -0.09689115f, -0.053612195f, -0.013853833f, 0.036618896f, -0.075530753f, -0.059975877f, 0.033002041f, 0.098448738f, -0.10074767f, 0.1049205f, -0.072589628f, 0.0075197541f, -0.087279454f, 0.031700894f, 0.14643334f, 0.015259057f, -0.13497634f, 0.13538393f, -0.0077233948f, 0.099064067f, -0.10916552f, -0.058416471f, 0.078872547f, -0.067248829f, -0.12000237f, 0.13718651f, 0.12080835f, -0.11155021f, -0.056054622f, -0.050202586f, 0.10112557f, -0.032143682f, -0.09452834f, 0.040045947f, 0.12391793f, -0.11023108f, 0.096266367f, -0.084176585f, 0.019745411f, 0.023372229f, -0.15492389f, 0.011576296f, 0.14963037f, 0.050414231f, 0.020163039f, -0.15291566f, 0.14951049f, -0.1550701f, -0.085937314f, 0.060693361f, 0.0097138733f, -0.10408548f, 0.028351761f, -0.021840181f, 0.11524334f, 0.093847349f, 0.045431115f, 0.087857671f, 0.15058617f, 0.091633826f, 0.10194605f, 0.12650846f, -0.11390848f, 0.1561482f, -0.02896061f, -0.041576426f, -0.043869823f, 0.030654345f, -0.11363035f, -0.09487395f, -0.12560615f, 0.1040519f, 0.086264774f, -0.15552579f, 0.075940825f, 0.070112236f, -0.077853113f, -0.11928796f, -0.11042742f, 0.017686259f, 0.050895516f, -0.015112504f, -0.023248924f, 0.13533217f, 0.10073191f, 0.13354473f, 0.12892285f, -0.056755621f, -0.10556464f, 0.055015262f, 0.12315966f, -0.13670526f, 0.069737144f, 0.051452652f, -0.074300244f, 0.051912386f, -0.0046690172f, -0.027508406f, 0.14384918f, -0.13813859f, 0.018384431f, -0.10476418f, -0.067876242f, -0.031174248f, 0.14437898f, -0.070378721f, -0.13581108f, -0.14565584f, -0.075882271f, 0.043405939f, -0.054628242f, 0.12019788f, -0.12641165f, -0.012040715f, 0.0011321376f, 0.060040157f, 0.099380963f, 0.11644623f, -0.076414779f, 0.1209228f, -0.062047802f, 0.05062788f, 0.062120117f, -0.030903975f, 0.059370689f, -0.012437696f, 0.054237429f, -0.040346451f, 0.045423616f, -0.15315484f, 0.033771407f, 0.013882291f, 0.14279103f, -0.024513297f, 0.045214929f, -0.056513f, 0.14505386f, -0.12488476f, 0.012169002f, 0.02793947f, 0.02092414f, -0.076723762f, -0.028476395f, 0.048989624f, -0.086480998f, -0.02002988f, 0.040665314f, 0.1090792f, -0.013954168f, 0.063120127f, 0.066643275f, -0.020047821f, -0.095984302f, 0.11344673f, 0.081114173f, -0.058179528f, -0.03297691f, -0.1566759f, -0.05188942f, -0.10091025f, 0.12331062f, 0.032519985f, 0.048964385f, 0.12773947f, 0.03246738f, 0.0661605f, -0.095961742f, 0.02623223f, 0.061312303f, 0.016476775f, 0.11108872f, -0.12415396f, 0.013327192f, -0.041138623f, -0.087175705f, 0.15655996f, -0.0058534071f, -0.065802209f, 0.14214057f, 0.1395683f, -0.057403784f, 0.041300565f, 0.10622253f, 0.079733685f, 0.075698934f, -0.018490173f, 0.0031725317f, -0.096097015f, -0.02612241f, 0.099089667f, 0.01758437f, -0.10814469f, -0.14785454f, 0.034490276f, 0.06528078f, -0.038574684f, 0.096090995f, 0.13295968f, -0.031360045f, -0.093690693f, -0.03497953f, 0.03601566f, 0.042811934f, -0.00043560966f, -0.097792543f, 0.094997138f, -0.090072811f, -0.13737984f, 0.13032831f, -0.054843634f, 0.10693047f, -0.15032746f, -0.14052545f, -0.070087388f, -0.066404574f, -0.093468197f, 0.12677847f, -0.072575063f, 0.14832486f, 0.10180923f, -0.054980285f, -0.015446395f, -0.075631358f, -0.06234964f, -0.062811002f, -0.0079680961f, -0.087835245f, 0.14088193f, 0.089678027f, -0.023199275f, 0.068978094f, 0.095537439f, -0.12440203f, 0.038851358f, -0.12553303f, 0.064587146f, -0.083132587f, -0.11291553f, 0.0053688707f, 0.1067222f, 0.063928045f, -0.010103329f, 0.13758382f, -0.021015534f, -0.0036800208f, 0.14610682f, 0.14808683f, -0.14600004f, -0.080794729f, -0.04648789f, -0.12324543f, -0.0015487137f, -0.074399211f, 0.13682786f, 0.11696878f, -0.10593918f, -0.038644038f, 0.019209461f, -0.11934217f, -0.10528161f, -0.018834203f, 0.13106333f, -0.08087676f, -0.10886295f, -0.014019731f, -0.097106203f, 0.13360865f, -0.0097036101f, -0.042871162f, -0.039097298f, -0.020044113f, 0.045379773f, 0.13934401f, 0.13575707f, -0.10530657f, -0.10939731f, -0.016487936f, -0.028490962f, 0.064473756f, -0.11077949f, 0.07048656f, 0.11600783f, 0.12104073f, -0.12680578f, -0.14424549f, -0.098781131f, 0.078041263f, 0.10583225f, 0.12391067f, 0.14255726f, -0.084123224f, -0.12889178f, 0.10818895f, 0.12015326f, -0.084737636f, 0.018209498f, 0.14477278f, 0.11456843f, -0.11086562f, 0.0046113203f, 0.081532478f, 0.062896393f, -0.11930615f, 0.15427601f, -0.08367344f, 0.12545848f, -0.11581817f, -0.14446627f, -0.098837934f, 0.092739083f, 0.12118725f, -0.07042031f, -0.078418702f, 0.14635219f, 0.016000312f, 0.14159136f, -0.12249693f, -0.10571321f, -0.11323032f, 0.071624391f, -0.0039257766f, 0.047649913f, 0.15418454f, -0.036303923f, 0.11583865f, 0.0029455826f, -0.056318987f, -0.041953992f, -0.075946763f, 0.11468296f, -0.021453714f, -0.1503298f, -0.040452242f, 0.034820274f, -0.13912106f, 0.01845184f, 0.069001183f, 0.11353122f, 0.028104156f, 0.028169855f, -0.014994872f, 0.043342378f, -0.10508643f, 0.047131687f, 0.007723751f, 0.13541707f, -0.03654281f, -0.15449531f, 0.14539118f, 0.051519003f, -0.0012639823f, 0.074346602f, -0.1104826f, -0.028572865f, -0.027938848f, 0.025434993f, -0.003571287f, 0.10950294f, -0.022910256f, 0.13586745f, -0.07888975f, 0.069560528f, 0.11370638f, 0.086414725f, -0.14929137f, -0.043567359f, 0.11561877f, 0.11977707f, 0.12772296f, -0.12671864f, -0.0013855362f, 0.0027174067f, -0.13355416f, 0.12427021f, 0.10567297f, 0.056966707f, -0.035326593f, -0.0048313919f, 0.10471654f, 0.02205703f, 0.14208058f, -0.14631513f, -0.15031359f, 0.025332419f, 0.060035743f, -0.09982577f, 0.07694076f, 0.10252882f, 0.12049745f, 0.036735605f, -0.14908572f, -0.15115254f, -0.12655702f, -0.062403321f, 0.043919321f, 0.0081264125f, -0.031030497f, -0.026101407f, -0.044425279f, -0.079461969f, -0.0015650243f, 0.034927875f, -0.050595056f, -0.10419302f, 0.060629956f, 0.12601233f, -0.15291212f, -0.1493976f, 0.082135469f, -0.14042394f, -0.025753947f, 0.008891508f, 0.017457828f, 0.14492132f, 0.016240804f, -0.039603397f, 0.033337422f, 0.13078308f, -0.11790874f, -0.015038326f, -0.10394818f, 0.071337625f, 0.13847159f, 0.15737469f, 0.054117858f, -0.15587442f, -0.10355876f, 0.097184762f, 0.068829119f, -0.15609457f, -0.096433923f, -0.052989304f, -0.14009927f, 0.082941473f, -0.096239865f, 0.14474203f, 0.054400709f, 0.10300463f, -0.069561303f, -0.085211284f, 0.13578726f, 0.091445185f, -0.1389443f, 0.047780119f, 0.037189528f, -0.15121777f, 0.06104511f, -0.016349465f, -0.033901244f, -0.024906199f, 0.1228644f, -0.11952528f, 0.028782906f, 0.060669303f, -0.11150891f, -0.062845014f, 0.094498552f, -0.0070713228f, 0.13868907f, -0.051037848f, 0.019291108f, 0.050722275f, -0.07226529f, -0.082815945f, 0.021043748f, -0.041441128f, 0.139668f, -0.01806022f, 0.052942406f, -0.0050804876f, 0.0093467524f, 0.0017609447f, 0.14983656f, -0.036137871f, -0.0033985002f, 0.12918435f, -0.0051154271f, 0.010052131f, 0.030447321f, -0.022211198f, -0.031463094f, -0.013653195f, -0.15114136f, 0.097311512f, 0.11485818f, 0.13088669f, 0.0015711903f, -0.063455425f, 0.089658573f, -0.050521154f, 0.11346556f, -0.042952072f, 0.081434943f, -0.15707472f, -0.076572232f, 0.043766748f, 0.038373541f, 0.092386998f, -0.027693789f, -0.03246044f, -0.029024784f, -0.081718177f, -0.11290301f, 0.10192675f, 0.13570404f, 0.11728063f, 0.15781842f, 0.017156722f, 0.082978278f, 0.12566414f, 0.013449662f, -0.065331884f, -0.084528565f, 0.12179384f, -0.14634529f, -0.035999671f, 0.05721077f, -0.15519361f, 0.050637044f, -0.12464865f, -0.086725339f, 0.069451913f, 0.019855876f, 0.11414069f, -0.11966997f, 0.12207322f, -0.0090785418f, -0.071426012f, -0.06256783f, -0.15817666f, -0.1002234f, -0.031979963f, 0.020976821f, 0.067708313f, -0.059868541f, -0.040888064f, -0.018603921f, 0.13833193f, 0.014479207f, -0.087135695f, 0.12909681f, 0.10038479f, 0.076639034f, 0.053145632f, -0.086289391f, 0.050074264f, 0.11890315f, -0.11744161f, 0.089957789f, -0.1010493f, -0.1518524f, 0.13281754f, 0.002303069f, -0.0076470706f, -0.016649026f, -0.15407458f, -0.0098245945f, -0.10418634f, -0.10060728f, 0.040037427f, 0.049386904f, 0.093702331f, -0.12422408f, -0.086571552f, 0.022056887f, 0.13903663f, -0.026720097f, 0.081583522f, 0.031514227f, 0.0034759464f, 0.013259496f, -0.1122097f, -0.055014603f, 0.1122622f, -0.076910883f, -0.04887636f, 0.026305644f, 0.06911815f, 0.15106149f, -0.13016844f, 0.053603895f, -0.051738784f, -0.063227929f, 0.00048970972f, -0.021212738f, -0.0049081207f, -0.11535929f, 0.090488359f, 0.12943639f, -0.10872289f, -0.10896972f, 0.09556932f, -0.046853498f, 0.073311128f, 0.10182374f, 0.087514475f, -0.14213179f, 0.071225218f, 0.07132937f, 0.074347064f, -0.09070491f, -0.011926059f, -0.10446629f, 0.02505214f, -0.059580836f, 0.086756408f, 0.00094300607f, 0.057599474f, -0.156064f, -0.093562998f, -0.087316863f, -0.028101973f, 0.071267501f, 0.061761059f, -0.021163648f, 0.0093084574f, 0.0043801162f, -0.13754934f, 0.1124557f, -0.077879556f, -0.014512199f, 0.022873517f, -0.15536422f, -0.14350761f, -0.080250569f, -0.019434422f, 0.017868385f, -0.10951366f, -0.11891758f, -0.088456802f, -0.10165635f, -0.14632109f, -0.084553756f, -0.0078776795f, -0.034076855f, -0.080817968f, 0.084311113f, -0.065578587f, 0.073679253f, 0.11215626f, 0.052194118f, 0.12436368f, 0.10678428f, 0.10883782f, 0.14752273f, 0.014899774f, 0.033528555f, -0.017911216f, -0.051585514f, 0.048346601f, -0.066569544f, 0.096764863f, -0.11156776f, -0.1016196f, 0.082002759f, 0.13765287f, -0.046027154f, 0.14408436f, 0.13370411f, 0.013142269f, 0.10404089f, 0.10444911f, 0.1349515f, 0.058365788f, -0.10739911f, 0.02737716f, -0.11172147f, 0.043108903f, 0.052408781f, -0.022573493f, 0.088152982f, -0.04541621f, -0.052796461f, 0.13258801f, -0.043421779f, -0.13655321f, 0.089718059f, -0.088380471f, 0.0076203793f, -0.069647469f, 0.15126102f, 0.034796044f, -0.14599124f, -0.016435424f, 0.048864808f, 0.045482352f, 0.11673524f, -0.068571493f, -0.060297132f, -0.11608758f, 0.15232733f, -0.15036124f, 0.059177924f, -0.083985351f, 0.068706304f, 0.146908f, -0.019380398f, 0.09253256f, -0.078942083f, -0.0094983056f, 0.042018361f, -0.1149973f, 0.082200497f, 0.032326553f, -0.038087394f, 0.024100095f, 0.047289208f, 0.050328381f, -0.14381154f, 0.053140391f, -0.061949432f, 0.13280368f, -0.097303249f, -0.098601379f, -0.076921113f, 0.0028323382f, -0.0060028895f, 0.0044015646f, 0.051456973f, 0.12039346f, 0.088224649f, -0.045491368f, 0.054301411f, -0.083313979f, 0.11932495f, -0.10505069f, -0.08844576f, -0.081171997f, 0.15430969f, 0.14474946f, 0.14721391f, -0.14909771f, 0.13089663f, -0.12131745f, -0.046277113f, -0.13500799f, -0.040474031f, -0.051151194f, 0.067630932f, 0.064716779f, 0.068347037f, 0.1538222f, -0.080159679f, -0.13675708f, -0.061212007f, -0.13084257f, 0.047734126f, 0.048208036f, -0.085007943f, 0.10789596f, -0.051120497f, -0.00055317802f, -0.016252715f, -0.018543813f, 0.017506359f, 0.10014053f, 0.095909506f, -0.088643499f, 0.11910693f, -0.069343239f, 0.13759245f, 0.072232895f, -0.12160611f, 0.10035043f, -0.12860706f, -0.016640758f, 0.0042272089f, -0.0032133306f, 0.1475407f, 0.0094432859f, 0.046083793f, -0.09388788f, -0.11551405f, 0.10005411f, 0.075065605f, 0.081876799f, -0.14107488f, -0.083394691f, -0.016676595f, 0.13126166f, 0.11241908f, -0.095666192f, -0.12296858f, 0.016628616f, 0.14680688f, -0.11005571f, -0.10240635f, -0.12158884f, -0.0034223476f, 0.12192998f, 0.12268379f, -0.036870837f, 0.01450408f, -0.11962064f, 0.14636385f, -0.048779938f, -0.098437801f, 0.13877122f, 0.085951097f, 0.029539051f, 0.041205015f, -0.070815042f, 0.083899774f, -0.06699378f, 0.1399518f, -0.05203107f, -0.077314459f, 0.013546109f, -0.10952131f, -0.13495074f, -0.084038585f, 0.091620676f, -0.11652841f, -0.13007727f, -0.084717013f, 0.099296212f, 0.012931635f, -0.014823258f, -0.041783281f, -0.021418631f, -0.0030675589f, -0.039290339f, -0.038934834f, 0.084716611f, -0.097873114f, -0.095063448f, -0.11553406f, 0.050458439f, 0.079602972f, -0.14326958f, 0.033491533f, -0.092221007f, -0.10143214f, 0.10987667f, -0.13685137f, 0.039196521f, -0.096284129f, 0.062875405f, 0.049876384f, 0.046219308f, -0.030201292f, 0.059257142f, 0.1271044f, 0.027843811f, 0.00025591347f, -0.031129301f, 0.14528461f, -0.11032216f, -0.085752174f, -0.15702365f, -0.14965111f, -0.069671422f, 0.029909972f, -0.051361687f, 0.058236621f, -0.045193717f, 0.10430366f, 0.12922093f, -0.060667284f, 0.016071714f, -0.058987856f, 0.11101916f, 0.044183046f, -0.10253932f, -0.07850875f, 0.088013358f, 0.084966883f, -0.10158031f, 0.070098482f, 0.14657596f, 0.1569837f, -0.10003499f, -0.10127471f, 0.013906702f, -0.085532144f, 0.02217407f, 0.084443294f, -0.15208296f, 0.013039842f, 0.0089482004f, 0.13359246f, 0.045839362f, 0.13698319f, 0.0748192f, 0.11976681f, 0.093645468f, 0.088414684f, -0.011071173f, 0.033695608f, -0.11137617f, -0.12440136f, -0.0036258728f, 0.033547189f, 0.056748666f, 0.12400813f, 0.0090622958f, -0.021243664f, -0.11966658f, -0.14527588f, -0.12722461f, 0.049410619f, 0.097816497f, -0.15450509f, -0.14977208f, -0.12351425f, -0.011932382f, -0.13707158f, 0.028707942f, -0.025977124f, 0.13198885f, -0.021120107f, 0.015989499f, -0.15490888f, -0.020018751f, -0.05920117f, 0.052720279f, -0.13509834f, -0.090914071f, 0.010095579f, -0.01976406f, 0.019447783f, -0.14122239f, -0.0044314512f, 0.080618709f, 0.043034755f, -0.12221049f, -0.042894404f, 0.08401417f, -0.011758253f, -0.11332051f, -0.12915966f, -0.15242784f, 0.044234652f, 0.14850919f, 0.02146847f, 0.098336175f, -0.051661544f, -0.027669543f, 0.07408686f, -0.022475971f, 0.053105179f, -0.094656125f, 0.089033186f, 0.0091427537f, -0.017276101f, 0.025641287f, -0.091572836f, 0.11766208f, 0.14068231f, 0.03816957f, 0.049926143f, -0.10276412f, 0.10604574f, 0.12468233f, 0.025580423f, -0.094219767f, -0.0060666339f, -0.077541672f, -0.093403079f, -0.107342f, 0.066458687f, -0.11092755f, 0.043830242f, -0.11151403f, 0.11553058f, -0.11896531f, -0.10517554f, -0.093769096f, -0.099308431f, 0.12105114f, 0.12698719f, -0.13307692f, -0.019674212f, 0.13197009f, -0.10940584f, 0.14074288f, -0.0029446506f, -0.0024649482f, 0.022819584f, -0.01635547f, 0.030318683f, -0.054213684f, -0.064979531f, 0.0095013119f, -0.028402554f, 0.12725501f, 0.13368036f, 0.14861533f, -0.12681982f, -0.11915897f, -0.078351222f, 0.094320551f, -0.054208539f, -0.073262349f, -0.016583007f, 0.052016858f, -0.10063379f, -0.10311696f, -0.094176404f, -0.098835751f, 0.14810862f, -0.06317091f, 0.043499041f, -0.12111085f, 0.049247012f, -0.08300893f, 0.090413406f, -0.15358551f, 0.089679867f, -0.1044215f, -0.14671215f, -0.081622772f, 0.14101298f, -0.048415095f, -0.14345881f, -0.14579085f, 0.042306378f, -0.10663359f, -0.1151798f, -0.058366522f, 0.097612739f, 0.1487027f, 0.13405289f, 0.1014926f, -0.12289072f, -0.12126866f, -0.146139f, -0.067719601f, 0.10734315f, -0.08289583f, -0.025664344f, -0.10094593f, 0.093303047f, 0.055474441f, -0.024787595f, -0.059470959f, -0.10022788f, -0.026590502f, -0.11254464f, -0.069072917f, 0.12452592f, 0.019895824f, 0.13287607f, -0.032102995f, -0.099054411f, 0.08856371f, -0.097247362f, -0.081694297f, 0.1054442f, -0.073786326f, 0.096118197f, 0.045660958f, 0.043781295f, 0.14410315f, -0.0046749073f, -0.13515536f, 0.10163397f, 0.13632399f, -0.15507275f, -0.087981887f, 0.070630834f, 0.01811412f, 0.1448672f, -0.095353529f, -0.14684257f, -0.068280846f, 0.13362737f, 0.086283214f, -0.11271742f, 0.1014467f, 0.067153171f, 0.03796589f, -0.0079477001f, 0.085923657f, 0.10246982f, 0.14303882f, 0.086358257f, -0.10247461f, -0.067307808f, -0.030742576f, 0.020596482f, 0.11709931f, -0.025225157f, 0.062062133f, 0.15808472f, -0.10995902f, 0.10195704f, -0.096634857f, -0.15322104f, -0.032518651f, -0.040856145f, -0.068677194f, 0.011349762f, 0.10121787f, -0.15380237f, -0.017524032f, 0.14360052f, -0.039366007f, -0.076058857f, 0.093734406f, -0.054087032f, 0.029815573f, -0.049479824f, 0.11984053f, 0.042900532f, 0.0094255954f, -0.11223892f, 0.048917066f, 0.047565497f, 0.020395983f, -0.11287617f, -0.0029076356f, -0.038782068f, -0.11915444f, -0.072992623f, 0.10686578f, -0.13310221f, 0.081680283f, -0.055298001f, 0.11118974f, 0.0004247576f, 0.017522737f, -0.15258218f, -0.094144508f, -0.14117955f, 0.10805915f, -0.12533686f, -0.13066979f, -0.050604254f, 0.043828726f, 0.022139147f, 0.062459782f, 0.056595072f, -0.14057633f, 0.10057811f, -0.060692221f, 0.042906597f, 0.091224194f, -0.058882199f, -0.10978195f, -0.1482321f, -0.072229356f, -0.017479211f, -0.15391919f, -0.15489073f, 0.07405223f, 0.11938511f, 0.15084864f, 0.091110334f, -0.14663698f, 0.017052874f, -0.087221496f, 0.06869939f, 0.064385176f, 0.0014647543f, -0.055816472f, -0.015626624f, -0.049227525f, 0.10405779f, -0.14553881f, 0.13656041f, 0.15202978f, 0.12034707f, -0.10476088f, 0.14767453f, -0.021598388f, 0.11949892f, -0.053372797f, 0.067782253f, -0.12826715f, 0.10646885f, 0.070556551f, -0.087059855f, 0.10679659f, -0.11603445f, 0.10278153f, 0.15116727f, -0.11026342f, 0.0032354533f, 0.12237091f, 0.055826701f, -0.14968832f, 0.099737078f, -0.043904547f, -0.042204209f, 0.016856533f, -0.037542388f, 0.1181247f, 0.051886417f, -0.028548885f, -0.059757791f, -0.0015190862f, -0.065872252f, 0.05367168f, 0.083029114f, -0.13641505f, 0.13280953f, -0.11685956f, 0.069311976f, 0.12421069f, 0.15507199f, -0.045320995f, 0.025010575f, -0.1210688f, -0.031194892f, 0.020249914f, 0.061005734f, -0.044027377f, 0.091961563f, -0.15470429f, 0.050378107f, -0.13382098f, 0.014750629f, 0.016189139f, -0.15439299f, 0.14622179f, 0.014382671f, 0.066146098f, -0.13598652f, -0.13512927f, 0.14820461f, 0.11326148f, 0.075482957f, -0.070251293f, 0.11216146f, 0.03558993f, -0.054698616f, 0.068726353f, -0.053138595f, 0.1021932f, -0.072748452f, -0.074928463f, 0.098872215f, -0.078027792f, -0.1073425f, 0.0084589468f, 0.12578666f, 0.066596702f, -0.048543233f, 0.14557853f, 0.0099060079f, 0.14098485f, 0.039223269f, 0.096241243f, 0.11478273f, 0.1258526f, -0.078932241f, -0.15465181f, 0.082328245f, 0.10896865f, -0.073094584f, 0.034661282f, -0.056591243f, 0.044479437f, -0.14968558f, -0.072457828f, -0.061496526f, -0.059488188f, -0.042133801f, -0.063853756f, -0.11157294f, -0.070123374f, 0.011637159f, -0.15399863f, -0.02363959f, 0.054011546f, -0.052043818f, 0.12195504f, 0.03256363f, 0.025261724f, -0.077009074f, 0.06927418f, 0.12484419f, -0.10374378f, -0.082875356f, 0.14965808f, 0.017313851f, 0.090228774f, 0.097120911f, 0.090591736f, -0.10661433f, -0.070656918f, -0.014285759f, 0.13542435f, 0.073342867f, 0.1104689f, -0.12202043f, -0.013721545f, -0.14536433f, 0.088570379f, 0.13677149f, 0.06076296f, -0.12599415f, 0.14699933f, -0.11365408f, 0.010622824f, -0.058195923f, 0.033530496f, 0.053305894f, 0.15207684f, 0.052996717f, -0.10551714f, 0.096197315f, 0.10754204f, 0.072992884f, 0.13299963f, -0.017211527f, -0.15321302f, -0.075592995f, -0.094880208f, -0.090278171f, 0.14423686f, -0.11893532f, 0.087574571f, -0.045034692f, -0.074202426f, 0.11131682f, 0.02568436f, 0.015016234f, -0.14379682f, -0.11393353f, -0.092231259f, 0.099298805f, -0.0060030664f, -0.12227486f, 0.060913116f, 0.073304944f, 0.0094768815f, -0.0049206316f, -0.10451498f, -0.15788229f, 0.11338515f, 0.10695345f, 0.13749416f, 0.011275222f, -0.15014984f, -0.047904808f, -0.092149287f, -0.051704444f, -0.15105823f, -0.10647837f, 0.098284408f, -0.096937448f, 0.13325861f, -0.025820348f, 0.060962558f, 0.0062129647f, -0.021072214f, 0.0070176767f, -0.13007271f, -0.049548507f, -0.026827324f, 0.024787616f, -0.098789372f, -0.063508056f, 0.058990121f, 0.11938759f, 0.039653409f, 0.034426045f, 0.029549459f, -0.040652968f, -0.0057899952f, -0.030176533f, 0.068994664f, 0.045228593f, 0.15043633f, 0.13497278f, -0.045068391f, -0.1419363f, 0.050878875f, -0.1297951f, 0.14616881f, 0.10155232f, -0.040486719f, -0.15455972f, -0.029503075f, 0.15329127f, 0.0026417407f, 0.040510643f, 0.13095988f, -0.081325471f, -0.062219393f, 0.050918385f, -0.12162916f, -0.014615122f, 0.095305525f, -0.046001174f, -0.011849675f, 0.13234159f, 0.11750788f, -0.10768777f, -0.13872656f, 0.068114698f, 0.082892314f, -0.11626684f, -0.1331445f, -0.006783742f, -0.033211552f, -0.07784386f, -0.12312509f, -0.074342206f, 0.11560799f, 0.036636021f, 0.121942f, 0.13585126f, -0.1148646f, -0.067016236f, -0.081145898f, 0.036212638f, -0.033872854f, -0.10068344f, 0.056123108f, 0.1090506f, -0.043149933f, 0.048949078f, 0.065928951f, -0.08210808f, 0.023551639f, -0.035177641f, -0.017870322f, 0.089929476f, -0.074316695f, -0.062517121f, 0.039537534f, -0.12513894f, -0.11281446f, -0.079608865f, 0.12064072f, -0.1086004f, -0.069062918f, 0.091350704f, 0.13030382f, 0.094101742f, -0.10691973f, -0.10111752f, 0.099404186f, 0.022165477f, 0.036372554f, 0.007768577f, 0.12999965f, -0.1412432f, 0.083713263f, 0.013378425f, 0.06072304f, 0.036673754f, 0.13466382f, 0.065763347f, -0.079365939f, 0.023192478f, 0.09461797f, -0.065940864f, -0.072344087f, -0.021923453f, -0.050235782f, -0.0077341218f, 0.056642774f, -0.015140282f, -0.042573728f, 0.0097803576f, 0.069191098f, 0.15210246f, -0.043230254f, -0.043169279f, 0.14457273f, 0.069559f, 0.078171335f, -0.14788358f, 0.098149605f, -0.098919824f, -0.10002278f, -0.033768576f, 0.01488145f, 0.085621782f, 0.10848277f, 0.065693624f, 0.11272796f, -0.0048360098f, 0.12032076f, -0.15523677f, 0.14717954f, -0.036724243f, -0.032795411f, 0.0056235986f, 0.10707846f, 0.057949014f, 0.035262343f, 0.15183984f, 0.016511239f, -0.10120376f, -0.13081919f, -0.037499256f, 0.070455141f, 0.11772604f, -0.077401988f, 0.10037709f, -0.1065455f, 0.086060628f, 0.14264844f, 0.11827169f, 0.029380603f, -0.14135802f, 0.013096962f, 0.14083076f, 0.071120419f, -0.10290843f, 0.13013926f, 0.051996589f, 0.0055784392f, 0.042215303f, -0.11363209f, -0.044562187f, 0.055570908f, -0.087645322f, 0.11853474f, 0.14767453f, 0.14207655f, 0.03676869f, 0.10814125f, 0.11603753f, 0.12026714f, -0.010862991f, -0.14191379f, -0.018698754f, 0.10984593f, 0.14419381f, -0.045259297f, 0.075832658f, -0.13058589f, -0.098573528f, -0.082751572f, -0.10752932f, -0.13906775f, 0.093304373f, 0.022489632f, 0.051025108f, 0.053652253f, 0.015068276f, 0.012806259f, 0.067065604f, -0.0023083859f, -0.081174187f, -0.11745463f, -0.12848797f, 0.018126242f, -0.01936706f, -0.12150407f, 0.10811298f, -0.045258943f, 0.13728975f, 0.13735211f, -0.035200469f, -0.019527761f, -0.028567048f, -0.08146666f, -0.10687314f, -0.022718085f, 0.059637599f, -0.15636964f, -0.0013353925f, 0.15151136f, -0.019662492f, -0.15521342f, 0.10561617f, 0.12248699f, 0.1153313f, -0.10552719f, -0.037341438f, -0.040114321f, -0.0422475f, -0.039124116f, -0.13721894f, -0.13192829f, -0.059149627f, 0.054407835f, 0.084730133f, -0.15309915f, -0.13790196f, 0.11000566f, -0.09199664f, -0.15336029f, 0.13562107f, -0.040047213f, -0.034788094f, -0.059365239f, 0.14461333f, 0.0099689681f, -0.043606825f, 0.15362224f, -0.14698389f, -0.070254549f, 0.10711033f, -0.01282388f, -0.147881f, 0.10184091f, -0.022254447f, -0.096409306f, 0.080401681f, 0.10556149f, 0.11580195f, -0.14691685f, 0.10521658f, -0.014010087f, -0.036933824f, -0.10533898f, 0.027134337f, 0.028449062f, -0.15557647f, -0.022938251f, -0.00014641881f, -0.028820001f, -0.052041799f, 0.13872457f, 0.063613981f, 0.057417382f, 0.066198781f, 0.12855661f, -0.13324402f, -0.068501495f, -0.045632787f, -0.037418727f, -0.074481398f, -0.081971996f, 0.051916886f, 0.088265717f, -0.093943894f, -0.12743334f, 0.054384664f, 0.04037869f, -0.092542209f, -0.12660354f, 0.14178319f, 0.1414542f, 0.088090271f, 0.0744427f, 0.15231441f, 0.13904068f, -0.075052835f, -0.005941431f, -0.045472842f, 0.053791221f, 0.1100399f, 0.11273028f, 0.14586236f, 0.10546014f, -0.1043988f, 0.058475249f, 0.15102844f, 0.098713256f, 0.084566422f, 0.093435407f, -0.034097776f, -0.15307814f, -0.11033168f, 0.047666468f, -0.12309409f, -0.043382391f, -0.038439006f, -0.10077547f, -0.011613786f, -0.038947776f, 0.11106222f, -0.014701066f, 0.091902137f, 0.00076919998f, -0.0012034839f, -0.049498301f, 0.05722332f, -0.008861417f, -0.04325904f, 0.10543937f, 0.020461101f, -0.028110662f, -0.098219238f, -0.15162958f, 0.012815774f, 0.1423742f, -0.042276371f, 0.064020604f, 0.0021533724f, -0.057587426f, 0.10334355f, 0.070801616f, -0.14996164f, -0.02657005f, -0.090047039f, 0.050211377f, 0.08239001f, -0.067450255f, 0.15317425f, -0.11838489f, 0.063487552f, 0.094232552f, -0.018384743f, -0.086840846f, 0.15748154f, 0.024408571f, 0.14871392f, 0.032763023f, 0.083103321f, 0.14574003f, -0.014402638f, 0.14989105f, -0.063775018f, 0.094918534f, -0.068451487f, -0.13152626f, 0.13071625f, -0.091487743f, -0.0078780865f, -0.11178187f, 0.016105754f, 0.10819029f, -0.0015462609f, -0.14133517f, 0.030413855f, -0.049954571f, 0.097459093f, -0.12205832f, 0.066766523f, 0.05665116f, 0.040637013f, -0.13009802f, -0.033433475f, -0.11159611f, -0.071964845f, -0.096918479f, -0.13637024f, 0.081947558f, 0.14571121f, 0.11384388f, -0.066282533f, -0.011179308f, 0.13399898f, -0.11523075f, 0.051504508f, 0.13183619f, -0.025308467f, 0.015398808f, -0.011680102f, -0.06323871f, 0.12206306f, -0.035334032f, 0.12324823f, 0.014209062f, 0.036337961f, -0.029961752f, 0.11684401f, 0.092136279f, 0.017133564f, 0.12885581f, 0.12463824f, 0.062336542f, 0.10041827f, -0.11947888f, 0.046504386f, -0.032332718f, -0.053946249f, 0.14138402f, -0.10006846f, 0.054140389f, 0.052308679f, 0.15071516f, -0.14881782f, -0.065405324f, -0.10542957f, -0.065614745f, -0.14325474f, -0.014122322f, -0.040152736f, -0.050860353f, -0.10351089f, 0.024003804f, 0.024867013f, 0.0045022368f, -0.083781466f, 0.044803873f, -0.15027693f, 0.082543015f, 0.040877029f, 0.072166294f, -0.079917535f, -0.12610501f, 0.0041545928f, -0.027912676f, -0.074661665f, 0.13402174f, -0.14146928f, 0.018980011f, 0.021268621f, -0.14718416f, -0.047707744f, 0.12408198f, -0.15762144f, 0.040480927f, 0.041960284f, 0.105354f, 0.033976588f, 0.085272662f, -0.0089378823f, -0.12860937f, 0.11617169f, 0.14642917f, 0.14857443f, 0.01405378f, 0.14374289f, 0.12241111f, 0.095694676f, 0.079437964f, 0.113694f, 0.071037374f, 0.13373141f, 0.08825063f, -0.088763267f, 0.13623947f, 0.14927422f, -0.05969248f, 0.12533846f, -0.063358709f, -0.10687727f, 0.0083594332f, 0.081002913f, -0.080903038f, 0.049324177f, 0.074451827f, -0.030488575f, 0.067736566f, -0.052695192f, 0.13950142f, -0.11247302f, 0.0075652776f, -0.046122029f, 0.055409808f, 0.15749729f, 0.13908753f, 0.089029036f, -0.12914418f, -0.041430756f, -0.049663551f, 0.037475053f, -0.15050283f, 0.0056514181f, 0.123471f, -0.096718878f, -0.11719406f, 0.096409343f, 0.09670262f, -0.023548799f, -0.045846194f, -0.084695779f, -0.1394501f, -0.079901442f, 0.047665074f, 0.15732348f, 0.03617942f, 0.071068816f, 0.093402587f, 0.0092022037f, 0.14834794f, 0.073371097f, -0.12368341f, 0.084685974f, 0.14088246f, -0.10692004f, -0.055340968f, -0.086125456f, 0.10872194f, -0.017070502f, -0.11160278f, 0.11359613f, -0.047583751f, -0.0068190955f, 0.049748406f, -0.035597011f, 0.088014655f, -0.060541458f, -0.044403698f, -0.062120814f, 0.10548585f, 0.084599867f, 0.019010456f, -0.00055745943f, 0.016843537f, -0.069675624f, -0.10924729f, -0.13593398f, 0.12194216f, 0.025661584f, 0.097674765f, -0.0011998131f, -0.037064455f, 0.042809214f, -0.057427842f, -0.031081354f, -0.0077720648f, 0.039577413f, 0.046336599f, 0.063100301f, 0.047612078f, -0.026402408f, 0.13383299f, 0.033616457f, 0.074279331f, -0.0011383988f, 0.12458459f, -0.094214275f, 0.12906462f, 0.10565607f, 0.10947361f, 0.11391481f, 0.02804419f, 0.035760857f, 0.034830157f, -0.11922722f, 0.063992903f, -0.054250501f, -0.066918664f, -0.081073061f, -0.11537084f, 0.039922737f, -0.084093109f, 0.10803234f, -0.1403285f, 0.074869558f, 0.13239592f, -0.028045194f, -0.14602028f, 0.088060774f, 0.038473964f, 0.010947689f, -0.042383231f, -0.028261406f, -0.081950322f, -0.017929588f, 0.082378484f, 0.0096452059f, 0.12135749f, -0.098176718f, -0.085118115f, -0.13530341f, 0.15647346f, -0.13562569f, -0.11923098f, -0.14870426f, 0.016033893f, 0.13034022f, -0.029510332f, 0.052699089f, -0.075908907f, 0.057682063f, 0.077070162f, 0.090787746f, -0.14843386f, -0.091760963f, 0.065914683f, 0.14111814f, -0.0040956447f, -0.0065032574f, 0.058115084f, -0.15681654f, -0.062053546f, -0.044634681f, -0.050966412f, 0.083185442f, -0.11878193f, -0.08221636f, 0.11369057f, 0.11962519f, 0.13666089f, -0.091446698f, 0.0065329648f, -0.13488971f, -0.020792473f, -0.11010733f, -0.11161438f, -0.12306555f, 0.06102673f, -0.11264686f, 0.057941079f, -0.10613531f, 0.0044248551f, -0.0076411339f, -0.081137247f, -0.088791229f, 0.053802758f, 0.057986706f, 0.12234619f, -0.14913256f, 0.13719171f, -0.072837472f, 0.078848138f, -0.031591889f, -0.079132587f, 0.12760954f, 0.098893873f, 0.0760433f, 0.049193874f, 0.039569989f, -0.082732514f, 0.10502364f, -0.07393682f, 0.075547956f, -0.13221522f, 0.02692795f, -0.15330574f, -0.0041107782f, -0.12332634f, -0.12121441f, -0.06978035f, -0.10925132f, -0.054313261f, 0.14753656f, 0.14071342f, 0.11982849f, 0.037874099f, 0.10778651f, -0.11516778f, -0.084622428f, 0.044593539f, 0.043184794f, 0.12801799f, -0.031734943f, 0.092943735f, -0.054381419f, 0.020435544f, 0.047888976f, 0.033432223f, -0.080152407f, -0.054167826f, 0.13763973f, -0.035421576f, -0.01334457f, 0.14082044f, -0.13001017f, -0.13916868f, 0.040997725f, 0.10359601f, -0.083109736f, -0.037725143f, 0.0010020048f, 0.12658663f, 0.061348997f, 0.025118977f, 0.14763524f, -0.040858399f, -0.12484459f, 0.067307316f, -0.082546204f, 0.032254525f, -0.077768564f, -0.14620568f, 0.15536566f, -0.033006847f, 0.13453232f, -0.092835583f, -0.15654549f, -0.092113011f, -0.025974767f, 0.12753615f, 0.073683754f, 0.14074524f, -0.11258808f, 0.038743537f, -0.010248089f, -0.02879321f, -0.11933585f, 0.083577879f, 0.11861674f, -0.047909338f, -0.11850789f, -0.12087474f, 0.087900929f, -0.094599076f, -0.14581876f, 0.021616809f, -0.08725661f, -0.10914706f, -0.017806724f, -0.081409693f, 0.1539266f, -0.11663119f, -0.066813126f, -0.11527833f, -0.072813407f, -0.078087471f, 0.12352226f, -0.023134449f, -0.13667683f, 0.019724861f, 0.024897173f, 0.1274028f, 0.075093299f, -0.043274246f, 0.022301167f, 0.093987554f, 0.11877009f, 0.012710199f, -0.051865995f, -0.15654582f, 0.012474613f, -0.15109217f, -0.042138066f, 0.023204207f, -0.0064507574f, -0.14615914f, -0.035850164f, 0.14667419f, -0.098966211f, 0.14904296f, -0.046274025f, 0.0072484016f, 0.13963513f, -0.012552157f, -0.15088451f, 0.13513577f, -0.11516614f, 0.10064977f, -0.041461367f, 0.06490045f, -0.091509268f, -0.13490276f, -0.14180817f, -0.12143549f, -0.1106105f, 0.12318482f, 0.14809091f, -0.10788008f, -0.018100414f, 0.093785711f, -0.10559881f, -0.10536457f, -0.075825505f, -0.11075395f, -0.030537521f, 0.10704973f, -0.11498704f, 0.093253449f, 0.075715467f, 0.0029750194f, -0.11689974f, 0.1430974f, 0.084938265f, -0.13774367f, -0.1512613f, -0.011667654f, -0.092732355f, -0.026238222f, 0.043469891f, -0.15490815f, -0.044469271f, -0.14875337f, -0.07684087f, -0.11595191f, -0.10247833f, -0.13918284f, 0.15686564f, -0.097865455f, 0.048965953f, -0.030659575f, -0.046032004f, 0.0047626407f, -0.017044758f, -0.084063329f, -0.11589259f, -0.036112592f, -0.052168593f, -0.028666293f, 0.054134812f, 0.14912121f, -0.094398662f, -0.05095974f, -0.028361626f, -0.15590896f, -0.086069554f, 0.042569675f, 0.024194209f, 0.13665904f, 0.11118805f, -0.10079215f, -0.058212686f, -0.063458622f, 0.15188605f, 0.080492869f, 0.085415184f, -0.10841434f, 0.12612326f, -0.094932042f, -0.10722236f, 0.026730819f, 0.097272418f, 0.15730228f, 0.036484387f, 0.11648675f, -0.079380639f, -0.064644895f, -0.13484102f, -0.1332188f, 0.013523994f, 0.10271347f, 0.049141735f, -0.060566284f, 0.13413002f, 0.011739293f, 0.090808764f, 0.13299118f, 0.097410545f, -0.13365597f, -0.11749285f, 0.038553268f, 0.0042842329f, 0.053549536f, 0.04692594f, -0.057866447f, 0.073734455f, 0.12092657f, 0.014990112f, -0.026054423f, 0.13903841f, -0.05208613f, -0.0608356f, -0.11648987f, -0.089104362f, 0.018244579f, 0.064565189f, 0.084599644f, 0.079130575f, -0.058066461f, -0.12094547f, -0.082919657f, -0.11637913f, -0.056656066f, 0.0016216477f, 0.025050133f, 0.11234312f, -0.1053581f, -0.12843521f, 0.08901073f, -0.1496364f, -0.055143338f, 0.049567264f, -0.053514332f, -0.018550441f, 0.0017957074f, -0.011565317f, -0.15585828f, 0.10400893f, -0.088049114f, 0.060700733f, -0.061947748f, 0.077351838f, 0.1366248f, -0.096513405f, -0.0046377024f, -0.010066045f, 0.0088911066f, 0.023232117f, -0.15358755f, 0.1424606f, -0.076144658f, -0.098761655f, -0.02904286f, -0.032413624f, -0.076059632f, -0.12034659f, 0.018368203f, 0.1188313f, 0.016505973f, -0.10571206f, 0.13968492f, 0.11432724f, 0.14820097f, 0.011903256f, -0.079854198f, -0.11695929f, -0.0071269278f, -0.018594313f, -0.069808342f, -0.079950392f, 0.13407168f, -0.13107057f, -0.066104107f, 0.079817317f, -0.14538896f, -0.086276211f, 0.017794814f, 0.11467998f, 0.016448013f, 0.017793123f, -0.085503213f, -0.12667583f, 0.020596635f, 0.010248065f, -0.021453543f, -0.094430231f, 0.026235221f, -0.048566639f, 0.12032776f, -0.10758372f, 0.041626234f, -0.030616483f, 0.1260158f, -0.052340914f, 0.037670612f, -0.074243777f, 0.11826396f, 0.12430733f, -0.11416553f, 0.078301415f, 0.1091098f, -0.12954229f, 0.12726118f, -0.064721733f, 0.1204115f, 0.11865558f, -0.14525758f, 0.084555924f, -0.010925284f, -0.043625172f, -0.019844804f, 0.053120703f, -0.11460804f, -0.056687411f, 0.098771423f, -0.016659856f, 0.1042246f, 0.054656159f, -0.020710435f, -0.01219737f, 0.00091754564f, 0.028673872f, 0.14831959f, 0.12651733f, -0.13038f, -0.017752849f, 0.092515394f, -0.005717997f, 0.12690949f, 0.14027929f, -0.11959217f, 0.15655217f, 0.075791523f, -0.051348273f, -0.033140313f, 0.00057467772f, -0.1375102f, -0.12096481f, -0.13964434f, 0.041045219f, 0.11451927f, -0.040252429f, -0.06007405f, 0.13490874f, 0.044125862f, 0.066849895f, 0.089014918f, -0.029428113f, -0.1290537f, 0.15774103f, 0.0085131219f, 0.14827132f, -0.069696285f, 0.077073142f, -0.01662088f, 0.090114594f, -0.13047965f, -0.10028246f, -0.10335273f, 0.11207849f, -0.067380719f, 0.064817354f, -0.05347535f, 0.072550401f, -0.094430223f, -0.065831117f, -0.018431192f, 0.14758624f, -0.029548304f, -0.014425971f, -0.033647601f, 0.054764863f, -0.12007282f, -0.12755281f, 0.13379243f, -0.14223345f, 0.026955521f, -0.13224678f, -0.11287212f, -0.07258454f, -0.14147857f, 0.090845577f, -0.031430688f, 0.036041055f, -0.1414986f, -0.019990113f, -0.11906452f, -0.048436411f, 0.084593102f, -0.0081918752f, -0.10333316f, -0.10359666f, -0.0032812173f, -0.079929464f, 0.026698036f, 0.06234948f, -0.046525836f, -0.1122807f, -0.059956443f, 0.10299655f, 0.13053761f, 0.03035293f, 0.094191879f, 0.13102806f, 0.10432432f, -0.066335887f, 0.0026161799f, 0.14647888f, 0.046468876f, 0.037294161f, -0.11240123f, -0.044331785f, 0.15031421f, -0.0097432453f, 0.12669736f, 0.091671951f, -0.0086644273f, 0.063432828f, -0.027594965f, -0.084175028f, 0.0018935511f, -0.039983794f, -0.066476963f, -0.013840253f, 0.13551922f, 0.14405298f, -0.069850557f, -0.12897155f, -0.09070383f, -0.14587788f, -0.0915806f, 0.0018285126f, 0.086204171f, 0.11865219f, -0.11184257f, -0.038016401f, -0.014533714f, -0.0049632546f, -0.049736835f, 0.09533228f, -0.079042241f, 0.11223511f, 0.087095626f, -0.002049834f, 0.041747283f, -0.0070770485f, -0.072560154f, -0.12820294f, -0.040610328f, -0.080361053f, 0.11061946f, -0.021432793f, -0.15511672f, -0.079651095f, -0.11053216f, -0.032630399f, -0.026597155f, 0.042286001f, 0.12065803f, 0.024773791f, 0.068170026f, 0.078963935f, 0.07171651f, 0.0030105342f, -0.098603778f, 0.025980536f, 0.088032261f, 0.02315258f, -0.085345231f, -0.13732892f, 0.10610025f, 0.15206011f, 0.12138165f, 0.079556204f, 0.017551616f, 0.035515055f, -0.0057475609f, 0.056410488f, -0.0033050701f, -0.092407495f, -0.084209464f, -0.10176026f, -0.029055551f, -0.0076071452f, -0.038190879f, 0.11455305f, 0.060497031f, -0.13267025f, -0.065658875f, -0.1353486f, -0.042730749f, -0.011546747f, -0.14302008f, 0.0036715642f, -0.078699142f, 0.01514715f, 0.07513056f, 0.074214242f, 0.01321279f, 0.062597498f, 0.087255649f, -0.14868869f, -0.084431447f, -0.011579478f, 0.072563842f, 0.040995754f, 0.027236518f, -0.11804911f, -0.01258056f, 0.15326765f, -0.078214556f, 0.029701825f, -0.11470802f, -0.019689066f, -0.036446951f, -0.10621034f, -0.084421396f, 0.15394525f, -0.10169207f, 0.12514549f, -0.14291896f, -0.15767211f, 0.028511075f, 0.082103461f, -0.10602678f, 0.10641915f, 0.1412874f, 0.063602842f, 0.066518337f, -0.058988966f, 0.1509929f, 0.10633302f, 0.071102858f, -0.083490357f, 0.00054577843f, -0.017250851f, -0.021365348f, 0.084377401f, 0.10264875f, -0.039627746f, 0.13469891f, -0.099067561f, -0.046710208f, -0.141552f, 0.076039299f, 0.082150593f, 0.092804216f, 0.12054188f, 0.096365862f, -0.13501507f, -0.0023057999f, -0.11984395f, 0.1479432f, -0.067092635f, -0.15148777f, -0.0065778312f, -0.058995765f, -0.12989236f, -0.0096046543f, 0.026791569f, 0.016735403f, -0.032299042f, -0.084812671f, 0.1501276f, -0.14465982f, 0.048658967f, 0.028587315f, 0.029345181f, -0.15591612f, 0.112894f, 0.1054838f, -0.11995137f, 0.0053709894f, 0.10517333f, -0.15515384f, 0.11743261f, -0.14637096f, 0.033508617f, -0.070503369f, 0.054811403f, -0.022364218f, -0.07722424f, -0.12736683f, 0.1547879f, -0.086741522f, -0.15461637f, -0.083812661f, 0.10309186f, -0.14030804f, -0.13807735f, -0.15212968f, -0.082380712f, -0.034792002f, -0.10340454f, -0.15053311f, -0.10788272f, -0.016662095f, 0.074982539f, 0.077219874f, 0.06457752f, 0.15767156f, 0.065794274f, -0.14967529f, 0.14058648f, -0.13587981f, 0.14835753f, -0.002121069f, -0.00051826239f, -0.10745154f, 0.12174788f, 0.035405334f, -0.096109927f, 0.10668974f, -0.055856489f, -0.061888993f, 0.1445103f, 0.13020729f, -0.10038225f, -0.0085728811f, -0.047735661f, 0.043908667f, -0.0722709f, 0.08481811f, -0.10068578f, 0.10635859f, -0.12205688f, -0.14956577f, 0.072175756f, -0.11141857f, -0.11537189f, 0.040134761f, 0.12086478f, 0.018648209f, 0.11912313f, 0.1422963f, 0.13899657f, -0.14015879f, 0.11667839f, -0.076368093f, -0.029121056f, -0.089815333f, -0.086096883f, 0.016456317f, -0.15223183f, -0.042389736f, -0.07080587f, 0.032969739f, -0.091062665f, -0.068309881f, -0.15310338f, 0.12945814f, -0.050531469f, -0.083806217f, -0.02235618f, 0.086339712f, 0.10911675f, 0.010686508f, 0.13327424f, -0.042097259f, -0.1294204f, -0.039686836f, 0.15610397f, 0.074405655f, -0.0064240242f, 0.010799184f, 0.046980698f, -0.047559172f, -0.10598686f, 0.058489576f, 0.11275328f, 0.089128643f, -0.01801729f, 0.042113908f, 0.021698646f, 0.12444781f, -0.14970104f, -0.042813435f, 0.13577877f, 0.081750862f, -0.075595818f, -0.08218728f, 0.083982617f, 0.10728619f, -0.13991469f, 0.035409402f, 0.14861916f, 0.054781213f, 0.13190942f, 0.11674903f, 0.15227531f, -0.016770177f, 0.056538466f, 0.13670887f, 0.077019505f, 0.034788046f, -0.034210339f, 0.0081691798f, 0.063709274f, 0.061278049f, -0.14549842f, -0.13143454f, -0.058812983f, -0.046859328f, -0.094045296f, -0.059578791f, -0.059027672f, 0.071136892f, 0.071869731f, -0.080091469f, -0.032130882f, -0.025574252f, -0.14562756f, -0.093222037f, 0.060517833f, 0.15346669f, 0.037249222f, -0.14335255f, 0.042266399f, -0.082872435f, 0.14898489f, -0.036508694f, -0.021272868f, 0.12769033f, -0.078521892f, -0.04748819f, 0.015497342f, -0.023239166f, -0.098625004f, -0.0023594201f, -0.0067847329f, -0.057798065f, -0.08807271f, 0.080888234f, -0.11445062f, 0.1020845f, -0.015136253f, 0.098768555f, -0.049291369f, 0.06279996f, 0.068462685f, 0.077537499f, -0.072604164f, -0.11408038f, -0.067062646f, 0.080904268f, -0.087732993f, 0.14576827f, 0.043720663f, -0.10855149f, 0.038886368f, 0.097484753f, 0.044245843f, 0.068458259f, 0.088459261f, -0.14183223f, 0.04024056f, -0.085482717f, -0.094365366f, 0.14824884f, -0.049702946f, -0.094947115f, 0.091711454f, -0.1421949f, 0.10230992f, 0.11709388f, -0.089572869f, 0.14103904f, -0.11030447f, -0.12711377f, -0.11369275f, -0.078320019f, -0.0094565451f, 0.14227752f, 0.070628382f, -0.010932273f, 0.15734234f, 0.0065853768f, 0.08118055f, -0.12290792f, 0.030871138f, 0.0044053649f, 0.11906067f, 0.083641432f, 0.094526462f, 0.0078662522f, -0.13898788f, -0.052555792f, -0.15793243f, -0.051896282f, 0.040500917f, -0.13034712f, -0.092033319f, 0.1405343f, 0.11086635f, 0.14855038f, -0.092750095f, 0.13624381f, -0.08463002f, 0.064781323f, -0.063509755f, 0.13529901f, -0.15000965f, -0.074496821f, 0.093735941f, -0.14967525f, 0.0083637368f, -0.12232713f, 0.10547692f, -0.13809158f, -0.044073392f, 0.12318673f, 0.034783579f, 0.069517411f, 0.023949957f, -0.054616649f, -0.080343626f, 0.0091524692f, -0.1052653f, 0.084143765f, 0.0083663613f, 0.13321854f, -0.074164279f, 0.14786828f, 0.10907996f, 0.10983039f, 0.028462827f, -0.1159508f, -0.15444294f, 0.13124426f, 0.13012758f, -0.14746223f, -0.098084345f, -0.14225791f, 0.07248079f, 0.018446207f, 0.072011806f, -0.032359798f, -0.088817328f, -0.032571364f, -0.044736236f, -0.10176282f, 0.086795121f, -0.14803654f, -0.034397595f, -0.052485f, -0.1037963f, -0.15496027f, 0.010777369f, -0.081333607f, 0.021198811f, -0.014717869f, 0.12813437f, 0.13004337f, 0.064052269f, -0.010188948f, -0.054394353f, -0.11429024f, -0.067033418f, -0.038636204f, -0.047359139f, -0.031006727f, -0.074916989f, -0.029205604f, 0.0049786991f, 0.13365698f, -0.14930107f, -0.029690316f, 0.07423687f, -0.11735808f, 0.099642739f, 0.021337155f, -0.020672513f, -0.079414785f, -0.037879616f, -0.033278745f, 0.0011769306f, 0.028529799f, -0.056180809f, 0.095595188f, -0.15149909f, -0.15014891f, 0.11206104f, -0.042787924f, 0.12330768f, 0.04240232f, 0.086712569f, -0.057788294f, 0.11882135f, -0.073294252f, 0.049624484f, -0.050434336f, 0.10235573f, -0.054289784f, -0.13155933f, -0.11675809f, 0.095896646f, -0.10345103f, 0.11352358f, 0.13121577f, 0.098651186f, -0.034898572f, 0.035375848f, -0.05866088f, 0.030611591f, 0.0036536604f, -0.092667751f, -0.10486409f, 0.049134038f, 0.076547503f, -0.10396428f, -0.097359292f, -0.14381866f, 0.14473453f, 0.074512526f, 0.081093118f, 0.014826811f, -0.13060088f, -0.15729876f, -0.055874635f, -0.055001337f, -0.15773657f, 0.10748287f, 0.083638668f, 0.12444881f, 0.1341971f, 0.1436954f, 0.0033147663f, -0.0020119995f, 0.032405317f, -0.043543156f, 0.043910611f, 0.1205107f, -0.073704608f, -0.12279116f, 0.10117578f, -0.10002902f, -0.027948743f, 0.13123403f, 0.094675757f, -0.14249399f, 0.090919748f, -0.099877432f, -0.046073295f, 0.019264704f, 0.020064741f, 0.076864898f, 0.026790448f, -0.057519376f, -0.1047858f, 0.14132415f, 0.082555562f, 0.008907536f, 0.10962525f, -0.003225619f, 0.086179256f, -0.06123434f, 0.12033409f, -0.11658633f, -0.026274649f, -0.15495487f, -0.10935739f, -0.074796751f, 0.11373318f, -0.023790304f, -0.0020085941f, -0.15349256f, 0.058809143f, 0.045139838f, -0.0067598652f, -0.035546783f, -0.01451921f, 0.041564435f, 0.14019406f, -0.10728334f, 0.037027769f, -0.045044623f, 0.064439781f, 0.016881451f, -0.10529018f, 0.097103998f, 0.1429413f, 0.12936151f, 0.11811838f, 0.13369222f, -0.11036948f, -0.12127712f, 0.1416416f, 0.0445357f, -0.12847663f, 0.00013586922f, -0.10339621f, -0.11563488f, 0.082289428f, -0.015272465f, 0.13460682f, 0.034528732f, 0.039156921f, 0.052150507f, 0.015524788f, 0.068808287f, -0.13364334f, -0.030635715f, -0.011354285f, 0.089105301f, -0.036762211f, 0.11164522f, 0.024966547f, 0.024805089f, -0.12906297f, -0.014079393f, -0.099684186f, 0.090538613f, 0.0065172887f, 0.099113442f, -0.1302859f, -0.091748469f, -0.13800988f, -0.061666816f, -0.093939304f, -0.039237373f, 0.036567822f, -0.090401903f, -0.032272693f, 0.047808144f, 0.1225341f, -0.11533393f, -0.069936402f, 0.079790495f, 0.12800246f, 0.030887088f, 0.0050571552f, 0.084285699f, -0.087808907f, -0.013327396f, 0.10635021f, -0.1216959f, 0.025218699f, -0.07078176f, -0.0389084f, -0.096829772f, 0.081415445f, -0.04391608f, 0.14019926f, -0.15360361f, 0.11852507f, 0.14480163f, 0.093807653f, -0.060780548f, -0.012564814f, 0.11098269f, -0.14674731f, 0.053539552f, -0.052031875f, -0.034824483f, 0.0073085129f, -0.074761353f, -0.12770975f, -0.11518103f, -0.026539825f, -0.1090714f, 0.024291066f, -0.092791118f, -0.15081039f, -0.075233214f, -0.051646274f, 0.10590357f, 0.099480897f, -0.015653396f, -0.031752761f, 0.15188284f, 0.0048572305f, 0.15651795f, -0.11078905f, 0.13162996f, -0.054009035f, -0.082554825f, -0.053096332f, 0.15137479f, 0.14040674f, -0.027965972f, -0.096414447f, -0.075324081f, -0.07110814f, 0.046148282f, 0.01372711f, 0.085548751f, -0.13890845f, -0.1146509f, 0.030061344f, -0.026580064f, 0.13728784f, -0.072784498f, -0.1402235f, 0.10808479f, -0.11793075f, 0.10757838f, -0.070820659f, 0.128336f, -0.0069524483f, 0.056893975f, 0.020418143f, 0.0025781079f, 0.013828113f, -0.038589906f, -0.128296f, 0.018011957f, -0.052956223f, -0.055499483f, 0.061503336f, -0.15758297f, 0.11799555f, 0.10720469f, 0.033672605f, 0.14193167f, -0.061489839f, 0.11581891f, -0.071820371f, -0.091974467f, 0.083814263f, 0.097654313f, -0.049317881f, -0.1311605f, -0.10070956f, 0.0952546f, -0.11801712f, 0.11519919f, 0.050512306f, 0.074808367f, -0.080471002f, 0.10983521f, 0.041378297f, -0.12613517f, 0.1359091f, -0.057460904f, 0.10487187f, 0.12092557f, 0.063052058f, 0.059826449f, 0.034547564f, 0.11141013f, 0.15051316f, -0.075021572f, 0.0097364541f, -0.05930277f, -0.025315739f, 0.12115448f, 0.11091564f, 0.065623574f, 0.046699006f, -0.069178335f, -0.024079418f, 0.027705783f, 0.015315968f, 0.067335285f, -0.0022552188f, 0.086381875f, -0.12511522f, 0.034299023f, 0.0051035737f, -0.0051312768f, -0.15553163f, -0.14688911f, 0.12268087f, 0.052673183f, -0.046790984f, -0.14938967f, 0.095692292f, -0.056911867f, 0.15037146f, -0.069969662f, -0.058569752f, -0.14192696f, 0.15560365f, 0.0041672857f, 0.055308174f, -0.11326712f, 0.13419791f, -0.12202217f, 0.10452203f, -0.14224625f, 0.099600673f, 0.0038523723f, 0.052579727f, 0.13485618f, -0.080031507f, 0.029859509f, -0.066333763f, 0.026613114f, -0.035320744f, 0.037889604f, -0.15203938f, 0.09165287f, 0.050861973f, -0.050778311f, -0.093765326f, 0.05677364f, -0.084551767f, -0.12258854f, 0.035556529f, 0.079110608f, 0.040132668f, -0.14543581f, 0.11164361f, -0.014480091f, 0.083627947f, -0.04317129f, -0.10955124f, 0.10304005f, -0.13059221f, -0.032472823f, -0.065089777f, -0.036701363f, -0.020817053f, -0.15714374f, 0.055866051f, 0.045506164f, -0.11368017f, 0.055488519f, -0.11552452f, -0.14706795f, -0.061150059f, 0.089573845f, 0.072122522f, 0.13807979f, -0.067190252f, 0.11492684f, -0.11197835f, -0.1196772f, 0.14129148f, 0.084654905f, -0.14676084f, -0.075478338f, -0.023807935f, -0.02675508f, 0.15819722f, -0.0035661643f, -0.11600973f, -0.044951327f, -0.026437962f, -0.11996791f, -0.045472123f, -0.14826113f, -0.097545587f, 0.048511267f, -0.067175075f, -0.13468789f, -0.0018856699f, 0.094291724f, -0.043190666f, -0.12406239f, -0.073560379f, -0.076465167f, 0.15767242f, -0.11801117f, -0.024706796f, 0.07302168f, 0.13838665f, -0.10310009f, 0.087431259f, -0.038628615f, -0.014893983f, -0.046674047f, -0.056668483f, 0.10917576f, -0.10543621f, 0.113414f, -0.097967416f, 0.013747423f, -0.028299775f, 0.10794485f, -0.070804104f, 0.093208954f, 0.096113659f, -0.12854649f, -0.01614487f, -0.042283218f, 0.041703142f, 0.15059876f, 0.083052859f, -0.064985327f, 0.096820772f, -0.15404075f, 0.0095905261f, -0.11221226f, 0.14257021f, 0.13625304f, 0.043174595f, 0.14654082f, -0.12984151f, 0.041289918f, -0.097028881f, 0.14222619f, -0.085126773f, -0.068067379f, -0.019119367f, -0.14323404f, 0.10094441f, 0.12690793f, 0.037271865f, -0.037851959f, -0.03060005f, 0.14745107f, -0.046027616f, 0.14885364f, -0.15075667f, -0.064818896f, -0.04384223f, 0.15446737f, 0.057637561f, -0.003390081f, -0.13485888f, -0.0052577509f, 0.15719688f, 0.14147845f, -0.15204203f, -0.08375755f, 0.10464501f, 0.11332124f, -0.068594515f, 0.09851408f, -0.0018107891f, -0.021880016f, -0.048470903f, 0.14837179f, 0.12946372f, 0.013081908f, -0.069842465f, 0.0047090258f, 0.011304494f, 0.0067970492f, -0.041703746f, 0.078642488f, 0.057223048f, -0.013802824f, -0.083521411f, 0.15707575f, 0.075766623f, 0.0097460188f, -0.041926581f, 0.062452495f, -0.076648176f, 0.049396895f, -0.11302284f, 0.088372707f, -0.040622681f, -0.034304399f, -0.14678483f, -0.15550129f};
static const int net_0_bias_len = 128;
static const float net_0_bias[] = {-0.073538989f, -0.06864389f, -0.051840592f, 0.014860674f, 0.12559316f, -0.085955717f, -0.066823766f, 0.064388439f, -0.035852697f, 0.011349319f, -0.062664352f, 0.088871457f, 0.02870946f, 0.017969757f, 0.11560217f, 0.058377229f, -0.021912869f, 0.14767419f, -0.096026778f, -0.13111742f, 0.13574052f, 0.038745869f, -0.1419753f, 0.065024316f, 0.15754466f, -0.047822807f, -0.01609716f, -0.086246215f, -0.11900765f, 0.12528588f, -0.080464065f, -0.12467273f, 0.13605909f, 0.063000962f, -0.01883276f, 0.018740682f, -0.10197299f, -0.13547027f, 0.14342874f, -0.023304055f, 0.14437234f, 0.043757256f, 0.10663389f, -0.061726138f, -0.060786918f, 0.050114863f, -0.030282011f, -0.089795001f, 0.11845604f, -0.084801398f, -0.01857101f, 0.01384169f, -0.077793963f, -0.11050757f, -0.15587838f, 0.085008569f, 0.12377258f, 0.037680931f, 0.09062814f, 0.10940307f, -0.056661893f, 0.002764002f, -0.050637029f, -0.0088640573f, 0.12567493f, -0.082515858f, 0.079706714f, 0.14171451f, -0.067492612f, 0.071497351f, 0.049698457f, 0.045006707f, -0.06334047f, -0.010220704f, 0.061443347f, 0.070275947f, 0.051376536f, 0.15357941f, -0.098548934f, -0.093443133f, 0.086215325f, 0.041005861f, 0.10495052f, -0.062940799f, 0.08270812f, -0.022294277f, 0.017652279f, -0.091009974f, 0.021764964f, -0.070324846f, -0.012054506f, -0.031359408f, 0.037865121f, 0.13568787f, 0.065674536f, -0.058185246f, 0.015198099f, -0.003154705f, 0.15343133f, -0.053112693f, -0.065154321f, 0.058384005f, 0.10408694f, 0.12135343f, 0.074464582f, 0.11111658f, 0.087969668f, -0.044694588f, -0.12026715f, -0.15822318f, -0.081956148f, 0.097909093f, -0.065269955f, 0.018707065f, 0.038074937f, 0.10419536f, -0.098789886f, -0.14251003f, -0.044123661f, -0.12640755f, 0.04177127f, 0.047470532f, -0.029075578f, -0.10613173f, -0.072448023f, 0.14927459f, 0.0013902237f, -0.13642372f};
static const int net_2_weight_len = 16384;
static const float net_2_weight[] = {0.04822287f, -0.070846222f, 0.050070405f, -0.071154751f, -0.082503989f, 0.027309323f, 0.03449326f, -0.070411146f, -0.019677216f, -0.070666142f, -0.0345762f, 0.059546087f, 0.082498349f, 0.045409061f, 0.019439347f, 0.037524458f, -0.036980283f, 0.036786307f, 0.020429153f, -0.065596752f, -0.038588662f, 0.059384208f, -0.07363838f, -0.072330609f, 0.07623817f, -0.0048986194f, 0.084328316f, -0.042782839f, 0.018417129f, 0.056585636f, 0.0071370653f, -0.031054281f, 0.087818272f, 0.0069851228f, -0.034366131f, -0.027663156f, -0.05166192f, -0.060365196f, -0.069639467f, -0.00090202957f, 0.074600391f, -0.038401291f, 0.064951278f, 0.051129684f, 0.027074412f, 0.035423435f, -0.051746882f, 0.030713651f, -0.030118475f, -0.083330624f, -0.02393819f, -0.01645829f, -0.004698162f, 0.036369536f, -0.041117534f, 0.080458641f, 0.030377656f, -0.0058353078f, 0.071810678f, 0.067214824f, -0.08423201f, -0.020034092f, -0.082642317f, 0.023390308f, 0.033499278f, -0.070870817f, -0.013255087f, -0.08768829f, -0.00012233782f, -0.06001037f, -0.025081785f, -0.047531758f, 0.04662054f, -0.0039004034f, 0.074016631f, -0.040587202f, 0.051852345f, -0.048621457f, -0.0096788621f, 0.039674364f, 0.07727623f, -0.066130392f, -0.077837847f, -0.087847158f, 0.044119153f, -0.010418962f, -0.086854227f, -0.058491826f, 0.085776411f, 0.016664986f, 0.023878817f, -0.0053657386f, -0.011323615f, 0.08654546f, -0.076345757f, 0.044730503f, 0.059860434f, 0.024585279f, -0.069150396f, -0.041107211f, 0.048516612f, 0.049019936f, -0.018735953f, 0.079359293f, -0.080485173f, -0.057386216f, 0.083146423f, 0.07996317f, -0.062017851f, 0.043985307f, -0.0010682645f, -0.0710577f, 0.059992831f, 0.03159951f, -0.043448195f, -0.021997016f, -0.029920982f, -0.015018971f, -0.0090671582f, -0.065039925f, -0.058031298f, -0.0095799193f, 0.058550905f, 0.030694285f, -0.0027769443f, 0.075651705f, 0.0066117062f, 0.041113477f, 0.025536362f, -0.068819724f, 0.075077407f, 0.087905884f, -0.046890117f, 0.01172566f, 0.026867626f, 0.027634013f, 0.016353594f, -0.019732673f, -0.070326447f, 0.076846205f, -0.040245432f, -0.0090901246f, 0.0304983f, 0.069098398f, -0.0007802443f, -0.027197303f, 0.067721352f, 0.013861069f, 0.052916419f, -0.080593966f, 0.072953798f, -0.065470606f, -0.072921127f, 0.0031812408f, 0.0083979983f, -0.021987669f, 0.035050966f, 0.075036146f, -0.046273064f, -0.08210896f, 0.042015754f, 0.013535762f, -0.0063207438f, 0.018971898f, 0.016909488f, 0.032818299f, -0.024745302f, -0.002252189f, -0.046820465f, 0.029998185f, 0.042903557f, -0.039662253f, -0.048948877f, 0.085351482f, 0.073289886f, 0.075111799f, -0.0042993207f, -0.0031316273f, 0.053182319f, -0.060393799f, 0.059485354f, -0.046623208f, -0.0030312871f, 0.049906585f, 0.087976731f, -0.031896573f, -0.026331428f, -0.0066379267f, -0.052110042f, -0.036274873f, -0.030425889f, -0.068848692f, 0.030677967f, -0.011218183f, 0.067432389f, -0.05441957f, 0.026843673f, 0.0012064575f, 0.0088949902f, 0.035636619f, -0.044065014f, -0.07333114f, -0.0027728509f, 0.031347953f, 0.019573554f, 0.0015071655f, 0.017096436f, 0.031253237f, 0.069607534f, -0.019901516f, 0.019356873f, 0.02967323f, -0.028101657f, 0.025653243f, -0.035626017f, 0.063189112f, 0.0068738908f, -0.040932901f, -0.082004778f, 0.084343538f, -0.027059443f, 0.064776361f, 0.058403764f, -0.012185085f, -0.0040192809f, -0.069096379f, -0.079682983f, 0.0092209568f, 0.066277921f, -0.080659278f, -0.062704712f, 0.0030103563f, 0.045542881f, 0.039195672f, -0.010454179f, -0.029448373f, 0.018290194f, 0.078878902f, 0.050489016f, -0.031900361f, -0.055792626f, 0.019330284f, 0.0016806372f, 0.0074499832f, 0.024710143f, 0.039472751f, -0.071495727f, 0.074711844f, 0.0082155494f, -0.050800126f, -0.045921214f, -0.049890611f, -0.0014068441f, -0.04511996f, 0.04410686f, 0.0039412384f, 0.061456807f, -0.04070121f, -0.022884214f, 0.038827997f, -0.060982794f, -0.05257896f, -0.043614749f, -0.058434434f, 0.057246972f, 0.028443716f, 0.036109067f, 0.004295582f, 0.03660218f, -0.061124917f, 0.077080078f, -0.039655358f, -0.049635012f, -0.080670193f, 0.051245853f, -0.01782015f, -0.065056175f, 0.018727265f, -0.078082807f, 0.087172247f, -0.061188441f, -0.062162235f, 0.021247059f, -0.031698477f, 0.064960465f, -0.00011421432f, 0.050308459f, 0.08759699f, 0.064152114f, 0.011836758f, -0.014158823f, -0.063146785f, 0.04668577f, -0.008737579f, -0.054749839f, -0.024058424f, 0.05287192f, -0.0074581881f, 0.0024647291f, 0.067729704f, -0.032809995f, -0.084088542f, 0.0068727029f, -0.085679345f, 0.027587138f, -0.086659357f, 0.057520397f, -0.071678594f, -0.057851691f, -0.010321714f, 0.076107018f, -0.074549094f, 0.076828882f, 0.026837947f, -0.015353495f, 0.083787255f, 0.0055783279f, -0.019470967f, 0.019646974f, 0.04660891f, 0.005093053f, -0.041448217f, 0.016674992f, -0.02513998f, -0.060118917f, -0.081852064f, -0.084187239f, -0.036061391f, -0.074183203f, 0.035003133f, 0.040520929f, 0.032342754f, -0.029072369f, 0.07438238f, -0.0022396296f, 0.011882126f, -0.040992707f, -0.024098106f, 0.055116765f, 0.028625386f, 0.055113323f, -0.055366628f, -0.036940269f, 0.030657733f, -0.060577124f, 0.083562493f, 0.044687476f, -0.056505628f, -0.07261686f, -0.0038292829f, -0.011168632f, 0.0055130869f, -0.0030175149f, 0.008007355f, -0.08783441f, 0.022837713f, 0.063752413f, -0.047885284f, -0.017660003f, 0.06352856f, -0.082735024f, -0.072602309f, -0.053126462f, -0.053278126f, 0.028685249f, 0.028167427f, 0.011667724f, 0.00080020644f, 0.033266887f, -0.043383535f, -0.030277083f, 0.0088291541f, 0.0048676059f, 0.0002511183f, 0.050962921f, -0.041385002f, 0.078327447f, -0.074274153f, -0.022245737f, -0.085067548f, -0.0081509352f, -0.049649481f, -0.022788331f, -0.028589576f, 0.075756118f, -0.043822318f, 0.085292757f, -0.034496453f, -0.024296841f, -0.0099718487f, 0.073104732f, 0.059521995f, 0.0067463065f, 0.0726014f, -0.0094938949f, 0.077268079f, -0.068628699f, 0.039596975f, 0.022627039f, 0.044853006f, -0.0070093903f, -0.087086692f, 0.054373853f, -0.054795891f, -0.072324984f, -0.0010982987f, 0.0098189814f, -0.052565955f, 0.067035258f, -0.064327426f, -0.00040883251f, -0.055696815f, -0.046453323f, -0.041023448f, -0.064197265f, 0.0620148f, -0.063818485f, 0.088076539f, 0.038526285f, 0.023889353f, -0.0037027651f, -0.06304007f, 0.013698312f, -0.073560908f, 0.0099579217f, -0.019619495f, 0.020963827f, 0.055693794f, -0.066939659f, -0.04602053f, 0.0093754502f, -0.082403027f, 0.062471326f, -0.079597011f, 0.085179269f, 0.083196513f, -0.038958631f, 0.06780415f, -0.032565836f, 0.020737378f, -0.013928891f, 0.019100821f, 0.072486199f, -0.059215911f, -0.075724959f, 0.022085115f, 0.02935978f, 0.036376975f, -0.068376884f, 0.074698411f, -0.040412404f, -0.069328904f, -0.083573848f, 0.057116352f, -0.0023478721f, -0.01380682f, -0.030444533f, -0.08181946f, -0.016849374f, 0.03547639f, 0.078503586f, -0.031067953f, -0.03861488f, -0.074295536f, 0.021695983f, 0.031368013f, -0.051099651f, -0.056206748f, 0.05770357f, -0.066734686f, -0.062715344f, 0.080666728f, 0.014964513f, 0.080541864f, -0.05727281f, 0.03865163f, 0.02304437f, 0.010009493f, -0.045001864f, 0.057710245f, -0.037293285f, -0.079079792f, 0.086467177f, 0.021980358f, 0.029381009f, -0.068452887f, 0.056249559f, -0.0038074285f, -0.087446131f, 0.067152478f, 0.053782042f, -0.055957343f, -0.004136133f, -0.044542935f, 0.010601285f, -0.054001585f, -0.039896499f, -0.042587534f, 0.084217571f, -0.088450447f, -0.082765609f, -0.022366829f, -0.082173109f, -0.024124684f, 0.085799463f, 0.040253472f, -0.0097313337f, 0.028016189f, -0.062661126f, -0.074684046f, -0.013600801f, -0.053942204f, 0.077106237f, 0.066807732f, 0.039442636f, -0.0026002696f, 0.085105352f, 0.077742353f, 0.028658498f, -0.057563625f, -0.013313711f, -0.012337402f, 0.081109203f, -0.037158482f, -0.059109926f, 0.041633017f, 0.027214039f, 0.058388978f, -0.016261419f, 0.078902461f, 0.039104003f, -0.080872685f, 0.048216984f, -0.04934863f, 0.064418897f, -0.043203045f, 0.027944552f, 0.00076024479f, 0.040214892f, 0.081694573f, 0.067613147f, -0.01083631f, -0.022632068f, 0.061429624f, 0.081739746f, 0.081699364f, -0.017552879f, -0.024817878f, -0.0035363608f, 0.048465449f, 0.00796472f, 0.020251803f, -0.044941586f, -0.0049816845f, 0.027150856f, 0.046221443f, 0.024526451f, -0.08208143f, -0.029703969f, -0.073689066f, 0.078499518f, 0.031232504f, 0.0098976372f, -0.045677733f, 0.071512796f, 0.076740943f, 0.046006978f, 0.0054139369f, 0.046788365f, 0.047197752f, -0.0090216305f, -0.062414411f, -0.064424418f, -0.032190319f, -0.0215399f, 0.054519318f, 0.018063771f, 0.051128056f, -0.014670826f, -0.055866312f, -0.030788803f, -0.02867166f, 0.0058386168f, -0.038571537f, -0.03902835f, 0.01234166f, 0.087230287f, -0.073343769f, -0.020392822f, 0.082579978f, 0.071434334f, -0.065775804f, -0.075352751f, 0.065810107f, -0.013581739f, 0.07723432f, -0.060242426f, 0.07581149f, 0.070162468f, -0.037179112f, -0.077747121f, 0.0653418f, 0.07128004f, -0.021106018f, 0.048517711f, -0.044674728f, 0.0353336f, -0.0366625f, 0.020892058f, -0.051751025f, 0.021847496f, -0.051092528f, 0.066560693f, 0.061219428f, 0.011144845f, 0.051493954f, -0.0041276743f, -0.0055117561f, -0.022367403f, 0.088567413f, 0.00044320413f, -0.072997764f, 0.04217837f, -0.029758038f, 0.04244775f, -0.064882599f, -0.047153596f, 0.013282268f, -0.071229599f, -0.037155975f, 0.071000129f, -0.0079763448f, -0.040851016f, -0.037829082f, -0.069589615f, -0.042780757f, -0.061987985f, 0.0048276964f, 0.0083926823f, -0.031003205f, 0.076239452f, -0.088311471f, -0.060559306f, 0.046560675f, 0.040592674f, 0.087975077f, 0.040360145f, 0.00028181815f, -0.070513375f, -0.085941814f, 0.004036434f, -0.052678283f, -0.072964914f, -0.054245498f, -0.061206371f, -0.064522341f, 0.014698091f, 0.080560915f, 0.083481386f, -0.056930903f, 0.039474901f, 0.054824073f, -0.07782504f, -0.018911032f, 0.032796513f, -0.074703805f, -0.020118266f, -0.0206933f, 0.044110794f, 0.032632988f, -0.058069438f, -0.065575138f, -0.079220466f, 0.020267298f, -0.032890223f, 0.036044754f, -0.015896726f, -0.018814266f, -0.00790173f, -0.0071136779f, -0.018785538f, 0.06243572f, -0.063130006f, 0.066534616f, 0.047466941f, 0.059282977f, 0.054540623f, 0.047685139f, -0.0028287859f, -0.061227955f, -0.020961059f, 0.035622656f, -0.062928788f, -0.074966341f, 0.024987102f, 0.058793232f, 0.031710744f, -0.067794196f, 0.078300864f, 0.043370415f, -0.017417848f, -0.038998008f, -0.030112924f, -0.057972178f, 0.082255825f, 0.0078682778f, -0.048165683f, 0.087057941f, -0.085508101f, -0.045333847f, 0.02195875f, 0.072224885f, 0.047670342f, -0.073137552f, 0.032349862f, 0.056483004f, 0.039476603f, 0.081172548f, 0.018460892f, 0.030027136f, -0.06457369f, -0.05469859f, -0.06388291f, 0.050224956f, 0.020184325f, 0.013969711f, -0.067911543f, 0.061059356f, 0.057680897f, -0.0010140134f, -0.085257649f, -0.065584116f, -0.037011329f, 0.068503216f, -0.049632933f, -0.042666256f, 0.067654438f, 6.5321707e-05f, 0.037924539f, -0.045743395f, 0.0052439459f, -0.027354054f, 0.078884311f, -0.055602182f, -0.042747259f, -0.046567261f, -0.051291522f, -0.010733203f, 0.038427666f, 0.041821036f, 0.025486752f, 0.069605738f, 0.016528033f, 0.011799312f, -0.058692947f, 0.084598616f, 0.0044443076f, 0.042931736f, 0.081895582f, 0.063134007f, 0.040486678f, 0.032771535f, -0.035369817f, 0.085571595f, -0.030048981f, 0.078954555f, -0.041314233f, 0.020999899f, -0.013545157f, -0.012823969f, -0.064289086f, 0.081120193f, 0.053956073f, 0.043355957f, 0.076240033f, 0.020248471f, -0.00074762607f, 0.014313977f, 0.054493841f, -0.069466643f, 0.0087318141f, 0.0096328557f, 0.012736563f, 0.050766736f, 0.020375736f, 0.087404549f, -0.041019801f, 0.0055973949f, 0.01734199f, 0.0046980353f, 0.02843306f, -0.034124788f, 0.069631994f, 0.068276145f, 0.059886854f, 0.0068802666f, 0.045855995f, 0.080666929f, -0.028669991f, -0.060640473f, 0.085638031f, -0.052729759f, -0.048950437f, 0.080887981f, -0.035771921f, -0.0098651592f, 0.010648f, -0.059277538f, 0.059055019f, 0.059159137f, 0.025626883f, 0.086805366f, -0.0068976739f, -0.018325374f, -0.086627163f, 0.082467943f, 0.058356859f, 0.026519928f, -0.018613167f, -0.087928362f, -0.063724853f, 0.066688254f, -0.023504289f, 0.067792296f, -0.013870704f, -0.018293563f, -0.021016171f, 0.0088047069f, 0.079429612f, 0.077184997f, -0.016756527f, -0.038883135f, -0.035695203f, 0.02588499f, -0.033237576f, -0.075783983f, -0.020398209f, 0.081849381f, 0.026572863f, 0.0078502726f, 0.016812503f, 0.067967288f, 0.013542891f, -0.017375236f, -0.012926673f, 0.043518759f, 0.00043624037f, -0.081698708f, -0.047102679f, 0.076709263f, 0.030422937f, -0.023394978f, -0.00047662453f, 0.036092654f, -0.028048776f, -0.022162477f, 0.076798864f, 0.054673616f, 0.054786831f, 0.084804714f, -0.036203556f, -0.079951011f, 0.076827243f, -0.071122758f, -0.0079938751f, 0.033938807f, -0.087269939f, -0.075021297f, -0.076064132f, 0.069371872f, 0.074808575f, 0.023082301f, -0.041305885f, -0.042995345f, -0.081219658f, 0.031507812f, 0.041481197f, 0.086683787f, -0.014849119f, -0.061529662f, 0.015849827f, -0.079592668f, 0.066688746f, -0.041541852f, -0.034853917f, 0.012411227f, 0.015890991f, 0.087436579f, 0.043128163f, -0.0713761f, -0.024390161f, 0.049085524f, 0.057684526f, -0.057909705f, -0.0384093f, -0.083397783f, -0.031956229f, 0.010251425f, 0.039135247f, -0.050512545f, -0.040280279f, 0.036785964f, -0.014441779f, -0.044723473f, -0.048638161f, 0.01079579f, 0.080415852f, 0.011410162f, -0.071656652f, 0.040911671f, -0.055327404f, 0.055575665f, 0.0081216348f, -0.002544157f, 0.011165073f, 0.070116848f, 0.0083093541f, -0.02912882f, -0.0017656505f, -0.053250071f, 0.046614297f, 0.016197307f, 0.053121995f, 0.055127904f, -0.036337465f, -0.028628493f, 0.069906361f, 0.056049708f, 0.053046975f, 0.086809315f, 0.026607599f, 0.064359419f, -0.07627707f, -0.079727679f, 0.063411348f, -0.062857896f, 0.01954465f, 0.062361311f, 0.030585898f, 0.026180562f, 0.054806922f, 0.0076992856f, -0.04184024f, -0.084810652f, -0.018690642f, -0.018358836f, 0.044400938f, -0.069406576f, 0.084560134f, 0.07498578f, -0.01016851f, -0.061544806f, -0.03201355f, 0.063028932f, 0.075818568f, 0.0096611157f, -0.073825084f, 0.01845826f, -0.0017974281f, -0.082261898f, 0.064602815f, -0.020415664f, 0.036380973f, -0.025234085f, 0.019484371f, -0.031312313f, 0.008908771f, -0.045588121f, 0.058293603f, -0.026747776f, 0.068071418f, 0.075231835f, -0.042069752f, -0.044857487f, 0.019516556f, -0.047000602f, -0.044058204f, -0.071748979f, 0.052135631f, -0.018027646f, 0.026051255f, 0.011438813f, -0.075636342f, -0.026444858f, -0.067519449f, 0.032142211f, 0.057631843f, -0.021243263f, 0.00048171723f, -0.023684818f, 0.025577905f, 0.015128147f, 0.069143452f, 0.0057589454f, -0.035006862f, -0.033739679f, 0.012761943f, -0.056397103f, 0.056876164f, 0.00098727446f, 0.056672748f, 0.01907385f, -0.035505697f, -0.0016729148f, -0.02800763f, 0.023676813f, 0.04726924f, -0.0066745523f, -0.0043031583f, -0.061046425f, 0.038749587f, -0.010068948f, 0.047657002f, -0.060173217f, 0.0120176f, 0.068848506f, 0.084469467f, 9.354639e-05f, -0.03288224f, -0.044372618f, 0.05823449f, -0.080575854f, -0.074437484f, 0.022865754f, -0.076932944f, -0.085927799f, 0.049855299f, 0.032892879f, -0.019578926f, 0.050728835f, 0.075171165f, -0.036071483f, 0.0045991321f, -0.024110911f, 0.081983723f, 0.022953056f, -0.036739338f, 0.071314707f, -0.026530033f, 0.055489391f, 0.041720953f, -0.013977848f, -0.0025084855f, 0.067257077f, -0.032112405f, -0.023109481f, 0.066172011f, 0.01816972f, -0.042505659f, -0.049144898f, 0.081782311f, -0.052595593f, 0.062650137f, 0.063487433f, -0.04111119f, 0.051760502f, 0.055641331f, 0.067538679f, -0.080344111f, 0.036367785f, -0.033594679f, -0.036985114f, -0.046495337f, 0.054160155f, -0.081599079f, 0.011435566f, -0.045602478f, 0.042175021f, 0.054899711f, 0.069995224f, 0.079103157f, 0.050936852f, 0.083052494f, -0.036226809f, -0.00039390448f, -0.020457791f, -0.010739264f, 0.057434723f, -0.073509105f, -0.076454908f, -0.075830594f, 0.069970697f, -0.085495114f, -0.061041433f, 0.052578829f, 0.055715326f, -0.056711402f, 0.043777186f, 0.066173322f, 0.060554653f, 0.056429166f, 0.067568764f, 0.066467792f, 0.015444972f, -0.061124101f, -0.063563474f, 0.019589938f, 0.080981873f, -0.033560675f, -0.086784072f, 0.068921499f, 0.0060934727f, -0.04926867f, 0.063041627f, 0.069771625f, -0.06032626f, -0.050966982f, -0.018080134f, -0.016531179f, 0.082772337f, 0.032608941f, 0.083749481f, -0.08052855f, -0.077367693f, -0.029305767f, -0.0087942658f, 0.020225594f, 0.012507804f, 0.022809269f, 0.064430252f, -0.061419487f, 0.043994449f, 0.052834302f, -0.056519609f, 0.063302875f, -0.043593686f, -0.058248036f, 0.063374527f, 0.048460014f, -0.00027585385f, 0.023437161f, -0.020041378f, -0.06663283f, 0.041226368f, 0.050977554f, -0.030838307f, 0.039537441f, 0.040166061f, 0.076049358f, 0.037176613f, -0.037332166f, -0.0030270866f, 0.024649203f, 0.0028074034f, -0.06093511f, -0.014328002f, -0.033615135f, -0.034135997f, -0.00067332265f, -0.036247615f, 0.061011236f, 0.063127279f, -0.067673214f, 0.037261616f, -0.076595463f, -0.082729891f, -0.067850232f, 0.018724944f, 0.076918907f, 0.050146423f, 0.029242704f, 0.043787979f, -0.051478524f, -0.038577192f, 0.081915773f, 0.0072069843f, -0.065030433f, 0.05409804f, -0.064903788f, 0.066420771f, 0.04604711f, -0.021035753f, 0.082474515f, 0.040574774f, -0.052952826f, -0.042147215f, -0.050834525f, 0.031788308f, 0.022266606f, 0.081394739f, -0.084288463f, 0.039718214f, -0.011185267f, 0.025745705f, -0.078790762f, -0.0019005866f, -0.0072553577f, -0.049180191f, -0.011242093f, -0.073824622f, 0.077875331f, 0.060808845f, -0.015584557f, 0.06029224f, -0.053162336f, -0.047768176f, -0.048016261f, 0.07650926f, -0.032152157f, 0.017268339f, 0.055116951f, -0.01629141f, 0.063750409f, 0.035911426f, -0.031574011f, -0.057566989f, -0.078880303f, 0.033178698f, 0.079316013f, -0.036709283f, 0.06021031f, 0.049114846f, 0.038549017f, -0.03185055f, -0.059248172f, 0.023325622f, -0.039630082f, -0.087090291f, -0.014516243f, -0.083006829f, 0.018404286f, 0.077626936f, 0.084581606f, -0.08263211f, -0.0048950091f, -0.055541519f, 0.030843694f, -0.021204926f, 0.030097656f, 0.08106003f, -0.071777582f, 0.080251209f, -0.085660562f, 0.036597718f, -0.039477102f, 0.062627256f, -0.04219659f, -0.026993044f, -0.083187036f, 0.034480277f, 0.04241287f, 0.01925558f, -0.033824775f, -0.023522491f, -0.02619319f, -0.038809765f, -0.050235402f, 0.045178413f, 0.047727667f, 0.062265702f, -0.053682968f, 0.013541372f, 0.026729699f, 0.0033320352f, -0.058972977f, -0.0068799686f, -0.086803682f, 0.021958653f, -0.011085898f, -0.00054755918f, 0.017715648f, 0.037346236f, -0.055581372f, -0.057122316f, 0.0021130219f, -0.037384748f, -0.073482521f, 0.024387093f, 0.043802075f, -0.00031410286f, 0.035847779f, 0.037357919f, 0.05146078f, 0.041715894f, 0.056829259f, -0.0054924283f, 0.041290991f, -0.0095490143f, -0.057392575f, -0.080038533f, -0.00028346293f, 0.087844357f, -0.055213846f, -0.078167237f, 9.4829884e-05f, 0.019260745f, 0.067232907f, 0.039619252f, -0.0042614141f, -0.039423805f, -0.076443173f, -0.0012793563f, 8.0477308e-05f, 0.078229994f, 0.011840842f, -0.072300158f, 0.083625466f, 0.060585693f, 0.0094689094f, 0.032907002f, 0.073990621f, 0.086371213f, 0.045709103f, 0.02019248f, 0.03373301f, -0.029970812f, 0.0094228284f, 0.040972732f, -0.078034639f, -0.039259262f, -0.061227873f, -0.016852383f, -0.084339626f, -0.038114939f, -0.018042682f, -0.010691741f, 0.061805606f, 0.07935138f, 0.029802289f, 0.028447736f, 0.067721605f, -0.07805308f, -0.076834477f, -0.087360986f, -0.05400278f, 0.034228019f, 0.047130737f, 0.050298162f, -0.01719337f, 0.035860199f, 0.079382531f, 0.0051336153f, -0.030524546f, -0.049734712f, 0.037047256f, 0.07294488f, -0.030506715f, 0.023058724f, -0.045057666f, -0.017714623f, -0.017216921f, 0.051485401f, 0.064558648f, -0.020887071f, 0.058507677f, 0.066840529f, 0.0311739f, 0.04556872f, 0.050672796f, -0.021683551f, 0.018559372f, -0.034470689f, 0.01225093f, -0.060198791f, -0.019203961f, -0.047259174f, 0.037513565f, -0.025227485f, -0.045146678f, -0.052569892f, 0.024042537f, 0.00049769279f, -0.057924766f, 0.060721669f, -0.0072902711f, -0.033941168f, -0.07447347f, -0.054327376f, -0.041530304f, -0.017775523f, -0.0014622353f, 0.015175151f, -0.030124927f, 0.00089043309f, -0.02542636f, 0.04678148f, 0.069559276f, -0.087486088f, -0.0040924931f, 0.037167571f, 0.06985727f, -0.036370493f, -0.057199556f, -0.050817117f, 0.083141692f, -0.041539479f, -0.044716779f, 0.021753768f, 0.03217309f, -0.029678946f, -0.018083969f, 0.032464985f, -0.0019675195f, -0.015785556f, 0.029292354f, -0.068773985f, 0.048036352f, 0.064367369f, 0.056852587f, -0.0084643355f, 0.022304675f, 0.063447028f, -0.068119876f, 0.037097845f, 0.060545679f, 0.051731385f, 0.042253494f, 0.058665901f, -0.0082522929f, -0.059581287f, 0.014115314f, -0.0033050154f, -0.015931886f, 0.087374292f, -0.082958125f, -0.043990906f, 0.078821197f, -0.0069686291f, 0.074326932f, -0.015241609f, -0.04751765f, -0.063336231f, -0.019203538f, 0.057019535f, -0.028806832f, 0.022201668f, -0.0046084477f, -0.031327434f, -0.075877771f, 0.060227871f, 0.025012732f, 0.059990328f, 0.06917201f, -0.067147739f, 0.033781376f, 0.072181605f, 0.038250457f, -0.0075509562f, 0.048481263f, -0.025300786f, 0.055596482f, -0.00013051015f, -0.005119585f, -0.075156376f, 0.021468299f, -0.029126924f, 0.03513062f, -0.076399572f, 0.049285412f, 0.045964204f, -0.079548411f, -0.035150934f, 0.040889509f, -0.04339515f, 0.061170153f, -0.016225949f, 0.037497807f, -0.014884549f, -0.057136841f, -0.036040489f, 0.015324279f, -0.0082700495f, 0.004354184f, -0.031519249f, 0.032001548f, 0.056858949f, 0.0052218228f, 0.0015739842f, -0.087298907f, -0.052864403f, 0.0058185332f, 0.076369323f, 0.08120288f, -0.043364294f, 0.048968833f, 0.025630971f, -0.067698307f, 0.011591101f, -0.045723647f, 0.010553862f, 0.076431297f, -0.051845957f, 0.055433556f, -0.022053698f, -0.065460168f, 0.08753708f, 0.080262072f, 0.064163111f, 0.044163924f, -0.056619428f, 0.02707829f, 0.057532344f, 0.031878114f, 0.072361112f, -0.068292908f, -0.069361284f, 0.020727396f, 0.048066799f, 0.031924717f, 0.065968439f, -0.045529965f, -0.084634207f, 0.06386248f, 0.057413328f, 0.061596148f, -0.042090323f, 0.057398088f, -0.025730334f, -0.081276305f, -0.034907609f, 0.022042176f, -0.060046535f, -0.039759535f, -0.076315105f, -0.046212662f, 0.075765938f, -0.021379406f, 0.0075902119f, -0.062751755f, -0.074965134f, -0.041306902f, 0.026019033f, 0.047662135f, -0.084423564f, -0.011990237f, 0.035029657f, 0.081669033f, 0.086359262f, -0.074025631f, 0.067600675f, 0.039166037f, 0.065111846f, 0.037795786f, -0.035062823f, 0.086969301f, -0.02606006f, -0.029975876f, -0.036159623f, 0.0042972616f, 0.023893686f, 0.018580412f, -0.067091756f, 0.062171649f, -0.072555259f, -0.065817326f, -0.055289954f, 0.070402116f, -0.072074182f, 0.037872262f, -0.070966579f, 0.021601334f, -0.0051196069f, 0.081169344f, 0.031818818f, 0.088101789f, 0.051514838f, 0.0017289427f, -0.0049014757f, 0.031973142f, 0.035662722f, 0.086862162f, 0.00049468165f, -0.076566845f, 0.0055357222f, 0.030583024f, 0.018167529f, 0.044719979f, 0.027543109f, -0.025025791f, -0.076095119f, 0.040156037f, -0.03370703f, 0.053623307f, -0.063045703f, 0.078536421f, -0.048735935f, 0.086248904f, -0.01771694f, 0.040273063f, -0.0049902834f, 0.030680353f, 0.038222965f, 0.027718633f, -0.030264854f, 0.070624307f, -0.035617899f, 0.07322491f, -0.06267453f, -0.059667956f, 0.073094092f, 0.080527276f, 0.019529533f, 0.069937229f, -0.03495555f, 0.0054071755f, -0.0038800195f, -0.012751324f, 0.023778947f, -0.055700369f, -0.02385742f, 0.044268418f, -0.020052476f, -0.056263205f, -0.088108659f, -0.081971057f, 0.071397021f, 0.0097965561f, 0.023502689f, 0.033906668f, -0.028076733f, -0.042217623f, -0.059190933f, 0.059248719f, 0.052959483f, -0.043105837f, 0.079679295f, 0.042215083f, -0.036141604f, -0.088353045f, 0.064285934f, 0.020744422f, -0.026578844f, 0.04566833f, 0.013885013f, -0.053130463f, -0.0010223505f, 0.0095426701f, 0.012838979f, 0.044171426f, -0.08120627f, -0.0029254081f, -0.025773264f, 0.070627563f, 0.07998684f, -0.016447214f, 0.024017297f, 0.028137226f, -0.076323658f, 0.050559301f, -0.062727451f, -0.080435224f, 0.087884165f, -0.057142101f, 0.0310225f, -0.05454864f, 0.076254733f, 0.0069323783f, 0.023170397f, -0.062486235f, 0.060751315f, -0.04679409f, -0.067218848f, 0.02418397f, -0.049165837f, -0.053204373f, 0.056082908f, 0.031844661f, -0.083612308f, -0.027201144f, 0.029772252f, 0.030458732f, 0.036577467f, -0.06443347f, 0.082849547f, 0.047022749f, -0.04438309f, -0.054661684f, -0.078938082f, -0.085331999f, -0.033959754f, -0.086170211f, 0.032993447f, 0.05216711f, -0.0044921786f, -0.060064625f, -0.075418398f, -0.049145818f, 0.013494551f, -0.076435827f, -0.080050811f, 0.062048621f, -0.0094403531f, -0.070638865f, -0.0023753366f, 0.05158937f, 0.055180617f, -0.044303965f, -0.057203621f, -0.079376884f, 0.0085288966f, -0.01495825f, -0.046708558f, -0.0092725037f, 0.041831333f, -0.022544516f, 0.016822927f, 0.078170739f, 0.063222043f, 0.034840502f, 0.027178917f, -0.021213291f, 0.046002403f, -0.015508598f, -0.052432828f, -0.047404997f, 0.017310144f, -0.060202464f, -0.033739861f, -0.03906472f, 0.067025058f, 0.021104166f, 0.066287056f, 0.014851885f, 0.022440627f, -0.0047545331f, -0.019909644f, -0.017237781f, -0.068403669f, 0.056966342f, -0.0766031f, -0.0070838472f, 0.018286593f, -0.077779755f, -0.072440006f, -0.031428207f, 0.062295072f, 0.050932199f, -0.0094582029f, -0.053707466f, -0.06555561f, 0.082975209f, -0.0019760171f, 0.011946663f, -0.0023532782f, -0.038281191f, -0.015759189f, -0.0060361102f, 0.0055920426f, -0.020392248f, 0.030514767f, -0.025829662f, 0.078912139f, 0.076951928f, 0.063142918f, -0.079135545f, 0.076496564f, -0.047753219f, -0.061894286f, -0.04272747f, 0.016533338f, -0.033284463f, -0.041000936f, -0.075562313f, 0.017651923f, 0.010172503f, -0.074864186f, 0.042454511f, 0.04551236f, 0.067975946f, 0.0047914889f, -0.050989732f, -0.022373062f, 0.061461411f, 0.013333609f, -0.088175543f, 0.070517316f, 0.027606513f, 0.042561982f, 0.017613169f, -0.011684586f, 0.075470962f, 0.0026165831f, 