/* Generated MLP weights for snake OJ inference. */
#define MLP_INPUT_DIM 40
static const int net_0_weight_len = 5120;
static const float net_0_weight[] = {0.15131739f, 0.011583773f, -5.6595123e-05f, -0.086968109f, 0.036453411f, -0.14696392f, -0.077157639f, -0.0096865911f, 0.015184548f, -0.075691544f, -0.037328068f, 0.1458783f, 0.0077695507f, 0.027104065f, 0.12322991f, 0.12304068f, 0.046201892f, 0.0098253153f, 0.021223556f, 0.10029884f, -0.12744261f, -0.074405119f, 0.06549143f, -0.1277173f, -0.036326487f, 0.13290231f, 0.15308279f, 0.08955761f, 0.0034370204f, -0.081968904f, -0.12558629f, 0.053980399f, 0.083740205f, 0.13156408f, 0.031549055f, -0.12103767f, -0.04139236f, -0.12240294f, 0.10535079f, 0.044364613f, -0.1113544f, -0.095545359f, -0.0081080496f, -0.054696046f, 0.041345909f, 0.012888685f, -0.14177404f, -0.15436819f, -0.10624873f, -0.11121909f, -0.10328152f, -0.025351048f, 0.1097144f, 0.073323622f, 0.067420989f, -0.12263232f, -0.12734643f, -0.13365769f, 0.062220857f, 0.11734651f, -0.11997147f, 0.082555175f, -0.11478914f, 0.033312097f, -0.1378476f, 0.10019912f, -0.041139744f, -0.019646525f, -0.035008304f, -0.097661927f, -0.062758125f, -0.049468324f, -0.050213501f, 0.033505306f, 0.062309831f, 0.063101023f, -0.041723773f, -0.10317167f, 0.10352452f, 0.044804022f, 0.014853536f, -0.0033405148f, 0.052441526f, -0.11254004f, 0.041454554f, 0.038035035f, -0.039705947f, -0.083678901f, 0.075792126f, -0.0084322412f, 0.12118631f, -0.015065318f, 0.010702766f, 0.014688858f, -0.1009372f, 0.14860825f, -0.14634033f, 0.14340822f, 0.028791049f, -0.10635862f, 0.09965241f, -0.075969025f, 0.12792228f, -0.12562267f, -0.12340786f, 0.12902905f, 0.071738847f, 0.11947567f, 0.048800651f, -0.074045181f, 0.13633975f, 0.1399285f, 0.12592046f, -0.10832229f, 0.15509687f, -0.1430409f, 0.035709895f, 0.052676078f, -0.0086046821f, -0.026565675f, 0.077968091f, -0.045468103f, -0.059674036f, -0.033611856f, 0.065716833f, -0.10928153f, -0.085501425f, -0.13124098f, -0.12710841f, 0.073533379f, -0.11026495f, -0.064105354f, 0.018546171f, 0.12471579f, 0.090761781f, -0.00057360058f, -0.026429173f, -0.084262542f, 0.050275166f, 0.11044514f, -0.15162064f, -0.12107749f, 0.037853524f, -0.13750352f, -0.053494237f, 0.013590503f, -0.020128489f, 0.13112767f, 0.13053128f, 0.07601551f, 0.15562376f, -0.048238389f, -0.045825224f, 0.14987372f, -0.018887505f, -0.016179398f, -0.048809886f, 0.096222065f, -0.021236865f, 0.034341507f, 0.010019109f, -0.15336543f, 0.023684695f, -0.017129824f, -0.12747321f, 0.00069719553f, 0.13433693f, 0.11983974f, -0.0030180216f, -0.13999888f, -0.12490885f, 0.03826879f, 0.12954809f, 0.089630783f, 0.13601936f, -0.10642374f, -0.15727173f, -0.051912196f, -0.098595291f, 0.030541077f, 0.12750132f, -0.10144722f, 0.039013952f, -0.027420729f, 0.055448472f, -0.12032974f, -0.0188618f, 0.039544985f, 0.10390078f, 0.047519282f, 0.002912268f, -0.02227065f, -0.0034888983f, 0.013362646f, -0.10622822f, -0.087366953f, -0.094017319f, 0.017609239f, -0.11186156f, 0.14004175f, 0.087300479f, 0.060397308f, -0.11994048f, 0.1573894f, 0.056919314f, 0.020971945f, -0.077888548f, 0.076436929f, 0.020753961f, 0.048205551f, 0.1103249f, 0.073463887f, -0.13703901f, -0.0033991395f, -0.038569409f, -0.1359621f, -0.060275722f, -0.10515233f, 0.070021972f, 0.1527652f, -0.019812278f, 0.06546852f, -0.12475131f, -0.10814974f, 0.078968726f, 0.069510423f, -0.090918079f, -0.024571266f, -0.018038984f, -0.0052456176f, -0.05081046f, 0.014906727f, 0.13777727f, -0.083108701f, -0.031188658f, 0.10694994f, 0.075015619f, -0.051320571f, 0.099261463f, 0.036101978f, -0.069128066f, 0.0045148307f, 0.13019501f, -0.07020925f, -0.13761035f, 0.14833552f, -0.08261928f, -0.15741661f, -0.035614774f, 0.033208553f, 0.092225388f, 0.097610168f, 0.093971506f, -0.14281273f, 0.11655338f, -0.14289184f, 0.15072039f, -0.072004147f, -0.064102463f, -0.035251226f, 0.091617599f, 0.14999451f, 0.027541732f, 0.054003906f, 0.074864216f, 0.097060591f, 0.084361948f, 0.14135326f, -0.046530243f, 0.15120003f, 0.038117986f, 0.12007615f, -0.089509174f, -0.083646007f, 0.0016651058f, -0.012528291f, -0.12366338f, 0.031929884f, -0.001238956f, -0.031269938f, -0.13192375f, 0.077197067f, -0.039141897f, -0.14626469f, -0.072319858f, -0.11275072f, -0.15433763f, -0.053239338f, -0.1354866f, 0.13811149f, -0.054491252f, -0.054022711f, 0.037060056f, 0.10505454f, -0.098907724f, -0.13855994f, 0.025066251f, -0.15836367f, -0.15618227f, -0.001590237f, 0.048855558f, 0.083613962f, -0.021392874f, 0.1458396f, 0.11031705f, 0.081473306f, 0.061633006f, 0.14739336f, -0.13424824f, -0.099698879f, 0.013645299f, -0.13994852f, 0.13292889f, 0.079752922f, -0.12266935f, -0.094606213f, 0.0084620286f, -0.061850764f, 0.1557482f, 0.038134094f, 0.02853379f, -0.10022091f, 0.075439863f, 0.011071439f, 0.030997651f, -0.15426898f, 0.024091691f, 0.062255416f, -0.035241704f, 0.081315599f, -0.088878423f, 0.077556044f, -0.024245769f, 0.034703687f, -0.045403011f, 0.13927414f, -0.0017095655f, -0.15208358f, -0.089385986f, 0.12994576f, 0.054124221f, 0.072016075f, -0.047471996f, 0.040423717f, -0.029717701f, 0.11000356f, -0.037592251f, -0.10457715f, -0.046443805f, 0.081714042f, 0.064073861f, 0.0037367376f, -0.0070974822f, 0.14653346f, -0.081007443f, -0.11402768f, -0.086356848f, 0.10228392f, -0.085202001f, -0.054648317f, -0.12741263f, -0.1331494f, 0.10834426f, -0.11685111f, 0.075567484f, 0.084170409f, -0.087267958f, -0.13762668f, 0.083196945f, 0.14837214f, -0.14381547f, 0.026695535f, -0.15076892f, 0.13942896f, -0.12497982f, 0.10471216f, 0.14712742f, -0.0023754765f, 0.094980009f, 0.1369421f, -0.027384266f, 0.0093504908f, -0.038374539f, -0.076224104f, -0.12708677f, 0.040826857f, -0.079690039f, -0.15759383f, 0.067552887f, -0.13316235f, 0.1035588f, -0.073163934f, -0.12229228f, -0.14800082f, 0.14498f, -0.14339365f, 0.087965533f, 0.059880268f, 0.1381854f, 0.10312193f, -0.10667602f, -0.13123345f, 0.034573887f, -0.083989725f, 0.034713492f, -0.016596183f, 0.045876056f, -0.10478261f, -0.050630614f, -0.10287359f, -0.1212182f, 0.041594177f, -0.0019677998f, 0.0016942918f, 0.024315076f, -0.064099111f, 0.069355018f, -0.082047328f, -0.063181497f, -0.11202943f, 0.012862101f, -0.14354911f, -0.04339863f, 0.089470662f, 0.085343614f, -0.12259077f, 0.12680583f, 0.064026408f, 0.057334419f, -0.14630111f, -0.068217829f, 0.030961437f, 0.030966654f, -0.095883504f, -0.12618609f, 0.092586108f, -0.08672969f, 0.028156517f, -0.033735849f, 0.14046982f, -0.13881281f, 0.019976627f, -0.079823397f, 0.13276261f, 0.070440181f, -0.097162358f, 0.014314756f, 0.028122788f, -0.060977999f, -0.1328003f, 0.10282868f, -0.031558469f, 0.11907115f, 0.010275138f, 0.040638633f, 0.11788023f, 0.14244191f, -0.067311011f, -0.1423544f, 0.012550688f, 0.13736668f, 0.022507789f, 0.15080722f, 0.10955843f, 0.061040517f, 0.13377467f, -0.067070551f, -0.11543478f, 0.045406137f, 0.015783101f, 0.14065807f, 0.038776994f, -0.011073322f, -0.11481117f, 0.11385492f, 0.13322105f, -0.10012367f, -0.12714159f, -0.031653821f, -0.0064152498f, 0.081634156f, 0.037691414f, 0.057214256f, 0.10918242f, 0.12680691f, -0.14700764f, 0.049166352f, -0.050701074f, 0.021656515f, -0.095881574f, -0.014167059f, 0.15728423f, 0.06798175f, -0.15283607f, -0.12616298f, -0.078337669f, -0.11257285f, 9.9792458e-05f, 0.13043144f, 0.047651798f, 0.04554059f, -0.11197353f, 0.11322454f, -0.06241855f, 0.11907703f, 0.0014880702f, -0.006788305f, 0.004105404f, -0.14592372f, 0.023888651f, 0.14371122f, -0.010029867f, -0.15083523f, 0.0035529591f, -0.065655261f, 0.034124587f, -0.031001579f, 0.092895344f, 0.0290497f, 0.10657068f, 0.021038909f, 0.14462537f, -0.14364918f, 0.031300038f, 0.073719151f, 0.13937584f, 0.14869519f, -0.13990058f, -0.11617391f, -0.079477757f, -0.15477429f, 0.012861584f, 0.12439279f, 0.050495744f, -0.13130902f, 0.14525548f, -0.030460481f, 0.066346079f, -0.058591854f, 0.06269601f, 0.095739841f, -0.15535468f, 0.13461278f, -0.1150441f, -0.12597974f, -0.12969099f, 0.086692601f, -0.01129056f, -0.062031373f, -0.11617946f, 0.068642728f, 0.13190648f, 0.13615006f, 0.14585041f, -0.017006069f, -0.020929478f, 0.13049068f, 0.03415991f, 0.025570478f, -0.0075957528f, 0.13622417f, 0.070709199f, -0.028823912f, -0.12790225f, 0.13751802f, -0.079503775f, 0.12779741f, -0.085880548f, 0.15538831f, -0.11197002f, -0.11477643f, 0.15651289f, 0.057942994f, -0.061812676f, -0.029539594f, 0.011719576f, 0.084184907f, -0.00069869257f, -0.052034151f, -0.12144805f, -0.08832071f, -0.092230566f, -0.092957146f, 0.13564797f, -0.15556243f, -0.015959011f, 0.022765737f, 0.1121114f, -0.0040532877f, -0.02209495f, -0.10678009f, 0.081254713f, -0.010004614f, 0.037229471f, 0.13854228f, 0.020521844f, 0.098883159f, 0.069795236f, -0.15033056f, 0.013375783f, -0.12560208f, -0.072383456f, 0.042902399f, 0.12831366f, -0.029846661f, 0.13526002f, 0.091278121f, -0.015681634f, -0.12228487f, 0.0015891049f, 0.051964771f, 0.032173637f, 0.13572167f, 0.12283903f, 0.083234362f, 0.04736834f, 0.078288592f, 0.14538674f, -0.0093889376f, 0.11137115f, -0.047713075f, -0.11040498f, -0.12646967f, -0.069993474f, 0.12567858f, -0.12662739f, -0.053842805f, 0.1028887f, -0.076976657f, -0.048680499f, -0.07370358f, -0.077602662f, -0.03071475f, 0.04361755f, -0.044278912f, 0.015571972f, 0.040003549f, 0.1380104f, 0.036649048f, 0.12260348f, -0.12094723f, -0.083586372f, 0.020127639f, -0.11799402f, 0.10655816f, -0.016741773f, -0.083524711f, 0.059908763f, -0.099172302f, 0.016528707f, 0.070229381f, 0.045977324f, 0.14363886f, -0.15682372f, -0.15766682f, -0.10648052f, 0.15258706f, -0.048176289f, -0.01364923f, 0.082415417f, 0.046228245f, 0.021115612f, -0.15156105f, 0.014657241f, 0.00013411845f, 0.14533749f, -0.027042706f, -0.11066534f, -0.012726528f, -0.070049986f, 0.13412692f, 0.10640529f, 0.11067986f, -0.049975745f, 0.13053894f, 0.039537307f, -0.024711227f, 0.073090404f, 0.10202719f, 0.091854677f, 0.06071737f, -0.11523118f, -0.08751373f, 0.0035799213f, 0.0178921f, -0.099319629f, -0.05623199f, -0.072508499f, -0.12958357f, 0.11075599f, 0.097595297f, -0.030411247f, -0.13526422f, -0.088177614f, -0.13595203f, 0.10401589f, 0.12257323f, 0.085396238f, -0.15093587f, -0.057976488f, -0.047421545f, -0.10826781f, 0.14868183f, -0.13440759f, -0.15277816f, 0.026528517f, -0.09443786f, -0.15078427f, -0.092865497f, 0.12997624f, -0.0049196156f, 0.15670826f, -0.15683287f, 0.1300505f, -0.1125735f, 0.082610689f, 0.029951274f, 0.15017073f, 0.074815854f, -0.0076226876f, -0.12093614f, 0.060000796f, 0.088829167f, 0.036478035f, -0.040521413f, 0.12921783f, 0.012117743f, 0.025323704f, 0.063326627f, -0.099656232f, 0.064112544f, 0.11622397f, 0.13245672f, 0.12638657f, -0.0088499077f, 0.098886371f, -0.073465228f, 0.067879409f, 0.13037334f, -0.13391422f, 0.076577887f, 0.10376082f, 0.14017783f, 0.15501469f, -0.10547803f, -0.021938475f, -0.047352001f, 0.024351906f, -0.10995226f, -0.060519513f, -0.060266409f, 0.13098089f, -0.099541731f, 0.015068429f, 0.038055591f, 0.063506968f, -0.088546365f, 0.129521f, 0.1049716f, -0.01751483f, -0.04969741f, 0.13165157f, 0.0085673425f, 0.011397188f, 0.025465099f, 0.037318382f, -0.0022578984f, 0.084407374f, 0.14445977f, -0.05975727f, -0.032117672f, 0.070092402f, -0.10203671f, 0.13784204f, 0.0035365422f, -0.061152246f, -0.042460155f, 0.14964187f, 0.067066208f, 0.054530162f, 0.10186668f, 0.11318149f, 0.1387604f, -0.024458447f, -0.092511527f, 0.083555579f, -0.13931206f, -0.10761546f, -0.056314524f, 0.09774331f, 0.046413787f, 0.021385506f, 0.11542672f, 0.10533902f, 0.072689071f, -0.030955188f, 0.13317826f, 0.03721875f, -0.08403676f, -0.092905626f, -0.13705237f, -0.028763099f, 0.016294086f, -0.024736296f, -0.1519393f, -0.1263606f, -0.099636063f, 0.092320696f, -0.016348923f, 0.086034939f, 0.00745263f, 0.024391998f, 0.098480165f, 0.11793766f, -0.14285217f, -0.021949593f, 0.14374784f, -0.00066901551f, 0.09219262f, -0.067065209f, 0.031997588f, 0.13230212f, 0.0059503908f, 0.13727392f, 0.11366883f, -0.13177557f, -0.1225034f, -0.029480366f, -0.028294975f, -0.11852784f, -0.067899473f, -0.11494244f, 0.076287098f, 0.091220744f, -0.10791475f, 0.1286654f, 0.0044774399f, -0.052032664f, -0.10135886f, -0.12267401f, 0.1443347f, -0.053209551f, -0.10631746f, 0.096380338f, 0.047225084f, 0.010466364f, 0.05535686f, 0.11955185f, -0.0088368161f, -0.07569617f, 0.022644037f, -0.018922521f, 0.041587517f, -0.1048936f, 0.10417496f, 0.10258869f, 0.071626253f, -0.013450668f, 0.088291883f, -0.0063060434f, -0.046679296f, 0.087357827f, -0.10772763f, -0.15239866f, -0.14981784f, 0.002300201f, 0.015113479f, 0.13565239f, 0.078766048f, -0.14353262f, -0.11534487f, -0.012256885f, 0.13878235f, 0.09669847f, 0.0077811829f, 0.080806598f, 0.0049687014f, -0.080563262f, -0.071393184f, 0.10113443f, -0.092389353f, 0.09678641f, 0.091014281f, 0.087292761f, -0.10767975f, 0.10893941f, -0.018030986f, 0.051013775f, -0.091556437f, 0.11977506f, 0.026962863f, -0.016607655f, -0.0092015043f, -0.13513298f, -0.04116933f, 0.034252185f, 0.1519932f, 0.0012553124f, 0.090409949f, 0.0046703327f, 0.061858892f, -0.054723892f, -0.064240366f, 0.080200598f, -0.039957598f, 0.014283055f, 0.11441544f, 0.11648875f, -0.074576281f, 0.15430455f, 0.041618541f, -0.11884339f, -0.080008164f, -0.0057063741f, -0.14810787f, 0.077159792f, 0.15747923f, -0.14212264f, -0.060756393f, -0.12105551f, 0.14357896f, -0.078677826f, 0.14958785f, 0.03663348f, -0.0047646654f, -0.043079864f, 0.094747409f, -0.088252522f, 0.069455624f, -0.016970372f, -0.075769663f, -0.073565662f, -0.1568324f, 0.065692507f, 0.15612641f, 0.027637623f, -0.11349678f, -0.0038503676f, 0.090153962f, 0.054756623f, -0.021687649f, -0.10125394f, 0.077499501f, -0.034320183f, -0.15724522f, 0.12770054f, -0.090353131f, -0.015651952f, -0.082861379f, 0.10920296f, 0.1130815f, 0.0209141f, 0.012055406f, 0.12901036f, -0.14969505f, 0.095858969f, 0.061450716f, 0.043798409f, 0.14963739f, 0.06168291f, 0.1465302f, 0.014049612f, -0.12355295f, 0.0618788f, -0.13354206f, -0.11468979f, 0.15234627f, -0.11261883f, -0.072460882f, 0.03017997f, -0.12156688f, 0.14226598f, -0.052592892f, 0.080084398f, -0.094633408f, -0.15113258f, 0.11607114f, 0.15586165f, 0.071136579f, -0.046356045f, -0.063442744f, 0.13615727f, -0.055742294f, -0.010154366f, -0.045205567f, 0.014874093f, -0.14680856f, -0.12792471f, 0.073903598f, -0.12152617f, -0.031529948f, 0.029462367f, -0.13864134f, -0.12958211f, 0.029500935f, 0.019226832f, -0.012423985f, 0.0089498572f, -0.10922032f, -0.074892536f, 0.0064240973f, -0.14308985f, 0.044735909f, 0.021629611f, 0.094368845f, -0.019934766f, 0.10423119f, 0.12756862f, -0.079996593f, 0.10467413f, -0.1215343f, -0.0071870103f, 0.0046892231f, 0.055300694f, 0.010677598f, 0.13994561f, 0.029794078f, 0.074020706f, 0.088221326f, -0.12551405f, 0.069754407f, 0.106791f, -0.13061836f, 0.14106111f, -0.073395789f, 0.08247219f, -0.15685301f, 0.082364351f, 0.032298591f, -0.14704543f, 0.044553984f, 0.15571289f, 0.040356509f, -0.12113801f, -0.095362931f, 0.067472883f, 0.032688834f, 0.13003105f, 0.10160424f, 0.08518976f, 0.0839407f, 0.03044365f, 0.052621499f, -0.035386287f, -0.10912113f, -0.080049433f, -0.052995674f, 0.068837777f, 0.13610914f, 0.058047209f, -0.061186872f, 0.060754403f, 0.10720964f, -0.10913219f, 0.020842573f, 0.08536125f, -0.086999089f, -0.12929142f, -0.011891375f, -0.018451078f, -0.057565946f, 0.0043002428f, 0.12870796f, -0.058255699f, -0.065143041f, -0.076897621f, -0.12884697f, 0.12731293f, 0.11676551f, -0.07410825f, -0.085315958f, 0.087768659f, -0.15341309f, 0.13269609f, -0.15518495f, 0.15021062f, 0.074496835f, 0.04633965f, 0.070774302f, -0.029136851f, -0.093114324f, 0.093210749f, -0.070244044f, 0.14050089f, -0.066567995f, -0.06580212f, -0.070350662f, -0.016183037f, -0.025426546f, 0.079293765f, -0.035907734f, 0.11556147f, -0.14009659f, -0.13929498f, 0.067250684f, 0.10416812f, 0.05131869f, -0.018851558f, 0.10732242f, 0.11150768f, -0.13844106f, -0.1487745f, -0.12642513f, 0.11257388f, -0.13073008f, 0.062468536f, -0.032493498f, -0.059800923f, -0.053698584f, -0.033215262f, -0.010911366f, -0.043422814f, 0.067751139f, 0.0007762009f, -0.14660186f, 0.075661667f, -0.12484089f, 0.15335695f, -0.1043029f, 0.061001606f, 0.045411251f, 0.028590251f, -0.055296682f, -0.035140794f, 0.1076868f, 0.072758421f, 0.12161432f, 0.018775746f, -0.038751684f, -0.015643325f, 0.14132029f, 0.065254584f, -0.14852861f, -0.082233846f, -0.11240648f, -0.15788293f, 0.12611191f, -0.11714457f, 0.14337724f, -0.019418756f, 0.08573509f, 0.14298533f, 0.11842914f, -0.061247304f, -0.13455899f, 0.1460862f, -0.020918772f, 0.040869042f, 0.091953151f, -0.1105374f, -0.068785354f, 0.15434003f, 0.097208373f, -0.12220921f, -0.044702958f, -0.12361529f, 0.028386315f, 0.092423655f, 0.042333212f, 0.10219949f, -0.022389757f, -0.0027639933f, -0.077606596f, -0.076400124f, -0.090772592f, 0.0041978578f, 0.019291893f, -0.14277042f, 0.10075789f, -0.0089285281f, -0.029353155f, -0.029399682f, -0.11862763f, 0.15005687f, 0.018204249f, 0.021813644f, -0.013534454f, -0.07867825f, -0.021010732f, 0.11231338f, -0.11495424f, 0.086403869f, -0.08025369f, 0.027033545f, -0.019500975f, -0.043522231f, 0.1192245f, 0.1234882f, 0.052097026f, 0.10685817f, 0.093369208f, -0.1400297f, -0.081160717f, -0.092693217f, -0.041993465f, 0.15785763f, -0.042363897f, -0.10809252f, -0.0756054f, 0.15540037f, 0.01004945f, 0.1487807f, 0.14231014f, -0.027359387f, -0.068296634f, -0.028100565f, 0.077681363f, 0.016579041f, -0.046467476f, 0.090339296f, 0.072035022f, -0.12614128f, 0.0011857541f, -0.12681212f, 0.0018081247f, 0.13159986f, -0.1164433f, 0.076597162f, -0.1084988f, -0.11776678f, -0.10517277f, -0.14482194f, 0.14113732f, 0.15751421f, -0.1017796f, 0.1137294f, 0.042844031f, 0.078225434f, -0.12577094f, -0.14368354f, 0.012476591f, -0.15532471f, -0.058544934f, 0.0045138611f, -0.032393109f, -0.018770009f, -0.062819928f, 0.033576865f, 0.022901606f, 0.13042189f, -0.082252003f, 0.0048455112f, 0.14523607f, 0.06626875f, 0.05413501f, -0.07502345f, 0.13420163f, -0.10538921f, 0.11282034f, -0.026120663f, -0.1002104f, -0.13253893f, 0.070886657f, -0.079994246f, -0.15600501f, 0.0052366317f, 0.0044863615f, -0.025648266f, 0.10662402f, -0.0060480661f, 0.02972798f, -0.12090966f, -0.083356932f, 0.11375451f, 0.072878182f, -0.1345574f, 0.14158811f, 0.070477821f, 0.12054818f, 0.062231187f, -0.0092069963f, -0.027702872f, 0.15499316f, -0.085219175f, -0.12496781f, 0.1059641f, -0.084213398f, 0.090319045f, 0.068340003f, 0.09145654f, 0.063253485f, 0.1451828f, 0.01623138f, 0.12089866f, 0.10701212f, -0.15739964f, -0.10599811f, -0.076208122f, 0.031774484f, -0.021756284f, 0.1204328f, -0.035869703f, 0.061679039f, 0.11468332f, 0.081219807f, 0.12704286f, -0.028546637f, 0.00035136219f, 0.017720085f, -0.088465765f, -0.060957856f, 0.068733394f, -0.039529294f, 0.067190215f, -0.0013074435f, -0.12792647f, 0.081170529f, -0.11343677f, -0.03408917f, -0.054902073f, 0.094714694f, -0.073735423f, -0.087369666f, -0.0044861245f, -0.077724025f, 0.019507378f, 0.016947731f, 0.13463253f, 0.156387f, -0.14387168f, -0.084909126f, 0.075962849f, 0.087406948f, -0.064339422f, -0.0026289939f, 0.1122188f, 0.086354122f, 0.12120108f, 0.0093192784f, -0.094437748f, 0.049778793f, -0.090629138f, 0.061551835f, 0.076669157f, 0.0040723891f, -0.091470458f, -0.0084782913f, 0.15483479f, -0.11266031f, -0.098566264f, -0.10005955f, 0.12387411f, -0.078473419f, 0.089140721f, 0.15278447f, -0.047374673f, 0.053608883f, -0.083406702f, 0.1337629f, -0.041349925f, 0.034134943f, 0.0569258f, 0.0093240235f, -0.033908807f, -0.038143415f, -0.044930603f, -0.10311587f, 0.060192682f, -0.078386374f, 0.13884756f, 0.15442748f, -0.071725741f, 0.050972972f, 0.15521283f, 0.065710008f, 0.081241742f, -0.072650306f, 0.020284763f, -0.034702934f, 0.043042198f, -0.016099075f, -0.072710827f, 0.10313385f, 0.073566854f, -0.14770094f, -0.15681358f, 0.082939401f, -0.02637939f, -0.086957611f, -0.01593329f, -0.019071745f, -0.010878971f, -0.060432021f, -0.096192934f, 0.089803956f, -0.012974982f, -0.087527677f, 0.075395748f, 0.019239772f, 0.0088789472f, -0.06490162f, 0.014418758f, 0.039074007f, -0.13221858f, -0.1051901f, 0.046172928f, -0.12544024f, -0.059445634f, -0.097507484f, -0.080548815f, -0.015419964f, 0.081143498f, -0.14020056f, 0.0020793928f, 0.12543207f, -0.1365952f, 0.0022882074f, -0.0087379329f, 0.044974379f, -0.015723234f, -0.082948297f, 0.01612201f, -0.008546792f, -0.073672235f, -0.097577885f, 0.0052077584f, -0.0097222328f, -0.081147045f, 0.1374854f, 0.13760808f, -0.14720033f, -0.088780731f, 0.073571913f, 0.056449793f, -0.035586242f, 0.091088921f, -0.084113613f, -0.15184939f, -0.079231396f, -0.076019138f, 0.13757177f, 0.0087378714f, 0.12778497f, -0.12538248f, 0.057197656f, 0.016697511f, -0.15243876f, 0.022934731f, -0.13233888f, -0.015411356f, -0.13758665f, 0.049054615f, 0.11563276f, 0.1317514f, 0.098095834f, -0.11640988f, -0.12327658f, 0.026749006f, 0.11741603f, 0.10563401f, -0.032571696f, -0.044154961f, 0.072265752f, 0.066245049f, 0.13557842f, 0.093793422f, -0.0084559284f, 0.1443515f, -0.12953125f, -0.097934008f, -0.055280253f, 0.090705313f, 0.057139825f, -0.091441907f, -0.027022744f, -0.090122439f, 0.11591194f, -0.10956843f, -0.13061394f, -0.12011563f, 0.13611475f, 0.12333586f, -0.011672319f, 0.11680537f, 0.076736517f, -0.04933938f, 0.085005678f, -0.0092985546f, 0.053795211f, 0.010315342f, -0.14600135f, -0.034047149f, 0.14550684f, 0.14095819f, -0.075895652f, -0.14352283f, -0.044379957f, 0.017942209f, 0.10114139f, -0.1478976f, 0.090026729f, -0.022697764f, -0.015629264f, -0.1515439f, 0.0095273368f, -0.06794104f, 0.04807489f, 0.031026497f, 0.11905953f, -0.12084378f, 0.086053513f, 0.073748171f, -0.0047422475f, -0.069242924f, -0.12368388f, -0.092115313f, -0.042696893f, -0.054857794f, -0.081991114f, -0.12124816f, -0.071149029f, -0.017280873f, -0.0074334475f, -0.14343683f, 0.019986717f, -0.032458603f, -0.082156494f, 0.092106327f, 0.067236483f, 0.14408159f, -0.024266003f, -0.043494046f, 0.020219333f, 0.089333616f, 0.14047956f, 0.13261932f, 0.11257727f, -0.13838629f, 0.063472994f, -0.068897158f, -0.025464296f, 0.046939943f, 0.1410861f, -0.042343795f, 0.01252013f, -0.12747863f, -0.083845943f, 0.0072404821f, -0.014226419f, -0.091358416f, 0.042299774f, 0.14531165f, -0.058636967f, 0.13973838f, 0.016550723f, -0.012167786f, 0.041450575f, 0.074388467f, -0.15357468f, 0.081559375f, 0.025596328f, 0.13192335f, -0.046473775f, -0.15551569f, -0.15205519f, -0.019856999f, -0.046496421f, -0.031265572f, 0.028013188f, -0.13580532f, 0.016810281f, -0.051578552f, -0.12183096f, -0.042020291f, -0.018987892f, 0.058435835f, 0.08187443f, 0.056608494f, 0.076043725f, -0.074288808f, -0.087737642f, -0.0094201574f, -0.12485948f, -0.063209318f, 0.15679003f, 0.14507131f, 0.12790269f, -0.034953438f, 0.055776138f, -0.099913776f, -0.079805955f, -0.085196704f, 0.15058433f, -0.10077255f, 0.062629826f, -0.09273655f, -0.10085302f, -0.02836746f, -0.087934233f, 0.0081305066f, 0.079833001f, -0.072871506f, 0.034388192f, 0.09136945f, 0.08719328f, -0.050626837f, -0.051786885f, 0.12504727f, 0.091999918f, -0.13600461f, 0.020128749f, -0.024332738f, -0.07589943f, 0.10840295f, -0.013928061f, 0.15596171f, -0.061219789f, -0.070726581f, 0.02155114f, 0.015032933f, 0.091344617f, 0.097670592f, 0.0608427f, -0.055574998f, 0.10998984f, -0.070739701f, -0.10937134f, 0.029697459f, -0.07967069f, -0.01155075f, 0.068137236f, -0.043700114f, -0.13584998f, 0.029134488f, -0.05894715f, 0.11429413f, 0.012520327f, -0.15700132f, 0.13253586f, 0.09249521f, -0.11098319f, -0.060602512f, -0.1508038f, -0.081644274f, 0.018669784f, -0.040945299f, 0.14171311f, -0.15163141f, 0.1033171f, 0.014839066f, 0.08096341f, 0.12778063f, 0.081202574f, -0.10541462f, 0.050763492f, -0.020176684f, 0.089579403f, 0.04417545f, 0.042106669f, 0.091892034f, 0.083085924f, 0.13093889f, -0.026870385f, -0.13726479f, -0.077793524f, 0.0087093255f, -0.0093810149f, -0.13811111f, -0.079478294f, 0.096946403f, 0.08589974f, -0.083610572f, -0.10033845f, 0.079954661f, -0.027950808f, 0.0025342808f, -0.086202867f, 0.00014480948f, 0.11357606f, 0.1461843f, 0.040834602f, -0.026714504f, 0.11265032f, -0.12043811f, 0.013510109f, -0.088443048f, -0.15539764f, 0.018826742f, -0.070946857f, -0.084181882f, 0.091973923f, -0.097490229f, 0.13980499f, -0.12326386f, 0.086070545f, 0.086198226f, -0.021378309f, -0.024134792f, 0.11521073f, -0.087669238f, 0.053720951f, -0.12238196f, -0.13085346f, 0.057523496f, -0.10076552f, 0.055902041f, 0.1017129f, -0.12788068f, 0.038337745f, -0.036366414f, 0.061983746f, 0.097158358f, 0.14140327f, -0.017338593f, -0.055875361f, 0.067717254f, -0.037060317f, 0.062406141f, -0.14749885f, 0.10394505f, 0.092312567f, 0.052127048f, 0.018819306f, 0.14320022f, 0.11387941f, 0.14081387f, 0.00295365f, -0.1419061f, 0.053400103f, 0.15703037f, 0.11231763f, -0.11122641f, 0.078186266f, -0.10373896f, 0.14468922f, -0.048264444f, 0.13663287f, 0.061342284f, -0.068178348f, 0.043516401f, -0.10963744f, -0.085800849f, -0.060242925f, -0.052188993f, 0.15291066f, -0.10223009f, 0.0092970077f, -0.063309945f, 0.04127536f, -0.027456798f, -0.026536124f, 0.084457077f, -0.065376736f, -0.025323333f, -0.020228503f, 0.06816978f, -0.12968875f, -0.13994905f, -0.055703856f, 0.12613906f, 0.049949918f, -0.079291269f, 0.0034242121f, -0.14915624f, -0.082786858f, -0.14797232f, 0.037362497f, -0.01033289f, -0.094559014f, -0.13948037f, 0.068566434f, -0.028823547f, 0.12183867f, -0.15186355f, 0.0013078356f, -0.042736243f, 0.069595486f, 0.020580653f, -0.022769358f, -0.12377602f, 0.099013418f, 0.047354128f, 0.10864966f, -0.069660001f, 0.10089999f, 0.058148105f, 0.15763186f, 0.13851759f, 0.095515385f, -0.048734594f, 0.052104894f, -0.14165844f, 0.13486183f, -0.055071395f, 0.028717719f, 0.09797854f, -0.07106521f, 0.028693736f, -0.1557354f, 0.003156862f, 0.051988598f, -0.10210769f, 0.11333458f, -0.14361906f, 0.12973841f, -0.080346756f, 0.081757389f, -0.0046892785f, -0.12082696f, -0.11132152f, 0.10181267f, 0.033061691f, 0.04796141f, 0.080365308f, 0.070058472f, -0.064955398f, -0.10505086f, -0.0033996929f, 0.073996775f, 0.12598509f, 0.032115996f, 0.12729532f, 0.03064402f, -0.048455451f, 0.13147077f, 0.12700847f, 0.15166119f, -0.0047014183f, 0.0072049387f, 0.061149996f, -0.033684634f, 0.032366905f, -0.081220269f, -0.0039623552f, 0.062757879f, 0.13368891f, 0.053042654f, 0.14125751f, -0.11914804f, 0.14775768f, 0.086577341f, 0.066835433f, -0.12700397f, 0.040505197f, -0.079675563f, 0.14503019f, -0.14564119f, -0.043249182f, -0.042437788f, -0.15040596f, -0.059704199f, -0.010035437f, 0.15197144f, 0.024694782f, -0.15095139f, -0.047893234f, 0.098610952f, -0.13980895f, -0.0090909349f, -0.11219518f, -0.088999413f, 0.018615674f, -0.020899206f, 0.051461637f, -0.14186484f, 0.0091693467f, 0.043059394f, 0.044301458f, -0.093272813f, -0.019846976f, -0.12455265f, 0.0027741641f, -0.1002331f, -0.031772524f, -0.081891723f, -0.051776811f, -0.047294453f, 0.014937133f, 0.061672959f, 0.032388754f, 0.064784437f, -0.086362205f, -0.15102635f, -0.086525224f, 0.13675481f, -0.072920524f, -0.12406436f, -0.10853348f, 0.035105459f, -0.13145189f, -0.12460792f, 0.019810293f, 0.02208514f, 0.049477853f, 0.13404006f, 0.15500091f, -0.13979454f, 0.009859331f, 0.03686681f, 0.012407278f, 0.067746609f, 0.13837923f, 0.062185489f, 0.050106008f, 0.09250696f, -0.061791543f, 0.00077962596f, -0.11755349f, -0.063493833f, 0.13667326f, 0.060071591f, 0.14438368f, -0.11384356f, 0.13808835f, -0.10922571f, 0.0055868332f, -0.10279428f, -0.031170854f, -0.10977896f, -0.1358612f, -0.035069488f, 0.10821764f, 0.012147502f, -0.023692565f, 0.071611501f, 0.078816503f, 0.02571379f, -0.098608255f, 0.079256363f, -0.042478796f, 0.0013039178f, -0.015802305f, 0.10202249f, 0.086006977f, -0.14831878f, -0.034683213f, 0.050473765f, 0.072088636f, -0.098757662f, 0.11716264f, -0.082113124f, -0.14941725f, -0.0048728478f, -0.11011973f, 0.028936774f, 0.077447191f, -0.0080617527f, 0.11348229f, -0.10788593f, 0.075879626f, -0.035847459f, -0.013541865f, -0.13411698f, 0.036627091f, 0.019046176f, 0.032488212f, -0.070528336f, -0.022975624f, -0.092913479f, 0.057089552f, -0.013662974f, -0.14302525f, 0.084811397f, 0.0039047496f, -0.042377323f, 0.10344426f, 0.046889912f, 0.04633097f, -0.039076865f, 0.028130315f, 0.043274831f, 0.061133139f, -0.14472921f, 0.15321454f, -0.10628917f, -0.089731812f, -0.14876264f, -0.13860819f, -0.011442922f, 0.14466058f, -0.00072625623f, -0.089126669f, -0.12443351f, -0.0035208655f, 0.11224383f, -0.12763444f, 0.0266126f, 0.14763378f, 0.072085164f, -0.13964732f, 0.069961458f, -0.1348573f, -0.038469046f, -0.068699837f, 0.1080275f, -0.087220684f, 0.0041741231f, 0.028419929f, 0.091996633f, -0.10202888f, -0.11980138f, 0.017151223f, 0.15562487f, 0.13563244f, 0.15057321f, -0.15668337f, 0.12780188f, 0.07120315f, -0.14239003f, 0.13241903f, -0.10003733f, -0.10196622f, 0.026670208f, 0.012540534f, 0.12483273f, -0.056726687f, -0.037853993f, -0.016245954f, 0.06440831f, 0.095242344f, 0.14011665f, -0.11247578f, 0.075161874f, -0.016159266f, -0.035227537f, 0.069036618f, -0.013801212f, 0.11130679f, 0.058727846f, -0.10696733f, -0.12535462f, -0.11097501f, -0.093659624f, 0.01615038f, 0.12740679f, -0.12699799f, -0.12310226f, -0.12431585f, 0.027318519f, -0.084796682f, 0.067229874f, 0.091585688f, -0.0502632f, 0.12034713f, 0.098875061f, 0.11369832f, -0.008873567f, 0.12245936f, -0.039855454f, -0.032408126f, -0.069741122f, 0.10540861f, 0.013493569f, -0.054638993f, -0.052669358f, -0.031292062f, -0.12758854f, 0.07347355f, 0.065700836f, -0.017504325f, 0.012859408f, -0.072728939f, 0.12868461f, 0.10008182f, 0.082813039f, -0.13632005f, -0.14838459f, -0.084879756f, 0.064048193f, -0.11083402f, 0.023987658f, -0.071384631f, -0.077507153f, 0.054700952f, 0.13086425f, 0.037828188f, -0.15179613f, 0.094838418f, 0.12876189f, 0.12867151f, 0.078696102f, -0.12325612f, 0.013028f, -0.047399223f, -0.096124575f, 0.14881311f, 0.072352402f, 0.12436903f, 0.099029891f, 0.027927f, 0.13250667f, -0.066500075f, 0.051770326f, -0.11489961f, -0.054880287f, -0.09351749f, 0.10557173f, -0.015832383f, 0.018585352f, 0.11227441f, -0.11798561f, -0.14734246f, -0.087032154f, 0.12021075f, 0.15650533f, 0.15118529f, 0.041531693f, 0.040242832f, 0.10319483f, 0.058691315f, -0.018703043f, -0.013456686f, -0.040768854f, 0.15504578f, -0.11192618f, -0.099630162f, -0.066756152f, 0.11683817f, -0.055605836f, -0.01569273f, 0.062165629f, 0.024459835f, 0.022637354f, -0.064753339f, -0.053003788f, -0.076583982f, -0.086437181f, -0.13257341f, -0.089813612f, -0.10846185f, -0.044149861f, 0.13118139f, 0.1017241f, 0.12646767f, -0.039461065f, 0.14927703f, -0.047447316f, 0.12133613f, 0.029074887f, 0.12052621f, -0.098812386f, 0.045828212f, -0.15719059f, -0.034008332f, 0.10193855f, 0.037869327f, -0.12715258f, -0.081481606f, -0.1149218f, -0.13673006f, -0.031909212f, 0.050513975f, 0.058883779f, 0.051440749f, 0.13372996f, -0.10439561f, 0.027341383f, 0.037554413f, -0.14517193f, -0.10067869f, -0.15018742f, -0.11242038f, -0.096098803f, -0.032775614f, 0.071226247f, -0.11595718f, 0.091769658f, -0.10040186f, -0.15834758f, -0.075942673f, 0.11647513f, -0.064961143f, -0.0564228f, -0.10809095f, -0.029370816f, -0.11800458f, -0.07627929f, 0.15414935f, -0.061572593f, -0.068263374f, -0.1324891f, -0.0025040037f, 0.10915738f, 0.082349017f, 0.084276177f, 0.060217611f, 0.025115153f, 0.027367584f, -0.023920564f, -0.068979882f, 0.033731982f, -0.0010451606f, -0.14771508f, -0.1563987f, 0.018505661f, -0.12894778f, 0.089307167f, -0.0017745061f, 0.08814624f, 0.10348602f, -0.14421506f, 0.098229118f, 0.031655923f, -0.022124333f, 0.076724313f, 0.010036349f, -0.045785595f, 0.052133285f, -0.11517406f, -0.060660712f, 0.13658935f, 0.06110331f, -0.11288171f, -0.0089336438f, -0.07757169f, -0.035136059f, 0.042893022f, -0.13853773f, 0.085566811f, 0.11474521f, -0.046691895f, -0.12838949f, 0.023719398f, -0.11633366f, 0.073555224f, -0.076257087f, -0.12779528f, 0.040911414f, -0.088340491f, -0.080076031f, -0.023651764f, 0.095041901f, 0.085706435f, -0.1425965f, 0.14825359f, 0.046577945f, 0.068537131f, -0.11039594f, 0.048801471f, 0.14686759f, -0.071457356f, 0.094125398f, -0.082709201f, -0.11845213f, -0.14087665f, -0.060267724f, -0.11456035f, -0.033788491f, 0.076678902f, 0.11215642f, 0.12772062f, 0.137282f, -0.018336257f, 0.097745515f, -0.092140138f, 0.028262248f, -0.12696844f, -0.031049678f, 0.089144327f, 0.14799936f, -0.00057003851f, -0.12975059f, -0.11852515f, -0.098084927f, -0.12895088f, -0.088936172f, 0.0015512422f, 0.12843457f, -0.1363852f, -0.027641159f, -0.044925783f, 0.087683216f, -0.147842f, -0.050671559f, 0.024278825f, 0.062121436f, 0.15539271f, 0.026954466f, -0.1400004f, 0.038613696f, 0.11595958f, -0.072363287f, -0.078702196f, 0.0468821f, -0.083342083f, -0.030587191f, -6.4286542e-06f, 0.073282525f, 0.01516684f, 0.083760068f, -0.11193642f, 0.023611121f, 0.07723742f, 0.051892694f, -0.00093991816f, -0.15496714f, -0.036935575f, -0.022232847f, 0.13793758f, 0.13500126f, 0.044892617f, -0.049562231f, 0.082286842f, -0.11644913f, 0.10632459f, 0.021347987f, -0.12761398f, -0.10109046f, -0.11794358f, 0.069655463f, -0.084961846f, -0.03713746f, -0.0074310438f, -0.085821055f, 0.15677156f, 0.11633985f, -0.065656953f, -0.018072328f, 0.011896553f, 0.039322998f, -0.044654351f, -0.0013499795f, 0.13103911f, 0.081837982f, -0.13725689f, -0.076050222f, 0.14591797f, 0.01934386f, 0.090622015f, 0.03112152f, -0.020374799f, 0.022539329f, 0.12040102f, 0.071952336f, -0.11037074f, 0.030245796f, -0.11238652f, 0.0088412324f, -0.1080182f, -0.087578155f, -0.022491157f, -0.12225515f, -0.1341725f, -0.14201619f, -0.10788122f, 0.1050856f, -0.097857453f, 0.1293698f, -0.13542524f, -0.0026170844f, 0.034583122f, 0.024638325f, -0.045275401f, -0.15588982f, -0.033799708f, 0.11633292f, 0.0065199961f, 0.0070429891f, -0.08445067f, -0.10985228f, 0.11009369f, -0.00013001943f, 0.025972079f, 0.0073338663f, 0.13281099f, 0.10733703f, 0.097102478f, 0.052032094f, -0.12128598f, -0.14526467f, -0.095209301f, 0.14408544f, -0.069390476f, 0.14966607f, 0.067470819f, 0.099869661f, 0.086984381f, -0.11775875f, 0.038597304f, -0.053152777f, -0.048199099f, -0.016185543f, 0.045641527f, 0.019974187f, 0.15352774f, -0.11485935f, -0.0353337f, -0.14891575f, -0.12074788f, -0.14537004f, 0.1380455f, -0.075818211f, 0.04241525f, 0.087554261f, 0.017357256f, -0.02676104f, 0.14008255f, -0.07024467f, 0.024333986f, 0.038025778f, -0.080601498f, 0.080834709f, 0.1327097f, 0.040678561f, 0.11714388f, 0.11702224f, -0.022859214f, -0.038118899f, -0.0044058114f, -0.056350656f, -0.12925853f, 0.070498988f, 0.012634183f, 0.021037361f, -0.157583f, -0.014573279f, -0.14820521f, 0.040044475f, 0.14624381f, 0.11581472f, 0.04918544f, 0.064345203f, -0.020228149f, -0.029212404f, 0.047972381f, 0.088776261f, -0.039067023f, -0.13313086f, 0.078201614f, 0.050590023f, -0.11592729f, 0.13085151f, -0.048468459f, -0.015501176f, -0.13351853f, -0.011104084f, -0.12701553f, -0.11378013f, -0.033403601f, -0.023267115f, 0.076337196f, -0.072413661f, 0.019882582f, 0.12013514f, 0.12020016f, 0.11665238f, -0.019458475f, 0.029746011f, 0.13475148f, 0.12318202f, -0.0039114999f, -0.10556291f, 0.11796624f, 0.13076928f, -0.087479293f, -0.090813987f, -0.043371014f, -0.03633073f, -0.15257804f, 0.13342631f, -0.037605435f, -0.051917356f, -0.057545163f, 0.077873498f, -0.0094949258f, -0.0019752108f, 0.059389602f, 0.03822634f, 0.035393145f, -0.0070436597f, -0.1473268f, 0.1077362f, 0.07098344f, 0.092615761f, -0.032529157f, 0.11012539f, 0.017898878f, -0.078456059f, -0.022151686f, 0.064390913f, 0.080513991f, -0.10085696f, -0.11051403f, 0.14938647f, -0.095757581f, 0.07176251f, -0.0038535194f, 0.10822687f, -0.017524989f, 0.050664082f, 0.016892616f, 0.061690625f, -0.10872316f, 0.1299132f, -0.14762703f, -0.1467177f, 0.017499343f, 0.093506269f, -0.069891505f, 0.15349607f, -0.11807211f, 0.14821441f, 0.096433237f, -0.093858212f, 0.13042608f, 0.02772986f, -0.052459847f, 0.0013268177f, 0.027478321f, -0.048325699f, -0.058318023f, 0.0060858601f, -0.061083395f, 0.078819431f, -0.058832634f, 0.088222049f, -0.04067656f, -0.056525022f, -0.011467498f, 0.050023742f, 0.11567736f, -0.15179563f, 0.1416741f, -0.10296603f, 0.1517238f, -0.1394116f, 0.035822939f, -0.13746618f, 0.11987671f, -0.14980215f, -0.14686196f, 0.065927051f, -0.078733198f, -0.052533224f, -0.0985393f, -0.085947864f, -0.14370273f, -0.043164439f, -0.11739942f, -0.0267448f, -0.036767825f, -0.002050194f, 0.072743662f, 0.013076931f, 0.10922005f, 0.027249806f, -0.024238506f, -0.077490449f, 0.060798001f, -0.095755257f, -0.069940232f, -0.13445505f, -0.025322516f, -0.027081966f, -0.010821208f, 0.010296835f, -0.13103706f, 0.014198527f, -0.068152256f, 0.010667966f, 0.084275268f, 0.076298967f, 0.031341616f, 0.15087016f, 0.11835788f, 0.13950624f, 0.043964978f, 0.063539274f, -0.064886428f, 0.14040536f, 0.048451677f, -0.1083205f, -0.021706477f, -0.034427032f, 0.10806976f, 0.027695671f, 0.14476679f, -0.11888476f, -0.15204011f, -0.12371479f, 0.032051533f, 0.045109972f, 0.035452202f, -0.096319847f, -0.034010872f, 0.058583811f, 0.095817938f, -0.14322376f, -0.10117856f, -0.066376552f, 0.10616989f, -0.1454943f, -0.0098807216f, 0.0025374293f, 0.057326108f, -0.12203311f, 0.056593135f, 0.030925736f, 0.081473067f, 0.061835721f, -0.018246487f, -0.088108964f, 0.14826451f, -0.075146712f, -0.013434634f, -0.01553379f, -0.12984864f, 0.00026711822f, 0.12192018f, 0.022779226f, 0.028324477f, -0.013479345f, 0.12266508f, -0.11017025f, -0.12765317f, -0.15019765f, 0.062301949f, -0.022127222f, -0.0085310703f, -0.039867461f, -0.0095688822f, -0.14615797f, 0.11757465f, 0.13336036f, 0.022204973f, 0.068116389f, -0.087585874f, -0.11315663f, -0.14433819f, 0.095183194f, 0.080312312f, 0.047525581f, -0.081856191f, 0.14434071f, -0.039960247f, -0.11349267f, -0.031338003f, -0.097745217f, -0.0044682208f, -0.019911401f, -0.14167123f, -0.062504239f, 0.14977719f, 0.13440505f, -0.032391679f, -0.12859872f, -0.089919969f, -0.00037946613f, 0.1551549f, -0.0034036953f, 0.0091918064f, 0.0068115797f, 0.04241541f, 0.13533153f, 0.11493145f, 0.092094235f, 0.11338614f, -0.10619202f, -0.12416801f, -0.029839834f, 0.010447041f, 0.066790685f, 0.06643559f, 0.0089657158f, -0.15109119f, -0.036796883f, 0.089014493f, 0.00055868784f, -0.11697066f, 0.10206257f, -0.11607683f, -0.086378433f, -0.14681658f, 0.039252672f, 0.043047935f, -0.12946422f, -0.027790383f, -0.056512769f, 0.059722826f, -0.030396083f, -0.07585676f, -0.13748793f, -0.080939531f, 0.034813508f, -0.12793581f, -0.13112722f, -0.033261914f, 0.071632959f, 0.12376393f, -0.062420215f, 0.11878636f, -0.065984935f, -0.03786201f, 0.028260149f, -0.1422337f, -0.14506269f, -0.061253078f, 0.07486558f, -0.13891901f, -0.030231358f, 0.030699242f, 0.10669811f, 0.15124987f, 0.13296598f, -0.035754524f, 0.01833668f, 0.12327682f, -0.131762f, 0.14563353f, -0.015883895f, -0.10816702f, -0.13272735f, -0.15792453f, 0.034353472f, -0.097891763f, -0.082815908f, 0.13768083f, -0.0061654211f, -0.067628302f, 0.11876318f, 0.10118117f, 0.0082534468f, 0.036695156f, -0.12037738f, 0.11550093f, -0.030424431f, 0.033114251f, -0.12584975f, -0.076705836f, 0.097069994f, 0.097030707f, 0.0028849388f, -0.12255321f, -0.021926014f, -0.15034479f, 0.10296444f, 0.10667779f, 0.10864839f, -0.054816324f, 0.12743479f, 0.10527685f, -0.083165281f, 0.07249444f, 0.1521558f, -0.0096049989f, -0.0049614138f, 0.061525073f, -0.04238075f, -0.08643534f, 0.020467635f, 0.057139516f, 0.10678162f, 0.10918593f, 0.069312118f, 0.10934164f, -0.14069998f, 0.12431505f, 0.13792831f, 0.098790571f, 0.0050368579f, -0.066293269f, 0.036741741f, 0.018186932f, 0.067144655f, -0.13893673f, -0.12798165f, 0.0020034381f, -0.052101895f, 0.082643569f, 0.047387745f, -0.13031934f, -0.036510058f, -0.075877555f, -0.15708324f, 0.092085846f, 0.0043093525f, -0.10603681f, 0.005382292f, -0.099813782f, 0.098573864f, 0.062849104f, -0.035340142f, 0.14225033f, -0.0024362367f, -0.092951216f, 0.052478436f, 0.067904539f, -0.13324578f, 0.093553931f, 0.15615436f, 0.10899395f, 0.039464369f, -0.047788441f, -0.05258134f, 0.14816117f, -0.10419287f, 0.075011536f, -0.14800094f, -0.14807095f, -0.14789368f, 0.072952546f, -0.054881953f, 0.07710778f, -0.026571512f, -0.062451854f, -0.11387356f, 0.10558975f, -0.076888099f, -0.094554797f, 0.006838439f, 0.034077141f, 0.040766384f, 0.13134605f, -0.068198651f, 0.12400182f, 0.09503293f, 0.087100163f, 0.014773618f, 0.12431002f, 0.13457856f, -0.1244043f, -0.1393998f, -0.018378992f, -0.062640458f, -0.079925291f, 0.084725812f, -0.1424249f, -0.10617238f, -0.056901433f, -0.058762062f, 0.04516115f, -0.12409673f, 0.13532566f, -0.070704527f, 0.032066356f, 0.0014348499f, -0.042844184f, 0.096812271f, 0.15625903f, 0.0091980956f, 0.15606983f, -0.13774547f, 0.004850755f, -0.080167368f, 0.040847018f, 0.062643126f, 0.087423302f, 0.040699188f, -0.1184044f, -0.12127483f, 0.15516226f, -0.068557382f, -0.038920116f, -0.12384732f, 0.037392858f, 0.092770539f, -0.10951222f, 0.061812542f, -0.1185725f, -0.024047675f, -0.10489908f, 0.084123723f, -0.0014942586f, -0.070907257f, -0.14201801f, -0.040784817f, 0.031205319f, -0.062573202f, 0.08218617f, -0.007384121f, -0.13055724f, -0.15114996f, -0.15544952f, -0.060744464f, -0.058022603f, -0.010607917f, 0.063441746f, 0.14875181f, 0.10363918f, -0.05522465f, 0.074760042f, -0.013122027f, 0.077474743f, 0.14413689f, 0.15617652f, 0.15766621f, -0.040162027f, 0.099138893f, 0.054113105f, 0.14087981f, -0.0090325214f, 0.1242076f, 0.057306886f, 0.15210253f, 0.1277702f, 0.12415749f, 0.096457168f, 0.081895404f, -0.092996225f, 0.1169084f, -0.1093459f, 0.12166675f, -0.081912398f, 0.15348214f, 0.099284843f, -0.010824499f, -0.06198819f, -0.089660533f, -0.1092838f, 0.065604389f, -0.023807388f, -0.00096746109f, 0.0069682472f, 0.0082981596f, -0.049861927f, 0.060219295f, 0.10385513f, -0.048478827f, -0.072756171f, -0.070903257f, 0.010550121f, 0.047371034f, 0.0048018061f, -0.031278998f, 0.084972247f, 0.076915696f, -0.11054662f, -0.034315307f, -0.12057357f, -0.12151674f, 0.013365842f, -0.014306978f, 0.071577981f, 0.028600495f, -0.107774f, 0.0020486959f, 0.14026566f, -0.048016731f, -0.0018758279f, 0.039686084f, -0.013874183f, -0.0031362285f, -0.080589771f, -0.029366849f, 0.10313665f, 0.029329406f, -0.065950938f, 0.074437134f, -0.021683197f, 0.0051062619f, 0.077044927f, -0.086239502f, 0.016895466f, -0.050080124f, -0.028645547f, 0.11986417f, -0.097672537f, -0.10416228f, -0.11147607f, 0.0092884852f, -0.11306959f, 0.14131886f, -0.077122457f, 0.059210915f, -0.067652278f, 0.068606891f, -0.1028057f, -0.10764001f, -0.11952819f, 0.056562029f, 0.028034613f, 0.098878331f, 0.14855301f, -0.03176631f, 0.11515685f, -0.042792603f, 0.075175419f, -0.06243274f, 0.10596585f, -0.13419645f, -0.076869771f, 0.053214498f, -0.041937571f, 0.11417731f, 0.11101549f, -0.058118079f, -0.087813593f, 0.15171246f, 0.15262266f, 0.077718541f, -0.061444186f, -0.10821287f, 0.15390567f, -0.15342745f, -0.022857713f, -0.092149906f, 0.028016713f, -0.026790027f, -0.12180994f, -0.12970108f, 0.11363281f, -0.03967315f, -0.13854152f, -0.066364259f, -0.09193784f, 0.023734545f, -0.043704648f, 0.031989887f, -0.065532535f, -0.1328219f, -0.0045652669f, 0.15372042f, 0.0088130748f, -0.018001158f, 0.1017592f, 0.027262582f, 0.02912505f, 0.09589982f, 0.007111772f, -0.072302565f, -0.058153618f, -0.1523304f, 0.030122599f, 0.0093875257f, 0.1246879f, -0.13327181f, 0.15636523f, 0.0062404522f, -0.1173657f, -0.064996623f, -0.14410841f, -0.060806103f, -0.10415546f, 0.084721498f, 0.0069055972f, 0.050887965f, 0.060181051f, 0.020575294f, 0.061440296f, -0.083764896f, -0.029601423f, -0.079571262f, 0.10996386f, -0.13956679f, 0.11138212f, -0.024718778f, -0.057710268f, -0.12560335f, -0.059504651f, -0.04436098f, -0.10092065f, -0.10802913f, 0.11089686f, 0.064874046f, -0.10137349f, 0.13108613f, -0.011515573f, -0.029731834f, 0.072764196f, 0.029302474f, 0.13845032f, 0.08225596f, -0.0076865223f, 0.015013912f, -0.14837132f, 0.082044959f, 0.035096612f, 0.10203987f, 0.081738211f, 0.033342123f, -0.1335164f, 0.0015071351f, -0.029419998f, -0.11898978f, 0.12008779f, -0.14992407f, -0.14675972f, -0.025804615f, 0.13307057f, -0.12085085f, 0.12945658f, 0.15009873f, 0.13925101f, -0.14463682f, 0.03249101f, 0.13681675f, -0.050132796f, 0.036315229f, 0.033837263f, 0.12748635f, -0.031532574f, 0.038469933f, 0.099313796f, -0.12901983f, 0.0070399833f, 0.065799877f, -0.10298862f, 0.047920071f, 0.12776266f, 0.13474669f, -0.030512195f, -0.097223721f, -0.055093553f, -0.01105231f, -0.11807433f, 0.0044230698f, 0.14295277f, 0.020118546f, 0.10885044f, 0.042830989f, 0.12316234f, -0.03037543f, 0.12545893f, -0.13416137f, -0.034327742f, -0.145927f, -0.15377523f, -0.13090605f, -0.084346049f, 0.10055228f, -0.061248861f, 0.14855014f, -0.061172303f, 0.015197365f, 0.029165749f, -0.091654442f, 0.096129254f, 0.11625808f, 0.10658663f, -0.12019899f, 0.088943735f, 0.03025035f, 0.063699484f, -0.010381596f, 0.04837279f, -0.14378542f, 0.018692479f, 0.09976019f, -0.1430461f, -0.080595225f, 0.11519793f, -0.0075032138f, -0.081121065f, -0.08880464f, 0.15683316f, -0.15449457f, -0.15162936f, 0.073123448f, 0.15187f, -0.083675668f, -0.1438396f, -0.023531793f, 0.058311686f, 0.019882325f, -0.037180342f, 0.07003662f, -0.033877246f, 0.1547347f, -0.069660358f, 0.11154237f, -0.069375791f, 0.10486226f, 0.14199248f, 0.087555028f, 0.15376818f, 0.076049834f, -0.07708361f, -0.13441446f, 0.11578752f, -0.046435639f, -0.036470186f, -0.11460155f, -0.15180099f, 0.12622853f, 0.097811192f, 0.0061284848f, 0.079345077f, -0.11940798f, 0.030781293f, -0.1241555f, -0.0073440573f, -0.11496157f, 0.042469025f, 0.061283786f, -0.075000234f, 0.079509005f, -0.028841972f, -0.15093656f, 0.043986004f, 0.14462443f, -0.12477868f, 0.12177255f, 0.088992275f, -0.10153425f, -0.076701328f, 0.11996946f, 0.046091873f, 0.11544846f, -0.085262433f, -0.11499695f, 0.11987267f, -0.078866273f, 0.078647047f, 0.045098282f, 0.0969273f, 0.11043461f, -0.064642347f, 0.11668662f, 0.14285709f, -0.035333339f, 0.048597854f, -0.077426791f, 0.015991719f, -0.052240156f, 0.12828165f, 0.09029939f, -0.056092657f, -0.022652412f, -0.036269508f, -0.041973874f, 0.026537146f, -0.00022024658f, -0.15464222f, -0.067812286f, -0.11903108f, 0.13624303f, 0.15546636f, 0.14199673f, 0.030481987f, -0.023981752f, -0.14865348f, 0.14059226f, -0.12423393f, -0.13300639f, 0.084812395f, 0.034732644f, -0.061241079f, 0.1105542f, -0.062555149f, 0.11583063f, -0.15580237f, 0.024985388f, 0.044627286f, -0.1289584f, 0.086114943f, -0.037989981f, -0.148772f, 0.0028332423f, 0.029103164f, 0.10678747f, -0.067516997f, 0.045862898f, -0.1334029f, 0.091787986f, 0.051244661f, -0.079729348f, -0.10442284f, 0.08581844f, 0.082341008f, 0.022658287f, 0.046335969f, 0.10201727f, -0.15089484f, 0.10823147f, 0.021322448f, 0.033130184f, -0.084983744f, -0.10507584f, -0.11599644f, 0.15516007f, 0.092713453f, -0.15543596f, -0.018586183f, -0.14681299f, 0.040224165f, -0.030124351f, 0.12271719f, 0.013088718f, 0.12682568f, 0.086873092f, 0.078081459f, 0.13589317f, -0.082825005f, -0.05324572f, -0.1466987f, 0.0052303984f, 0.097341754f, -0.12612487f, 0.083044238f, 0.1490282f, -0.089670338f, -0.047378406f, -0.034030534f, -0.039767433f, -0.0013096887f, 0.1390668f, 0.063375905f, -0.13689472f, 0.0093907993f, 0.14471038f, 0.091442876f, 0.12066336f, 0.075305246f, -0.068729088f, 0.15692025f, 0.070388377f, 0.035537954f, -0.02276038f, -0.063100263f, -0.077169284f, -0.09605816f, -0.089776725f, -0.013439315f, 0.083444558f, 0.062654264f, -0.11816919f, -0.09778589f, -0.02166996f, -0.014071945f, -0.036584765f, -0.11944226f, 0.10092229f, 0.12648043f, -0.052234508f, 0.12823944f, 0.088777415f, 0.10719316f, 0.13903119f, -0.12565276f, -0.15687566f, 0.047514647f, 0.14412263f, -0.15169038f, -0.11672366f, -0.01564786f, -0.074113607f, 0.073365137f, -0.15660195f, 0.15781097f, 0.11049102f, -0.11530092f, 0.025908027f, 0.032424755f, -0.086556271f, 0.13181034f, 0.065767981f, 0.077852875f, -0.13563161f, 0.10189871f, 0.029571977f, 0.021630861f, 0.11213709f, -0.15094097f, -0.10923826f, -0.086373217f, 0.034846414f, -0.14372881f, -0.099203125f, -0.15621309f, 0.054731146f, 0.048162226f, 0.093558468f, -0.068698227f, -0.10841025f, -0.021560982f, 0.092877299f, 0.01751182f, -0.067761093f, -0.10314638f, 0.15267065f, -0.02112361f, 0.08658509f, 0.14819789f, 0.11259576f, 0.15167649f, 0.019151719f, -0.0048478395f, 0.0489657f, -0.13550001f, -0.086515166f, 0.059149716f, 0.071139216f, -0.12993382f, 0.0050989557f, 0.092215329f, -0.011363048f, -0.046497256f, 0.10618776f, 0.10937945f, 0.0042377384f, 0.066340603f, 0.0209403f, 0.093937226f, -0.0065263826f, 0.12052203f, -0.068462893f, 0.026212325f, -0.045895904f, 0.032174908f, 0.090178445f, 0.1550232f, -0.097763546f, -0.12463586f, -0.035541333f, 0.13960472f, 0.0042894804f, -0.013306842f, 0.10765743f, -0.085114472f, -0.054841068f, 0.065835401f, -0.088996969f, 0.058684133f, -0.041027121f, -0.13802533f, -0.05794375f, 0.091122299f, -0.064975902f, 0.12419764f, 0.062337294f, 0.034222588f, 0.072592132f, 0.12056055f, 0.029180912f, -0.020622719f, -0.001442204f, 0.11464234f, 0.1359937f, 0.041896712f, 0.041110672f, -0.013880714f, 0.15599248f, -0.075097322f, 0.088874571f, 0.12881799f, -0.064974807f, -0.073812731f, 0.093410157f, 0.13703027f, 0.0013081389f, 0.033925653f, 0.12003226f, 0.095972173f, -0.063566752f, 0.15083477f, -0.091996938f, 0.12545116f, 0.043891851f, 0.014806347f, 0.093472891f, -0.12557985f, -0.12271292f, 0.15490928f, 0.0070595015f, -0.14552923f, -0.057842433f, -0.06780421f, -0.1443736f, 0.006233843f, -0.082437687f, -0.12327394f, -0.15029676f, 0.13658376f, -0.14781052f, 0.040600933f, -0.15044136f, -0.06171653f, 0.13739996f, 0.12539424f, -0.061634704f, 0.14267056f, -0.13827729f, 0.04388456f, -0.078319915f, 0.055817448f, -0.046291873f, -0.071545623f, -0.052538052f, -0.025868306f, -0.055242307f, 0.041605253f, 0.13606432f, -0.15795715f, -0.045295022f, -0.034283064f, -0.055161327f, -0.012330069f, 0.09747909f, 0.062662773f, -0.12259461f, 0.033917628f, 0.063316427f, -0.091607824f, -0.084616914f, -0.15131052f, 0.12176653f, 0.15470983f, 0.02556321f, 0.066821039f, 0.12882286f, -0.0094994809f, 0.044084921f, -0.14081977f, -0.020521753f, -0.12384742f, 0.13088113f, -0.14543407f, -0.13843903f, -0.0090869507f, -0.12163402f, 0.012682482f, -0.042600315f, 0.10095658f, -0.11661011f, -0.12904473f, 0.08556661f, -0.15243137f, 0.01900845f, -0.12115198f, 0.0020186428f, 0.15585834f, 0.11190347f, -0.10597239f, -0.034041863f, -0.034169164f, -0.03113107f, 0.13230743f, 0.077202812f, 0.1345817f, -0.10607452f, 0.11436598f, 0.081797183f, 0.12035666f, -0.051024407f, -0.14545493f, 0.13233362f, -0.15020865f, -0.15309666f, 0.099610433f, 0.022624098f, 0.091645315f, -0.045869548f, -0.026120864f, 0.099974349f, -0.058576416f, 0.11230144f, -0.014167101f, 0.1018882f, -0.155406f, 0.026938071f, 0.12873937f, 0.081325583f, -0.0096979905f, -0.07440421f, 0.064439647f, -0.0085540647f, 0.014091085f, -0.037263695f, 0.035680924f, -0.017570442f, -0.15116289f, 0.013112545f, -0.021354204f, -0.0040372997f, -0.043749977f, -0.039194558f, 0.069099449f, -0.11251344f, 0.079610854f, -0.079826556f, -0.10857052f, 0.0013079675f, -0.050207026f, -0.0067739785f, 0.11783649f, -0.10467691f, 0.12267633f, -0.11431232f, -0.039288037f, 0.017625028f, -0.018683298f, -0.11251465f, -0.010492148f, 0.013417706f, -0.06326855f, 0.10974371f, 0.15468691f, 0.11028142f, 0.14802268f, -0.053907361f, 0.091886148f, -0.040289655f, 0.10696245f, -0.08226683f, -0.049579114f, -0.12764382f, -0.014223429f, 0.08808355f, 0.11844693f, -0.0028396735f, -0.092281029f, -0.042977598f, 0.078092836f, -0.096530311f, -0.076457731f, -0.12839064f, -0.14749078f, -0.1210037f, -0.018622575f, 0.12742501f, 0.14310923f, -0.070105597f, 0.1325552f, 0.15499246f, -0.0078042066f, -0.031166853f, 0.13461541f, -0.080922335f, -0.013237961f, 0.031946808f, 0.014406232f, 0.063435979f, 0.11953854f, -0.049934383f, -0.10748786f, -0.019887367f, 0.070281722f, 0.15521555f, 0.15380797f, -0.11690556f, 0.015577459f, -0.018977921f, 0.092190839f, -0.13380601f, -0.045708716f, -0.12951688f, -0.057705685f, 0.11663903f, -0.015087523f, -0.15735832f, -0.077623717f, -0.052391045f, -0.013029156f, 0.11769266f, -0.10798722f, 0.039767276f, 0.075010948f, -0.016085418f, 0.07945551f, -0.12848222f, 0.11877772f, 0.089060888f, -0.0078312717f, -0.1493066f, -0.037965637f, 0.014348467f, 0.037976056f, 0.051398013f, -0.14630944f, -0.14831522f, -0.12533113f, 0.020507254f, 0.016968727f, 0.074437663f, -0.072541788f, 0.022406714f, -0.013382275f, -0.043079067f, 0.097634859f, 0.040798374f, 0.1371313f, -0.14434838f, -0.11301926f, 0.070185311f, -0.023619039f, -0.0017236449f, 0.062043812f, -0.12109479f, 0.11660627f, 0.077681936f, 0.11162919f, 0.048345748f, 0.099807642f, 0.10367543f, -0.06390065f, -0.072448596f, -0.010612308f, 0.12976171f, 0.021095449f, 0.15447274f, -0.078095332f, 0.15131214f, -0.13682629f, 0.023450565f, 0.10391126f, 0.030614302f, -0.012145996f, 0.10846387f, 0.04594085f, -0.023992451f, 0.11836691f, 0.046111993f, 0.1184049f, 0.064598873f, -0.0066472087f, 0.010062083f, 0.13265465f, -0.014972186f, 0.096331149f, -0.073158741f, 0.091527291f, 0.091326348f, 0.056698784f, -0.039425641f, 0.085305572f, -0.1519312f, 0.14421882f, 0.13716832f, -0.0058932439f, -0.0088984864f, -0.098368868f, 0.045851041f, -0.044434614f, -0.012960855f, 0.13651221f, -0.060334805f, 0.11684015f, 0.11814507f, -0.077209711f, 0.071818329f, -0.12450902f, 0.047897991f, 0.15209165f, -0.15114215f, -0.080556326f, -0.048100725f, -0.11862396f, -0.043222293f, -0.03385967f, 0.06560643f, -0.02415836f, 0.11695705f, -0.099948198f, 0.0061192503f, 0.011238101f, -0.053306449f, 0.13224185f, 0.064057246f, 0.10824666f, -0.057231735f, 0.14504164f, -0.062417656f, 0.043949205f, -0.062360868f, -0.077796549f, -0.018509271f, 0.14135095f, 0.14166039f, -0.14976099f, 0.058170784f, -0.13424431f, 0.015206588f, -0.062013943f, 0.0037874824f, -0.092568301f, -0.034743801f, -0.030692184f, -0.13248406f, -0.070709459f, -0.021330148f, 0.077304438f, -0.12483519f, 0.11424255f, -0.15488639f, -0.01775644f, 0.031537984f, -0.1431649f, -0.1206747f, 0.072292738f, -0.11534119f, -0.062396415f, 0.040310569f, -0.016886812f, -0.13736588f, 0.15240157f, 0.035699978f, -0.10187777f, 0.035351854f, 0.043568689f, -0.13370056f, 0.019012645f, 0.10468813f, -0.035462882f, -0.13520549f, 0.14737999f, -0.039316606f, 0.12197676f, -0.028003586f, -0.11628439f, 0.080738731f, 0.013343316f, -0.084512293f, -0.087270536f, 0.15471792f, -0.09301202f, -0.087296702f, -0.13074367f, -0.083703503f, 0.0038748509f, -0.09896493f, -0.071424291f, -0.12661761f, 0.0034388243f, 0.014261313f, -0.054579306f, 0.1061558f, -0.0954265f, 0.079161942f, -0.010636056f, 0.065610006f, -0.11919892f, 0.011050448f, 0.053886689f, 0.021150023f, -0.050777398f, -0.00314801f, -0.023942405f, -0.11492216f, -0.15158758f, 0.1103834f, -0.011960953f, -0.034270186f, 0.020552717f, 0.051133871f, -0.018655514f, -0.10166564f, -0.045050353f, -0.14556733f, -0.14063214f, 0.086331606f, 0.14712432f, -0.052761197f, 0.024537232f, 0.089384474f, -0.097923681f, -0.10046542f, -0.041415371f, -0.13759926f, -0.040967349f, -0.068104103f, 0.011863393f, -0.051046144f, 0.036984444f, 0.028186891f, 0.10548048f, -0.047401603f, -0.029661432f, 0.13359301f, 0.14616738f, 0.12002565f, -0.12949848f, 0.10368259f, -0.081302188f, -0.0686896f, -0.11333163f, -0.11245946f, -0.020234944f, -0.12190623f, 0.078579485f, -0.11828778f, -0.08612667f, -0.060960561f, -0.15667437f, 0.079365529f, 0.069283113f, 0.12680334f, 0.09481214f, 0.13446267f, -0.14480898f, 0.059046108f, -0.071292974f, -0.089277491f, 0.13884528f, 0.11149681f, 0.15338638f, -0.002269079f, 0.046876103f, 0.097982839f, -0.031924952f, -0.053855717f, 0.11751812f, 0.037740536f, 0.020385267f, -0.074383244f, 0.0063711926f, -0.039408132f, -0.065146059f, 0.0011310884f, -0.034119572f, 0.090222523f, -0.1221744f, -0.051457841f, 0.0092267934f, 0.045035399f, -0.0094443243f, -0.088925369f, 0.15182772f, 0.044458292f, -0.1354436f, 0.044065252f, 0.13815299f, 0.065865219f, 0.06691055f, 0.016997799f, -0.057896893f, -0.074180946f, -0.081283413f, -0.14879596f, 0.096974567f, 0.075207576f, -0.021243654f, -0.12080499f, -0.083385952f, -0.014930325f, 0.061312404f, -0.0061278562f, 0.055839848f, -0.11087162f, -0.12703593f, 0.14011689f, -0.051730033f, 0.07323312f, 0.04435977f, 0.087005399f, -0.014750997f, 0.14475085f, -0.078823291f, 0.034946837f, 0.14622718f, -0.097369902f, 0.0096657006f, -0.011662199f, 0.15217768f, 0.13046518f, 0.10400421f, -0.084196135f, -0.092871256f, -0.013962337f, 0.13590205f, -0.0096107442f, 0.15568307f, -0.10004911f, -0.051166024f, -0.01339738f, 0.081116445f, 0.072914414f, -0.14594047f, 0.13891886f, -0.026307605f, -0.14314415f, -0.022842955f, 0.099108778f, -0.010579061f, -0.079965338f, 0.091453724f, -0.13061148f, 0.144385f, 0.15619168f, -0.026535936f, 0.10896069f, 0.021597143f, -0.094181731f, 0.12514409f, 0.11298446f, 0.14171639f, -0.13724598f, 0.1263669f, 0.079792105f, 0.010224883f, 0.10656233f, -0.12153935f, 0.1138271f, 0.074043393f, 0.028993407f, -0.13013782f, 0.076763615f, -0.12326899f, -0.11628298f, 0.15310401f, -0.071483746f, 0.05069153f, -0.090821654f, -0.063380659f, 0.027063806f, 0.091386497f, 0.13900913f, 0.1246884f, -0.15274782f, -0.023547912f, -0.054302298f, 0.033575729f, -0.1308931f, -0.028509902f, -0.097940072f, -0.10861875f, -0.12837122f, 0.046172556f, 0.11244344f, 0.078884453f, -0.084903367f, -0.051733725f, 0.10601933f, -0.13878097f, -0.11657767f, -0.15158007f, -0.023310902f, -0.15120167f, -0.021539479f, -0.069587544f, 0.094164006f, -0.093117222f, -0.09339422f, -0.0061487705f, 0.064654142f, -0.096660197f, -0.066084594f, 0.01877464f, 0.045938268f, -0.1480989f, -0.02127631f, -0.10019f, -0.017710986f, 0.073817037f, 0.1532535f, 0.066040739f, -0.1514183f, 0.10450234f, -0.12705411f, -0.0047114114f, -0.015189426f, 0.15044205f, 0.13152128f, 0.15685971f, -0.063261323f, 0.03243782f, 0.051486861f, 0.014948651f, -0.061981786f, 0.063994527f, -0.13671467f, 0.10268866f, -0.11623356f, -0.091297805f, -0.10516423f, 0.10842631f, -0.027055345f, 0.13097139f, -0.0013135077f, -0.1564683f, 0.099722169f, 0.018047506f, 0.033967447f, -0.13414891f, -0.094727084f, -0.15486945f, 0.11796399f, 0.025753291f, -0.064656541f, -0.029913802f, 0.096789762f, 0.037406698f, -0.068681717f, -0.10122783f, 0.049055774f, -0.00088824937f, 0.026235655f, 0.12354444f, -0.054716744f, 0.0068821954f, -0.020681895f, -0.023101278f, -0.12287702f, 0.064388394f, -0.049099889f, -0.05750636f, 0.033198427f, 0.012195319f, -0.057545241f, 0.059020672f, 0.0095656142f, 0.098230682f, -0.0039982432f, 0.015317592f, -0.062507935f, -0.040262163f, -0.047527231f, -0.027874097f, -0.1371453f, -0.093198314f, 0.12356529f, -0.026642233f, 0.14819779f, 0.08419653f, -0.12982787f, 0.011376951f, -0.10755628f, -0.073907517f, -0.080332488f, -0.0095926104f, -0.15015295f, -0.03661621f, -0.044167962f, 0.15425012f, -0.065916404f, 0.084591083f, 0.129952f, -0.13185924f, -0.060172584f, 0.10820927f, -0.12416551f, -0.0093585718f, 0.021402474f, -0.039042633f, -0.10652211f, 0.093830615f, 0.1341273f, 0.11657899f, -0.15319063f, 0.023088019f, -0.15030491f, -0.033379406f, 0.060330905f, 0.0098348446f, 0.02491821f, 0.13564576f, -0.031296909f, 0.15198256f, 0.13796359f, -0.015927866f, -0.070632912f, 0.15137351f, 0.1223011f, -0.017702913f, 0.12987977f, 0.10542974f, -0.10481243f, -0.076055624f, 0.058680154f, 0.089634553f, -0.15354687f, 0.11262523f, -0.1320767f, 0.12136265f, -0.13102321f, 0.041505948f, 0.041107997f, 0.10600757f, 0.12377509f, -0.074366979f, -0.0740036f, 0.088754252f, -0.1218641f, -0.05151378f, 0.058351737f, -0.038843367f, -0.083158016f, 0.11039953f, 0.019707039f, -0.09289363f, -0.050660264f, -0.11003035f, -0.080941491f, 0.088448435f, -0.14011759f, -0.076899029f, 0.044930462f, 0.1150236f, 0.14957987f, -0.072556756f, 0.033204313f, -0.023989547f, -0.098849393f, 0.1267408f, -0.08903788f, 0.047891129f, 0.12504502f, -0.12753601f, 0.14391732f, 0.14251438f, 0.079673015f, -0.08419998f, -0.13364993f, -0.099548258f, -0.11513666f, 0.029808529f, -0.099105507f, -0.087653689f, -0.10041964f, -0.071812958f, 0.011267814f, -0.12289654f, -0.10566446f, -0.11542385f, -0.029670117f, 0.088485941f, 0.09871041f, -0.095729902f, -0.13295351f, 0.15627487f, 0.028209392f, -0.06941177f, 0.14123237f, 0.098321594f, -0.04600729f, -0.017742867f, 0.13255198f, -0.11702444f, -0.024573008f, -0.045971826f, 0.0030415133f, -0.072751053f, 0.11020231f, 0.0090254368f, -0.039421525f, -0.0975345f, -0.10396855f, 0.066716313f, 0.081830055f, -0.035866793f, 0.076387405f, -0.14706689f, 0.14054269f, -0.14796229f, 0.034096856f, 0.091879718f, 0.14492846f, -0.086844146f, 0.15005511f, 0.024603765f, -0.024435682f, 0.036703404f, -0.11297272f, 0.10659931f, -0.02805857f, 0.1160301f, -0.12497454f, -0.094732203f, 0.058518581f, 0.027409066f, 0.058310274f, -0.1402774f, -0.12957221f, -0.089697212f, 0.10422001f, 0.055785287f, 0.024033438f, -0.048282348f, -0.11756964f, 0.12435999f, -0.015066668f, -0.022653088f, 0.13801846f, 0.1000355f, -0.15157177f, -0.080328248f, -0.13622335f, -0.072122924f, 0.0012739974f, -0.068536609f, -0.15434894f, 0.14662932f, 0.083689645f, -0.043490727f, 0.15129657f, 0.1195341f, -0.073257297f, -0.07882122f, -0.1100679f, 0.08947733f, -0.050768666f, 0.074594453f, -0.083201677f, 0.089560434f, 0.10109901f, 0.00021262467f, -0.14383316f, 0.089285374f, 0.051520377f, 0.021277787f, -0.05257858f, -0.059680551f, 0.010106668f, -0.09144406f, -0.13372791f, -0.049588144f, -0.14615248f, -0.10077249f, -0.078844815f, -0.048243858f, -0.15161552f, -0.14693709f, -0.11014692f, -0.1560332f, -0.13162145f, -0.092447221f, 0.05356428f, 0.041064501f, 0.08616218f, 0.0073637664f, -0.057540081f, -0.01046437f, -0.092344917f, 0.14961825f, -0.0096249282f, 0.11118458f, -0.13815837f, 0.0061311573f, -0.03513363f, 0.12432559f, -0.095364772f, -0.063430719f, 0.085445836f, -0.13053121f, -0.038010985f, 0.052341342f, 0.027059704f, 0.092483625f, 0.055948302f, 0.029493943f, -0.13358198f, 0.12440536f, 0.11195604f, 0.1045983f, -0.019092629f, -0.12664984f, 0.036526963f, 0.045456797f, -0.022017565f, -0.11134481f, 0.022868615f, -0.13216335f, -0.043318175f, 0.071495049f, 0.083439305f, 0.045714606f, -0.0082181245f, -0.065061674f, 0.044450074f, 0.032147191f, 0.12935778f, 0.094574988f, 0.14011997f, -0.1332542f, -0.027117183f, 0.042608552f, 0.11509635f, -0.03139713f, 0.012477509f, -0.1131019f, -0.11481518f, 0.15660188f, 0.012234628f, -0.044129588f, -0.043081518f, 0.07267049f, -0.11105785f, -0.012110486f, 0.10522143f, 0.12556294f, -0.055637423f, -0.081746936f, 0.086969092f, 0.093663201f, -0.066862546f, -0.0030329113f, 0.13072321f, 0.1299224f, -0.053843416f, -0.052816443f, 0.026734732f, -0.067203715f, 0.14182602f, 0.068016589f, -0.049382601f, 0.018832248f, -0.058326084f, 0.11438052f, 0.11226583f, -0.13445881f, -0.064302765f, -0.03704923f, -0.10492555f, 0.11435446f, -0.14043111f, 0.15002102f, 0.14472611f, 0.098589286f, -0.042392328f, -0.14095064f, -0.039965753f, -0.1457414f, -0.04400919f, -0.073236376f, 0.10052293f, 0.045743357f, 0.097338133f, -0.098611988f, 0.11353699f, -0.011169652f, 0.11211964f, 0.066991463f, -0.05969175f, -0.078782327f, 0.056336679f, -0.1554088f, -0.0072598904f, -0.10371956f, -0.037657019f, 0.05424707f, 0.15448315f, -0.10729469f, -0.014227607f, 0.13231206f, -0.11525774f, -0.018271599f, -0.054699641f, -0.064393006f, -0.13208774f, 0.063138992f, 0.1041456f, 0.084468722f, -0.00023676775f, -0.058300648f, -0.15318388f, -0.053963102f, 0.093926854f, -0.13842067f, 0.062854484f, 0.02465f, 0.021707702f, 0.096815526f, -0.012832856f, -0.10725112f, 0.10456212f, -0.033455119f, 0.026992366f, 0.018903013f, 0.13945876f, -0.10986147f, 0.09596967f, 0.032038786f, -0.10816661f, -0.1468938f, -0.14974867f, -0.049476318f, 0.012922056f, -0.13056073f, 0.0066780946f, 0.10575551f, 0.095368266f, 0.098032944f, 0.060938269f, -0.065339208f, 0.096219219f, 0.067827307f, 0.026716642f, 0.13741277f, -0.13013633f, -0.14270268f, -0.048872381f, 0.15013278f, -0.074277014f, 0.11871538f, 0.11636065f, -0.088755623f, -0.011949655f, -0.078868665f, 0.14262927f, -0.014595276f, 0.075912319f, 0.023705665f, -0.15203066f, -0.0018103773f, -0.049521007f, 0.11238854f, 0.098890528f, 0.07523416f, -0.15418932f, 0.088383004f, -0.056895208f, 0.1098001f, 0.1437903f, -0.04811693f, 0.069657229f, 0.12904027f, 0.041380297f, 0.017327845f, 0.081306711f, 0.090539962f, 0.12740465f, 0.064888276f, -0.0011327105f, -0.036289658f, 0.14450924f, -0.015830556f, 0.058957752f, -0.086547248f, 0.10788744f, 0.061234701f, 0.023561507f, -0.05538651f, -0.12006979f, 0.013386226f, 0.1241887f, 0.075426266f, 0.1017525f, 0.11662635f, -0.096693933f, 0.046564728f, 0.063256085f, -0.11980581f, 0.078140147f, 0.0018855146f, -0.050591014f, -0.15625484f, 0.11596256f, 0.078063011f, 0.13997762f, -0.021509439f, -0.022204697f, -0.056136578f, 0.015115618f, -0.11412348f, -0.13376072f, -0.12156612f, 0.10026085f, 0.12898643f, 0.1382301f, -0.018519562f, 0.068809934f, -0.11755851f, -0.04402535f, -0.03290078f, 0.024825098f, 0.073710993f, -0.11109872f, 0.13311091f, -0.050879408f, 0.03647178f, -0.1555561f, 0.022890763f, -0.11994287f, -0.037613016f, 0.0040854933f, 0.085503682f, -0.10218424f, -0.073539726f, -0.080881529f, -0.14403948f, -0.0058557508f, 0.15097956f, -0.10646584f, -0.083042257f, 0.041547403f, 0.04852945f, -0.054875448f, 0.039447084f, 0.091876432f, -0.048602372f, -0.13207518f, -0.11918047f, -0.10761464f, -0.089478649f, 0.011606195f, 0.13859814f, 0.15339632f, 0.062762663f, 0.15098444f, -0.12986541f, 0.12165582f, 0.033324599f, 0.030766815f, 0.027925765f, -0.11832587f, 0.051613905f, 0.01701732f, -0.14165705f, 0.077638134f, 0.04921734f, 0.027409511f, 0.14395265f, 0.067478292f, 0.038658697f, 0.035409756f, 0.01949151f, 0.028912241f, 0.054972582f, 0.10861966f, 0.14249083f, 0.0017740732f, 0.089002155f, -0.091930956f, -0.12507571f, -0.075586155f, -0.14012574f, -0.1083268f, 0.06748458f, -0.041910365f, -0.023896856f, 0.083397478f, 0.15216735f, -0.05020804f, -0.017925432f, -0.051087081f, 0.040971369f, 0.11763301f, -0.070635326f, 0.088752188f, 0.03478745f, -0.15008448f, -0.028010869f, -0.11835096f, -0.14842224f, 0.066575341f, 0.10147568f, -0.018311691f, -0.065953322f, -0.057694659f, 0.051165938f, -0.02229628f, -0.017023996f, -0.13480175f, -0.10738712f, -0.13923281f, 0.019313708f, 0.02739829f, 0.050245412f, 0.11360599f, 0.070691526f, 0.013701609f, 0.11872861f, -0.088663682f, -0.015862042f, -0.10069202f, -0.10058931f, 0.074544504f, -0.043421887f, 0.062252391f, 0.015846884f, -0.076816499f, 0.1085474f, 0.03597033f, 0.089204624f, 0.10501743f, 0.05883136f, 0.093345962f, -0.018531755f, -0.026726706f, -0.157304f, -0.13463382f, -0.068263397f, -0.01175453f, 0.14362666f, -0.12389895f, -0.15751053f, 0.13864686f, 0.1309973f, -0.083543576f, 0.056125812f, 0.035951287f, 0.039934576f, -0.0081889099f, -0.15294832f, 0.10926618f, 0.1261709f, 0.086551808f, 0.069085665f, -0.14567554f, 0.098066054f, 0.0094741061f, 0.10313969f, -0.11030861f, 0.11003521f, -0.04409793f, -0.061922692f, 0.041251797f, 0.10217857f, 0.14210345f, 0.12783206f, -0.091628805f, -0.010680309f, 0.020340409f, -0.050538767f, -0.10152345f, 0.1565509f, 0.098697096f, -0.094034523f, -0.082554862f, 0.0069641965f, -0.05789084f, -0.1209649f, 0.095523611f, -0.1008761f, 0.031854749f, 0.055404656f, -0.024522776f, 0.039584666f, -0.065087467f, 0.058490749f, -0.06383609f, 0.071049474f, -0.1028778f, -0.026890237f, 0.055899784f, 0.025175054f, -0.079449184f, 0.052329049f, -0.13283411f, -0.043445084f, 0.13850449f, -0.053649515f, 0.0551023f, -0.13112684f, -0.078972265f, -0.00025647815f, -0.14483151f, 0.092178859f, 0.059243247f, 0.12429458f, 0.0073326956f, -0.066061959f, 0.10268334f, 0.055851717f, -0.091592312f, 0.041220404f, -0.092157461f, -0.15727314f, -0.15009619f, 0.060221158f, 0.045439575f, -0.061077692f, -0.050533917f, 0.063439004f, 0.14530925f, 0.030257918f, -0.11066689f, -0.073913388f, -0.075957671f, 0.068611026f, -0.034458786f, 0.15407264f, 0.15579787f, 0.076326281f, 0.035125736f, 0.049973667f, 0.013490671f, -0.108642f, 0.13497306f, 0.07086546f, -0.13299273f, -0.029761497f, 0.086304709f, 0.069728076f, 0.0055833603f, -0.0030453354f, -0.059815638f, -0.12441489f, 0.10705101f, 0.081943676f, 0.0057333307f, 0.14498124f, -0.010136415f, -0.054459799f, 0.15586808f, 0.15422773f, -0.094457448f, -0.1309616f, -0.0072025387f, 0.067920849f, 0.019747842f, 0.045788921f, -0.13242328f, 0.059949156f, 0.095685549f, 0.038979623f, 0.0095411455f, -0.14180864f, -0.021126164f, -0.11710834f, 0.057754405f, -0.14267357f, -0.090782046f, 0.085739017f, 0.093859218f, -0.060308982f, -0.033327766f, -0.12998956f, -0.07647714f, 0.02248653f, -0.071453251f, 0.019422418f, -0.011969122f, -0.0073917387f, -0.11496168f, -0.075052328f, 0.068298191f, -0.015394707f, -0.12587456f, 0.13439877f, 0.039575186f, -0.005062053f, 0.026923073f, -0.09378165f, -0.013148573f, 0.0070715183f, -0.079773366f, -0.11036661f, 0.062200755f, 0.049023494f, 0.14374653f, 0.0013003232f, 0.097033314f, -0.041740119f, 0.021897316f, -0.057112381f, -0.089253597f, -0.040650811f, -0.069096193f, 0.090053096f, -0.14410546f, -0.038375914f, -0.064369112f, -0.047554873f, 0.11189947f, 0.0079962425f, 0.040867817f, -0.087988339f, -0.04083297f, 0.11582193f, 0.14995207f, 0.1132044f, 0.041194975f, 0.10749147f, 0.1560996f, 0.055388227f, 0.14480545f, -0.095264867f, 0.10377837f, -0.092743672f, 0.11360723f, -0.090260066f, -0.11038297f, -0.099659674f, -0.0055706096f, -0.069410942f, 0.094424121f, 0.0023311675f, 0.071716934f, 0.068332002f, -0.058967236f, -0.013830153f, -0.08768139f, 0.085765474f, -0.064077206f, -0.039878618f, 0.11040922f, -0.15537833f, -0.060145594f, -0.01819524f, 0.12302297f, -0.10929245f, -0.085891545f, 0.0092570856f, -0.11168981f, -0.13067625f, 0.057343822f, 0.13631365f, 0.059149176f, 0.13129424f, 0.091359146f, 0.025982277f, -0.083481759f, -0.079471312f, -0.021645147f, 0.057797838f, 0.10002359f, -0.077518664f, -0.036580995f, 0.085798949f, -0.12632336f, 0.099409103f, 0.14404142f, -0.080416426f, 0.10285281f, 0.12513702f, 0.056188315f, 0.089853108f, 0.11388768f, -0.11070618f, -0.066752732f, -0.12748773f, 0.10614291f, 0.042351525f, -0.10355055f, -0.026281543f, -0.086281396f, 0.14259632f, -0.14170918f, -0.098831862f, -0.04850129f, 0.041170552f, -0.082779966f, -0.10212653f, -0.01916796f, 0.14969932f, 0.03699135f, -0.043151725f, -0.045164488f, -0.094615422f, -0.068806261f, -0.037898771f, 0.0046070009f, 0.039558873f, -0.0056566074f, -0.15094627f, -0.13160704f, 0.051007103f, -0.15751542f, -0.097364448f, 0.10389476f, 0.016516838f, 0.065685622f, -0.058733031f, -0.1063671f, -0.00029923054f, 0.14104173f, -0.087653883f, -0.058186021f, 0.027921233f, -0.15415445f, 0.022815127f, 0.10999573f, -0.095023662f, 0.13260548f, -0.14249426f, -0.040211316f, -0.060977545f, 0.1245243f, -0.11261565f, -0.0075496882f, 0.15552846f, -0.050473481f, -0.10269073f, -0.15009882f, -0.12385513f, 0.072034776f, 0.097634472f, 0.067085057f, -0.14363101f, 0.071391918f, -0.04185345f, -0.1471753f, -0.070568629f, -0.14292999f, 0.13775067f, -0.10849576f, -0.11846638f, -0.078251861f, -0.15804327f, 0.027841825f, 0.030421237f, 0.050265316f, -0.00062511157f, 0.071750484f, -0.091411218f, 0.10960174f, -0.1026506f, -0.012911844f, -0.12110819f, -0.021335069f, -0.078739323f, 0.011683972f, 0.093217775f, 0.043094218f, -0.070724815f, 0.13390137f, -0.068951122f, 0.08982648f, -0.11615339f, 0.12267074f, 0.028990099f, -0.072017945f, 0.060601797f, 0.050072063f, 0.11137378f, -0.10929552f, -0.14062726f, -0.011174769f, 0.0021058933f, -0.019980386f, -0.026363058f, 0.14257267f, -0.093897328f, -0.094801202f, -0.11439329f, -0.019577995f, -0.10399559f, 0.075946614f, -0.024549298f, 0.060458515f, 0.042032465f, 0.0073025771f, 0.13837546f, -0.12914209f, -0.1137325f, 0.052314233f, -0.095971078f, -0.025412112f, 0.086627446f, -0.14401874f, -0.034257591f, -0.037675399f, 0.044259805f, -0.13456322f, -0.060915578f, 0.06445118f, -0.058540341f, 0.075270385f, 0.0028967406f, 0.11915255f, -0.14702073f, 0.11019541f, -0.045406327f, 0.11751021f, -0.091000609f, 0.12555358f, 0.07272613f, -0.041729484f, -0.03450834f, 0.091411963f, -0.1380325f, 0.093239799f, 0.080388308f, 0.10189271f, -0.13428287f, -0.061292749f, -0.097497679f, 0.045474838f, 0.14522587f, -0.0061843167f, 0.028401276f, 0.12744161f, 0.080014348f, 0.13533731f, 0.14432511f, -0.14221433f, -0.09078408f, -0.13902988f, 0.12030517f, -0.082865231f, -0.014550478f, 0.13533671f, 0.087940559f, 0.11251392f, -0.026441099f, -0.096525848f, -0.096114457f, -0.019249188f, 0.013441999f, -0.10934018f, -0.077640414f, 0.080516376f, -0.035531562f, -0.11022782f, 0.036071856f, 0.039340705f, -0.061398067f, 0.02218568f, -0.022177676f, -0.018510569f, 0.1271053f, 0.0068211439f, 0.068543717f, -0.051670287f, -0.028268931f, 0.10895104f, 0.10249861f, 0.090905212f, 0.042240664f, 0.037482839f, -0.15344726f, -0.11266973f, -0.062868461f, -0.15522039f, 0.15844439f, -0.033134196f, 0.0116667f, -0.081201367f, -0.024589965f, -0.083220646f, 0.05419524f, 0.059651639f, -0.040465102f, 0.081847161f, 0.13404667f, -0.077958226f, -0.11047852f, -0.12020764f, -0.089055665f, -0.066256315f, -0.10729877f, 0.09290731f, -0.13975725f, -0.1004748f, 0.088866293f, 0.13807841f, -0.066354103f, -0.15103926f, 0.12763274f, -0.059190758f, 0.032810379f, 0.020486221f, -0.13011107f, -0.094928607f, -0.019631967f, -0.012956891f, -0.019065168f, 0.15465294f, -0.069657817f, -0.042326391f};
static const int net_0_bias_len = 128;
static const float net_0_bias[] = {0.056905475f, -0.12012231f, 0.023008754f, -0.12963344f, -0.13373806f, 0.061628472f, 0.094641685f, 0.10102743f, -0.1526894f, 0.031516295f, 0.15745188f, 0.0022896649f, 0.090838738f, 0.13162912f, -0.060166512f, 0.054844536f, -0.14213306f, 0.14315434f, -0.075973406f, -0.079171948f, -0.088903226f, -0.084572285f, 0.12972115f, 0.13304017f, 0.076468334f, -0.0069371061f, 0.00018092767f, 0.023426106f, -0.14009288f, 0.059273332f, -0.016200498f, -0.035830211f, 0.078506388f, -0.095357418f, -0.017369408f, -0.042673372f, 0.12778309f, 0.0080341315f, -0.11297041f, 0.012090249f, -0.002294977f, -0.14551106f, 0.15168776f, 0.025872193f, -0.039863933f, 0.059779268f, 0.052311428f, -0.1124835f, -0.097249158f, 0.010820749f, -0.15739708f, -0.054843441f, -0.043979663f, 0.14060709f, -0.030381497f, -0.11503261f, -0.028150607f, -0.087626137f, 0.0089981565f, -0.15035561f, 0.11366468f, -0.019747393f, -0.028233847f, -0.10696349f, 0.11713894f, 0.14575259f, 0.082008757f, 0.036748808f, -0.02629366f, 0.0471601f, -0.033773299f, 0.02974808f, 0.022018798f, 0.13111649f, -0.017714672f, 0.14610957f, -0.12372663f, -0.14364883f, 0.068642385f, -0.14523245f, -0.018738803f, -0.079474919f, -0.042818382f, -0.12951191f, -0.087308683f, 0.148908f, 0.052978165f, 0.1092886f, 0.0069343145f, -0.014558685f, 0.0076910406f, 0.10301981f, 0.1384089f, 0.15725304f, 0.061124865f, 0.15192561f, -0.050105248f, -0.0069099371f, -0.053621162f, 0.015141279f, 0.039928094f, 0.10475601f, -0.14746024f, 0.10612175f, -0.079120681f, 0.032595661f, -0.054824807f, -0.11262745f, -0.042113088f, 0.0041045332f, -0.11053261f, -0.042094041f, 0.026206903f, 0.079639226f, -0.055061247f, -0.11152092f, 0.13871409f, 0.0021964316f, -0.11727726f, 0.095124923f, -0.0096734017f, 0.10220893f, 0.13038224f, 0.10231085f, -0.06808152f, -0.036599409f, 0.10238978f, -0.055479061f};
static const int net_2_weight_len = 16384;
static const float net_2_weight[] = {-0.021398405f, 0.064431466f, 0.075529002f, -0.055326328f, 0.039009042f, 0.060822472f, 0.086176895f, -0.035854228f, -0.08169847f, 0.027617343f, -0.046138678f, -0.015620158f, 0.066732094f, 0.014964408f, 0.085967004f, -0.011156274f, 0.072984353f, 0.015575892f, 0.056423493f, -0.066799425f, -0.010239821f, 0.081001103f, 0.076304659f, -0.083458036f, -0.011645294f, -0.088706009f, 0.031421665f, 0.015479356f, 0.0044447472f, -0.081807882f, -0.084121056f, 0.016218549f, 0.063033074f, -0.01240997f, -0.064309746f, 0.061900929f, 0.0001646829f, -0.045194022f, 0.058997795f, 0.060381103f, -0.0014814527f, -0.044386856f, -0.021606261f, 0.082993872f, -0.018084768f, -0.045369051f, -0.075331643f, 0.01254519f, 0.004028793f, 0.01546551f, -0.054776795f, -0.032818098f, 0.018432632f, 0.054350372f, -0.074280247f, -0.071756586f, 0.039189603f, -0.007356124f, 0.01523266f, -0.028798729f, 0.020146837f, 0.060607862f, 0.030957973f, -0.086018018f, -0.027353905f, -0.079369612f, 0.077732913f, -0.0057607731f, 0.010581571f, 0.049315024f, 0.030748753f, -0.053204864f, -0.026502125f, -0.054079093f, 0.019712046f, -0.050404262f, 0.039973289f, 0.081782579f, -0.078822903f, -0.047309216f, 0.048254982f, 0.071748145f, -0.013067733f, -0.066479251f, 0.030256346f, 0.01407591f, -0.017088249f, 0.065449938f, -0.079630323f, -0.059935f, 0.070122913f, -0.050818522f, 0.041631196f, 0.072528332f, 0.0069810781f, 0.076026179f, 0.080077358f, -0.0062551768f, -0.031584911f, 0.073477715f, 0.04970748f, 0.016773771f, -0.07596045f, -0.049177669f, -0.041013796f, -0.08369039f, -0.027689548f, 0.062932275f, 0.030640038f, -0.015872449f, -0.041981235f, -0.021541476f, -0.070358522f, 0.087152518f, -0.041147105f, -0.086842813f, 0.071155436f, 0.044334736f, 0.055958264f, -0.062100191f, -0.032559097f, 0.016740074f, -0.000576169f, -0.041380912f, 0.0039247219f, -0.025863064f, -0.027540786f, 0.017003132f, 0.039702982f, -0.054408029f, 0.030508894f, 0.05515812f, -0.081003197f, 0.032319155f, -0.044899907f, -0.076114424f, -0.0071962187f, -0.012012458f, -0.01384009f, -0.012666808f, -0.021533305f, -0.044065233f, -0.0037707132f, -0.071242228f, 0.034290671f, 0.011378511f, 0.086156569f, -0.0098048486f, -0.0186611f, -0.085000619f, -0.077140324f, 0.062158614f, 0.009597104f, -0.014503561f, 0.022975981f, -0.0065834709f, 0.012865293f, -0.043016374f, -0.0067440462f, -0.086935006f, -0.083829671f, 0.0043246569f, -0.052215129f, -0.025716126f, 0.0079989228f, 0.035229385f, -0.048008617f, -0.029213348f, -0.044091471f, -0.056772903f, -0.063407183f, 0.042360432f, -0.043385409f, -0.057341684f, 0.08797697f, 0.076320708f, -0.039119586f, -0.016358932f, -0.027882814f, 0.065777138f, -0.076208226f, -0.059587304f, 0.027224381f, 0.019741328f, 0.0059432983f, -0.030753443f, 0.033085804f, -0.083177984f, 0.0095804213f, 0.0066528344f, 0.057573002f, -0.03771098f, 0.073323108f, 0.024449868f, -0.068842113f, 0.085543551f, 0.02078574f, 0.066818066f, -0.087733321f, 0.069230869f, 0.087890245f, -0.068427093f, -0.073472306f, 0.073168747f, -0.081742048f, -0.037639029f, 0.073332086f, -0.033931233f, -0.057361923f, -0.06325224f, -0.015468221f, -0.029058088f, -0.020939065f, -0.083693884f, -0.02592916f, -0.00042404339f, 0.0085696392f, -0.057405628f, -0.074780859f, -0.072734557f, 0.057408057f, -0.0028880837f, 0.087830365f, 0.087907143f, -0.087470204f, -0.052885771f, -0.067595258f, 0.0081992522f, 0.016381741f, -0.084686875f, -0.072806917f, -0.025193188f, 0.066212341f, -0.0097312275f, -0.025531754f, 0.050952069f, -0.035342876f, 0.006938762f, -0.01584392f, 0.026083061f, 0.071706802f, 0.002147791f, -0.027639799f, 0.015383658f, -0.0537326f, -0.0024654719f, -0.045719307f, -0.025333375f, 0.030563012f, 0.052306917f, -0.016376648f, 0.062345609f, -0.035949152f, 0.050360914f, 0.044012584f, 0.043462366f, 0.013744405f, 0.084027015f, 0.074179441f, -0.01975196f, 0.013844542f, 0.049898561f, 0.080373898f, 0.051097926f, 0.025829639f, 0.036974393f, 0.070673242f, 0.053165153f, 0.0078726588f, 0.069232196f, -0.0722498f, -0.086088009f, 0.016983543f, -0.043291647f, 0.070496365f, 0.054944959f, -0.064855747f, -0.052763805f, -0.080591753f, -0.037591808f, 0.018359855f, -0.056604855f, 0.06338159f, -0.083176352f, 0.0052521997f, -0.028268987f, -0.078456178f, -0.0027571616f, 0.058819875f, 0.010126531f, -0.028832458f, -0.057539511f, -0.044785228f, 0.055547353f, -0.027309168f, 0.0065072882f, 0.085882708f, -0.027939318f, -0.065545253f, -0.085592426f, -0.024695504f, -0.034274522f, 0.032109566f, 0.057093728f, -0.017306298f, -0.083220124f, -0.032340609f, 0.020799914f, -0.011919022f, -0.0031723771f, -0.078452304f, -0.034189314f, -0.084907897f, -0.035011727f, 0.0051732063f, 0.079177268f, -0.0016261456f, -0.017536141f, 0.010958244f, -0.08130613f, -0.079839945f, 0.00085059693f, -0.060802665f, 0.052971102f, 0.053788032f, -0.062734902f, 0.042342361f, 0.063222721f, -0.078326821f, -0.04973866f, 0.053138103f, 0.019562114f, 0.067596957f, 0.08391764f, -0.04297509f, 0.054897953f, 0.084649563f, -0.068982169f, 0.025426423f, 0.035734974f, -0.015124796f, 0.029461328f, 0.010708429f, -0.025856942f, -0.04411301f, 0.053738277f, -0.028292969f, -0.053992897f, 0.014799651f, -0.018839618f, -0.075231694f, 0.066967689f, 0.069680996f, 0.031682447f, 0.073076665f, 0.042823847f, 0.027547941f, 0.088206731f, -0.083582014f, -0.06374234f, 0.062925287f, 0.01327253f, -0.060645934f, -0.056065507f, -0.02345619f, 0.019266402f, -0.020294301f, 0.027739121f, -0.064543523f, -0.074223652f, 0.086528778f, 0.072547756f, 0.011438878f, 0.082313463f, 0.024032934f, -0.075084351f, -0.022931254f, -0.041377366f, -0.04970675f, -0.077154413f, -0.013415934f, 0.057872485f, -0.018973386f, -0.059544783f, -0.040096186f, 0.03902825f, 0.022894211f, -0.037145104f, -0.029194795f, 0.0061902809f, 0.05169712f, -0.048772413f, 0.03778943f, -0.015444227f, -0.047426131f, 0.034379669f, -0.087053023f, 0.043369628f, 0.058982819f, -0.02769425f, 0.045933694f, 0.084532157f, 0.062379856f, 0.042750616f, -0.022132436f, 0.037191983f, -0.059439663f, 0.051366258f, 0.061176855f, -0.065557115f, 0.070840508f, 0.026161011f, 0.087631799f, -0.018079722f, -0.041221756f, 0.07045868f, 0.020380631f, 0.034824178f, 0.056175288f, 0.055317935f, -0.080177799f, -0.0083052926f, 0.071930781f, 0.0056415428f, 0.086270928f, -0.0053012534f, 0.062896162f, 0.026198206f, -0.035769895f, 0.070930101f, -0.07535632f, -0.075222895f, -0.077109031f, -0.022956345f, -0.032165688f, 0.015073815f, -0.013886124f, 0.058297075f, 0.053415369f, -0.029240211f, -0.074280061f, 0.00061540946f, 0.049431574f, -0.079128079f, -0.015058269f, 0.07517311f, 0.068373144f, -0.017553831f, 0.0042421669f, 0.033230595f, -0.075070865f, 0.011831119f, 0.068455793f, 0.028799055f, -0.032279775f, -0.081455849f, -0.016963255f, 0.033866003f, 0.065123975f, 0.051372267f, -0.065710552f, -0.013175972f, -0.054903451f, -0.085210048f, -0.060111668f, -0.074523367f, -0.086258717f, 0.068850882f, -0.044140298f, 0.028479839f, 0.056054343f, -0.031818554f, 0.039235346f, 0.030450059f, -0.026478043f, -0.023202453f, 0.050757952f, 0.041240148f, -0.085851714f, 0.065118246f, 0.067420587f, 0.012347766f, 0.084396429f, 0.043978438f, 0.04081716f, 0.039062161f, -0.086851679f, 0.05795515f, 0.059375096f, -0.012891976f, -0.046395306f, -0.030528743f, 0.054258127f, -0.055485219f, -0.034272168f, -0.020876842f, 0.015985779f, -0.05338366f, -0.031922974f, 0.018620662f, -0.045217261f, -0.065216132f, 0.005307287f, -0.017165927f, -0.086239271f, -0.05645854f, -0.047736123f, -0.019896386f, -0.080241874f, -0.015108151f, 0.079694211f, 0.066392437f, -0.039049819f, -0.040831793f, -0.0052338885f, -0.032757111f, -0.02483321f, -0.076933146f, 0.046724711f, -0.073087633f, -0.067487113f, 0.053485665f, -0.02311974f, -0.071459338f, 0.083055809f, 0.080248564f, 0.011806597f, -0.055103537f, -0.027456494f, -0.043842953f, -0.028886821f, -0.0051290942f, -0.059115775f, -0.055674035f, -0.032828581f, -0.035080478f, 0.0013005271f, 0.040653646f, 0.053457718f, -0.069024824f, -0.085144579f, -0.078763373f, 0.074841999f, 0.077107295f, -0.066980422f, -0.054494079f, 0.048850749f, -0.074046798f, -0.06623815f, 0.023804406f, 0.034639217f, -0.049177043f, -0.068751566f, -0.070819631f, 0.019951945f, 0.020931678f, 0.0087080933f, 0.009902115f, 0.031446867f, 0.035168234f, 0.042077385f, 0.0020056828f, 0.082932249f, 0.073412754f, -0.007215187f, -0.036303509f, -0.062761448f, 0.056512583f, -0.072241992f, -0.023851048f, 0.07427714f, 0.0072726896f, 0.0047528786f, -0.018560495f, -0.07026349f, -0.065716311f, 0.0018983036f, 0.039652847f, -0.031882219f, -0.010155222f, 0.036926646f, 0.059036121f, -0.024639394f, -0.0037455829f, 0.042633329f, 0.077593498f, 0.010879355f, -0.054962236f, 0.029236091f, -0.022522291f, -0.010168697f, 0.026661394f, -0.0010712674f, -0.00048159808f, 0.052932519f, -0.044274524f, -0.05573367f, 0.062950648f, -0.0012530602f, 0.012239995f, 0.019834196f, -0.052817188f, -0.038555976f, 0.012647713f, -0.064741515f, -0.031556766f, -0.046626233f, 0.066373572f, 0.061115965f, 0.060790006f, -0.069718644f, -0.055592913f, 0.083882593f, -0.079140134f, -0.079743631f, -0.069396406f, 0.076416321f, 0.048918087f, 0.070197791f, -0.058266394f, 0.049927659f, 0.022944065f, 0.001891762f, -0.086349718f, 0.0713754f, 0.033309616f, -0.0049844873f, 0.038392909f, 0.028684173f, 0.058504216f, -0.014271372f, -0.069936916f, -0.040004883f, -0.071733803f, 0.059026059f, -0.082334407f, 0.072220065f, -0.030080233f, 0.082530081f, -0.036540799f, 0.064603649f, -0.041761562f, 0.056826856f, 0.00206428f, -0.00085488707f, -0.020257011f, -0.051355861f, 0.021679379f, 0.072191291f, 0.040929444f, -0.083196424f, 0.050907295f, -0.061138313f, 0.012048604f, 0.071416683f, -0.037773095f, -0.069000788f, 0.065986745f, 0.0059246593f, 0.082872637f, 0.02686082f, 0.039875366f, 0.010841507f, -0.031255864f, -0.027055094f, -0.0049125175f, -0.053917211f, -0.0026255788f, 0.082994379f, 0.019784961f, -0.042298928f, -0.049082302f, -0.036459573f, -0.086750671f, -0.010018915f, 0.033989608f, -0.045416683f, -0.034127183f, -0.016459055f, -0.029930247f, 0.037927411f, 0.019393293f, -0.032029621f, 0.04108217f, -0.085423663f, -0.029133139f, 0.083137475f, -0.082375228f, -0.061680637f, -0.050444447f, -0.037074853f, -0.043273564f, 0.084520772f, -0.070175067f, 0.003332247f, -0.079759151f, 0.060459912f, -0.066543683f, 0.034797601f, -0.040273622f, 0.063829318f, 0.0025976643f, 0.065182477f, 0.083570398f, -0.014554694f, -0.0075834673f, 0.037058361f, -0.068851568f, -0.047566403f, 0.041392449f, -0.029801769f, 0.029578548f, 0.052665927f, -0.00036631685f, -0.034205783f, -0.03331482f, -0.01587764f, 0.066796049f, -0.032729995f, -0.074870251f, -0.061890174f, -0.08094392f, -0.033090122f, 0.0029633585f, 0.064282745f, -0.087602884f, 0.059478365f, -0.057172175f, -0.019764956f, -0.028136155f, -0.017897617f, -0.013896944f, 0.054974977f, -0.066858843f, -0.028050652f, 0.073653497f, 0.087242484f, 0.071758822f, -0.017930888f, -0.060643394f, 0.039598312f, 0.037568089f, -0.058620457f, 0.080425136f, 0.033994123f, -0.014016735f, -0.050762422f, -0.044480592f, -0.027570732f, -0.083783515f, 0.087470092f, -0.072414421f, 0.073211692f, -0.05193549f, -0.032363649f, 0.027762113f, 0.028367296f, -0.080967233f, 0.051163081f, 0.066339821f, -0.069173656f, 0.027995855f, 0.041434087f, -0.032165408f, -0.006015949f, 0.037809424f, -0.079674214f, -0.071141094f, 0.036446929f, -0.055524532f, -0.042409308f, -0.029560186f, -0.014709815f, 0.064181469f, -0.055189341f, 0.050100215f, -0.014550782f, 0.044686615f, -0.064192928f, 0.051687658f, 0.06195502f, 0.051630568f, -0.025606895f, 0.043550856f, 0.0090542585f, -0.082568996f, -0.073247813f, 0.048109945f, 0.077659711f, -0.06924662f, 0.059032261f, 0.04832238f, -0.069005176f, -0.026024342f, 0.009402086f, 0.048711162f, 0.046137426f, 0.00096378988f, -0.08527609f, -0.027323307f, -0.070721768f, -0.042181395f, -0.010639943f, 0.045291305f, -0.063114539f, 0.047777332f, -0.044951424f, -0.086958647f, 0.07480491f, -0.057106715f, -0.017911034f, -0.075726271f, -0.026432879f, -0.01306345f, 0.0012338348f, -0.018049289f, -0.029727813f, 0.015727255f, 0.0069809393f, 0.054723408f, -0.0012891717f, 0.034622509f, -0.020144196f, 0.013567227f, 0.017028678f, -0.042103678f, 0.055245254f, -0.0097721824f, 0.056178767f, 0.074686587f, 0.055849254f, 0.017282078f, 0.073241375f, -0.037364479f, 0.0089655761f, 0.010743689f, -0.035739291f, -0.028652638f, 0.034196239f, 0.086079381f, 0.054264572f, 0.025131896f, -0.013891865f, 0.025132366f, 0.07198897f, -0.0008338606f, 0.056926355f, -0.070313439f, 0.079792529f, -0.055118408f, 0.020837046f, -0.026587952f, 0.040736537f, 0.031788059f, 0.019273818f, -0.0037247261f, 0.0040868139f, 0.059387434f, -0.02261829f, 0.030884268f, -0.04597858f, 0.016065216f, 0.02719081f, -0.055562049f, 0.010127074f, -0.064100564f, 0.068906084f, -0.025288898f, -0.022979401f, -0.062861532f, 0.077180967f, -0.051237073f, -0.087988771f, 0.069602109f, -0.079501323f, -0.073906414f, -0.010307407f, 0.037689812f, -0.056357738f, 0.0072740763f, -0.018753905f, -0.043031771f, -0.05872675f, 0.039479591f, 0.011800052f, -0.0036280439f, -0.068418764f, -0.006339177f, -0.0075995084f, -0.067675605f, -0.087080598f, 0.07804697f, 0.083678983f, -0.013115576f, 0.081172317f, 0.06855654f, -0.044177976f, -0.032174252f, 0.057665467f, 0.045121856f, -0.0073266998f, -0.028473526f, 0.023542864f, -0.067973793f, -0.032483608f, 0.079569869f, 0.032716028f, -0.05069742f, -0.062011607f, -0.08422707f, -0.057515219f, -0.014265043f, -0.041495353f, 0.041036546f, 0.030455802f, 0.0075393561f, 0.076802567f, 0.045776699f, 0.024015293f, -0.0876588f, -0.076801628f, 0.065183699f, 0.042955078f, -0.052750234f, -0.012381668f, -0.020694064f, -0.021104924f, 0.051011972f, -0.062529914f, 0.0065308153f, -0.079955749f, -0.030695591f, 0.081437461f, -0.012363361f, -0.023474237f, -0.0061667506f, 0.037729468f, -0.0359242f, -0.017349372f, -0.085476846f, -0.011233084f, -0.033301715f, -0.0036633313f, -0.050523411f, -0.040961865f, -0.016188469f, 0.031104153f, -0.086775601f, 0.083826862f, -0.056810662f, 0.023133876f, 0.073385827f, -0.0092921034f, -0.061408602f, -0.0086031016f, 0.0069148499f, 0.054559596f, -0.016301801f, -0.011427343f, -0.054617491f, 0.052247621f, -0.083136261f, 0.071809672f, 0.025593935f, -0.077313408f, 0.060620852f, -0.072177395f, -0.0038287817f, 0.085819863f, 0.066313833f, -0.0081911255f, 0.022755185f, 0.018090175f, -0.029550998f, -0.03528836f, 0.012025525f, -0.011133649f, 0.0006350468f, 0.065334894f, -0.071911253f, 0.040762633f, -0.086475469f, -0.055592082f, -0.055101518f, 0.018580388f, -0.0015437161f, -0.058789447f, 0.036308918f, 0.027411148f, -0.066224284f, -0.020510068f, 0.0096496344f, 0.048104208f, -0.060359243f, -0.058696408f, -0.039810367f, -0.051836655f, -0.047276173f, -0.01531825f, 0.06408681f, 0.07029888f, 0.015585687f, 0.070047505f, -0.023320809f, 0.05272799f, -0.074165478f, -0.010017976f, 0.024189061f, 0.020045033f, 0.046079677f, 0.032474913f, -0.024838902f, 0.0024570522f, -0.068438224f, 0.080148369f, 0.03081964f, -0.047136709f, 0.026811248f, -0.079406112f, -0.028356275f, 0.02740678f, -0.079768576f, -0.06593471f, -0.055921018f, -0.047985818f, -0.08544486f, 0.025252096f, 0.047268916f, 0.076839872f, 0.062560737f, 0.022786401f, 0.037022728f, 0.017287254f, -0.069007494f, 0.074072942f, -0.037225183f, -0.029238543f, 0.031589217f, 0.045255203f, -0.05864289f, -0.024600288f, 0.029585361f, -0.058848247f, 0.063810721f, -0.047532909f, -0.054104913f, -0.040901836f, 0.07594309f, -0.032199208f, -0.068983793f, -0.041687652f, 0.073293209f, -0.035557646f, -0.054732408f, 0.019914074f, -0.020102683f, -0.0029934149f, -0.047943417f, 0.031716943f, -0.03418814f, 0.0385102f, 0.023695817f, 0.068064705f, -0.085772559f, -0.079374701f, 0.074498847f, -0.010873673f, -0.028465278f, -0.074012503f, -0.022917517f, -0.06914001f, 0.022321457f, -0.055911031f, 0.084768042f, -0.016576124f, -0.014207665f, 0.069537617f, -0.015059873f, -0.059229296f, -0.0065163011f, -0.047964159f, 0.069424495f, -0.013450304f, -0.0077692787f, -0.0080507295f, -0.027172288f, 0.07444492f, 0.032884471f, -0.068112001f, -0.047142282f, 0.083101608f, 0.0080570932f, -0.0068617547f, 0.033145037f, 0.078017361f, 0.043029714f, -0.018532434f, -0.021355126f, -0.02521077f, 0.052460831f, -0.059341166f, 0.086716436f, -0.064248398f, 0.063644402f, 0.017447373f, 0.052297007f, 0.01351627f, -0.014221676f, 0.080117404f, 0.0064763278f, 0.087688118f, -0.03222762f, 0.020636903f, 0.027813822f, -0.08773604f, -0.040977027f, -0.012056939f, -0.074052975f, -0.001447211f, -0.042572524f, -0.018598396f, 0.0016508005f, 0.0076625366f, -0.048930418f, -0.06382636f, -0.034925941f, 0.0026094541f, 0.062198538f, -0.031898949f, -0.045690052f, -0.032416776f, 0.051181249f, -0.056084927f, -0.075494952f, 0.043695845f, 0.014265504f, 0.054866668f, -0.036095656f, 0.069331139f, 0.018188259f, 0.030497622f, -0.026443351f, -0.071473666f, 0.068897128f, -0.030993426f, -0.077192977f, -0.0056111054f, -0.050422698f, 0.085999109f, -0.0069063934f, 0.062811896f, 0.072419733f, -0.037695322f, -0.019590393f, 0.0035218345f, 0.024063298f, -0.036431629f, -0.020322483f, -0.047058672f, -0.016823567f, -0.020155074f, -0.083767623f, 0.078956373f, -0.037350304f, 0.085989378f, 0.033662874f, -0.042619236f, -0.072100922f, -0.0061136857f, 0.064898692f, -0.036516283f, -0.047879182f, -0.074446641f, 0.034781255f, -0.043969288f, 0.062690876f, 0.078211628f, -0.084382534f, -0.08723285f, 0.050582845f, -0.02007057f, 0.086024798f, -0.070574537f, 0.078940444f, -0.020322101f, 0.013723247f, -0.069644302f, -0.057880536f, -0.030479396f, 0.023096465f, -0.037170041f, -0.045565877f, 0.010333081f, -0.030881746f, 0.0069194268f, -0.074063316f, 0.080318861f, -0.048525903f, -0.0094596297f, 0.054527324f, -0.072228938f, -0.076326057f, 0.073676132f, 0.043633737f, 0.044109963f, -0.067606367f, -0.026074473f, 0.084819399f, 0.010665268f, -0.043465808f, 0.043820836f, 0.0062515475f, 0.044958107f, -0.015745129f, 0.078609623f, 0.075840108f, 0.082409136f, -0.017347917f, 0.026513413f, -0.076970465f, -0.05948608f, -0.0070427917f, 0.062977798f, -0.06860847f, -0.0031806526f, -0.087383844f, 0.077254914f, 0.044966802f, 0.08675348f, -0.079340704f, 0.066961244f, -0.042926908f, 0.022530146f, 0.050100401f, -0.080579266f, -0.072984427f, 0.038275287f, -0.024919007f, -0.016335897f, -0.051912796f, -0.088224374f, 0.051090356f, 0.011691943f, -0.015559223f, -0.025386833f, -0.015884236f, 0.087675855f, -0.027117271f, 0.022574442f, 0.082599632f, -0.052632887f, -0.047248736f, -0.013541564f, 0.079273574f, 0.0090506971f, 0.013560689f, 0.030474184f, 0.069771878f, 0.069657929f, -0.087470673f, -0.077416256f, -0.078853458f, -0.036187485f, -0.052219614f, 0.079362474f, -0.075910233f, 0.065616012f, -0.017999023f, -0.084854811f, 0.055052802f, 0.059729733f, 0.040336043f, -0.036796041f, 0.042900018f, 0.043322206f, 0.011468289f, -0.0647007f, -0.03868008f, -0.077137545f, 0.041861616f, 0.018215353f, 0.071410872f, -0.052819204f, -0.065387651f, 0.076863192f, -0.023587706f, 0.041161519f, -0.059644155f, -0.086359441f, 0.038112469f, -0.0098071322f, 0.036102667f, -0.003380277f, 0.029959965f, 0.047879539f, 0.021618312f, 0.087361597f, 0.075301863f, -0.038289808f, -0.028234905f, -0.072860956f, -0.034038719f, 0.051237185f, -0.033790693f, -0.0041577369f, -0.029923609f, -0.064568348f, -0.063431494f, -0.042062499f, -0.062853925f, 0.035738442f, -0.07692644f, -0.052333239f, -0.047465198f, 0.011553175f, 0.02230031f, -0.056770243f, -0.0022760173f, 0.082831547f, -0.022186382f, -0.02400874f, -0.058375701f, 0.049687751f, 0.0031989866f, -0.077010952f, -0.04236735f, 0.026754029f, 0.055104956f, -0.021007566f, -0.072539575f, 0.021614574f, 0.042389017f, -0.064180762f, 0.030461634f, -0.059544545f, 0.0048482567f, -0.051423561f, 0.0041858554f, 0.010169131f, -0.013786436f, -0.069270045f, 0.0028862883f, 0.071449831f, -0.046954066f, -0.021238312f, 0.013131641f, 0.00042947382f, 0.028296655f, 0.045692958f, 0.058418661f, -0.058541946f, -0.029869897f, -0.046475161f, 0.049863458f, 0.039020635f, 0.029593563f, -0.023406781f, -0.087607682f, -0.019509323f, -0.015011131f, 0.084923223f, -0.059299465f, -0.038790442f, -0.0033938682f, 0.047776014f, -0.046004541f, 0.013015777f, 0.064588211f, -0.017906459f, -0.050263576f, -0.045539573f, -0.018181728f, -0.065628804f, -0.0098863794f, -0.04747301f, 0.037552737f, 0.08569961f, -0.034792412f, 0.032835849f, -0.026610147f, -0.085904881f, -0.042989556f, 0.030207429f, 0.065462321f, -0.014820934f, -0.086149812f, 0.0075102001f, 0.07765884f, -0.067986265f, 0.0677457f, -0.083841801f, -0.059149642f, -0.06133841f, 0.026244078f, -0.0085719051f, -0.036049407f, 0.042781588f, 0.02860773f, 0.038826887f, -0.081679076f, -0.082433879f, 0.086060986f, 0.013415335f, -0.03149439f, -0.049158715f, 0.038394928f, 0.040386647f, -0.058087293f, -0.035000224f, -0.071626186f, -0.047117956f, -0.054300841f, 0.032767765f, -0.01531098f, 0.00070930377f, 0.061797764f, -0.039147358f, 0.02440862f, -0.012846968f, -0.067808509f, 0.031530987f, 0.073913917f, 0.068886936f, 0.020700738f, -0.085580848f, 0.035329066f, 0.025867378f, 0.062133841f, 0.047796618f, 0.016512036f, -0.045896795f, 0.0052899853f, -0.025956199f, 0.045842346f, -0.0045224051f, -0.056436174f, -0.020029126f, -0.056642696f, -0.059616338f, 0.087828487f, -0.026627205f, -0.087817013f, -0.086759992f, 0.046089061f, -0.052243993f, -0.070255652f, 0.034309138f, 0.043977737f, -0.0084414864f, -0.018114163f, 0.030619752f, 0.078113571f, -0.08283513f, -0.061302103f, -0.055955652f, 0.088335589f, 0.040825646f, -0.043498989f, 0.0068365266f, 0.04102204f, 0.028932709f, 0.075239956f, 0.015006163f, -0.061237887f, -0.082526572f, -0.04304222f, 0.087410539f, -0.032257013f, -0.037496664f, -0.088450029f, -0.082772382f, -0.047643628f, -0.08319518f, -0.012078606f, 0.034052297f, 0.032160014f, 0.08856307f, -0.0047096228f, -0.012140093f, 0.08751329f, -0.066260062f, 0.02194798f, 0.08398217f, -0.087690383f, 0.011412486f, 0.068737037f, -0.0044270097f, 0.078961506f, 0.047087722f, 0.012344548f, -0.044366632f, -0.008149269f, 0.073912404f, -0.045951199f, 0.037028395f, 0.052559551f, 0.056090549f, -0.006309377f, -0.0047170985f, 0.050466321f, 0.056570753f, 0.016803278f, -0.051422272f, 0.020301798f, -0.03996861f, 0.062952161f, 0.013099768f, 0.078203224f, -0.083760276f, -0.058560625f, -0.070447691f, 0.082335271f, 0.081827626f, 0.016456407f, 0.077550881f, 0.025711671f, -0.032810021f, -0.012112881f, -0.045282152f, -0.0027548629f, -0.026909312f, 0.074976847f, -0.067483827f, 0.032487314f, -0.026006365f, 0.071055293f, 0.060594264f, -0.0084840795f, -0.072883487f, -0.031918239f, 0.021162149f, 0.054800816f, -0.078689821f, -0.0052086939f, -0.018056657f, 0.055097848f, 0.037104443f, -0.053642325f, 0.073792644f, 0.0065834937f, -0.020009585f, -0.040219259f, 0.016213475f, 0.079951808f, -0.050850004f, -0.052488986f, -0.042533707f, 0.078697152f, -0.025845563f, -0.082658567f, 0.016108492f, 0.035022222f, 0.064014807f, 0.069119357f, -0.075897068f, -0.083902732f, -0.010382354f, -0.080056041f, 0.059487924f, -0.030946393f, 0.0057810443f, -0.001085596f, -0.056833457f, 0.021735186f, -0.002078051f, 0.019418197f, -0.065968648f, -0.012956653f, 0.081537947f, 0.0092166904f, 0.0060074991f, -0.084414862f, 0.033762038f, -0.0058941385f, 0.056990486f, 0.0360853f, -0.045326773f, 0.060750771f, -0.066859804f, 0.072103322f, 0.046305023f, -0.020680271f, 0.060405917f, 0.012732566f, 0.061611049f, 0.024100767f, -0.043108467f, 0.046766467f, -0.0062716869f, 0.062991194f, 0.021048361f, -0.055547949f, -0.079667799f, 0.062475041f, 0.012848696f, 0.078129314f, 0.03142494f, -0.076855771f, -0.04347036f, 0.058289774f, 0.014863916f, -0.076981187f, 0.0032806825f, 0.062133968f, 0.012186075f, -0.057028793f, -0.071381018f, 0.035862986f, 0.062673315f, 0.057518832f, 0.077591531f, -0.017528022f, 0.051729608f, 0.070883952f, -0.046252742f, -0.010888699f, -0.017741947f, -0.025493236f, -0.075332962f, 0.003644865f, 0.083960086f, -0.0081565361f, 0.060007621f, -0.04955988f, -0.071912989f, -0.074630693f, 0.04695804f, 0.025992105f, 0.08145047f, -0.011990876f, 0.033398323f, -0.018350558f, -0.0089366063f, 0.078159265f, -0.064165421f, -0.010501947f, 0.056269925f, -0.072025917f, -0.051273424f, 0.059095312f, -0.015502366f, -0.058489379f, -0.083091557f, 0.084807582f, -0.066810168f, 0.051718667f, -0.01853952f, 0.071488336f, 0.0045390786f, -0.0024466906f, 0.035707135f, 0.0043081115f, 0.038181759f, 0.0035995941f, -0.046758417f, -0.0057915761f, -0.041898739f, -0.074606404f, 0.053942878f, 0.055383336f, 0.056344468f, -0.053637646f, 0.045158975f, 0.022265183f, 0.058012918f, -0.033344131f, 0.076363765f, -0.0088152364f, 0.045189299f, -0.082177639f, 0.055324297f, -0.026693996f, -0.016463012f, -0.084630348f, 0.053154044f, 0.033920776f, -0.020330986f, 0.051441874f, -0.010459311f, 0.00077826751f, 0.0028649657f, -0.045734953f, 0.02045959f, -0.084577277f, 0.024240592f, 0.056947973f, -0.052628804f, -0.074441761f, 0.059839252f, 0.069143638f, 0.04238924f, -0.080416352f, -0.0086068129f, 0.0021393795f, -0.056674536f, 0.03146448f, 0.051964939f, 0.052840285f, 0.02667864f, -0.065598525f, 0.028603289f, 0.011120667f, -0.061018404f, -0.077798896f, -0.049355719f, 0.0021454841f, 0.019220456f, -0.071275346f, 0.0093584815f, -0.057850022f, 0.034906812f, 0.075450532f, 0.040027987f, 0.030218272f, -0.081922546f, -0.0649326f, 0.065255091f, 0.080945455f, 0.047937311f, -0.036751967f, -0.071734808f, -0.043284003f, -0.016381193f, 0.019077253f, -0.037489884f, 0.021285834f, -0.063773789f, -0.023273028f, 0.022512466f, 0.038109157f, 0.022959769f, 0.058545657f, 0.051539466f, -0.084742777f, 0.08751893f, 0.06414701f, -0.012645688f, -0.047772963f, 0.06575416f, 0.045232423f, -0.027122686f, -0.038707592f, -0.019222762f, 0.02466712f, 0.016174363f, -0.011119309f, 0.023491813f, 0.0039103995f, 0.067333527f, -0.017905613f, 0.087417431f, 0.058132861f, -0.064554095f, -0.040497221f, 0.043073852f, 0.032451052f, 0.043538149f, 0.039596561f, 0.010153816f, 0.086688124f, -0.052483752f, -0.068825074f, -0.081955045f, -0.030218977f, -0.03995765f, 0.035817463f, -0.0052228565f, -0.036385655f, 0.068915494f, -0.02750843f, -0.075975217f, 0.036425926f, -0.055906773f, -0.036893405f, 0.087646164f, 